encog,BasicNetwork,java,3.4.0,1,63713992834636
[BASIC]
[BASIC:PARAMS]
[BASIC:NETWORK]
beginTraining=0
connectionLimit=0
contextTargetOffset=0,0,0
contextTargetSize=0,0,0
endTraining=2
hasContext=f
inputCount=630
layerCounts=1,101,631
layerFeedCounts=1,100,630
layerContextCount=0,0,0
layerIndex=0,1,102
output=0.11702842624917,0.000000306999436539,0.999999770834235,0.999999509694222,0.00000054249010311702,0.00000015710581108275,0.00000255521999070751,0.0000002919270238877,0.00000198138601026354,0.00000039141683455535,0.00000076483994826404,0.999999345258081,0.999999881516927,0.999999454397039,0.00000008423507757982,0.999999832306828,0.00000015383393847657,0.00000206060949969888,0.999999917670236,0.00000082355362546194,0.999999826236392,0.00000126672664796379,0.999999824098955,0.999996831454204,0.00000001669478344457,0.99999989850792,0.00000013497470191526,0.0000001005415235511,0.00000009070605699879,0.999999761069618,0.999999755465155,0.999998626439368,0.999997716922316,0.999999730440439,0.00000027991085210788,0.999999860279279,0.00000046351121862909,0.999998861018699,0.999999874865164,0.9999997122218,0.999999658035407,0.999999469536013,0.99999960661706,0.999999873621065,0.00000025361419603298,0.999999902961327,0.00000025514078305644,0.999999621490491,0.999997193881485,0.999993361231455,0.99999984472439,0.00000023821491090814,0.999999294292304,0.999999569649031,0.999999794324035,0.00000023378829155929,0.99999986580253,0.0000001546453782808,0.00000029509575066866,0.00000007344766916884,0.999999714863842,0.999999904022057,0.00000283487675123428,0.999999596629402,0.999999844790688,0.00000003479304122589,0.999999821743227,0.99999902434958,0.00000170774823821107,0.00000416536382302768,0.999999560271509,0.00000012179598857243,0.00000040044191518263,0.999996336280585,0.00000473153553692818,0.999999467941982,0.00000514872175749748,0.999999300000454,0.999997281434011,0.999998167764561,0.999999846633638,0.0000002768479646087,0.00000011050270898316,0.999999887777922,0.00000140185218999722,0.00000028465460177873,0.00000021302646496801,0.00000009966561947961,0.999999322101135,0.999999824905098,0.00000080637512916981,0.999999250224045,0.999999875375702,0.00000054999429227598,0.00000065171109925322,0.00000069694456777958,0.00000002211195393453,0.99999811172254,0.00000012102245339207,0.00000013504365214967,0.999999407142097,1,-769,876,394,-34716,-3304,-6451,-56430,2915,-4375,-89604,14069,6748,-102058,20869,23674,-50265,30516,182,-89338,54876,18814,-118474,69741,35740,-123076,67356,43359,-45762,39935,11106,-78045,64742,31913,-100446,77908,47054,-123560,86621,62163,-32070,37833,20439,-63921,68241,46690,-79541,77023,59721,-101435,87389,77381,-22169,33996,30708,-43089,58549,53767,-57780,70004,67216,-66761,72201,74477,96,1699,-647,-34283,-5141,-5885,-56194,376,-3933,-89635,10577,7100,-102061,17171,24057,-51766,27713,468,-91525,50812,19157,-120566,65707,36184,-124847,63871,43911,-47673,37551,11286,-81063,60523,32400,-103825,72638,47939,-127071,80563,63321,-33825,36313,20506,-67158,64958,46846,-83031,73536,59861,-105170,84317,77425,-23636,33152,30747,-45871,56715,53554,-61102,68001,66660,-69974,70788,73726,808,2059,78,-33924,-4800,-6709,-55866,291,-4166,-89736,9392,7236,-103200,14994,23938,-51899,27438,940,-91868,49929,19829,-120952,65059,36570,-125389,63458,43948,-48004,36857,12252,-81654,58964,33741,-104426,71057,49173,-127874,79071,64367,-34281,35290,21600,-68141,62404,48791,-84130,70381,61958,-106466,80398,79665,-24186,31757,31823,-47022,53719,55544,-62543,63915,69136,-71462,66125,76280,571,953,-461,-33874,-5032,-7114,-55771,-139,-3891,-90138,8334,7597,-105189,13345,23467,-52334,26594,2045,-92874,47870,21309,-122620,62047,37860,-127212,59804,45041,-48619,35570,13718,-82564,56879,35512,-105593,69019,50578,-129422,76918,65582,-34873,33799,23010,-69127,59449,51159,-85221,67103,64423,-107767,76564,82369,-24747,29960,33070,-47747,50674,57799,-63112,60518,71925,-71874,62853,79217,712,2008,-903,-34002,-2855,-8908,-55631,3244,-5981,-90552,13274,3599,-108188,18613,17016,-51311,28772,2508,-91929,49568,22282,-122240,62343,38896,-127211,58845,45677,-47607,36535,14939,-81776,56809,37498,-105488,67130,52749,-129784,73023,67503,-34218,33356,24442,-68444,57949,53569,-84971,64878,66782,-107932,73333,84590,-24526,28280,34396,-47969,47019,60141,-64284,54757,74488,-73708,55107,81394,92,2883,621,-34405,-811,-9479,-55178,7907,-7267,-89169,22292,275,-107282,30116,11746,-50067,31148,3558,-90314,49661,25503,-120808,58585,44026,-125803,54743,50549,-46076,37741,16449,-80605,55027,40723,-105342,60652,57012,-129672,63978,71918,-32861,33314,25788,-67303,55454,56203,-85083,59390,69536,-108415,65529,87128,-23434,27356,35498,-48261,41652,61344,-67365,41580,73909,-75854,34213,76625,27,1284,1032,-34307,-1404,-9644,-53618,10423,-9998,-85484,30023,-6120,-102715,40682,4131,-50594,30382,2960,-91024,47151,25404,-121233,55496,44762,-126072,53560,51323,-46780,37125,15890,-82248,51958,40070,-107595,56446,56322,-132241,61517,71083,-33553,33015,25358,-69465,53751,54747,-88269,57495,66923,-112257,65680,83639,-24039,27212,35214,-49453,43407,59786,-68591,49573,71489,-78789,51151,77064,-700,-512,-76,-33613,-4192,-8973,-53596,6377,-10291,-86567,24126,-7669,-104388,34186,2166,-52170,27392,785,-93270,45114,21603,-123291,55671,40198,-127848,54373,47080,-48787,35630,13110,-84859,51646,35846,-109959,57741,51713,-134671,63314,66217,-35399,33245,22849,-72295,55182,50317,-90827,60232,62106,-114958,69501,78234,-25477,28960,33183,-51693,46443,56164,-70888,52890,67270,-81125,53694,72811,264,-1086,-17,-33790,-5121,-7944,-54680,3608,-8601,-89232,18442,-5791,-108389,27334,3018,-52477,26428,1584,-93731,45849,21178,-124191,58154,38055,-128946,56075,44846,-49038,35015,13621,-84370,53698,35706,-108783,62542,50963,-133293,68324,65588,-35471,33009,23147,-71253,56599,51043,-88639,62758,63646,-112118,71606,80757,-25467,28969,33350,-50146,48015,57497,-67364,56074,70552,-76804,57668,77196,-1539,-902,841,-33864,-5462,-6903,-55367,1699,-6637,-90820,14056,-2512,-110398,21841,6675,-52585,26123,2407,-94106,45446,21912,-125273,57643,38117,-130222,55734,44688,-48939,35101,14016,-83840,54625,36228,-107995,64756,51458,-132332,71686,66380,-35099,33492,23208,-69995,57957,51712,-86731,64570,65102,-109631,73703,83068,-24860,29788,33173,-47989,50202,58123,-63574,59707,72396,-72491,61828,79706,1
outputCount=1
weightIndex=0,101,63201
weights=##0
##double#63201
   -2.0084660745,0.6217759547,0.3815606738,0.6044992753,-0.7307651921,0.4395719861,0.9835931721,-0.3730656064,-6.3056312135,0.0571199832,0.206403748,-0.6122223212,0.9635407067,-2.1419259863,0.8790849325,-0.9200638686,-0.3726718703,-0.2120512441,-0.7405159073,-0.8635025918,-0.9776232765,0.96666806,-0.9042508306,0.0049700451,-0.3391805857,1.4026522868,-0.6909606218,-0.0747866273,0.2757114327,0.1384924321,-0.5674899543,0.2721149824,-0.5635550896,0.0199887328,-0.8032680768,-2.9871251469,-0.2758452582,0.1540427092,-0.5251328999,0.7052697025,-1.3971004562,-0.9103806457,-0.5783623578,-1.0401507679,-0.5651572606,0.4939558649,-0.2873795514,0.0494015459,-0.1169276532,0.8235417436,-0.4464859384,0.7120780948,0.4551161692,0.5157041268,-6.3514015839,-0.9060670817,0.7378903454,-1.6223264241,-2.0527452511,0.2482666267,-0.1352679521,0.1092917994,0.3755979609,0.7294186771,-0.0366400625,0.8715887655,0.9600827684,-0.0633230261,-0.4356827974,0.7246849674,0.4182699496,1.1378774734,-0.6781683442,-0.4389106098,-0.8787099756,0.9514073692,0.6842689778,-0.7395870627,-0.3341476943,-0.2550244505,2.0132148974,1.1447434451,-0.9647339741,0.5204816891,-6.5385525122,-6.3760483718,1.465965866,-0.0842592164,-0.311752006,-0.8884509951,-1.138718873,-0.3066738869,-1.4549542046,0.3230004734,-0.2835863454,-0.0170224156,-0.2772286066,-0.3190195949,0.8515183474,-0.4279960261,0.9732610965,-0.3344730588,0.5741868695,1.1969703426,-0.6214074056,-0.4708094878,1.4528387792,-0.3237913325,-0.3379108318,0.2178740696,-0.1169585407,-0.6322906522,-0.2689971685,0.1835644499,0.0422816716,0.3881906969,0.7486024965,-0.3291826336,-0.1541303272,-0.2675787243,-0.6417096309,-1.0430658241,0.4434735811,0.364911809,0.2154851946,0.2010229815,0.5216857124,0.9244644915,0.684317112,0.1554413884,-0.1803235688,0.2805753926,-0.7106616871,-0.7053043158,-0.5218491103,-0.4686323999,0.1848766235,0.2192002812,-0.6841479195,0.6474162928,0.5918650062,-0.3294606795,-0.5982470526,0.8087771856,-0.9282932711,0.2324738595,-0.4634705141,0.0138282537,-0.4104147129,-0.0011030863,-0.0039144155,0.82274225,0.4921324925,0.2878353954,0.2402751976,0.3610266904,0.0613204682,0.4958633809,0.8723265778,-0.2360124661,-0.1036850887,-0.7542865357,0.8176326312,0.8968221306,-1.1054039991,0.2711110162,-0.2145573817,-0.3098066281,0.8311837711,1.1469110511,-0.405157811,-0.3934054626,-0.678624664,0.2893367814,-0.2341538239,0.6791089719,-0.3933977252,-0.6847028315,0.2349444347,0.7619061918,-0.3851795526,-0.2686247785,0.7274032357,0.2301521496,0.1845315424,0.6468218928,1.019795139,-0.9852488522,0.762648711,0.2248771733,0.643001225,-0.5635754369,-0.031130925,-0.2503250313,0.192751684,0.4376066722,-0.688834447,0.3648903918,0.438252566,-0.8378868211,-0.8672150883,0.0703813279,-0.5899819196,0.8046538052,-0.3267599417,-0.6385070984,0.3946824057,-0.4868312254,-0.608701969,-0.21872814,-0.1000497022,0.4646100374,-0.8992477175,-0.2454265354,0.1980657726,0.8428961013,0.0712688783,0.2292842157,0.5670406554,-0.8601542992,0.4614748527,0.9356946413,0.2963165226,0.4746269882,-0.1982814271,0.539045828,-0.7623374719,-1.0333127742,-0.7747824832,0.4824473661,0.3917092787,-0.6214818476,0.3657984817,0.7950457443,-0.7051016271,-0.0815874932,0.804300794,-0.0967796019,-0.5633530556,0.3869638465,0.8820397422,0.683310195,0.1232649737,0.4202879835,-0.3398803414,-0.0678927678,0.2363679036,-0.1089102218,0.6793559557,0.4073452236,0.5986545776,-0.7738345514,-0.45631128,-0.962230506,-0.244360154,-0.4797984189,0.3174434461,0.8677640372,0.7608467467,-0.6535976227,-0.5717517944,-0.7761270451,0.741185059,0.6366703017,0.7327830742,0.4752487429,0.1861800739,0.15050957,-0.3721804538,0.7236567777,0.4804384397,-0.5868353476,0.8436786928,-0.8479430183,-0.9548004956,0.4746824673,0.8496255053,-0.9230903263,1.1636875798,-0.7011859399,0.2623429251,0.3723317902,-0.5188242336,0.0703068952,0.7629727747,-0.8381179404,0.3929728614,1.117781813,-0.154298146,-0.1008601154,1.2643339965,-0.0985474829,-0.7650788474,-0.5713487464,-0.6851020797,2.6963349077,-0.9820449997,-0.975480505,0.0753473628,0.3629819931,0.6468883158,-0.0765818439,-0.7133073557,-0.8273308823,-0.7170931078,-0.0976027533,0.574111133,0.9111405582,0.708168922,-0.6600761661,-0.0616862681,0.7479076637,0.7886058802,-0.5521200192,0.7391036414,-0.1476383519,0.5637328067,-0.5228138255,-0.5315043102,-0.7234809553,-0.5903034412,-0.7784475718,0.6568363832,0.2059393113,-0.9079430184,0.9604780956,-0.6405800047,0.7727074969,0.2076404718,0.775503465,0.5348018598,0.8235751001,-0.7813223281,-0.6963296208,0.8022629947,-0.8953756725,-0.9484498047,-0.4482412445,0.6363125769,0.8188829381,0.3917814512,0.8449817877,0.2075271871,0.446956913,-0.4037507669,0.1294105876,-1.0253268645,-0.6385869635,-0.3024295157,-0.7506555454,0.2308172205,-0.7183480161,0.4724448715,1.2844195699,-0.4756392525,-3.7230805075,0.5837680441,-0.534104668,1.6166833372,-0.8722565567,0.8850206903,0.9377456177,-0.5210458081,0.6476297985,1.7097886173,-0.8393538646,-0.8898574334,0.8593502971,-0.4223585562,0.0121914742,0.5805206105,0.5222541708,0.774399006,0.1116994862,0.9553389877,-0.7299319697,0.628557117,-0.582040426,-0.9748984628,0.5330070316,0.3703481405,0.1869153612,0.0845138888,-0.8741232769,0.6755700103,-0.3014336444,-0.9578400597,0.2976954653,0.3926480973,0.0973682429,0.9626108606,-0.3293941404,0.2612616269,0.4283986175,0.7966100699,0.413959158,0.8624054494,0.1399811172,0.5752778001,0.1884049232,0.3185162432,-0.7789304752,-0.5861009159,-0.9526684095,0.0821349393,-0.2790705513,-0.3095740744,-0.5132373774,-0.0805702058,0.5702473448,-0.2677319335,0.3742385473,-0.1953746269,-0.1489016343,-0.5320648496,-0.6484517776,2.2978832896,-0.5732255319,-0.8922416939,-0.0268726254,-0.9612271671,2.6275089456,0.7433845136,0.6092472636,3.0300439162,-0.4007063204,-0.7236890398,1.9083714556,-0.1967800104,0.0670795895,1.2976346477,-0.0375880815,0.2230964963,1.0966943468,0.2756920278,0.7719385728,0.8846536535,0.6344640376,0.2871715882,0.8450086615,-0.0779627146,0.6116443976,0.7483643539,0.8116035416,0.6225184184,0.4615349567,-0.4285828737,0.4663596517,-0.2762939978,-1.0237180529,-0.0940135897,0.4200857964,-0.8096643367,0.9087279711,-0.1336666625,-0.1949799098,-0.0731981865,-0.3045606475,-0.0334408049,-0.8079705868,-0.0835147714,0.4188932454,0.9790897512,0.2143901635,0.0685773531,0.8089184688,0.1945782203,-0.3087300543,0.4065016597,-0.5596592859,0.1291568983,-0.304165989,-0.3871588412,-0.0703258696,0.324742563,-0.731509523,0.2377022745,0.6228505085,0.3885134366,-0.9178401662,0.2561390113,1.2959840524,-0.8679297941,-0.5075981621,3.131567839,0.8182030177,0.1047817234,1.4942602447,-0.8295369135,0.5680193697,0.7101198762,0.656780014,-0.3301076099,1.1055419182,-0.1578132989,-0.9613871003,-0.1066039235,-0.3449222636,-0.643015604,-0.2359825942,-0.9878502356,0.7505625469,-0.6124673628,0.9099603436,0.3583705583,0.4624505166,-0.3439424499,-0.0690666914,-0.1048776191,-0.5464702301,-0.3203285042,0.2175574853,-0.068044783,-0.2257877992,0.351226167,0.3771804896,-0.941836041,0.0976618166,0.2375456246,-0.9475876276,-0.6036816791,-0.6204892743,-0.2285377889,0.7145804038,0.2462149693,0.3525947621,-0.0428524336,0.7197028813,-0.319355908,-0.3509205583,-0.2127334984,-0.7202053936,-0.2753369262,-0.3046109747,0.8715895552,-0.9000082479,0.3325168199,-0.7801344814,-0.5993133034,0.8301998144,-0.5266485484,-0.8472624874,-1.3189732553,-0.619586583,3.6008367225,-0.6078832346,-0.5015632804,1.4118703541,-0.9525168708,-0.3509793257,0.3498987349,-0.5873091017,-0.3609433178,0.4598986639,-0.3419122103,0.1076743407,0.7453361118,0.8829349038,0.5016198457,-0.5423028873,0.1062668951,-0.3209060173,0.462725783,-0.8905434364,0.620238578,-0.0828677101,0.9622036285,-0.103471813,0.6145596365,0.1142503095,-0.3841090234,0.0331536241,0.7807651619,-0.1553866177,-0.3455772068,-0.3935054117,0.8106272986,-0.283910801,0.2728254225,-0.3770299109,-0.6279218481,0.2877631836,-0.1957893132,-0.445775458,0.3331384591,0.564810278,0.4016252384,-0.029870375,0.2199937123,-0.2760201528,0.7441968965,-0.4778484324,-0.8677492362,1.0645346568,-0.1874273976,-0.0217195612,0.713420242,0.7647835023,0.4834616622,0.2348120713,0.4877152056,-0.3468512216,-0.5144805841,0.6660301131,-0.6929221261,-0.4183099722,-0.0150204759,0.980304273,-0.6132063541,0.5354680816,1.5624825209,0.8508005958,0.8078344424,0.567749467,-0.0422339475,0.8615617102,0.6503495417,0.2413108156,0.7661717159,0.0732924573,0.2880658897,-0.5004653004,0.6065945166,0.2043709278,-0.4335975288,0.0972699457,0.1009837591,-0.4621273684,-0.5550247482,-0.9441434404,-0.0936249622,-0.1736838382,-0.1038415231,-0.3376775453,-0.6450657803,0.2998232756,-0.6083211699,0.3317989511,-0.7142625513,0.0787716016,-0.7888066811,0.5702710636,0.5022587549,-0.621342205,-0.8958548693,-0.0263509917,0.5566955107,0.1764911424,-0.7750379119,-0.2255789007,1.0004274422,-0.138520899,-0.307467867,0.5781488748,-0.2791296335,-0.427464249,-0.4177136776,0.044012287,-0.0274155878,0.165482957,0.7101145496,0.5569014522,0.3893359273,0.3032021061,0.4004353341,0.3127033211,-0.8295435105,-0.5908177332,-1.5598322008,-0.744654045,2.9759727837,-0.1687914568,0.1290938369,0.8690330235,0.3333875877,0.9242694059,0.4482033067,-0.027552324,-0.6618763029,0.4145131221,-0.0346259667,0.0516282367,0.4705416037,-0.7613073908,0.8557458958,0.2143952891,0.7465068906,0.570929273,0.2991884826,-0.1466793,-0.5347857397,0.9679374978,0.7734922398,-0.0657488071,-0.5408590833,0.5087535188,0.4290687478,0.3512643977,0.728952505,0.6040327222,0.1401145337,0.8983617941,0.1636305896,-0.7690241342,-0.1645671158,-0.2419477842,-0.0700433845,-0.1682928401,-0.252758224,-0.0628105022,0.2480024724,-0.1925269733,0.5445753151,0.224699868,0.6437072487,0.1910805634,-0.6619373517,-0.864244115,-0.2865050412,0.5390113008,0.541460193,0.4025297055,0.5379886276,1.0061776112,0.1735402101,-0.2508198564,-0.1208062824,-0.5232252056,-0.2758522379,-0.5960355655,-0.5569238082,-1.1447517199,0.1178628381,0.753798777,0.3318032423,-0.9383519266,-0.2266988322,-0.4887442648,-0.7209061245,-0.4914074534,-0.6353342014,-0.6546549602,0.6220297378,0.4151943583,-0.779645241,-0.273042601,0.9012115693,0.4497749074,-0.2060154,2.3122142529,-0.0229746399,-0.7370921584,0.3703317871,0.1919298073,0.7921757169,-0.4066744019,0.3361391355,0.6535185511,-0.418871528,0.8907499664,-0.6976060174,2.5661355847,-0.2714490442,0.083914398,-0.7921828332,0.5302669448,-0.1408868901,0.5914838771,-1.0414008156,-0.8815163995,-0.3282028711,-1.0099427004,-0.3603965914,0.805875458,-0.8978980819,0.5698992694,0.6879585358,-0.9876888983,0.3997303992,0.8662120152,0.7757895763,-0.0646603604,-0.6855409877,-0.9149248378,-0.4445364498,0.430078336,-0.9458632089,-0.3872532541,0.1883113951,0.772357307,-0.4645465934,0.0493672814,-0.7578641103,-0.4809754868,0.3609915477,-0.1571930024,-0.2224010106,0.637375415,-0.8035791341,-0.5851034101,0.5959472881,-0.2964991619,0.9103044666,-0.212997979,0.8225478965,-0.9019838939,0.3916494718,-0.2569696613,1.0052581814,-0.2018658848,0.3032609666,0.2425444004,2.4316875799,0.6270977283,1.0513048389,1.0547209465,0.7508814676,-0.3453728915,1.0507207305,-0.1919979945,0.0371587498,0.6660419964,0.073087198,-0.8546660512,1.5797722813,-0.3520108954,0.7161728461,0.1828209896,-0.3986088866,0.0638209281,0.4173228135,-0.225844195,0.8937376358,0.7069130382,0.0170545925,-0.0721663705,-0.7023963841,-0.4090210553,0.9002703644,0.0542634845,0.1313573404,-0.8856573149,-0.4493137761,0.7019412626,0.2993225445,0.5830402561,0.6489834251,-0.1602280646,0.1645648645,0.7611777071,-0.8812961501,0.2991145047,-0.3521237252,0.3137239329,-0.6747862898,0.3444027374,0.5066362657,0.6403992847,-0.2132217775,-0.3391239623,-0.5212219808,-0.1683565144,0.271851015,-0.6198569108,0.3866835734,-0.0660843962,0.6050171839,-0.4644981315,0.0732207932,0.4538119625,-0.5733942036,0.4534448413,0.5682202466,-0.1551420557,0.6714068075,0.4323238576,-0.0504292285,-0.0775375881,0.8327722845,-0.088071931,0.113307867,-0.6153479462,-0.7429120495,-0.8943433722,-0.8076431739,-0.6706143013,-0.0083677231,1.901820058,-0.5668737749,-0.2280644983,-0.8083260047,0.2215449292,0.2545617827,-0.3082796767,0.9060989532,0.9354302708,1.0023418062,0.4232791499,0.8551073625,-0.7901189464,-0.4054618561,0.2561149345,-0.0472349238,0.0788361126,0.2504624015,-0.3005886827,0.1031214085,-0.4868512391,0.5222479953,-0.0239154182,0.1495102717,-0.3873203038,0.7095172336,0.4211848815,-0.6686711205,-0.6357004336,0.6966015465,0.1545458285,-0.7842226449,0.8227568829,0.8040325699,-1.0422397267,0.422359325,0.916363116,-0.6894752291,0.3713309986,-0.9516403736,0.4779608794,-0.3441506364,-0.1422807299,-0.6821381572,-0.7032764651,-0.8230506312,0.8733270929,1.0336105127,-0.684768028,0.2184180602,-0.4974246002,0.3957031099,-1.0257981077,0.5111905709,-0.1191207719,-0.7926265943,-0.4317241632,-0.3361204928,-0.501467268,-0.1820244345,-0.1961223819,0.1051747606,0.3850266858,0.243883681,-0.5493205441,-0.8512866922,0.7771842101,-0.9564955591,-0.0928747443,-0.8796131546,-0.6467432902,-0.5877872617,0.3861955667,-0.0250833908,-0.807201333,0.753467862,-0.9452570176,0.4243704658,-0.3652751699,0.3144949231,-0.259734088,0.8863152176,-0.5617352575,1.0758985377,0.3793705778,-0.2551288659,1.0782439758,-0.048805656,-0.2995985671,0.9697976096,0.1752221268,0.1028473301,-0.1958236558,-0.8495886842,-0.6435093466,-0.2358539527,-0.7022653097,0.5289417857,-0.4641040364,-0.1644587163,0.2956847506,1.5488726619,-0.6219372515,-0.3793132249,0.9951977241,-1.2941570535,-0.2697152308,0.6325859512,0.2261556221,0.8459721009,-0.4627493746,-0.6806373602,-0.0810079107,0.6188416239,-0.7026873732,-0.8439680032,0.7151130532,-0.7335214925,-0.0579514296,-0.0626629538,-0.9887572418,-0.1907105836,0.0606651118,0.3853228193,-0.7198817386,-0.6213361757,-0.3088888819,0.9038650977,-0.7130359948,1.1045793535,-0.9803306882,-0.1199055531,-0.2000745667,-0.8632569762,-0.62962288,0.8611790122,-0.4219131535,-0.7852137328,0.0870156351,0.7630295489,-0.7777694479,0.6020721535,0.8858118278,0.3681746553,-0.4808392351,0.2078471411,0.4901115596,-0.0840264099,0.5587195163,-0.3748404146,-0.8941249779,-0.1838958695,0.1744955777,-0.6853947689,0.5874254498,0.5431605484,0.7144364681,-0.3631737022,-0.6268790146,0.817692663,-3.4346486759,-0.6925211909,1.9759777266,0.540030913,0.6238982333,0.6296834311,-0.2909786737,0.1861385338,-0.4872166726,0.7366608192,-0.1129211395,0.4341142002,0.0045536303,-0.8826907423,0.5172153744,0.6228029938,0.8136186573,0.9319205163,0.6905510347,0.6397920699,0.7814814108,0.8216768817,-0.7208466172,-0.3835915187,0.5650083251,-0.4196929042,0.2115352235,-0.0680155678,0.3512036269,-0.8246121354,-0.2436350546,0.7983360813,-0.6219969277,-0.5740637966,0.0859625934,-0.7214003836,0.4652433214,0.8317853782,0.4171818058,0.6797505362,0.8464978376,0.2956157917,0.6951766169,0.1560762793,0.372503619,0.4452144257,0.4695073198,-0.8286903895,0.1572828128,0.2407472477,0.1292960321,-0.7307712576,0.0523644339,-0.2112511583,0.2596034155,0.080090489,0.2548898181,-0.9913870867,-0.6109971726,-0.7364831375,0.8044045196,1.0319229302,0.6165460798,2.1978695092,0.1363814717,0.4740165596,-0.6028005686,0.2143265895,-0.0915995828,0.486160995,-0.2692356465,-0.8791195121,-0.8138147389,-0.416793616,0.8527652129,0.7306767168,0.4544336404,-1.2447999272,0.6161395894,0.0960653208,-0.8121938434,0.8967848138,0.4660434285,-0.851635245,-0.3506550071,0.1170028511,-0.5086835145,0.8611239332,0.1011571817,-0.7738499214,0.5192469224,0.6575895008,-0.3880263551,-0.2899108612,-0.3712413827,0.3105930744,0.6816018071,0.3475985461,0.6867312223,0.6995277904,-0.6773173498,0.2482125955,-0.2158529236,0.2147866291,0.816539505,0.4540083208,0.4022102095,0.1086852291,0.6995917508,0.1849584774,0.5475913773,-1.0144618379,-0.0420678214,0.3685194181,-1.0689635885,-0.306245305,-0.1794544748,-0.0517003683,0.7879745962,0.9478965983,-0.1221119913,-0.2112083941,-0.7751333596,0.1122592094,0.069074706,0.4816737335,0.5205273115,-0.6074900398,-0.8001317273,0.6276963396,-0.2489541028,0.6030702818,-0.7449685066,0.1941965436,0.7576661621,-0.9169717582,0.2543610613,0.6441965902,0.2640678719,-0.8782157709,0.3271953361,0.7682419407,-0.8067342785,-0.3563975632,0.4451356758,-0.4280791641,0.2307682727,-0.8988050038,0.5612830855,0.0535615814,-0.6248143381,-0.5888007912,0.6884055532,-1.0012459599,0.4176033241,0.6197803384,-0.6754590413,-0.3186409496,0.8600693485,0.7169202693,-0.6598538902,0.6803630696,-0.4811630752,0.4109446452,-0.0055454448,-0.1314774787,0.3897347822,-0.4234990055,-0.9515223459,0.4232212854,0.4004785523,-0.3578826868,0.4103497695,0.2907236471,-0.273648925,-0.8997108962,-0.6246420902,-0.4061704641,0.947089758,0.3459191911,-0.4284641351,-0.7834812902,0.9963488527,0.5874520797,-0.8768688242,-0.6610174639,0.4262541993,0.5571219279,0.2176694685,0.4234517008,1.0045853708,-2.4388881818,-0.3694005934,-0.4947748948,0.2559587397,0.1822852049,-0.4630502776,0.325587811,-0.6783505809,-0.4950827158,-0.386781702,0.1455685602,-0.6860108977,-0.0296518489,0.216276687,0.8166709944,2.0518311498,0.3145130625,0.8288612144,0.8482284563,0.6011255798,-0.3313485416,-0.3862825382,0.6826919137,0.7269402939,0.2078497103,-0.5701497812,-0.6539641233,0.1164995875,-0.0352570142,0.1665289009,0.9481869648,-0.5967128836,-0.2448716307,0.3909966305,-0.1691876592,0.2065655141,-0.7163061217,-0.028947463,0.8186546938,0.1961990987,-0.7944431837,0.9779067032,-0.6943544665,0.1080245686,-0.7279071935,-0.1517475884,-0.9435947791,-0.7755694116,-0.2334296427,-0.7498613616,0.9400100188,-0.3776593557,-1.0413492762,0.8462530413,0.8585557678,-0.3676624195,-0.4213649365,-0.4097144263,-0.7371082372,0.8505403457,0.4659996806,1.7226640885,-0.5849668839,-0.2429617605,0.7121695784,0.1945071013,0.6671912557,0.1195778538,0.9930109387,-0.9477770831,-0.5652857716,0.7290958016,-0.8441623446,-0.4934899783,0.2406707402,0.62701855,-0.3846761262,0.3458331277,1.4879284141,-0.3618647134,-0.2843558508,0.6568445295,-0.2817290475,0.6592217987,-0.4460452582,0.0660224946,0.2638870678,-0.0184196546,-0.5904724202,1.0136428566,1.1526184214,0.4722657167,0.6842743769,-0.801049914,-0.9895171893,-0.5054555918,-0.0583300738,0.5543203075,-0.3827778611,1.0087092963,-0.6445681774,0.1660914582,-0.0261214778,-0.3496605562,-0.7945453191,-0.1753021235,0.3125974936,-0.6575577605,0.2666184961,0.9302412935,0.7523075869,-0.6009545718,0.6915048465,0.7086589621,0.0219862584,0.2601455775,-0.4679770228,0.1498891239,-0.2493406928,-0.0606028678,0.2797495605,0.1446975468,-0.4170606265,0.739218216,-0.6510799315,-0.8246682075,-0.1594426182,-0.599912143,-0.0711334143,0.59729767,-0.8862269312,-0.9374543833,-1.1612626408,-0.4484614228,0.7947254781,-1.0316319486,-0.5177987176,-0.7880727317,-0.2238642654,-0.6846754927,0.3124609601,0.46857081,0.6140345435,0.1260326505,-0.5591475706,-0.0785957294,-0.4128941718,0.4631882098,0.4137375392,0.901206003,-0.0730515617,-0.3206922386,-0.9230556585,0.9402382453,1.1380674652,0.0811546045,0.4978194714,-0.2000732118,0.7453822767,-0.0772931241,-0.5304990898,-0.3218657497,-0.0123314131,0.6113288014,0.723826338,-0.9432950853,-0.3605343834,0.3725318566,-0.175112865,0.0561703015,-0.0181596503,-0.4556453435,-0.6812979433,-0.9213865878,0.3444036182,-0.5382637598,-1.0769007158,0.0892788498,0.35014309,-0.0090972449,0.6052729173,-0.8295263112,0.4425968751,-0.5114425842,-0.079388653,-0.3121871058,-0.9113382543,0.163112253,0.9248584511,-0.7250256753,-0.1256299212,0.8649844438,-0.860104994,-0.8578246027,-0.4649036417,-1.2429409056,0.6465666391,0.4037344653,-0.1030359918,-0.4059101235,0.6304210195,-0.6347587712,0.2451801906,0.0861961265,-0.8908142387,0.5687740284,0.5896841123,-0.0303619029,1.1689377965,-0.9298976161,-0.452177427,0.9556250779,-0.1300563906,-0.8524239747,-0.5035247228,-0.5122444585,0.9235137463,1.3831737219,-0.4142353192,0.0291194404,0.3080855682,-0.7610663309,-0.5242608527,0.7345862522,0.9396571354,-0.9596127248,-0.9623125666,-0.0669894349,0.7959288865,-0.0569096071,0.1844574372,-0.0973328474,0.365533515,-0.0919223363,-0.4294498528,-0.6025879386,0.5856487465,0.3446516107,0.0367180202,0.1307213649,-0.9746859786,0.5359740464,-0.0176191519,-0.3417863792,-0.6653153797,-0.9405732227,0.118452699,0.316339411,0.301276977,-0.6404738327,0.388917817,0.5254961735,0.6021051635,-0.3879990151,-0.9705038988,0.011221494,-0.5745252653,-0.1472458952,-1.1662955052,-0.5694589908,-0.0383190233,-0.7421839754,-0.3067754905,0.9597437759,0.0233073374,0.8109379303,0.2744435949,0.4888259854,-0.19569681,-0.2006174085,0.6724701229,0.9682145691,0.5711940418,0.4461807601,0.5444013027,-0.4765618054,-0.0536386939,-0.289172378,0.770145344,0.669607837,0.6119565672,0.6923604676,-0.9561801287,0.474075695,-0.0877939416,0.3244131209,0.1285328959,-0.1647117669,0.0767355208,0.8200770713,-0.4860835366,0.9230343359,0.9144018476,0.4214110516,0.293210812,0.7811252441,-0.8555567622,-0.4587730274,-0.3176414102,0.5045123187,0.240787916,0.8992309872,-1.003532619,0.6496967807,0.8087968085,0.406359665,0.656942583,0.7704882495,0.2634886548,-0.7407196112,0.6203665811,-0.69876424,0.1336466335,0.263509527,-0.3959520585,-1.2285556865,-0.2113130434,-0.7507227765,-0.7524439787,-0.1031595335,0.2042216716,0.4047285209,-0.9279588144,-0.3492155207,-0.7648624837,-0.6614632445,-0.7353478375,0.9048987333,-0.4909162967,-0.248939803,-0.4894725701,-0.3301462697,-0.6685081453,-0.5881061017,0.3516516732,-0.9481732384,-0.2527350058,0.2514133254,0.4982081691,0.19801893,-0.1734062394,0.762803649,0.850674081,-0.0461999789,0.1834486752,0.846361847,0.3524620626,-0.9142825654,-0.5617764129,-0.3087993737,-0.9213473671,-0.5130462239,-0.7925752569,-0.7915471768,0.3197433298,0.0791746309,0.086838835,0.7763523621,-1.1919671132,0.2213392427,0.249413876,-1.0827295101,-0.8143386491,0.6674944808,-0.8392766117,-0.5713683183,-0.642807186,-0.5696163949,-0.235552573,0.6115846748,-0.1604473885,-0.3474457454,0.2960492607,-0.6381893771,-0.0652939457,0.0876197163,0.2555934904,0.5382213194,-0.0444723499,0.0870625192,-0.5234332581,0.7466701172,0.8455349171,0.4545887832,-0.1851906461,-1.0929549586,-0.4392407957,0.0846744618,-1.3367867431,-0.6986546613,-0.730643934,0.0227391481,-0.9480181611,0.357037848,-0.0592518054,-0.8103889482,-0.2229993708,-0.8766428707,-0.4674500527,-0.8460864624,-0.8370050669,-0.8785265306,-0.4347372644,0.1679817345,-0.3096874479,0.9188173436,0.3740130053,0.3268938551,-0.511758975,0.5165676835,0.8291225689,-0.1808609069,-0.5459391074,-0.5293466703,0.2887544773,-0.6106706819,-0.6001961499,0.5088226257,-0.5908367781,-0.423438037,-0.0725853062,-0.8726361477,0.0070232088,0.5386011659,0.0131593518,-0.0699605672,0.7122587909,0.1143977692,-0.3766270263,0.3695465905,-0.0582280276,0.548894794,0.4301327134,0.474540345,0.0598356535,0.8439009864,0.0454481714,-0.0323923876,-0.931063971,-1.6334860617,-0.1995621906,-0.1987487055,1.0654717704,-0.738778462,-0.1607039026,-0.01451471,0.7703136275,-0.0391095486,-0.2097972996,-0.5694266057,0.3510220136,-1.0579833292,0.2427244681,0.0934527777,0.055097042,0.7762496708,-0.9471459216,-0.9481536896,0.2954971391,0.3427051149,0.3147902032,-0.2440696276,-0.9596484895,-0.7144773368,-0.5145799538,0.4689117197,0.6702599988,-0.5496614624,-0.4788745756,-0.357768512,0.8198608322,-0.2488475657,0.9395228776,-0.8172591844,-0.2200898017,0.430051956,-0.2870820296,-0.0176440459,0.7064470088,0.4855461868,0.6316356364,-0.9085828556,-0.4786732776,-0.2919348331,0.1802460696,-0.6813367506,-0.4672339067,-1.129741789,-0.4120807063,-0.8974706069,-0.4329286822,-0.0387490904,-0.8264360953,0.4756207854,-0.464383716,0.5856687019,-0.5125683861,-0.2006288854,-0.8609516364,-0.3755023515,0.2844346332,-0.6872032297,-0.966209056,0.7325457587,0.333749757,0.6825550379,-0.6768862133,-0.002213468,-0.2848018783,-1.0000290251,0.2234362461,0.4007498222,-0.991004867,0.6571089274,0.1547685588,0.2282868606,-0.3755792568,-0.5911372402,0.9407675411,-0.0610791035,-0.0710131668,-0.4727176225,0.7416228124,-0.2967641287,-0.029279124,0.7886789268,0.0093009873,0.069073991,-0.8328858655,-0.1626714986,0.8174480744,-0.1326604747,0.6667519136,-0.5446148173,0.0587321632,0.535066272,-0.6088788167,0.1304133404,-0.5215988959,-0.3842102365,-0.7068070419,0.4654484847,-0.5057635496,-0.133435607,0.2914644785,0.5979746574,-0.0657492849,0.8506377528,-0.4226745564,0.651642022,0.0860339355,-0.4746897195,-0.1116711582,-0.3026014458,0.2440185787,0.18725055,-0.0678222909,0.0061862997,0.8256707242,-0.0195751649,-1.0877880611,0.1656360981,0.6988774735,0.6535689626,-0.8895780448,0.2364464354,0.9905185979,0.6999601658,-0.4220085782,0.8431440754,-0.8307185098,0.6868089672,-0.8909076736,-0.24535119,-0.9762308075,-0.2358195466,0.1080659666,1.0182879991,0.8079657857,-0.3864490438,-0.5206103078,0.3499219969,0.6181278343,0.9229393657,-0.6469459462,0.3213712872,0.9448759985,0.9016295098,0.4544777909,-0.4261107169,-0.5477271576,-0.5519930975,0.4598869243,-0.036484519,0.3155513649,-0.8256936884,0.3461786874,-0.35193807,0.1763892061,0.8550104456,-0.9579250286,-0.9508197379,0.3766195403,-0.13699527,0.8724695166,0.0589529146,-0.1365009519,-0.4554401817,-0.3382663942,0.0705332989,-0.9178499102,0.4116402578,0.5238408383,0.9155701056,-0.2936047978,0.4708497172,-0.5515141481,0.3609152957,-0.4406106865,-0.5553288595,-0.7073931067,0.4241719332,-0.5298250639,0.1084675796,0.6378166324,-0.5733246147,0.749920494,0.8211824665,-0.4022817735,-0.2589980283,-0.7341012592,-1.8036892091,-1.0048129554,0.4510375167,0.582733879,-0.3064211832,-0.8443700074,0.5338672314,0.9228352415,0.4572833274,0.2522325664,-0.4960983565,0.0532097435,-0.7527757321,0.1203582716,0.7362092336,0.166001447,-0.5083503306,-0.8696994246,0.528640743,0.2260231722,0.9874581718,1.1853872354,0.5050679569,0.2579790644,0.0223895663,0.4276712623,-0.9524438591,0.9760315625,-0.9693224677,-0.7862055007,1.0968983241,-0.0826065028,0.4116481963,0.4765593354,-0.674592946,-0.2129127925,0.7156153536,-0.8754472289,-0.4156073297,0.8339615884,0.0875530458,0.8994455612,-0.6030288623,0.7165444981,-0.6528116822,0.3252769915,-0.6490270033,0.9283871888,-0.1227253527,0.6434634216,-0.3760808205,0.6986532969,0.6375759803,-0.6642697839,0.1714005909,-0.899591957,-0.6138296521,-0.2806679282,0.7525935481,0.9911284609,-0.3709085502,1.0495613009,0.3689555427,-2.0002922506,0.4754790014,-0.1275809917,0.3059492038,0.1777437684,-0.296144353,-0.8005484987,0.1903612894,0.2426378547,-0.797368066,-0.0138251223,0.7241927817,0.8672163861,0.5959848262,0.9264235333,-0.1368622898,-0.7692288415,0.090568685,0.1446012893,0.7768334815,0.3749906907,1.0245804082,-0.2584758961,0.5556663333,0.0734009546,0.5789718128,0.5725099605,0.1802349911,0.9624777162,-0.0621460155,0.4151518819,-0.2544025715,0.0477650492,-0.7777165597,-0.9720132188,0.0521352831,-0.2758540457,0.3905954968,0.775654645,0.3055193295,0.3929964064,-0.669882554,-0.376694631,-0.0766586364,0.3064612198,0.647125535,-0.0749819549,0.170901455,0.2441924644,-0.3789842832,-0.9743734314,-0.0536343549,0.5737702539,-0.7340278638,-0.7803824138,0.2476503196,0.1667971621,0.2426570068,0.4868269236,0.9745248989,-0.7004093438,-0.5093739692,-1.9374113107,0.5171804896,0.5636806285,-0.8248079772,0.2395030593,-0.9758322962,0.1854369031,-0.7222262475,-0.2230139526,-0.3808731257,0.0970703433,0.7819592388,-0.1777485056,0.4889210869,0.8188974433,0.0690201815,0.3046001481,2.6772847982,0.5668216272,-0.7547730924,0.4721713022,-0.8921774848,0.6715397991,-0.294667504,-0.4478568664,0.6440706502,0.0811851993,0.156760208,0.238634151,3.0564113909,0.0214380346,0.2499520244,0.8028922617,-0.6995484,-0.2620513716,-0.4953321762,-0.9117791169,-0.2581083539,0.8722810572,0.6460610793,-0.0107716989,-0.3024685599,0.1676120026,-0.4986437502,0.8681819079,-0.7251802422,0.1776233618,-0.2497090708,-0.0961337282,-0.9079241846,0.7221668142,0.4244284728,0.20920107,0.1793523552
   -0.7032337766,-0.6032185907,-0.1535056524,0.137808069,-0.6784398015,0.7726683601,0.1652729851,-0.8563968455,-0.1295223563,-0.0996044851,0.5915659273,0.3087136819,-0.4634307257,0.4930589729,0.1051155352,-0.5531542727,-0.5863944909,-0.58144357,-0.5882138123,0.7474443361,-0.0775369464,-0.391222025,-0.7067763712,-0.3463160993,0.5238530792,-0.1828447595,0.4877831844,1.0726545761,0.2267076322,0.5897016714,0.1745201654,-0.7596118319,-0.4971769176,0.3109146075,-0.8728193063,0.6053509901,0.0494239756,-0.309368896,3.9076003089,-0.3402493511,-0.9849216603,-0.100080816,-0.3885048207,-0.7304456587,-0.3655627745,-0.2777056795,0.8328327591,-0.6325011676,-0.4570809648,0.2817609008,0.6010812566,-0.2182735482,0.6052638103,0.2162583769,-0.6326697748,0.3358067447,1.0058556175,-0.5332162668,0.7728686079,-0.5750345749,-0.821182428,-0.9513032353,0.9712174287,-0.2373742757,0.6456593506,-0.3863939655,-0.2279389033,0.8257933984,-0.6337831573,-0.6652838094,0.6045994821,-0.05103214,-0.1283295351,0.0123674592,-1.2405436784,1.093874422,-0.5264451538,-1.6406243852,0.7015973869,-0.1609272029,-0.1683229246,0.4965251403,-0.6957581908,0.5501396922,-0.2276568623,-1.0528431377,-0.5128762545,-0.1488330304,0.5007805002,-0.6891241807,-0.8649115226,-1.0025767703,0.5120828388,-0.6130335803,-0.1970031724,-0.2909882289,-0.6734845413,0.8623862153,-0.2281394929,-0.6623142418,0.2925960427,1.0145908499,0.8197212282,0.721299608,0.0664201595,-0.4995844066,0.8535754661,0.0169092211,-0.4106407323,-1.0398931597,0.5646440547,0.1902435416,-1.0099299448,0.0869389195,-0.3655767049,0.5413559067,0.7717091053,-0.4650290803,-0.0782372194,-0.596850254,0.0533573183,0.1521056113,-0.8852635357,-0.7567552497,0.3529412203,0.0197387477,0.1962177161,0.8616284363,-0.5048482132,-0.2924338271,0.3757314185,0.2458870979,0.1956810182,0.2963873023,0.5717958726,1.087671685,-0.8254242554,-1.2421730735,-0.7333689172,-0.2193237937,-0.9259814827,-0.2383640712,0.0399455658,-1.5273795537,-0.5562856577,0.080142476,-0.7741251227,0.8110046256,0.0773726771,-0.9583559695,0.4473541125,-0.4201986585,0.3483147861,-0.5136953339,0.7421569038,0.5749766007,0.8828737901,0.0986139609,0.709733583,0.3645358351,0.4357680906,0.4182232784,0.6523868421,-0.4029613266,-0.0000857849,0.263173262,-0.5335390017,0.4952996712,0.4546763399,0.6144855644,0.3863965438,0.9233799779,0.8492377984,-0.0353867072,-0.0230782309,0.1861540531,0.2543072456,1.0777831616,0.5225292246,-0.4839766941,-0.4039838202,-0.0821752517,-0.6581020368,0.9627092153,-0.8183672577,0.0060527901,-0.4991470529,0.0238742208,0.7636333167,-0.4260237179,0.0345895714,0.9090047538,-0.8045991278,-0.1455033437,0.1123864306,-0.777411163,0.7484535219,0.2310667765,-0.4281003458,-1.267905861,0.2643831666,-0.5041381938,3.8472556231,0.2605189859,0.1115547154,0.7229693945,-0.2040420426,1.0503551299,0.5889601273,-0.1666915175,-0.7468670526,-0.3687076185,-1.4994513291,0.9757986096,-0.5010615953,-0.8141212846,0.9320774095,0.8460198039,-0.4862491594,0.1643735779,-0.0059030914,-0.2930884101,0.0532956257,-0.2061701167,-0.987063114,0.2233851073,-0.306048847,0.4921344889,-0.3865354107,-0.4377387697,0.2513477768,0.6608114248,-0.2994770808,-0.0643863938,0.0922906439,0.8741365414,-0.696596795,0.5829917952,0.3199212193,-0.789136989,0.6940974972,-0.6160999154,-0.659299183,1.1820227335,-0.031147596,-0.6249703777,0.6601793679,-0.4134831519,-1.0155905029,0.0877217299,-0.5956068122,0.7752874237,-0.6530253506,0.418909311,-0.5090544338,-0.1060430182,-0.652400067,-0.4586722788,-0.2753001329,-0.7311311895,0.2309000833,0.2753573621,-1.1436142785,2.435997027,-0.5432480879,-0.6899241917,0.12117035,-0.7610219976,0.9167928402,0.6123669975,0.0142376763,-0.7902082171,-1.0169126801,0.9238827275,-0.2218411947,-0.9529967009,0.9310825076,0.4645054151,-0.6391191455,1.0672190681,-0.4695771363,-0.6311880218,1.1748174772,0.4088386675,-0.0094650001,0.1970783392,0.6369586845,-0.7887740174,0.1595878809,-0.4735765316,0.3154621363,0.6094953181,0.3694071934,0.5602105565,0.6456756085,0.3605005681,-0.4236287881,0.5400664933,-0.9077769723,-0.5392027585,-0.4424788197,0.415140946,-0.7488739263,0.9023107483,0.7887909709,0.6718947113,0.2812618608,0.4086641135,-0.2928903207,0.1850356873,0.3972547516,-1.0099660675,-0.4310372648,0.7415774016,-0.37066975,-0.8164953199,-1.0177670205,-0.8413759688,0.8467486889,-0.1557759024,-0.8813930345,-0.1347163178,-0.6022132122,0.0767454547,-0.1400190749,-0.1607808277,0.4987803571,-0.7308902515,0.8631939386,0.0178590402,-0.1591373165,0.7230967712,-1.1308825281,0.7089284844,0.4195552247,0.2412344589,0.9163621161,0.4085506073,-1.3341387519,0.4137817694,-0.9223906352,0.6567021671,0.8035041957,0.7703797024,-0.8109731284,-0.7996658656,-0.5354595164,-0.1123372099,0.5604993548,-0.582396618,-0.2554662015,-0.2793480669,-0.6915753716,0.679516101,0.2911165677,0.5130954428,0.0642444309,-0.4659712053,0.7967771923,0.8316314474,-0.3773817326,0.3861708395,0.4661053662,-0.4933223631,-0.6412854026,-0.4419540957,0.7988455162,-0.7517750384,-0.8059926588,-0.0722907546,0.1169230924,0.0868517896,-0.1848977057,0.4184355807,0.7189027596,-0.6430934538,-0.5891188884,0.3899690242,0.2400691187,0.8756363987,-0.3793717558,-0.2883693584,0.3316117112,-0.6055221717,0.2295173122,0.0958678411,0.1953818009,-0.7819256525,1.1279920388,-0.1921284237,0.2214868373,0.3234147081,-0.8551691399,-0.7150878337,-0.4976000368,-0.9126635244,0.4479385538,-0.2703943581,-0.3142251638,0.4162668481,0.4948902952,-0.4713263256,0.8591427095,0.0057385279,0.1967577733,0.7002162504,-0.7318000206,0.6137405529,0.23424804,-0.664296884,0.1998937811,-0.5420104979,-0.4910428671,0.342863965,-0.1830432019,0.5205790956,0.2214248912,-0.5443773353,0.263191436,0.6190660251,1.0263687491,-0.4323592519,-0.0414789757,0.8081853415,-0.1643241538,-0.9390704271,-0.0930822182,-0.717743717,-0.2972876332,0.4399272879,-0.6233380696,-0.20570039,-0.0976136036,0.7400819239,0.5477541056,-0.0779559778,0.6431430148,-0.3129699966,-0.4531896664,-0.3031173206,0.8572189087,-0.0523127362,-0.9914467139,-0.0015836124,-0.8036457655,-0.3209392137,0.6900317469,0.4280609,0.5423117781,0.8079520553,-0.3469843558,1.9784047596,-3.5506582974,0.5730785698,0.8308962528,-0.0791409907,1.0331175542,0.2475576352,-0.5636404177,0.3533165881,-0.2514641612,0.1740936758,0.6035874959,-0.3060987698,-0.2499988649,-0.4566070667,-0.7384031945,0.1172522167,-0.4818146231,-0.2332708116,0.0390861264,-0.171342033,-0.9637943293,-0.5408536041,0.6367158434,0.8683566815,-0.8153796862,0.091353963,0.6236771203,-0.4196699678,0.4415122056,0.1291121938,0.4275627237,-0.1933446818,0.1746399026,-0.1202711576,-0.8922272359,0.2514923285,-0.3254188888,1.0208111482,0.4392982457,0.7166622924,1.0072249675,0.3929110119,-0.5414298403,0.1773012936,0.1949865869,0.5911669277,-0.2243706531,-0.1645561956,-0.740991441,-0.6803762792,-0.5874925897,0.2258495316,0.8553483148,-0.4509370334,0.8165199676,0.7469659267,-0.5180387821,0.8955570128,-0.8630778186,0.3669759981,-0.468619875,1.0562808801,0.3799415065,-2.6502083235,0.9052570978,-0.6709019002,-0.0096251853,-0.478374582,0.2312174381,-0.2843537531,-0.1049150132,0.19049114,0.1731411182,-0.4010404216,-0.5187082423,0.0320950188,-0.4583560096,-0.8464743238,1.1174137345,-0.6497010634,0.3150419874,0.9310295013,0.4281129341,-0.2586854502,-0.1583616078,0.9821323026,0.4049391511,1.0718556785,0.9410788227,0.813698838,1.6508858758,-0.1813486535,-0.3426107542,0.7696870601,-0.5161483792,0.6032068397,-0.1115745048,0.0496286113,0.0741597224,0.8773332771,0.5639074523,-0.4900990061,1.3327490139,-0.6052737731,0.0067795092,0.7367460654,-0.8314644185,-0.6776331773,0.2713663698,0.4823529988,-0.0548772192,0.7830729598,0.8486864535,0.1352874129,0.4603193523,0.4247435093,-1.0593389562,-0.5390752196,0.4494272092,0.1612372813,-0.1270124459,-0.318768898,-0.4233862532,-0.4012797908,-1.0623672816,1.1205952908,-0.4627816845,-0.0798650675,-0.6031165603,-0.1696262225,0.0104174553,-0.5898076385,0.2003759595,0.140435383,-0.7150903341,1.0008816711,-0.2561248101,-0.1846334826,-0.9802921739,-0.5056028981,0.9971499473,0.1773669369,0.2501393004,0.1997854345,0.4462272874,-0.853458414,-0.1862048147,-0.0703234726,-0.3398972833,-0.5180873289,0.5075065023,-0.0413604144,0.936676563,-0.2711394419,-0.9881034788,0.9680856515,-0.2479748697,0.6183556225,-0.0529658154,0.4199980837,0.5915633659,-0.243514351,-0.1195596045,0.280674376,0.1199154917,-0.0030643966,0.2931040344,-0.0675033539,-0.8229612495,0.6107235072,0.6283923695,-0.2873627002,-0.1823942073,0.7100899733,-0.3741452591,0.5455291025,0.8976607443,0.6966128681,-0.5095483689,-0.0073239862,0.223771022,0.3773032645,-0.0291964777,0.0724839208,-0.8804859008,0.9487692017,0.8422279662,-0.6133947485,-1.1021608017,-0.3184548629,0.1862835452,-0.5430615298,0.1338532759,-0.2582426465,-0.2127087185,-0.2059596181,-0.3977236065,0.423082577,-0.6937102972,-0.4515194593,-0.5976080406,-1.0184250429,-0.2856950116,-0.4775337237,-0.6684306572,0.2271979998,-0.7426515246,0.8901310123,0.8114318672,-0.6367618056,0.7608874223,-0.8902730459,-0.6195464642,0.6521280404,-0.6044906676,-0.1095012206,-0.9882771943,-0.7647266818,-0.5106600416,0.5589836366,0.0665917403,-0.829501948,0.6759495936,0.8396176227,-0.0313488974,-0.371005034,-1.1438193818,0.606399972,-0.4258411778,-0.808393267,0.2517183878,-0.7507461031,0.4419848001,-0.488460084,0.6133351331,-0.8030361264,-0.3610209463,0.2552631324,0.166980482,0.9347197264,0.5984722456,0.7724390418,0.7071121476,-0.8276635903,-0.493366979,-0.3588899285,-0.3564229532,-0.8614416487,0.1399831407,0.1353220589,0.0776092757,1.8011109015,0.6926934432,0.0204457126,0.0210385944,0.285084284,0.7842476807,-0.7816427906,0.420135599,0.03695016,1.0365331073,-0.5838432517,0.5330796525,-0.7737663944,-0.5908660917,-0.8589345879,-0.4224638152,0.7859381965,-1.6851900539,0.2904901606,-0.6553339484,-0.0898270588,-0.329165907,-0.4561103806,-0.6731127529,0.7333187965,0.5973878191,-0.8177402663,-0.1992881245,-0.0471901444,-1.5090015734,-0.5936881914,0.1294067356,0.2065545291,1.014536801,-0.8518799163,-0.8114467097,0.4002409931,0.5066126562,-0.0648252533,-0.7579444038,-0.819977048,-0.8859630553,0.4995995769,0.4783437173,0.7216325455,0.9647831667,0.8404714518,0.5036393334,0.7665176085,-0.6690373394,-0.9816638066,0.6043856476,0.2682520006,0.3422340466,-0.5139494441,-0.3480600658,0.2200800724,0.1857187113,-0.3579239109,-0.7738168464,-0.1186471296,-0.5565315075,-0.3140044798,0.4459850486,1.4241896805,-0.9564931529,1.0044481235,-0.8383567409,-0.4474614932,-0.2200542738,0.0582178588,-0.2227875349,-0.6500897627,-0.8510767464,1.8026889777,0.78636063,-0.4877935918,-0.5055084922,0.5372000663,0.0092452031,0.071379294,0.4185224184,-0.4813503008,-0.9235434269,0.5667968281,-1.0210775111,0.9417980992,1.0587322081,0.0818972479,-0.0631147323,-0.775671384,-0.8917136529,-0.9632431038,-0.6902875459,-0.7094804366,0.3818558441,1.0686732906,-0.5271965666,-0.5034610012,0.4484242964,0.5202150387,-0.9011843857,0.0601989613,-0.5256225113,1.0203001047,-0.7781732356,-0.1782733014,-0.4024986496,-0.1574702301,0.2270725168,-0.6640906017,0.722828149,0.1572186382,0.1857413309,1.0503538546,0.7442165628,0.792216257,0.3298981325,0.6388196885,0.8277989335,0.065355223,-0.4212710531,-0.5038826148,-0.2345201157,0.8133073027,0.3013280812,-0.9079863495,1.9238317115,-0.4075699099,0.2088754353,-0.3485627189,0.5075674584,0.7551935735,-0.6140114602,-0.3400142312,-0.8406114799,0.7760365258,0.0646772042,0.0655646601,-0.6627966893,1.6256521118,-0.2624284452,-0.3943150229,0.4943426426,0.3924663849,-0.7629708416,-0.8406136906,0.1885290182,-0.9436800724,1.2183191964,0.3959283586,-0.6290104455,0.4677220572,-0.1762967439,-0.9785336016,-1.0997859497,-0.8988169662,-0.7316578153,0.6555958413,-0.5990208625,0.0214285937,-0.2276266765,-0.7061735639,-0.0249134263,-0.3789376478,-0.8278151733,-0.5887315721,-0.3312888847,-0.3633421387,0.3204661016,1.1299529159,-0.7812892047,0.0022852684,-0.1428761623,0.1955391298,-1.0431699066,0.9766391951,-0.0235961578,-0.3035799879,1.0699224461,-0.6735454921,-0.6788226972,0.927585636,0.610489705,0.4905598243,0.3756498268,0.0153116363,-0.6407210483,-0.6682191019,1.9012734781,-0.853569296,-1.8469249752,0.8633696811,-0.3579407891,-0.6068582634,0.6965416876,-0.6869124099,-0.8791193418,-0.1573280025,-0.5348172653,0.0060945883,-0.0626989792,-0.9886500307,-0.054608116,0.5509104421,0.768712104,-0.043343145,0.5449404735,-0.7104265644,0.0680482411,0.8253802444,-0.1847110194,1.0538185861,-0.8663272501,0.3140537147,-0.2049816926,0.5205566119,-0.9869459311,-0.4010200631,-0.2302954061,0.2890889006,-0.9203648428,0.2770053352,-0.4363457029,0.7901699804,-0.413451184,-0.236297096,0.3676796821,0.5587772677,-0.8004714606,-1.1626064477,-0.674997366,-0.0972208248,-0.2930065426,-0.2439420427,0.8839298316,0.8888350474,1.041924204,-0.4979679249,-0.5065330574,0.115384121,-0.9581645971,-0.6839431646,0.9383528501,-0.9899897457,0.3584211642,-0.851673606,0.2024817675,-0.5193542894,0.6893951769,-0.6744282926,0.8784493091,-0.9607260548,0.9245547103,1.8532286761,0.4146823817,0.5394051636,-0.3510120246,0.9946315375,-0.820826062,0.2364805271,-0.245736983,0.3261371948,0.0716180021,-0.3353292695,-0.6172826887,-0.3144810839,0.1401239641,0.6813140825,-0.0636735497,0.0058624723,-0.9272094576,-0.948104452,0.1493262023,-0.458896853,0.7061723064,0.3350606336,0.1799204129,-0.8212507061,-0.7352744151,-1.1291476966,0.3588507941,0.6538545797,0.5870356434,-0.9942225932,-0.6900015982,-0.3541203448,1.1164061165,-0.7291080594,-0.4381281016,1.1002647474,0.9906688761,-0.7295047437,-0.5840327917,0.4665235933,-0.9257479526,0.8914020425,-0.1724171418,-0.5127012841,0.9272593842,0.6052449625,-0.0665604275,0.4901118551,0.9172538554,-0.5875963355,-0.3838024244,1.0190499729,-0.6449749703,0.8178674723,0.0473270317,-0.2904984512,0.6085520884,-0.9098293839,-0.069906093,0.9756099158,-1.5923594788,-0.0844069229,0.5088431514,0.2960985116,-0.6133551016,-0.5130312405,0.2777782193,-0.4962061485,0.5025344134,0.5132913571,0.7348238709,0.838167972,-0.3123419531,0.3288481519,-0.5820635835,-0.5036297613,-0.1268599283,0.2727176381,0.5950208912,0.0286688304,0.2343879333,-0.2350392345,-0.8147854378,-0.358354333,-0.1830729212,0.6918000696,0.6691740347,0.0376847859,-0.8525221172,-0.7482010632,0.9663430566,0.5203678371,-0.6046937744,0.2366089019,-0.6061147526,-0.8797870789,0.9469200635,-0.8806963239,-0.9149768605,0.1515003152,0.1722913555,0.1911732443,0.0481361009,0.4785028961,0.5547690204,-0.1352638372,0.4218281754,-0.6783666406,0.8491048703,-0.2983334548,0.0748231247,0.7686421244,-0.1296264351,-0.4215071759,-0.0738897724,-0.3457950288,0.1296935802,-0.6367199021,-0.1180943864,0.4963053694,0.8331249581,-0.008979623,-0.6232023099,1.0288939113,-1.5753191633,0.9378398888,0.3389987004,-0.669912864,-1.3294942319,-0.8549621167,0.8939812788,-0.7994469032,-0.2640046826,0.3484089869,-0.4107520387,-0.8092326305,-0.8630758421,0.2844486659,0.261094286,-0.7457074431,-0.7927393372,0.1794852222,-0.0761179764,-0.9297591711,0.6120797061,0.8957892002,-0.159456419,-0.8890429863,-0.1817616903,-0.2673977991,0.5693930118,-0.3040155078,-1.3473679328,-0.2615665266,-0.837042221,-0.189626841,1.0298275857,0.0385729366,-0.3479888931,0.6824418642,0.4742258578,-0.0126684985,1.062807333,0.2489047706,0.0458687627,-0.875788789,-0.9408816083,-0.9248121482,0.0779303934,-0.1056360582,-0.3351370784,-0.6740058461,-0.1243246224,-0.2495161657,0.1399477325,0.6573165996,-0.3692276589,0.5108341873,-0.3468446824,0.6212162027,-0.5097550103,0.0537849015,-0.9303763837,0.3737994981,-0.7352572224,-1.1317831728,-1.5560982316,-0.6928657454,1.5032290541,-0.8242220058,0.7374791159,0.5794030023,1.1262583724,1.0852262979,0.9721569459,1.1210129532,0.8507324496,-1.4526460485,0.4869666757,-0.2150713433,0.2761394568,0.7593773035,-0.112014487,-0.4861114829,-0.4049398803,-1.0564430385,-0.1738291884,1.1095614311,-0.3636206218,-0.4144479589,0.854166079,-0.3319342097,-0.9299983926,0.260995642,-0.9240150992,-0.6231607481,1.0873040008,-0.0670353906,0.8869739494,0.0799618201,-0.3560884285,-1.0644955668,0.7243904832,0.0272898937,-1.1539548208,-0.0352211645,0.5243961613,-0.0831550601,-0.4409152033,0.0820652651,0.7231465049,-0.7204674481,0.4904855552,-0.8924791748,0.4257354641,-0.0800840246,-0.4886192892,0.9411969785,-0.6407291385,-0.5414118491,0.751227688,-0.9468420744,-0.8055958515,0.0945476932,0.2539090324,-0.7244119383,-0.3515147452,0.6752040617,-0.0515790457,-1.1173318883,-1.1874748003,-0.3674349251,-0.0834314625,-0.6226592581,-0.9689864796,0.5728825724,0.5595128229,-0.4467561861,-0.2960729326,-0.5941032465,0.1146102021,-0.7952265129,0.6282097847,0.7905998197,0.2834081053,-0.4535434278,-0.053955128,1.6798290847,-0.758267853,-1.0094201176,0.2342025686,-0.4774607508,-0.6613851218,1.2410429872,0.5006228704,-0.7813348448,0.6026340361,0.8217876248,-0.4464086313,2.7277447273,0.3446586066,-0.1414473949,-0.32230142,0.2162734576,-0.6016383609,-0.3905871868,-0.704938484,-0.6866259159,-0.4088297741,-0.914487818,0.0300905586,0.599951727,0.6528525959,0.7775077136,0.3221075861,0.4358970793,-0.1994659778,-0.9300291684,0.830272874,-0.2172710075,-1.0157465094,-0.7033545909,0.7217357332,-0.133156528,0.5447178157,-0.5885073478,-0.0794952495,-0.8446793935,0.3243408356,0.9316120411,0.2518989787,-0.858526068,0.5421816018,0.2932656124,0.2954071507,-0.2293742427,0.3191195688,-0.8197798272,-0.6256610095,-0.1819718446,-0.8094566849,-0.1410689779,0.7374914076,0.6973043529,-0.0094041323,-0.529739345,-0.4438095643,-0.6673008692,-0.5965234353,-0.9934929582,1.2966642884,-0.692283806,0.7120864257,0.7439209329,0.6668116898,-0.5702118373,0.0955490029,0.7726603999,0.6066264811,-0.8533539358,-0.8319960708,0.0702903255,3.2507974451,-0.0541654194,-0.234124815,-0.0330209484,-0.0893849044,0.4722905871,-0.2807535783,0.4889325779,-0.3768585522,0.8639958755,-0.4397227722,0.3736987155,0.438423287,0.1206916234,0.2237140633,-0.4700941457,0.5523192985,0.7708331445,-0.1515561037,-0.2230638511,0.9261473806,-0.9093812058,-0.6807310559,-0.7905992895,0.0649138073,-0.1749397901,-0.9283019474,-0.1182133166,-0.0483696016,-0.5843465273,-0.4477813853,-0.7851650739,-0.488905319,0.3285477422,0.4052155458,-0.0159926257,0.2940914257,0.5016064681,0.2012879815,0.519245285,0.584230952,-1.111499862,0.1180389621,-0.6359523875,0.2224275455,0.1479509343,0.9387484353,0.284980859,-0.8239519886,1.0316905047,0.5569663912,1.1746024339,-0.0512019426,0.4702440048,0.636265263,-0.744787552,-0.2168639497,0.60986594,-0.7787474036,0.2848622644,-0.0627660004,0.9137242234,0.6250431356,2.5971779565,-0.2535919718,0.8005296305,0.3601225967,0.3342406079,-0.731690921,-0.7652043594,0.7648160589,0.3460259656,0.7876503656,0.9132347016,-0.3518274547,0.2716038986,-0.5394462147,0.3961816732,-0.2558449981,-0.6734329477,-0.9439902876,0.7820615566,-0.1471768714,-0.8892131375,-0.2548511478,1.0062814842,-0.6982425983,-0.2878816391,0.8543062361,0.6098930776,-0.1478829209,-0.6972345147,0.6967929784,0.8466164956,-0.7040294964,-0.0897454301,-0.5827196114,-0.2182594463,-1.0607108728,0.7728346655,0.0650633879,0.3422515105,0.1113406984,-0.4670431413,-0.1747625517,-0.882178602,0.2403523623,0.5182470119,0.4728388882,-0.1099148731,-0.5672400834,0.0251907849,0.5757711996,0.7355037731,0.4531321472,-0.5184177295,0.5996265456,-0.7578240274,-0.0573412303,-0.8129255166,-0.9199778321,-0.4594764164,-0.9753715731,-0.6954731643,-0.2622140435,-0.5176347327,1.1271979817,-0.008714488,0.3736328915,1.0269030944,0.7377948203,0.7484352743,-0.8439238135,0.7438848113,-0.2978677439,-0.4168702146,-0.6715650871,-0.0712383481,-0.1347940104,-0.1214172927,-0.0117766194,0.2303576197,-0.8138917029,0.1221155276,0.3487784087,-0.0775857049,0.90611356,0.4688471852,0.598635844,-0.2204279722,0.2613860098,-0.2853178208,-0.3400025535,0.1783173968,0.6990267021,0.3063092319,-0.3036484926,-0.5188250136,0.2539835827,0.7714373388,0.5434797644,-0.3338454106,1.086697583,0.8975901401,1.4846037824,-0.5522528084,-0.2337603032,-0.3732818143,0.0741283994,0.7961921246,0.4916978568,-1.7163352477,-0.0133364557,-0.2108474991,-1.8305603356,-0.6838148139,-0.4021373637,-0.8201466749,-0.0452283167,-1.0024798878,-0.1290805475,0.405237616,-0.1601945444,-0.96191656,-0.9272605839,0.7981758101,-1.7561681008,1.0420592048,0.046996509,1.2532347147,0.2592951077,0.4558787173,0.494232241,-0.7083331482,-0.4319227202,-0.1234119491,-0.2337120262,0.2464148039,0.7629134992,0.1445043588,-0.372456762,-0.6298603277,0.3035980835,0.3125355052,0.6774526435,0.2103012883,-0.4022993104,-1.1744779161,-0.0647257811,0.7652887005,0.2220339541,0.5736880564,-0.1123854554,-0.5637461352,0.4813723462,-0.4723052289,0.2261366536,0.4612574056,-0.811869926,-0.4287813077,-0.7864698755,0.0665151541,0.6190770586,-1.147239059,-0.5501865776,0.5997340949,0.2138832685,1.8867097247,-0.192726385,0.9213828149,0.9873097257,-0.9582052601,-0.1584065075,-0.9980261788,-1.2137462354,0.0148537343,-0.7458735411,-1.2085311033,-0.5009630606,0.4480508296,0.11405138,0.2648363392,-0.3456080494,0.5276200413,-0.0814527052,-0.2992498626,-0.1699316005,-0.6933858596,0.8379915238,-1.229066728,1.0162657427,0.4418773279,-0.8648842456,1.0383068577,0.8687327302,-0.1977225614,-0.4060359499,-0.3096396339,0.5341491218,0.9334225089,-0.6904943134,-0.6639357526,-0.4857126488,0.4201704557,0.9210057349,1.0161481996,0.2734907306,0.743353481,-0.359663159,0.7888245696,-0.4158767956,-0.028166719,0.3221828425,0.0495929898,0.0694984065,-0.2698579616,-0.8330420217,-0.5004576514,0.827306125,0.8427836663,-0.5033578523,0.4130375907,0.0582806437,-0.5529686599,0.1580234635,-0.4922681764,0.6127786853,0.2028463585,0.0219469005,0.4592808634,1.154915791,0.7534879516,0.8579531584,0.2936698059,0.571599742,-0.5748902806,-0.4304321961,-1.6625851269,0.0312959457,0.7336173823,-1.2180592048,-0.874451311,-0.8300208138,0.4036280876,0.5804800047,0.2622380815,-0.9867588631,0.2314565861,-0.0683564676,-0.1215028314,-0.9177478763,-0.0741062213,-1.1062897629,0.434179361,0.3931333004,0.5618410495,0.6689532149,0.8310299676,-0.2952566105,0.5544430465,0.2234066706,0.6746010587,-0.2090852096,-0.508949595,-0.6235126782,-0.6683148998,-0.5043121157,-0.5615181399,0.0685268005,0.8898640427,0.640720392,0.2316854791,-0.5651013297,0.2558305218,0.7747936865,-0.731801909,0.3590899042,-0.6485544541,-0.2016688668,0.1816946532,0.0983762488,0.4447057251,-0.4076043667,-0.2531723337,0.024567304,0.1354157488,0.6848304189,-0.4161914237,-0.2524062675,0.5425092964,0.8819494317,-0.2573198306,-0.1818046768,1.1424251188,-0.2546217009,0.5767759663,-0.5592219645,-0.9380231723,-0.7857931076,-0.2005413997,-0.8110783247,-0.2750209918,0.0215004694,0.0356165844,0.5565718329,-0.205474362,-0.3953699196,-0.107386011,0.4403843735,1.4837346838,-0.5593874366,0.7859503139,0.7166939002,-0.7603363745,-0.3923892108,-0.2559314764,-0.4993753698,0.5184654617,2.1789253599,-0.8982496305,-0.9908051477,0.6803834738,1.0453475437,-0.1822857082,-0.256998882,-0.729205798,-0.3612516978,-0.486144031,0.5469126702,0.4813450114,0.3650256827,-0.7373438595,0.6232133429,0.9187566067,-0.2197348562,0.5976230084,-0.8855429517,-0.0461111751,-0.9610498568,0.6866093861,-0.5484796143,-0.0121865717,0.4384596743,0.9598933246,0.4277267134,0.67200157,-0.3889004555,-0.7174979304,0.2974694226,-0.2140905059,0.2496490785,0.1872814949,0.2220428641,-0.0144833337,-1.0280841075,-0.5133595629,0.2142743348,-0.8571169419,0.8379034849,-0.2251707417,0.7710605054,0.6626904664,0.2166642607,0.0906751178,0.0509763638,0.7274336178,0.5828613262,0.7070595018,-0.1331741687,0.7750652942,0.5206259229,-0.0427892264,0.7125370357,-0.6828746,0.3107388347,0.1596081072,-0.0253329046,-0.2337323009,-0.0263806058,0.2905515636,-0.1133223118,1.1033976886,-0.3083021253,-0.8374110211,0.3322676664,0.7784795194,0.5705385639,-0.7078180054,-0.8111272432,-1.0767135793,0.5548456642,0.9401595688,-0.7304644437,1.5425382397,0.354411723,-0.2087825955,0.2514527853,-0.7930484681,0.2361324302,-0.8817158511,-0.7523672819,-0.8628243091,-0.7403105555,-0.2654698327,-1.0157448894,0.8821763831,-0.3521180036,-0.0281328985,-0.5028795544,0.7292057966,-0.5265442636,0.9758672711,0.806904413,0.3296865704,-0.6987173847,3.2715163375,0.7676241988,-1.876399096,0.6089880409,0.5859602761,0.8885354464,0.0904834118,-0.4849127068,-0.1577467179,-0.0213059853,0.4481159476,0.4720308222,-0.8193639534,-0.6724362118,0.9474805885,0.8778334521,0.5825836945,1.1940773971,0.1118725106,-0.2426176657,0.5701436625,0.6861663245,0.6794736959,0.1837906056,0.0232384787,-0.8119562251,0.7891071124,-0.1103095156,-0.3513174259,0.8496526521,-0.6892109698,0.8622061525,-0.6045322656,-0.8262079264,0.7723091849,-0.9933960481,-0.0224302928,0.2630289184,0.1758825145,-0.4125962608,0.0175268515,-0.8252896755,-0.119012713,0.9219844192,-0.5333142825,0.8280289107,-0.8266005897,-0.545034558,-0.1289948956,0.837962293,0.3476538416,0.4447742577,0.3171532504,0.3961556368,0.7800692105,-0.965965651,0.8640553963,-0.5941004863,-0.0078500291,-0.923621859,0.7256530355,0.7607655822,-0.6897278032,-1.154293271,0.1229505901,-1.2671417995,0.9836222268,-1.0060438437,0.9795738089,0.3442017828,-0.3144823922,-1.8478379271,1.0446828649,0.498131088,-0.5004582511,-0.9450700748,0.5462876959,-0.5470805678,0.2951585142,0.4072364112,-0.4085511733,-0.6847347258,0.5482240208,0.8645611691,0.8047749595,-0.5368843055,-0.6313494305,-0.9147322443,-0.3249073013,-0.3417065432,0.50029197,0.7960146788,-0.7022446935,-0.0449854871,0.5638739458,0.8813791756,-0.8393911323,0.5518042828,-0.3068699594,0.5858032848,-0.3983287107,-0.2979423217,-0.2567027443,-0.9904835808,0.6828864473,-0.1096654247,-0.504164387,-0.4334639255,0.7155048275,-0.5408472237,-0.1511945239,0.5110426969,-0.8400896449,0.6557231513,0.7500119056,0.6085554306,-0.9675890899,0.921212672,0.4426526344,-0.2841757498,-0.1528817414,0.671630201,-0.8784099708,0.2081246388,0.8311447931,0.3052594283,0.4806627868,0.0628658696,-0.50674993,1.7698637295,0.8379051026,-0.2753867957,0.3283610941,0.1652215234,-2.5112592565,0.0223309001,-0.6825643671,-0.7905465537,-0.1982515087,0.3795289518,-0.7567497213,0.687089617,-0.5202800468,-0.5221539336,0.9567682467,-0.7600763772,-0.3881327193,1.2865554628,0.1256006731,0.3682075575,-0.7176226288,0.538609108,0.318431497,-0.7826864451,0.610856061,0.8212575415,0.7608207198,0.6158542103,0.8745548657,0.0015350021,-0.599117937,-0.7433499295,0.6262171171,0.9810317273,-0.7460191298,0.0708666846,-0.1632030711,0.1798221127,0.3727284066,0.0924135352,0.3281818278,0.0442080099,0.7526758687,0.6645302945,0.8769983907,0.3962520016,-0.808008006,1.0108445191,-0.2674328735,-0.5926773158,-0.3491391427,0.9293155682,0.4015994979,-0.5998878629,-0.1914419348,0.2365585969,0.7573280666,0.6909631641,-0.4957814068,0.4972414295,-0.8816561904,-1.7542827502,0.8127638976,0.5882292176,0.1762781058,-0.5032223886,0.7692528844,-1.5031572106,-0.705192716,0.8004246952,-0.0696867947,0.9405458592,-0.5556973475,-0.8797027802,0.2338792107,0.5691695791,0.8969252116,-0.0245910046,0.5701171747,0.4544411315,-0.1779490322,0.1110925123,0.5962059642,0.5345879628,0.4422081085,0.2428861003,-0.203702133,0.9671103603,0.6963991295,1.0524906577,0.125026943,-0.6808872196,0.2470531269,0.5579640382,-0.5550119281,0.5833169766,-0.0544581443,-0.8797536895,-0.2129040015,-0.208143228,-0.7482708666,-0.2612537892,0.2908860612,0.4022318203,0.3012209715,0.2231121761,-0.1359691814,-0.6388938298,0.0225877536,0.5718754581,-0.5831226484,0.3322293302,0.934567467,0.2475172703,0.5658658846,-0.2545485598,-0.226075068,0.9347530969,0.4898208393,-0.4461044017,0.2771926587,-0.0271671478,-0.6150101601,0.6852895324,-1.5817167468,-0.163943735,-0.7846792346,0.7437642005,0.9314284662,-0.4765587295,-0.1057663465,0.1310407118,-0.9455108723,0.4708631814,-0.499732732,-0.4940836099,0.2423935023,-1.4598064544,0.2894440395,0.4941285583,-0.2540956422,-0.7188800821,0.7167331097
   0.216440531,-0.3236882634,-0.7955051178,0.3181128889,-0.1230460371,-0.7309969572,-1.1731238783,0.5483129724,0.1826646191,0.7175569316,-0.0916082703,-0.0115226906,0.0104233226,0.6015968193,0.2043167039,-0.447861735,0.3371228054,0.5308058685,0.589893195,0.6925076378,-0.3933466831,-0.8207619684,0.469410168,-0.2000213032,0.7085885853,0.9062074444,-0.9619379698,0.1130498121,0.2248897365,0.2252433936,0.0542158992,-0.1294169373,0.476235527,-0.112817974,-0.4344568881,0.8864563225,0.871175581,-0.1738506,-0.7335486376,-0.4831357932,-0.86354282,-0.4325577198,-0.6562014034,0.5912129733,0.0484736929,1.2042006848,-0.0469321201,0.8419763091,0.1226395097,-0.1325467092,-0.674804772,0.3854412483,-0.7273897832,0.4189676965,-1.959633537,-1.007051218,0.2310207014,-1.2784563138,0.7460757831,-0.9700787508,0.0221407318,0.6065344783,-0.4073993545,-0.5527796753,-0.1852184276,-0.8556957517,-1.266245056,-0.8548032079,-0.7524147873,-1.5768279352,-0.712420493,-0.9630459093,-0.9115703829,-0.99115922,0.5594351017,-0.169360274,0.6117192657,0.0517031692,-1.5395445975,0.1183742684,0.6383230663,-2.2766839997,-0.8863773305,-0.1965515976,-0.733749867,-0.4789132415,0.3201898992,-0.8884703657,-0.381798996,0.4585536797,-0.5947799676,0.140046656,-0.204918838,0.491023171,0.449714439,-0.8097523285,-0.3729075354,0.0546877885,0.5955692562,-0.7901554968,-0.5808919552,0.7082223534,-1.1562601899,0.2078223237,0.0746424145,-0.3938237363,-0.5198389739,0.8480275206,4.4731777567,-0.6526828693,0.5715447411,-0.823949034,-0.1335205531,-0.8950829202,0.5174113214,-1.0063438627,0.7737899894,0.1589231514,0.2114303512,-0.6973802719,-0.3596495329,0.3468245314,0.0304024985,-0.6340464452,0.7911121633,-0.164385815,-0.6481196283,-0.7804095965,0.4380140923,0.1499800649,0.2246319734,0.1541684189,-0.3712474225,0.1073402072,0.2697638444,-0.7384066867,-0.9474350425,0.5293288608,0.2049693107,0.8095886635,-0.6931942526,0.058021491,0.6357119243,0.6516888994,0.2123916686,0.3812039383,-0.0074873174,-1.0269459146,0.8443778606,0.140760192,-0.0719679217,0.5078219539,-0.9672593123,-0.5280045473,-0.2965098753,-0.6975238064,-0.6722785889,-0.7372223731,0.6275623958,-0.3640477508,-0.5224295924,0.0626996898,-0.2390197123,0.3585253767,-0.2772348997,-0.0391288941,0.6406969615,0.0392808199,0.2468545039,1.2165223773,0.8871825598,0.425507638,0.0001590101,-0.0486320858,-0.8714170034,0.449525523,-0.1671751094,-0.703313557,-0.8895790341,0.7175026895,-0.4088116062,0.4307756359,0.461559433,-0.8738406385,0.0674496738,0.5704320245,-0.5590588818,-0.8689950906,0.2360865998,0.1841693749,-0.3610827284,-0.815590989,-0.4448638036,-0.6361766025,-0.3515081182,-1.6127472543,-0.4944756473,-0.3918911386,-0.0698601019,0.8003988594,-0.9387511446,-0.8690583447,-0.6336985654,-0.74994519,0.8240962003,0.9435426381,-0.0251488544,-0.2087316431,0.8160230249,-0.6466412229,0.5509867878,0.2799433301,-0.7959526425,-0.5439281309,0.3361388258,0.6903088266,-0.3349622317,-0.1866377846,-0.286547142,-0.697479453,0.8788867651,0.7440092243,-0.9698996439,-0.6408515429,-0.4797477471,-0.0409664058,-0.0749217516,0.6382175847,0.1273707262,0.3402830641,0.3347471975,-0.3714508725,1.1651292632,0.2254553446,0.0359143939,-0.0423163327,0.0127367775,-0.5373088638,-0.2465602759,0.6045381227,0.2463274513,-0.9737799463,-0.7691018637,-0.2784957345,0.1897839595,0.6571467785,0.2997550772,0.1756851858,-0.4861646444,-0.2604538317,-0.2493138587,-0.2566332872,0.1961166943,0.4412680315,-0.258112668,-0.4498760955,0.6168655996,-0.21132664,0.7508983055,-0.1280096474,-0.2325797415,0.4966976756,-0.6455218154,0.2204179916,0.1310071042,-0.4517121198,-0.2505330238,0.200121397,-0.5730454209,0.9783853923,0.6924852292,0.2846873048,-0.9209897018,-0.3833361582,0.5961184661,0.0837470491,-0.1180789729,-0.4273809124,-0.2158703794,0.5616603148,0.8580475526,-0.7707059646,0.448782278,-0.6763334792,0.8948957367,-0.920129272,-1.0107248143,0.8861888299,-0.3050009157,-0.2964829173,0.3367095174,-0.9562209956,0.9604975928,0.5264279307,-0.9709348706,-0.4830720287,1.3306485219,-3.6396741976,-0.8103001543,-1.0341584886,-0.1391353994,0.6268286799,-2.1269489033,0.1490153927,-0.4694975106,0.8600603599,-0.4009964748,-0.2218062471,-0.8927728489,1.0118347236,-0.0733787708,-0.7715251988,-0.7801686232,0.496176485,0.824545751,0.0613206687,-0.1946700609,0.2669433852,0.9266168738,0.6568797772,0.1201657646,-0.6805797858,-0.7145934175,-0.6390247225,0.4799923847,0.1536201135,-0.3833500603,0.5873684644,0.1872597727,-0.7086635438,0.8012392438,-0.6663187207,-0.98063421,0.0260777625,0.4947140273,0.2146304029,0.6314590735,0.2341236266,-0.2386586255,-0.2807317321,-0.7367641177,0.3787785288,-0.3651696033,-0.8947821918,-0.4712309046,-0.67789095,0.8578855127,0.4694523108,0.8449382918,0.5462844764,-0.7929758478,-0.5470343568,-0.1669995275,0.0116705952,-0.7578036824,0.5272885124,0.6334723286,-0.7240026781,1.2324966502,-0.0649180924,-1.2732044735,-0.4111111559,-0.8036590635,0.05908327,-0.5403076163,-1.4558280695,0.7279547671,0.9654449749,0.0918683216,0.9967572538,0.5411597435,-0.0365660803,0.0977822402,-0.476522582,0.4564961227,0.7037297844,0.5866774107,-0.9704982557,0.2562993547,0.3474795176,0.5243028872,-0.7288819326,-0.7266781447,0.9315981638,-0.3652151984,-0.773084221,0.4494056501,0.1627533808,-0.9719406652,-0.9538297758,0.5732021614,0.9345142211,0.931177315,-0.9489086441,0.3663652921,0.6143421722,0.3353542754,0.5197221312,0.3509927889,0.9476912613,-0.3447139602,0.5713983797,0.2121640745,0.6769305767,-0.7569860054,0.5687687923,0.0190956442,-0.7272409454,0.7026834651,-0.3859488484,-0.4637282212,-0.8448881761,-0.9307206121,-0.093837438,0.1173882915,0.0743574405,0.3451938595,0.2842783884,-0.8838351785,0.0354863175,-0.4065818014,-0.2807226679,0.6678726519,-0.7382264128,-0.3217894417,0.7107012834,-0.2427085904,-0.4889578731,-0.4547686803,-0.1008288375,1.0586997984,-0.4468351921,-0.5204933139,0.5419529718,-0.3178036457,-0.3742782689,0.5884953424,-0.2317953502,0.6580749241,-0.0758978296,0.1299214047,0.4607535799,-0.5821695321,-0.7008829195,0.8265471639,-0.1660324717,-0.6266868471,0.1475962755,0.0194041757,0.4948058298,0.6454510506,-2.1638781165,0.9803026453,-0.166535778,-0.7359678664,-0.7367199365,-1.0282940627,-0.1694453881,-0.9245182141,-0.6109568042,-0.1250395719,0.4077431801,0.3895891814,-0.7970383794,-0.3340062913,0.5287813705,-0.9106186856,1.0409119998,-0.2031985597,0.0010459097,-0.3321478082,-0.2258324996,0.1205014485,0.9517711198,-0.361709484,-0.0597472973,-0.84700614,-0.3950165139,0.7824864401,0.2072268146,0.3611455403,0.7970827272,-0.5676464052,0.4317497548,0.6531371533,-1.1911167926,0.6051375633,-0.5305272972,0.1056118291,0.3261091381,-0.6437320221,-0.1931129798,0.33925053,-0.7340122727,0.8344232388,-0.5302151763,-0.9595720929,-0.3670959083,0.5441928853,0.6104526569,0.3738464789,-0.8459065616,0.2904269818,-0.3427853083,-0.8821637485,0.1424389194,-0.6132615724,-0.8900025556,-0.7149074574,-0.1453674427,0.6829834444,0.6824141679,0.2741647774,-0.5426548321,-1.7480247091,0.4931916019,0.22475761,-1.1552817975,0.6076831196,0.3375014748,-0.3967789413,-0.8181270933,0.868124627,0.4441225736,0.2569217392,0.5156427671,0.2645280652,0.0750350876,0.6680127693,0.7728323819,0.2058178548,0.8472687401,-0.5409596788,0.3225640682,0.0572167961,0.1547148964,-0.0739257459,-0.3350253349,0.3792239774,1.0647348447,0.678787704,0.3663010972,-0.4001889354,-0.1658019079,-0.1364147915,0.9333118351,0.0786637813,-0.9595082695,-0.5980276317,-1.3495112756,0.0063186767,-0.1262206101,-0.6122180313,0.333160308,0.5249791501,-0.9612323316,0.1467383067,-0.530747792,-0.1706085029,-0.7094092265,0.2399503767,-0.7329216584,0.799115648,-0.1457841695,0.1115140925,0.7917975871,-0.0461690203,0.7222168067,-1.2226384089,-0.1188412319,0.1977817538,-1.0110350395,-0.4707178299,-0.6371684254,-0.5912922912,0.3820965338,0.6818610433,-1.2083688388,0.8334776269,-0.1428242429,-0.3416671058,0.6444928099,0.0700810915,0.5263394148,0.1869273,-0.9697710094,0.3232055075,-0.7776156232,0.0249820082,-1.9261580836,0.1967904734,-0.1632416631,-0.0881917887,0.967840912,-0.2014927474,-0.902117616,0.0762299251,0.7874049744,0.5912524101,0.2797015476,0.5669476588,-0.1964670271,-0.754122472,-0.3579317901,0.5237415519,0.144920389,0.49860591,-1.013136731,0.6991842539,0.2335529599,0.2092188095,0.1949263096,-0.358514701,-0.1653236523,0.1835006234,0.5960673342,1.1110724046,0.983978406,-0.8171089187,0.0530796185,0.9872352951,0.0546940249,1.2370714264,-0.4554884939,-0.0084086852,1.1211056301,-0.3311710918,-0.6840373728,0.4536887775,-0.6294344741,0.4560529592,-0.162033449,-0.5261288996,-0.9157757745,0.4908788673,-0.8203600183,0.6053132073,0.174264305,1.0303219794,0.8945812857,-0.5019961838,0.8944089053,-0.3847307713,-0.1227701613,0.9296101643,0.2936739467,0.4441096776,-0.3118670119,-0.8420046842,0.4024692068,0.6518581669,0.4781878826,-0.4502481195,0.9245362395,-0.8430486102,-0.6692269094,-0.0539027902,0.0576727875,-0.9058441906,-0.3224414125,-0.8124704067,0.8989571905,-0.4680819982,0.2661484435,0.5393490505,0.5829778891,0.2531784439,-0.269305125,-0.2366807995,-0.4322951727,0.9348346856,-0.8491540986,-0.203285073,0.5678884232,0.0335783264,0.052524061,-1.2203994196,0.4702139685,-3.3042455689,0.9360770159,0.8271614522,0.2894740987,1.0304687307,-0.4573662423,-0.1630037446,0.9246350519,-0.0182963284,-0.9822164462,0.2786019346,0.7469092173,0.9288744568,-0.6527330962,-0.5178143329,-0.0373855382,0.9260890237,0.6833618743,0.0740482938,0.3796834528,1.0112238289,-0.0509658437,1.1415927851,-0.6790558541,0.1257172107,-0.116213939,-0.8896177285,0.634814231,0.6774476385,-0.4142059379,0.7172594828,-0.3649822545,0.9507348961,0.3830162969,0.1990483208,1.0398189046,0.7294750543,0.878956592,-0.5766854887,-0.7513084527,1.1427459833,0.5427416079,-0.355523158,-0.1249192644,0.9431389069,0.7627415353,-0.2704984724,-0.2935066824,0.7162859779,-0.0114227086,-0.2089479235,0.2057090161,-0.0108639057,0.3896146918,-0.1046048329,-0.7843813918,-0.3289424325,0.4293675667,-0.3970421312,0.9823324037,-0.2674092331,-1.1698764639,-0.6778466733,-3.1941149114,0.2645036458,-0.7875109989,-0.6594104099,-0.3015602289,-0.038359914,0.0445872974,1.1002769202,-0.8037979411,0.0806745049,0.6910378242,0.0191226648,-1.0212796214,-0.4420408211,-0.6262258471,0.1874470758,1.0389608892,-0.3331257582,0.6740254372,0.7237166039,-0.7407697312,-0.4362920273,-0.2703850809,-0.1741522263,-0.5965456099,0.1025116186,1.0190557097,-0.9347111391,-0.160973872,0.2522932152,0.0688284245,0.439705194,-0.2189695287,0.2417503597,1.4761788866,0.9477460349,-0.9333404875,0.3011437437,0.3980338815,-0.0687329425,0.350142566,0.1960470358,0.1813604488,1.0868261419,-0.6236052993,0.2815830597,0.4989227905,-0.1995767816,0.195569384,0.0756140305,0.7808331875,-0.512153161,-0.3540145942,-0.1648030751,-0.1702425508,-0.7589461779,-0.0870822561,0.1143095168,0.8351163086,-0.0259116049,-0.9362019037,0.1549951714,-0.2201672198,0.160740801,-0.473976752,0.7285793725,-1.3617858812,1.1081716898,1.0041246372,-0.5591717626,0.7680299619,-0.3385990664,-0.9259046823,0.793427278,0.6527408802,0.222453449,-0.1567973089,-0.5429307504,-0.3694953473,-0.0863352618,0.2129309644,-0.898984088,-0.0209086942,-0.6049967057,0.2200423089,-0.3680248934,-0.1727035177,-0.5196720904,0.3944130845,-0.2013943662,0.4534681991,0.9919521662,0.1860634164,-0.7629153862,-0.7004421183,0.7021465491,0.1034685393,0.0961193804,-0.8978684551,0.7172603769,-0.9353871297,-0.1833074413,0.8297545979,0.4406956853,0.8865266137,-0.5889478747,-0.0863384197,-0.7238781523,0.8733539809,0.1028307572,-0.4341194783,0.1960311896,0.4064398484,0.4652219498,0.5257238283,-0.2382677394,0.2494459458,0.8121724347,0.4881127712,0.4513249639,0.8448155769,-0.0347866667,-0.0357865131,-1.0442377786,-0.2140408821,-0.3618626159,0.4174873562,0.1648155391,-0.4009872183,-0.0035918416,-0.3048069874,-0.1007729416,0.6602795127,0.0317893855,0.8418088615,0.0725598736,-1.044226129,-0.0897751284,-0.9898037384,-0.2994284398,-0.6631149588,-0.0585483341,-1.0786269033,0.6989950829,-0.0300729023,-1.2384986155,-0.8378678266,-0.4707649036,0.4186185458,0.0898884591,0.4837434779,-0.3429726485,-0.2305839147,-0.8245303653,-1.714112853,0.3598223032,-0.5826420954,-0.5303636729,-0.2944332335,-0.9254334983,0.0931663803,0.7283911361,0.154726687,-2.3486223348,0.0000799724,0.5457783577,0.2590397923,0.0324980875,0.6687421457,-0.2890590803,-0.3594079823,-0.7213477458,0.7204768307,0.9384991631,-0.5952660071,0.5375515877,0.9402614759,-0.5798184241,0.6372123019,-0.7679675879,-0.0110335704,-0.9499955144,0.0562485557,0.76892167,0.1980736946,-0.1649303525,0.0004020425,-0.5109788478,0.7192298056,-0.1734802212,0.7026934569,-0.8534053186,-0.2184671566,-0.1827363377,-0.7186568374,0.2276547608,-0.418567842,-0.4996668187,-0.1773424522,-0.4011338699,-0.025639656,-0.6477376142,-0.329410446,-0.77173036,0.7966259135,-2.5888348864,0.2527928856,0.8812861456,-0.9186594981,-0.0512697418,-0.2758445033,-0.7388319265,0.8039619982,-0.4281509623,-1.8382508322,0.0854426725,-0.7777752489,-0.6424614135,0.294652843,-0.826280136,0.333027444,-0.3279520638,-0.9824256855,-0.987292821,0.1094891706,-0.1972731315,-1.2244138014,-0.0678300525,0.0388299954,-0.2937616922,0.1500907753,0.4177642988,-0.2979116217,0.0007408902,0.5545424365,-0.1218541963,-0.7681524285,0.406958542,0.0558621679,-0.1168703673,-0.7826352691,0.1224601307,-0.7255118383,0.0271246266,0.5014511945,0.7653272926,0.7209473917,0.7342607988,-0.4059352302,0.1078894639,1.58720554,-0.4845542975,0.8189546232,0.4341787444,0.3634606136,0.8675596027,0.5868762921,-0.085061077,-0.1294654641,-0.6696587022,-0.6749639812,0.1374838036,-0.5206524519,0.3211475706,-0.3927444241,-0.8599305521,-0.7758207948,-0.6886260746,-1.9111467962,-0.6911053548,-1.0655947333,-0.8232610985,0.6696470402,-0.8310152818,0.2795051244,-0.2145993514,-0.1695438774,-1.6660207224,0.3706604673,0.7000695479,0.7074385335,0.9754718277,-0.2323133984,-0.3187348891,0.1158316127,-0.9925774974,-0.3911508436,-0.2060093895,0.6843465457,0.6846061733,-0.5475372251,-0.0114451024,0.0583393322,-0.010636074,0.5185959993,-1.0068091066,-0.095870446,0.4295623527,-0.6518922405,0.189680066,0.2211986063,0.2318363712,0.1944009419,-0.2126250371,0.5700302517,0.9024067115,0.6519925969,0.4703635035,0.564614144,-0.2716949854,-0.7018005396,-0.1084900726,4.1778443357,-0.560533346,-0.8325091269,0.4782817845,0.7798394745,-0.6909370398,-0.8420577068,0.0542930504,-0.2037245251,1.0002434263,-0.0726161361,-0.9074988913,-0.1468039366,0.114657899,0.9954018454,-0.6952774757,-0.4432517678,-2.896593916,-0.7985036363,0.2533499931,0.4076335917,-0.869787124,-0.0151024073,-0.1599509617,-0.5085436737,0.632208567,-0.1279201075,-0.8503852859,0.6062733605,-1.6769514443,0.3548391812,-0.3899770794,0.6655764534,-0.3014889506,0.514443077,-0.4623626033,0.2643629849,-0.1762394183,-0.2675855854,0.2845629878,-0.4630247547,-0.5368103031,-0.6457414216,0.0937710662,-0.0026582288,-0.6655868179,0.3426552422,-0.4669758097,0.1650919388,0.9866916296,0.5695287993,0.1397009078,0.2839579328,-0.3210336981,0.9508528606,-0.9654560963,0.8511968888,0.6618704477,-0.5930030297,-0.3957223302,0.0257300925,-0.9064761818,-0.0058524101,-0.5638460243,-0.4513697947,-0.0434973995,0.2959488478,-0.6155291818,0.7997584103,-0.131792558,-0.8266785066,-0.3357238152,-0.3834315135,0.5014722541,0.215263129,0.6592348738,0.7235920829,0.8306787955,0.6260140583,-0.9154335073,-2.5424259953,-0.8602857506,0.9624289834,0.825938204,0.2310945034,-0.3402429666,0.5869106082,0.4368709071,-0.7043170647,0.272095462,0.7554622058,0.9072574024,-2.0296556305,0.4437521879,-0.7810410725,-0.5055463869,-0.3629710802,-0.877045946,-0.0538730365,0.5908318737,-0.2637522105,-0.3258339331,0.1290196958,0.5992214809,-0.3388908598,0.7707216245,0.1295529936,-0.0892575583,0.1724620485,-0.4247707553,0.2841640289,0.0613797665,-0.1426720717,-0.7766453632,-0.498378828,0.6776703577,0.2623625721,-0.8917496912,0.4016926575,-0.6425810445,0.1574625629,-0.9713019038,-0.4821332178,-0.0533393664,0.5303850303,-0.5492012284,0.4280341522,-0.5197614573,0.5514543926,0.6741908395,-0.3937243561,-0.7309967588,0.6344158862,0.7593375986,0.8862510967,0.0838115173,-0.6217192968,-0.5290004403,0.5962961379,0.7373241642,0.473896155,0.0063283811,0.6097095636,-2.8306056696,0.5821163494,0.5523648317,-0.8437752453,-0.1116191853,0.0314536706,0.8705337073,0.3919345072,-0.141556228,-0.3792330265,-0.288618962,0.3075000418,-2.715205717,-0.5478505295,-0.7471722446,-0.7694035089,-0.9065500991,0.2959747955,0.4650556955,-0.8144593183,-0.1400186778,-0.5423033729,-0.7135555287,0.0524753021,-0.6213486329,-0.9050242351,-0.209139518,0.7899227524,0.2014655644,0.0040904196,-0.5872241433,-0.0928772377,0.6972920354,-0.8640499524,0.4015187553,0.392712645,0.6388722266,0.7569493678,0.5082927615,-0.9990826789,-0.2234975152,-0.3101483738,0.922079186,0.6683870226,0.0737736212,-1.0000240998,1.8707629105,0.4348452765,0.7716123563,0.177500945,-1.3194050427,1.5390105389,0.4579098352,-0.7601788084,0.299158157,0.3616193297,0.1201197725,-0.405245974,1.0011381125,-0.1057422575,-0.3559186539,0.3052217276,0.1174181017,-0.5406423623,-0.3414480405,0.9610218714,0.0414493386,0.5600124781,0.4585095,0.6782024256,0.792975624,0.5695625775,-0.622412889,0.3938403629,-0.7986063024,-0.4831731251,0.8188924788,0.6465240511,0.1335513856,0.9508724184,-0.5910251622,-0.3896149438,-0.6472065587,0.0363655254,0.8371081156,-0.6891960761,-0.9392225471,-0.9838169294,0.9211000296,0.4597309621,-0.0607051919,0.0016436479,-0.9750856514,0.0860490031,-0.3346887303,0.0172803845,-0.4213846733,0.5161830668,-0.4028733676,0.2612425403,-0.9334801538,-0.5772784452,0.4811218323,0.5049607006,-0.5930098078,-0.7066183144,0.37994632,0.1221181198,0.1136168508,1.9023021877,0.7992858609,-1.6409645732,-0.9170263847,-0.2314739412,-0.1841633675,-0.755341432,0.651033604,0.100318524,0.0407808865,0.8964899136,2.3488379146,0.2944763066,0.1483311566,0.7745512736,-0.3272318856,0.6677545644,0.2245115652,-0.1988934322,-0.6558055689,0.3609667312,0.3256213763,-0.4066502607,1.9092441757,-0.4225108761,0.4374686683,0.0854795699,-0.7261344333,0.8007647078,-1.3619006476,0.1190941636,-0.4221031979,-0.1963236083,-0.1910380644,-0.8399234552,0.260696554,0.7359382964,-0.672105802,0.5562205131,-0.2825673704,0.3711079674,-0.943128462,0.6262322364,-0.7792101007,-0.0804114213,0.9690283648,0.9861109835,1.0284033637,-0.4423882428,0.1139812829,0.5140108539,0.9500614404,-0.9903054106,0.8564490154,0.6607403045,0.6641501076,0.3022737081,-0.6159076625,-0.1960373563,-0.8524565323,0.5200858197,0.1154944242,0.3058306609,1.3239629491,0.7221160502,-0.2833475398,0.7475347266,-0.280837614,0.6608931509,0.6751789337,-0.442375834,0.0495703714,-0.3893164841,-0.6640866685,1.4585339867,-0.7017011213,0.5541346119,-0.5242147437,0.541574164,0.2310771949,-0.4593944063,0.1284263539,0.7575800754,0.252034848,-0.471189862,0.2267926007,-0.6830365044,-0.0664542826,0.4946626703,-0.425574451,0.4367618632,0.7060360405,-0.3259160993,0.2054133355,-0.3832697697,-0.1251601468,-0.9967040616,-0.353287729,0.5345133362,-0.285138956,0.4126655402,0.5292265631,-0.4769827061,0.5442928298,0.6840958492,0.5467673751,0.6409840145,-0.4985436646,0.6883783757,-0.7696424683,-0.4712885718,0.7205900679,-0.1652507544,0.8021578509,-0.1534990004,-0.8209527357,0.115723753,0.3981011077,0.5724705512,-0.4359272837,0.5924774099,-0.6985787048,0.3703173736,-0.9147821227,0.229560184,0.3268568825,0.304653707,1.4200753604,0.2947660328,-0.5338222877,-0.7843856799,0.3889712245,0.7244180756,-0.1242947735,0.1362421634,-0.681789209,-0.0665454161,0.9191570327,-0.3733279786,-0.958051077,0.4719051656,-0.4580870874,-0.89245,-0.0372904982,0.4125405528,0.3553210662,0.3787176242,0.780140845,-0.3114628648,-0.637532446,0.9326471946,0.1452056716,0.6433543501,-0.6728949434,0.2232107406,-0.2320094524,-0.859261496,0.1876075116,-0.2614393168,0.5443293431,-0.1639002091,0.6015005899,0.6631778141,0.2148124284,0.7464022324,0.9074178961,0.645765365,-0.1517239135,0.3134688731,0.0333154477,-0.8213979799,-0.1799371844,0.6455759508,0.8686356037,0.7865116176,0.1084685071,0.4271146644,-0.1981403992,-0.1351407147,0.3053741656,0.2789682733,-0.4482738326,-0.1822718007,0.5702887119,-0.1605790737,-1.0636535698,-0.4900391994,-0.4851920005,-1.0059437874,-2.2558826213,-0.9367844321,3.4146103337,0.9792721215,0.166539502,-0.1058269399,-0.4995008007,-0.4117594035,0.6411197753,0.6492885591,0.1571973593,-0.1209036504,-0.8254073066,-0.4609516744,0.5789285836,0.3682702693,0.8646981828,0.4093632415,-0.271818685,-0.3513426656,-1.1006707383,0.0210124231,-0.4930085322,0.1675107838,-0.2913385468,0.4183354814,0.8578400634,0.8878591777,-0.0752410679,-1.3003685878,0.6625417292,-0.9383772955,-0.1695561518,-0.4725701975,0.9757631319,-0.3409824155,-0.1115484644,0.1308302383,-0.2280958888,0.4935290326,-0.3683978353,-1.1315929039,-0.4237425465,0.5910070808,-0.3181169124,-0.4187348753,0.1083834159,-1.2155444866,0.486286828,0.3488363892,0.6131577434,-0.9225590928,0.8344619665,-0.6205413984,-0.9439202622,-0.7755067514,-0.5228524952,0.1258397349,-0.1323365797,-1.1892319938,0.9443019889,0.0068010973,-0.0757558742,0.3970845811,0.2667237748,1.2198954884,-0.520522069,0.6032289837,0.5871199072,-0.513727607,-0.7088436586,0.2367392192,0.8893801141,0.7869260525,-0.9382237023,-0.0057331357,-0.4572430827,0.519132452,-0.6824955781,0.9000277417,-2.5121518071,0.0701525803,0.7329811295,0.1963698236,-0.1628422724,0.5696345799,-0.3278630872,0.9566034627,-0.9810874452,-0.5047566443,0.4305651352,0.5989536288,-2.2553398207,-0.0312050344,-0.8848857254,-1.4641009475,-0.3237738336,0.2461561474,0.1100072613,0.491266499,0.2187224847,0.4757940421,0.0971244765,-0.5192382761,0.1858356213,-0.9450584529,0.0386417886,-0.3016644314,0.4039193007,-0.2869396783,-0.7446820931,-0.9292402743,0.9546136112,0.7425898145,0.5600027467,0.9418737107,-1.0113463776,0.3833166916,-0.9841499197,-0.2229257708,-0.3057122451,0.6764298798,0.2511645625,-0.2574870425,-0.2673181971,0.9140875544,-1.9627088801,-0.1104030242,3.4572566757,0.9732857141,-0.283211057,1.2987157799,0.2569361111,0.8834631325,0.8923437214,0.0100211263,-0.5330377591,0.3858795233,0.9528024093,0.3319687226,-0.8162378304,-0.3951169241,-0.1950165755,-2.3518216213,0.2169040278,-0.3818562763,0.4334614417,0.9666717023,0.6725967386,-0.9580904557,-0.3511364011,-0.3285521507,-0.3973127888,0.3270232217,-0.7404766826,-1.8307222524,-0.4082302757,-0.0289072734,-0.7051836795,0.709642329,-0.8884135725,0.6817919369,0.8711625047,-0.2618103759,0.9059212777,-0.6662013949,0.0918288945,0.432534178,-0.7807174958,0.8686136278,0.5105401425,-0.7185063613,0.5653579541,0.7053416054,0.0242395032,0.6974387262,0.4297940487,0.7242703182,0.0040125983,0.5669653527,-0.3602038387,0.8665617379,-0.1218771249,0.753845046,0.4382168463,-0.6109533819,0.1465346799,0.8596075457,-0.0019824788,0.9975570661,-1.024472497,-1.171953699,-0.7619799027,0.7527697479,-0.9132336075,-0.5252470097,0.7583881024,-1.3504042217,0.7730833811,-0.4520232881,0.0959209081,0.1593889207,0.2521287664,0.6086279365,-0.9683174268,0.6121017359,-0.1695534176,-0.5888160955,0.9739556283,-0.7217389393,0.5474642682,-0.5247374567,0.5485738245,0.2585603774,1.0381800801,-0.5242528185,-0.4452951234,0.5638689819,0.8828139758,0.7917519471,-0.1995511614,0.9786510844,-0.852232309,0.3895960707,0.099951125,-0.0102227925,-0.413470812,-0.0464055518,0.2531928628,0.246673516,-0.7435152216,-0.0057592127,0.5536411827,-0.4126419101,0.1729743343,0.0966540837,-0.6279153033,0.7232890693,-0.2929056592,-0.0350298219,0.2084332847,-0.4229007804,-0.0267016188,-0.1349840843,-0.1866941594,-0.6293345183,0.3929432448,-0.5854649557,-0.2070959927,1.0525881459,0.3189696027,0.8096310539,-0.6918688418,0.7498080624,0.2971686162,-0.4375713653,0.1489833816,-0.9165387567,-0.0084095495,-0.4941601941,-0.5672447754,-0.591907016,-0.6479802951,-0.0233475419,-0.3117806835,-0.5640803789,-0.7372048506,-0.6515322951,0.230723153,-0.7242970664,-0.6568657368,-0.5349695719,-0.3708625053,0.9002294103,0.752078179,-0.2555313105,0.8056798618,0.9212667707,0.1622977581,-0.1663574063,-0.3160370349,-0.3435432538,0.6479362443,0.0459714858,-0.882650739,0.634839976,-0.2847397093,-0.5629438386,0.3979341317,0.2182881212,-0.1060010268,0.2240391097,-0.4566825138,-0.352632842,0.769572866,0.0353675727,0.1584584061,0.7416350781,0.4429798597,0.6460688194,0.9983771915,-0.9571339322,0.5488352519,0.0805825314,-1.2492013711,-0.4996493972,0.9473889029,-1.2249270768,-0.7987292183,0.3805492403,0.6608827656,-0.543348875,0.9370420795,-0.205374052,0.6545108217,0.3656860174,-0.1215815433,0.0418943153,0.0229646707,-1.0878277102,0.3522556966,-0.2576094015,-0.5517672573,0.0740147163,0.0280647488,0.318830105,-0.4251766009,0.4394690111,-0.7287600851,-0.4224736214,-0.9804677396,0.044536206,-0.1141582829,0.1603589489,-0.2185429137,-0.2783938674,-0.1041962502,-0.1510789457,-0.715922722,-0.1299394366,0.1567537854,0.2838303513,-0.7025239588,0.337813355,0.817968018,-0.707032184,-0.9514201303,-0.5440527567,-0.9064511489,-0.1771414827,0.0805920285,0.7683468913,-0.2057933181,-0.5186332414,-0.5401136159,0.5064952803,1.0044060076,0.0098821078,0.1783733984,0.6467016379,-0.1174672701,0.7854887198,-0.7983712272,0.2862933244,-0.3888191943,-0.6837011144,0.5290585351,-0.2692665823,-0.2256564078,-0.6045452479,-1.1118304317,-0.4500959751,-0.6762621358,-0.1780780584,-0.6132807151,-0.6995780665,0.6504999122,0.7834877456,0.0177553968,-0.2657292923,-1.5641630501,-0.6780027636,0.0951899093,-0.0024343906,0.0087079392,0.2864350155,0.7489387882,0.3545028202,0.7203511407,-0.8103206635,-0.6490449051,0.0303973307,-0.3609909097,-0.7136931999,0.1309385904,0.1261809582,0.3005859986,-0.0038259985,0.4566405976,-0.3238571701,-0.0531875423,-0.9083118443,0.2311931879,-0.0369309007,0.7104533327,-1.5943113628,0.2192965466,-0.3825204894,-0.3064766414,-0.6598841746,0.3802660035,0.0830054458,-0.3269059535,-0.3103309129,0.0939658026,-0.8955652324,-0.3234092644,-0.7197782949,-0.4963036118,0.8406641694,-0.9877803699,0.7741007967,-0.6006143444,-0.2794463315,-0.7107808127,-0.5035749214,0.184665371,-0.4364698277,0.2433644345,0.8329416985,-1.1375449334,-0.5989656822,-0.6407079223,-0.6719954893,0.2282416204,0.5689956895,0.8149465772,0.5759255727,-0.1763719357,0.8558524263,-0.3728858014,1.0216693363,-0.1482043215,-1.4335187361,-0.5477564697,-1.0259548879,1.491897356,0.1031820317,0.6201391352,0.1877664511,-0.9366820168,-0.7931575061,-0.4823630823,0.0615928264,-0.8933419018,-0.1062081341,-0.6791580851,0.0021026003,-0.355857023,-0.0476076435,0.1683674158,-0.5035786585,-0.634736485,-0.352510033,-0.9201239625,-1.178532874,-0.4387828157,-0.2647132319,-0.5941360898,-0.0322332728,0.4374425517,-0.5224704151,-0.2419311964,0.2443163889,-0.6973050066,-0.8050846905,-0.321440171,-0.3535653217,-0.4307647411,0.3329310406,0.6443971992,0.1176593172,0.6540993727,-0.145226288,0.3893592274,0.7074386738,-0.898431258,0.903304216,-0.4433818511,0.8418440457,-0.5631986011,-0.967799452,-1.4547462506,-1.13859075,-0.0221589029,-0.9510105017,0.303158423,-0.6856010954,0.7086054786,-0.1332520751,0.9379753248,0.301034734,-1.0477526287,0.4078886647,-1.2337522185,0.1334460514,-0.6467749093,0.11882784,0.250434271,0.7286566909,-1.0336392304,0.3517192975,-0.4341462138,-0.3881307759,-0.5417218918,1.1036575564,-0.4985298632,0.0424432181,-1.0530657024,-1.4784330381,0.3799041333,-0.7104499565,0.602825804,-0.3342831136,-0.5008140963,0.2819300697,0.1755310813,0.9514172985,-1.892615145,0.3250280372,0.0345602191,0.1055241251,-0.3178806736,0.7251186543,-0.7697402782,-0.0198005931,-0.1475463827,-0.0894194434,0.7995363425,0.7742887009,-0.2593120501,-0.9309315478,0.6944758315,-1.3641727263,0.3476973036,0.4294784482,-0.1440314737,0.4984637928,-0.0854166601,-0.1759133072,0.5075897614,0.9189854321,0.6680536402,0.5681517341
