encog,BasicNetwork,java,3.4.0,1,63714525599976
[BASIC]
[BASIC:PARAMS]
[BASIC:NETWORK]
beginTraining=0
connectionLimit=0
contextTargetOffset=0,0,0
contextTargetSize=0,0,0
endTraining=2
hasContext=f
inputCount=630
layerCounts=1,101,631
layerFeedCounts=1,100,630
layerContextCount=0,0,0
layerIndex=0,1,102
output=0,0,0,0,0,0,0,0,0,0,0,0,0,0,0,0,0,0,0,0,0,0,0,0,0,0,0,0,0,0,0,0,0,0,0,0,0,0,0,0,0,0,0,0,0,0,0,0,0,0,0,0,0,0,0,0,0,0,0,0,0,0,0,0,0,0,0,0,0,0,0,0,0,0,0,0,0,0,0,0,0,0,0,0,0,0,0,0,0,0,0,0,0,0,0,0,0,0,0,0,0,1,0,0,0,0,0,0,0,0,0,0,0,0,0,0,0,0,0,0,0,0,0,0,0,0,0,0,0,0,0,0,0,0,0,0,0,0,0,0,0,0,0,0,0,0,0,0,0,0,0,0,0,0,0,0,0,0,0,0,0,0,0,0,0,0,0,0,0,0,0,0,0,0,0,0,0,0,0,0,0,0,0,0,0,0,0,0,0,0,0,0,0,0,0,0,0,0,0,0,0,0,0,0,0,0,0,0,0,0,0,0,0,0,0,0,0,0,0,0,0,0,0,0,0,0,0,0,0,0,0,0,0,0,0,0,0,0,0,0,0,0,0,0,0,0,0,0,0,0,0,0,0,0,0,0,0,0,0,0,0,0,0,0,0,0,0,0,0,0,0,0,0,0,0,0,0,0,0,0,0,0,0,0,0,0,0,0,0,0,0,0,0,0,0,0,0,0,0,0,0,0,0,0,0,0,0,0,0,0,0,0,0,0,0,0,0,0,0,0,0,0,0,0,0,0,0,0,0,0,0,0,0,0,0,0,0,0,0,0,0,0,0,0,0,0,0,0,0,0,0,0,0,0,0,0,0,0,0,0,0,0,0,0,0,0,0,0,0,0,0,0,0,0,0,0,0,0,0,0,0,0,0,0,0,0,0,0,0,0,0,0,0,0,0,0,0,0,0,0,0,0,0,0,0,0,0,0,0,0,0,0,0,0,0,0,0,0,0,0,0,0,0,0,0,0,0,0,0,0,0,0,0,0,0,0,0,0,0,0,0,0,0,0,0,0,0,0,0,0,0,0,0,0,0,0,0,0,0,0,0,0,0,0,0,0,0,0,0,0,0,0,0,0,0,0,0,0,0,0,0,0,0,0,0,0,0,0,0,0,0,0,0,0,0,0,0,0,0,0,0,0,0,0,0,0,0,0,0,0,0,0,0,0,0,0,0,0,0,0,0,0,0,0,0,0,0,0,0,0,0,0,0,0,0,0,0,0,0,0,0,0,0,0,0,0,0,0,0,0,0,0,0,0,0,0,0,0,0,0,0,0,0,0,0,0,0,0,0,0,0,0,0,0,0,0,0,0,0,0,0,0,0,0,0,0,0,0,0,0,0,0,0,0,0,0,0,0,0,0,0,0,0,0,0,0,0,0,0,0,0,0,0,0,0,0,0,0,0,0,0,0,0,0,0,0,0,0,0,0,0,0,0,0,0,0,0,0,0,0,0,0,0,0,0,0,0,0,0,0,0,0,0,0,0,0,0,0,0,0,0,0,0,0,0,0,0,0,0,0,0,0,0,0,0,0,0,0,0,0,0,0,0,0,0,0,0,0,0,0,0,0,0,0,0,0,0,0,0,0,0,0,0,0,0,0,0,0,0,0,0,0,0,0,0,0,0,0,0,0,0,0,0,0,0,0,0,0,0,0,0,0,1
outputCount=1
weightIndex=0,101,63201
weights=##0
##double#63201
   0.7492086324,0.3523271765,0.4920295737,-0.4696256749,0.0871796297,0.5728818205,0.8212379292,-0.7073646913,-0.9505544629,0.2244170506,0.4078307457,0.6773209332,-0.428224892,-0.0454275644,1.463156682,-0.9592986572,-0.0108047414,-0.8599525009,0.6107539347,0.3331808919,0.6942852189,0.9004942898,0.6926779207,0.9331078242,0.7877183436,0.5689091484,-0.7323918166,-0.3838677782,-1.0059081465,-0.4156392497,-0.9596773874,0.2575204571,-0.1401711934,0.4811883393,-0.2912074887,0.9849077268,-0.715252883,-0.4526913653,-1.4202711251,-0.8640687358,1.1301059974,-0.4860732398,-0.3723497768,-0.39961755,1.5913239225,-0.8617851081,-0.4203953562,0.2645700493,-0.1634427171,0.7835858516,-0.2497403928,0.8457640866,-0.8023002515,-0.7310804591,0.6147403866,0.8439171426,0.5548867559,0.9014714494,-0.2045365186,0.7292576814,1.0027163687,0.0282307074,-0.7213085448,0.3489721508,0.1663884881,-1.2628181614,-0.3467528734,0.2188839687,-0.7294075757,0.7970711551,0.9044439259,-0.5923155761,-0.9320641075,-0.2413299655,0.2240089585,0.0950812587,0.1410890667,0.3111695707,-0.9667615666,0.6724409517,-0.4258076954,-0.2891493659,0.8057576889,-0.6903792981,-0.9730937209,-0.850956774,0.0642372586,-0.932033466,0.8224426527,-0.2052068312,-0.519539029,-0.3753468325,0.9356714533,-0.6192735748,0.5080133992,-0.14472691,-0.867077195,0.6062412084,0.519121462,0.7477281522,0.3294077653,0.6818751343,0.9798860265,-0.8630937598,-0.9192836487,-0.6494462973,-0.2363016117,-0.4824409612,0.8734698099,-0.1507117716,-0.2841471375,0.0577751561,-0.9439010461,-0.1450337131,0.1412866394,-0.4909601069,-0.0318229286,-1.2234289286,0.5428181689,-0.9606930208,-0.5146590647,-0.5106342991,-0.0034957003,-0.0008286607,-0.2304061349,0.8959403011,0.5919345046,-0.0994061711,0.1625184655,-0.8473382101,-0.0050715715,0.5294949843,-0.389622392,-0.1496760133,-0.7302818004,-0.0373751146,0.5615199179,0.2642017178,-0.8888965586,0.494639796,0.339450254,0.9444852335,0.7191891427,0.1778369814,0.2319430551,0.0257263822,-0.3708142437,-0.899298492,0.3216696947,-0.522952229,-0.2069505256,-0.1617579745,-0.3490540499,0.8151166414,0.8227259553,-0.9531125119,-1.032119646,0.0133553953,0.6471368587,-0.1777068598,0.7206124523,0.1081102386,-0.652956442,-0.6717491949,0.0322749249,-1.360164403,-0.2300604494,-0.3633041899,-0.3745143887,0.364184364,0.138891459,-0.2486764436,-0.5635591967,-0.1410354074,-0.5232027355,1.0669004648,0.2058360507,0.3622548726,-0.0745238968,0.5325368221,-0.873872864,-0.441003648,-0.2502500626,0.028078605,0.1370777856,0.929800029,-0.5445565365,-0.3975694164,-0.6963474292,-1.0255882479,-1.0110995257,-0.5063597307,0.9342864659,-0.7557079268,1.024072064,-0.4666862327,0.5938565602,-0.5759936587,0.1802420557,-0.5723104901,0.3590580111,-0.680602894,0.2375126888,-0.347282032,-0.2640019894,-0.5400420105,-0.2547550608,-0.473815072,-0.7577924503,0.3346051328,0.6982479309,-0.0318679041,-0.2881302959,-0.9500300949,0.5016174761,-0.3316642287,0.1084829801,0.0582109965,-0.4966409954,0.8545461316,0.0999519793,-0.1332755378,0.687759865,-0.2628483377,-0.3807061582,-0.5111136247,-0.6737839419,0.8452430675,-0.9498771615,-0.4580237314,0.5143107725,0.2888060068,0.2189718276,0.8736762422,-0.9608043549,0.4224605936,-0.361935877,-0.4577415795,0.7037171982,-0.1648059214,0.5485657107,0.010698707,0.6266678774,-0.4239651288,-0.1940748014,-0.1035218002,-0.7021897359,-0.0979637003,0.5977060924,-0.7146382423,-0.3974209943,0.7402957873,-0.6592336509,-0.1448262283,0.0710768778,0.8381523638,-0.7583481611,-0.615987433,-0.9701649332,0.2612623684,-0.4642449092,0.7298810695,-0.155447966,-0.9577736006,0.8304086318,0.7602937258,-0.2646479583,-0.0241172013,-0.8166551734,-0.9512811397,-0.4067979312,-0.4216662698,-0.3674843868,0.6807053014,0.6499071958,0.8146663867,-0.7363121796,0.4284582378,-0.7455037366,-0.092753077,-0.0363687794,0.2193261014,-0.4685296748,0.7740196352,0.4124802208,0.8896745406,-0.7751711391,0.6068299783,-0.3537041215,0.4823822973,0.3137971662,-0.4803530669,0.4093682681,-0.8396519643,-0.1185844696,0.3871929922,-0.5499702337,-0.6701931466,-0.8745810611,0.5406109893,-0.75210383,-0.7779984714,-0.3843048706,-0.9761915197,-0.1197521542,0.9217303403,-0.631906729,0.423885094,-0.4977114162,0.1172668138,-0.8213674116,0.870935672,0.9427893674,0.5083135222,0.8393919589,0.1467672816,0.1586672668,-0.5538632608,0.8816712647,0.2120653323,-0.2663526532,-0.8830372849,-0.7015728877,0.7061020322,0.8807584392,0.925297524,0.8784582541,0.3083434279,0.6260291516,-0.2655551019,0.5494802721,0.500706499,-0.4444708636,-0.7674713273,0.104588186,0.269217013,0.1021510918,-0.3868371457,0.7653503623,0.3764572123,0.5924822493,-0.2954500288,-0.894245842,-0.6769951413,0.1465391257,0.2771270542,-0.9467559698,0.5989834189,0.6659241588,-0.4241775476,-0.811760013,0.1416685364,0.6214204895,-0.3123822602,0.2140666628,1.4050306884,-0.8970000844,-0.2466817493,-0.5287179176,0.6603908387,0.3589139651,-0.7388628202,-0.455586925,0.1130095788,-1.0411297123,1.0012229634,0.1794716656,-1.4746496377,-0.1152991333,0.5171099666,-0.3521375119,-0.2790311488,-0.7146641331,0.1599863018,0.5801379168,0.5503857404,-1.1672903082,0.29258305,0.7636596411,-0.8987552297,-0.722098466,0.8443553354,-0.7884492879,0.0971756927,0.0595542095,-0.3791033791,-0.2744277134,-1.0185052724,-0.9856210831,0.3992611326,-0.5790457509,-0.4861389379,-0.4233869841,0.3908104428,0.6278037669,0.001738341,0.2834462604,-0.4322379864,-0.7556438893,-0.0052631316,-0.8558615984,-0.1377374096,-0.5081026673,0.4093462127,0.957891777,0.790935918,-0.9141926565,-0.1273272625,0.366842658,0.3088039067,0.9715961403,-0.3137252904,-0.6051469847,0.884154423,0.5394786353,0.175076063,-0.1620425447,-0.9990233975,1.4574990122,-0.513938963,-0.0064988488,0.0344213174,0.1162020103,0.7255005305,-1.0860763064,0.68113681,0.4364181126,-0.9506068867,-0.289607505,0.1324232655,0.044586373,0.5328723711,0.3229607061,-0.0837096374,0.3962111991,-0.1260947897,-0.3707865691,-0.0272071924,-0.5707799967,0.5331702918,-0.2456123955,-0.709154168,-0.154950487,0.5973243406,-0.1227075453,-0.2554058584,0.2541735029,-0.5059158194,-0.7496795859,-0.6674161271,-0.0437611905,-0.8171991176,-0.6926965161,0.5457941981,-0.5439118976,0.6319629364,0.2585701166,-0.3866100787,1.0039559686,-0.2347319206,0.5876072555,1.013245196,0.7813470465,0.080671321,-0.6764768099,0.4817356446,0.2473330543,0.5960698386,0.2087862553,-1.1693184723,0.5965960895,-0.9772205548,-1.3056176589,-0.6873746272,0.8684007628,-0.8931879268,-0.0486162041,-0.6606041089,-1.2822212511,0.4422167446,-1.8268170699,-0.4855680401,-0.4565195064,0.7967439716,-0.1325459915,-0.1431171322,-1.117212905,0.6469595039,0.3811463468,-0.926086788,-1.5897027126,-0.5021132266,0.1695929008,-0.9308843644,-0.8003661418,0.8988776952,0.1540867957,-0.5179159025,-0.5927372591,-1.0628294895,0.4711054533,-0.6875220526,-0.5232012761,-0.4939708809,0.8082676753,-2.0421787704,-0.2188955149,0.8653214071,-0.8983804501,0.302213769,0.8425301676,-0.8163921697,0.9893323816,-0.6349377556,-1.5513908569,0.9597743499,-0.7399416732,-0.0043962681,0.0125759828,-0.1041491213,-1.4009053517,-0.4131936963,0.8198189651,-0.9216459078,0.6365585781,0.7212687152,-0.0783884602,0.6829879682,-0.8936937497,0.1817798897,-0.8233582321,0.446487718,-0.6644768178,-0.3596862805,0.8016461524,-0.1095535998,-0.1694669013,0.0689767502,0.3918169462,0.3542650292,-0.0821184055,-0.2693379516,0.7840645959,-0.1611363016,-1.0833292057,0.7239708854,-0.6887375344,-0.5121211296,0.7060081361,-0.667235946,0.189911732,0.376634875,0.2935773004,-1.3319880363,0.5099678577,0.6606596986,-1.0195863414,0.600968112,0.8735844744,-0.3571037723,0.7920035234,-1.0293690236,-0.753855458,-0.5689774061,-0.2219495881,-1.0452740966,0.815810957,-0.8002964331,-0.8149916316,0.5280266215,-0.0982374153,-0.7119838028,-0.3552199041,0.7316556274,-0.0789815691,0.3224902727,0.6029143993,-0.4214279152,-0.1174729918,0.084397351,-0.5225213063,-0.0402551401,-0.4774543901,-0.9709514521,0.7668676679,-0.4467338265,-0.1578470192,0.0883740564,0.7279826187,-0.4807263105,-0.0357456427,0.2639633097,-0.1279792773,-0.7760467398,-0.6528260351,0.3325516865,-0.9810954613,0.7235578037,0.2238887767,-0.5137988619,-0.2227810869,-0.7282851449,0.7593740912,0.4334280982,-0.6453764184,0.9659959382,0.7539433899,-0.4920187263,0.180758613,-0.7737207163,-0.6405794647,0.4427130768,0.6337225089,-0.4691286283,1.0188925759,0.0185934741,-0.4390309382,0.5464536042,-0.595026654,0.8214037265,-0.3473642774,0.5262314778,0.6310133999,-0.7443114118,-0.8298074965,1.0443081183,-0.2256362014,-0.5777422709,-0.3554017879,0.9804012972,-1.0226937923,-0.4674817489,0.7437405717,-0.138737598,-0.1244996697,-0.4383014131,-0.9296416547,-0.5533598815,0.5164627283,-0.6564891793,0.2356572528,-0.0757893253,0.3697643957,-0.3207967762,-0.6884258312,0.8355326538,0.5416756369,-0.9591626405,0.3082263923,0.0942350005,-0.3903335526,-0.9094609487,0.3818688921,0.0828195099,-0.2054097481,0.9498348771,-0.183664628,0.3225270334,-0.4814838742,-0.4272435784,-0.8391534601,-0.9358711855,0.2617959944,-0.1721990104,0.9321816658,0.887585475,-0.1120447791,-0.2523550255,1.1163407352,0.8989080997,-0.1114483418,0.8108541817,-0.680860092,-0.2316326894,-0.5054979416,0.6265044079,-0.4911589654,-0.3750347558,0.5411173924,0.6816037636,0.6062592294,-0.5015861588,0.7313404475,0.3732266636,0.8137168148,-0.0632632507,0.5412969009,-0.4600578963,-0.5121206282,-0.0780612523,0.3459262324,-0.9410084051,0.0774173668,0.0146001312,0.4547912496,-0.0904382632,0.8665492562,-0.6684943379,-0.7096211584,0.6590067436,-0.0848959953,0.2558666829,0.6059522637,0.9839287003,0.5799389369,0.0690685283,0.5513682386,0.6220694184,0.6172133513,0.5048564445,0.7996533307,0.0751304818,0.7694101001,0.5320451974,0.4764803404,-0.8024444855,-0.5880029608,-0.5061881577,0.5529305246,0.2578586299,-0.2725789763,0.4762332392,-0.8549364278,-0.3764503874,-0.9316127531,0.4907199905,-0.1543306117,-0.7122605347,0.3478627741,-0.4060272599,0.669475125,0.2344989649,0.6848636914,-0.4657498474,0.1757765514,-0.1967971857,0.0686456952,0.3436591308,1.8380394924,-0.7443273165,-0.7997468082,0.7265878134,-0.586067038,-0.5004956587,0.6603032586,0.0157824458,-0.6354194566,0.4685147487,-0.560715265,0.8541742202,0.8410578625,-1.2737126842,0.6572476898,0.9764769493,-0.5225204085,-0.9286348964,1.0883002362,-1.7642901152,-0.9595060884,0.3585577026,0.1865566087,0.3541420698,2.2758433877,-1.0591816831,-0.662128907,-0.85505791,-0.2361861287,-0.0083916765,0.2071839292,0.2062672978,0.5933875407,-0.4708135954,-1.0977008607,-0.3699530616,2.5835081103,-1.5151472181,-0.4114636157,1.487852971,-0.8821610677,0.187841978,1.5090507835,-1.3483868811,0.66617105,0.8545945362,-0.9468422243,-0.4652749172,1.1178751743,-0.6298804711,0.553849268,1.5471223979,-0.3644519402,0.6410515721,1.7031898746,-0.9303276427,0.3191860981,-0.0699818354,-0.3388660598,-0.9674340205,-0.8750982146,0.1902381241,0.7471329504,-0.5154179669,0.3085680479,0.4887115141,0.6615419424,-0.3403076121,-0.1845114101,-0.0363457089,0.1072325917,-0.2504758588,0.8756432866,1.0359750833,1.3938431092,0.3954418579,0.9855563307,0.4412862038,0.4389905542,-0.3821982094,-0.487408524,-0.1456358786,-0.8912743682,0.6319995113,0.1202294756,0.5419137477,1.5876786419,-0.8499516396,-0.6487703125,-0.2328589764,0.5298945297,-0.2576626155,-0.9314908029,0.0897574995,0.8094631797,0.3210919302,-0.6122309774,-0.4719225295,-0.8181176888,-0.7614541734,-0.8399982264,0.7508382295,-0.2637933861,-0.9540717742,0.5991572821,-0.2391212932,0.1811793852,-0.7509540417,-0.2499133006,-0.3560167565,0.438275331,0.6542447659,-0.9843724275,0.9639057118,0.6062240165,0.6781358121,-0.9354694493,-0.3943265847,0.9806290883,-0.8031194094,1.181477581,0.4169676704,-0.8138158935,0.8849150005,0.0529217199,0.4943286571,-0.0244953993,0.0139634894,0.3123017114,0.3973654618,0.7913989397,1.173711052,-0.1078725363,-0.7137710655,0.0355273426,-0.4356793499,-0.5212295392,0.9912775911,-0.4135510192,0.5803662222,-0.2666188935,0.1886744241,0.9714357973,0.4378569181,-0.2734607867,-0.747872061,-0.9275542803,0.3646503282,0.3405034597,0.888782389,-0.9883796919,-0.2070077832,-0.279451808,-0.0125433555,0.3725110056,-0.487141457,-0.3775622804,-0.8851725841,-0.7439325971,0.9454302884,0.0400129302,0.5582900916,0.7880090277,-0.8345775464,-0.6157249013,-0.1543177131,0.7027859751,-0.5034969277,-0.6394995551,0.3419656945,0.8068703947,0.4710115606,0.1151882314,0.148037621,-0.291277189,-0.974571375,-0.1375186913,0.0075900768,0.4508580711,-0.1954197264,-0.5530274998,-0.593844612,0.2149344944,-1.7555859594,-0.7660375112,1.7110272341,-0.0597743594,-0.0373375903,0.0093672471,-0.9377838309,0.8048479864,-0.7633536767,0.5811820569,0.2444190788,-1.0585649949,0.1278564541,-0.5441884652,0.8058807528,0.3770621731,-0.0232506016,0.2827584091,0.3502516118,-0.6910118756,0.2556221141,-0.7855798815,-0.4727713557,-0.3540270745,0.6061298377,0.8077672188,-0.406811636,0.9891115621,-0.9078381916,0.0095172943,0.7462251109,0.695996274,0.2377339127,-0.1578944395,-0.1531390638,0.2152858005,-0.4152343121,-0.1442606436,0.0742114312,-0.6164571321,-0.8550076985,-0.3058975998,-0.1451722204,0.7003860351,0.3322052393,-0.3611099812,-0.410810286,0.3251787476,-0.78370531,-0.6698609916,1.0315643294,0.3171952684,0.6168150352,-0.6604731718,0.6988387371,0.7800647093,0.3229440416,-0.9062414621,0.3637365919,1.0492614923,0.4534576201,-0.1912474694,0.8851691443,-1.9889632355,0.4048952921,-0.3296658493,-0.6240925165,1.3930179409,-0.7993590437,-0.7917414895,0.7304235014,0.441200547,0.6430617756,-0.3671114539,-0.4253617947,-0.0734690805,-0.6495298349,0.1575908638,1.0003001809,-0.1252979332,0.6926597675,-0.9761465184,0.2519378753,-0.9103784967,0.1957682741,0.6401754764,0.3839092061,-0.7531866225,0.9931553108,-0.5419548738,0.0457728612,0.1686935236,0.3677670864,-0.9097278501,0.500791609,-0.0531730946,0.6854900167,0.5068122335,0.5704108852,-0.0041906763,-0.0913470958,-0.630603071,0.5920652317,0.7048212765,-0.8646559246,-0.5738096138,-0.9178090981,-0.8413720743,-0.2995649057,-0.9405963459,-0.346104736,0.0113368568,0.4661289659,-0.6614136953,-0.6689539276,-0.0595286483,-0.6573629248,-0.7223652331,-0.4007951773,-0.4550862271,-0.3337380244,0.9016342385,-0.686675104,-0.1727163362,-0.3827639322,0.6028580023,0.4265305813,-0.959104247,1.6806346922,-0.1477691017,1.9378568268,0.6903023366,0.1539142163,0.2945358928,-0.8468428069,0.7851952389,-0.900964299,-1.0822881092,-0.1363785746,-0.9568498757,-0.5087824325,-0.6996633666,0.1032330121,0.4128944499,0.4479249258,-0.3422552117,-0.4462626535,-0.9761836984,0.4483303867,0.544748808,-0.0801568594,-0.8619820155,0.0845740492,0.970644496,0.2540476199,-0.5645766534,-0.8696438051,0.9703916194,0.7398045144,-0.1520912531,-0.3865254655,-0.1399984666,0.7566935149,-0.2462507815,-1.0037884092,-0.7790924066,0.1608103353,0.4212900719,-0.1628128318,-0.9018695929,0.3130063216,0.3483597898,0.859597075,0.8152173463,-0.4712595285,-0.9175878527,1.0185317645,-0.5762303496,-0.5898891451,-0.4749941175,0.5832410504,-0.1386728682,-0.2378834667,0.6137562305,0.2450839327,0.0284584389,0.5511377302,-0.6357082152,-0.6763983878,-1.185655475,-0.338809071,0.2768725465,-0.2242056381,1.5308689283,-0.1600838969,0.5076654047,-0.2558838361,0.407173558,0.7004611473,-0.7043592057,-1.2161532775,0.8940118849,-0.842605164,-0.3071422117,-0.2925531155,0.2578850573,-0.3699824034,-0.8138984964,-0.4193920459,-0.3831959988,0.1924104147,-0.617138253,0.7088752092,-0.9260926469,0.2247900963,0.7668120086,0.0003428771,-0.655148178,-1.0526535037,0.0825622085,-0.0664989586,-0.2859231101,-0.1946251295,-0.9400964181,0.3490435789,0.6589722306,-0.1119519661,-0.7055066752,0.3357008306,-0.5029101182,-0.3108965803,-0.6909326062,0.0548027296,-0.6749719302,0.6913880196,0.2334255249,-0.240720353,0.6263728949,-0.3294341251,0.6992426238,0.9030590775,-0.980226293,-0.6868639534,-0.388632131,0.7154953487,0.5395724796,0.0636498429,0.3615268813,-0.6471453659,0.6948172839,0.3851846894,1.0001031758,-0.0837977674,-1.8158893864,1.1180876394,-0.7524335394,0.9340552046,-0.4386976424,0.2623388622,0.7281172255,-0.8479461945,-0.2350378433,-0.4766010464,-0.5664943902,-0.1177034085,-0.880546599,-0.3568622662,-0.0863120246,-0.590391006,-0.6086820102,-0.6762518359,0.729521761,-0.6981655001,-0.7865332578,0.3830140383,0.5180472104,0.88938287,0.121269375,-0.0190845827,-0.6996016903,0.4516388754,-0.5524231448,0.1806517434,-0.7932590391,0.1829119588,-0.9348027528,0.2351848333,-0.645634235,0.2592767204,-0.2149852377,0.2705248343,0.4832286744,0.8922326231,-0.2711781408,0.553679668,0.643559401,0.6560295974,0.7980338258,0.1555173629,0.4594381919,0.034650575,0.2120767272,-0.8543157348,-0.10859958,-0.0069646484,0.1917148309,-0.4507302088,0.1222182014,-0.6911375752,0.799971061,-0.9374992202,-1.0621816644,-0.5875040438,0.3341853367,-0.5450511049,0.1571692099,0.0123574187,0.0532493907,0.7109866381,1.2291376435,0.1607567276,-0.3201839727,0.0051316747,-0.3330797516,-0.5521529379,-0.0478129213,-1.4107256962,0.8902410222,-0.5396580061,-0.6096665199,-0.9096027903,-0.6863817417,-0.1990187504,0.765178062,-0.0815860195,1.0940543747,0.2934301586,-0.5970854288,-0.0907965609,-0.7012103654,0.3264273443,-0.0843114204,0.9796858791,0.1457193138,0.5538847498,0.2558360516,-0.8102744543,0.4785762396,0.2950968386,0.3598542213,0.2545704086,0.563020951,0.0676848822,0.1461241194,-0.4312265732,0.2361568509,-0.5960325788,-0.470248768,-0.9026871268,-0.5084827081,0.0936027361,0.4388555829,-0.9058274161,0.2391735592,0.7728945121,0.2932650089,0.167739532,-0.9876839135,-0.0344451848,-0.4115239878,0.4243651998,0.5588825389,-0.0181546343,-0.0683770182,0.4258676249,-0.2944018368,0.2534381588,-0.5078507403,-0.6690102592,0.2353589749,0.8560705096,0.4414402922,-0.1402493655,0.881485057,0.9500236621,0.0628558762,1.8539338877,0.1857897161,-1.0012775816,1.2446015106,-0.585445203,0.8178333518,-0.5244252501,-0.878051201,0.9762511641,1.2909760059,0.1992518033,-0.8231201412,0.0964853404,0.6511712787,0.2879782578,-0.1811422436,0.796572168,0.1532187245,0.4524619895,0.4112946983,-0.9456890531,0.9648592752,0.5618764375,0.9189981643,0.3143125626,0.5874022393,0.0916721512,0.7314687446,-0.4562450095,0.8640927563,0.0162245144,0.3599284097,0.1877613699,-0.3310156624,-0.6010494688,0.988103276,-0.2648655726,-0.4906450442,0.4349835273,0.8521466871,-0.1899105213,0.0203429021,0.6436149124,-0.9586827452,-0.7436171916,0.5692357322,-0.5318572441,-0.316411613,0.754002017,-0.6018196292,0.8056114706,-0.3979311972,-0.9792558957,-0.3258959509,-0.0271243335,-0.4695118858,0.3129420484,-0.5809927433,-0.1152100213,0.75325819,-1.0418348333,-0.1881211879,0.667692598,0.1685201157,0.6577963531,0.6714414371,0.9439331347,-0.4921882419,-0.7455143516,-0.4769554545,0.7398386179,2.2265784487,0.0403269702,-0.902562863,0.6396857513,-0.1516777918,0.6510264659,-0.569773804,0.3428552852,0.4852886609,-0.7624841493,-1.0490544053,0.7734503551,0.2952248893,0.113472392,0.2345510505,-0.4672586311,0.0239014867,-0.9590034856,0.094792553,-1.4754643753,0.0525041862,-0.8766280345,-0.5132183453,0.7435975792,0.0085853415,-0.3190290016,0.6760633187,0.1958304909,-0.6443930019,-0.1563893775,0.8992487526,0.2575552754,-0.8949882144,-0.5511314434,0.3804356244,-0.1021923091,0.8844890428,-0.7393538127,0.6105896896,1.1672088211,-0.4266294793,0.896553008,0.722188836,0.0478953897,0.6128627062,1.4829768195,-0.2353661871,-0.9766045807,-0.0478369611,-2.07087966,0.6094290299,-0.4652455035,-0.8191632687,-0.5864234713,-0.2418590734,-1.1491266733,0.312208957,0.6368487908,-1.0198923941,0.8620589052,-0.1904449288,0.3573443154,0.3625970765,0.4220941427,0.6172708744,1.309619925,0.9528002808,0.6698184999,0.4058733766,-0.2561020269,0.0339906254,0.2902427819,0.7307729031,0.8222567971,0.4531308207,-0.8750403998,0.9931031596,1.8302050108,0.8180706355,-0.4934467721,-0.694703843,0.2749121354,0.1469984531,0.163291822,-0.1200609286,-0.2780447817,-0.2084642254,0.4210384366,0.7459743012,0.5608239054,0.3923620303,0.4653520764,0.220078981,0.4524429256,-0.7750298104,-0.7743670604,-0.7178060882,-0.1743835472,0.0718713194,-0.7695180287,0.2100598604,-0.1102550102,-0.2015514296,1.0034012167,-0.0440320657,0.9289119271,-0.973676409,-0.0972492896,0.2944882224,0.3360595892,1.0113806376,0.2171898666,0.8557340545,1.0489525116,0.1635566072,0.3009174857,1.0580791127,0.5591084527,-0.367370465,-0.0074055442,-0.2585201927,-0.0954602384,0.9292192909,0.5476529125,-0.7009409506,0.4052554058,-0.067969888,-0.9915199198,0.5992692836,0.8450753543,0.8416548073,-0.1060418063,-0.0136450859,-0.3720589151,-0.0008838197,-0.4883249939,-0.9732625684,0.2957214671,-0.0469642165,0.2409040952,0.6989834495,0.1313703162,0.7471416168,0.7545274209,-0.1318706539,0.6964346165,0.6806117377,0.1892024742,-0.7801935247,-0.8991658734,-0.8426071962,0.7758990125,0.6114586696,0.6191302698,-0.0032064746,0.1568158524,0.538197959,0.9767884291,0.5539657732,0.3445943492,0.3291999374,-0.4097873268,-0.9206724668,-0.8599401181,-0.2017010262,0.2276097674,0.3110643311,-0.4312217987,1.0124368371,-0.0668067568,0.6816709739,0.2492223952,0.2092945578,-0.8364632431,-0.1246364713,-1.4156493213,0.8164745725,0.5582507159,0.84082313,-0.3194592956,-0.7953955437,1.1995493482,-1.5039242631,-0.5002043567,-0.767272907,-1.2136629481,0.0953869382,0.1889080959,-1.3300416585,0.0491043446,-0.216592727,-0.2512615742,-0.6492133247,0.8712920453,-0.710099313,0.9767087298,-0.0172398146,-0.2433080022,0.2946373967,0.4286520083,-0.5338505833,0.6671040783,0.6626238104,0.3301324004,0.5719181655,-0.4452257102,0.0556896234,0.6338911422,0.8771562218,-0.7125343081,0.590453416,0.3498550172,0.649238723,0.4409564593,-0.0873758118,-0.4081219085,-0.5512024823,-0.5753035286,0.7062983187,-0.8269368135,0.178035278,0.2973096412,-0.3819074056,0.8528040755,-0.5331451799,0.6564081935,0.8251934013,0.0594152448,-0.5972241194,0.5737211708,0.0932464176,0.0428728393,0.3386356703,-0.4046106978,-0.9428410571,-0.956310254,-0.2639409179,-2.5503427794,-0.8745259538,-0.3270425479,-0.6898917031,0.2736575086,-1.1825159433,-0.201293401,0.1004659414,-0.8731130365,0.833999609,-0.5595880298,-2.1909922118,0.5849708339,-1.0382633871,-0.4647900217,-0.1273731921,-0.510121759,-0.9116628803,-0.0153427013,0.5925541961,-0.0418006821,-0.7282321358,0.2441341134,-1.2180355793,0.2135812228,0.0561495052,-1.7852684631,0.6764615318,-0.4699827579,-0.6830667098,-0.2223644966,0.5942692974,-1.494222098,0.3155087289,-0.953101166,0.2211605055,-0.7711602885,-0.3873912274,-0.2073278877,1.0498606965,-0.9363602157,0.2829116831,-0.3315120335,0.9507602626,-1.0526837091,-0.4986923031,-0.2363492828,0.2409694174,0.8701917776,-0.902582761,-0.6356090214,0.3426868169,-0.3598483612,-0.9095347345,-0.550521103,-0.8261877571,0.2075585211,-0.7628325733,1.01801547,-0.4166278745,-0.7464470712,0.6833590422,0.214631014,-0.8258065719,-0.909727304,1.8436605858,0.6300964467,-0.8317507567,-0.1107590142,0.1898172485,-0.9724706549,-0.3702029285,-0.9841708351,-0.9434566274,-0.9212810774,0.6273256105,-0.6512073389,-1.6524625801,-0.034878396,0.125009473,0.6208493947,0.774239572,0.0966478187,0.4921281785,0.4195419067,0.9478775864,-1.0460330569,0.9525167216,-0.0456919092,-1.231192748,0.1924642145,-0.7575621269,0.2053351339,-0.2560414454,0.0089674006,-1.5760767681,0.2748410704,0.9742139931,-0.6235834406,0.0575248945,-0.8544640169,-0.7976541892,-0.545652636,0.3096918349,-0.3833865555,-0.1401636241,0.1523714505,0.021536536,0.4061656472,0.8579430932,0.1126342584,0.6438476745,0.0203943629,-0.1536523695,0.5834523346,0.5524444755,0.7059257785,-0.5325952867,0.992300022,0.2653342595,1.0249731477,0.160046342,-1.2142350646,0.6480518466,0.4759703226,0.3790814489,0.4254791038,-1.5786271007,0.7479741122,-0.8982413567,0.7714189926,-0.1879085007,-0.5759258762,0.3910870673,0.6411094567,-0.259106111,-0.9465645061,-0.7199433831,0.7694753253,-0.8720523975,-1.9531909752,0.5621902168,0.1685458716,-0.7988448395,-0.4076503099,-0.714854779,-0.1855160336,0.6206110951,-0.1916236449,-0.3205101712,-0.7663696397,-0.5136213183,-0.3142080203,-0.9296852413,0.5378485338,-0.5441469576,0.5737471951,0.221985398,-0.4275941112,0.5136741673,-0.7045111854,-0.0774397906,0.7425382309,0.145122888,-0.0284559711,-0.6872534991,-0.8611240163,0.5222360487,0.9854364285,-0.1296210419,-0.3280533012,0.7643117458,-0.5769678782,0.3198651536,0.3837477679,-0.6961937109,0.7858293156,0.120999716,0.1902272316,-0.3774184035,-0.683331298,-0.7499879583,-0.9884891058,0.2517426909,0.0442731689,-0.0437895103,0.9118617039,-0.8802322441,0.2747707472,1.3643274437,-0.7726003385,-0.8032982337,0.2594640346,0.6970789059,-0.8652188576,0.7673262329,-1.0818048596,-0.7316391591,0.4276059374,0.4185862954,-0.2723230711,0.3012785819,0.3657963478,-0.7567526493,-0.8659426187,0.6499591692,-0.8886557932,-0.9373734245,0.2391430989,-0.7405411641,-0.1788463522,0.1669247711,-0.0957896194,0.4423725417,0.3559880343,-1.2333857758,-0.374627627,-0.4115167704,-0.9354477463,0.7586831267,0.6494216355,-1.1082669644,-0.2744414157,0.0032305197,-1.0733395502,0.3707378887,-0.6420007366,-0.691734515,0.8350019521,0.7892954684,-0.4694171188,0.3082611848,0.893956916,0.6069518788,0.0426642663,0.3332161198,-0.5917725715,0.0634434504,0.049744002,0.5383114438,0.3149339052,-0.2109715926,-0.543532722,-0.5626254991,0.1600585907,-0.4194859706,-0.3031103496,0.0435965444,0.5879494731,0.1451676961,0.2759026077,-0.5629958808,0.0371434219,0.0131871895,-1.4754002159,-0.3658180996,-0.3865214242,-0.1731476767,-0.5099608561,-0.2464165732,0.3063669208,-0.4597480319,-0.3502269542,-0.8243010633,-0.3304522329,0.2633331769,0.2177589299,-0.2923073532,0.4470160897,0.234590865,-0.8182680872,0.0079379911,0.3381448352,0.4303819014,0.5882233478,0.2317522453,-0.7018185256,0.0964151985,-0.7613564869,0.1141747605,0.6657088705,1.8573695548,0.9251898726,0.9335604809,0.0579537621,-0.2002594165,-0.5479773881,-1.0797613203,-0.8236799071,0.9135260969,0.4582218263,0.8108380391,-0.4200702009,0.6472148372,-0.7546682841,-0.3033304932,-0.7590456925,-0.215046907,0.4317845239,-0.1427476413,-0.8907486168,-0.835528849,0.0559922769,0.1624298584,0.7769829788,0.5131194662,-0.9431833474,-0.3242426906,0.4943922223,0.8206537961,0.8562768945,-0.035497341,-0.4901741387,0.0723497729,0.3603719544,-0.1348673339,0.6692771775,0.3141904442,0.5451022712,-0.5377292557,1.2688760288,0.0484001111,-1.4886981374,-0.2273810228,-0.9579898366,-0.8975076168,-0.2734961307,0.0320295532,-1.4758954314,0.7116870035,0.3419611218,-0.8951013957,0.1810324658,-0.5373685484,0.9428033773,-0.2223158422,-0.8897962243,-0.6245726806,-1.0957442597,-0.3198592026,-0.7637336158,0.7999173702,0.5342440724,-0.5176902812,0.2740064112,-0.7491267803,0.5594701072,-1.2476186586,0.8105951076,0.4328531058,-0.2772354702,-0.0914517328,-0.0333162005,0.3912115813,-0.5476551304,-0.1078921422,-0.659953636,0.84744089,-0.0781961213,0.4468443085,0.9022804465,0.4215681425,0.7832690525,0.6992816061,0.6091228802,-0.2357547736,-0.2793252867,-0.4677186159,0.8832601074,0.2600877311,0.1477539047,-0.6300077874,0.6030195709,0.6448313393,0.1584625548,-0.8596069034,-0.8397385714,-0.0407010819,0.8229066912,0.468832217,0.4251537186,-0.98406361,-0.026842992,-0.7148409721,-0.3127424383,-0.2218624476,-0.9716250211,-0.1451894334,-0.7071858223,-0.7599164484,0.6935769351,-0.5854384302,1.0400902669,-0.9616845618,-0.5022399205,2.965859865,-0.275919268,0.5535042004,0.175259689,0.5833494489,-0.6737167278,1.1805504286,-0.0515349712,0.7185202041,1.3978536201,-0.2483402939,0.3909460666,0.6521851087,-0.2247965989,-1.1046826644,0.0465692226,0.0172323808,-0.5982162234,0.7191868209,0.0052821077,0.6323893643,-0.0020772167,-0.5778218287,0.6295718669,0.7892147093,0.3583317736,0.0631013059,1.1387911615,-0.8193333889,-0.9341631044,-0.0274632857,-0.942629633,-0.7306646945,0.452337058,-0.1272257399,0.9011128527,1.3404036609,0.2810361498
   -0.9291242756,0.1983173817,-0.8052764036,-0.1405555679,1.1753641461,0.8269437052,0.2973034987,0.9319465756,-0.2958757627,0.165283839,0.4515190525,-0.7244579372,0.5916410182,-0.1904085511,0.4565135228,-0.7762041657,1.0575446587,0.749188589,-0.0207399308,-0.0804459797,0.6234893752,0.2909601611,-0.0755304679,0.2949736886,0.2986279511,-0.6945163925,-1.9548129848,0.3003857975,-0.3556037251,-0.6210972223,-0.4847851623,0.8447920433,-0.5766465137,-0.3565004815,-0.1760215377,0.6085565501,-0.7678827938,0.1690612131,-2.4707292072,-0.1862738507,0.1214415404,0.6003159929,0.3756085104,0.8602026585,0.0221839453,0.7548091349,-0.6899566318,-0.0699003842,0.5138420882,-0.8202951515,-0.5318796619,-0.6248628305,0.4602460184,-0.3488189032,0.3313896526,-0.634754996,-0.0005579812,-0.4645330853,-0.8599736759,0.5339897256,0.902675369,0.5621873453,-0.7101930874,-0.0822029331,-0.5801662534,0.135352935,0.0752424437,0.8725600722,-0.533321234,-0.5955753442,0.7392717735,-0.9426153048,0.6714328908,0.5620944031,0.2168209966,-0.7686179258,-0.5797654961,0.8826843492,0.5657892795,1.2659995881,-0.1043371712,-1.0003668271,0.759995488,0.1822694593,-0.1596487157,0.5990512022,0.6988076871,0.4517899584,1.0038778966,-0.9486997522,-0.0632808899,-0.7523518416,-0.4638208232,0.6620682787,0.1575051436,-0.0791682696,0.5848983807,-0.8063326192,0.0252423811,-0.4300206289,-0.0005645554,-2.4297242365,-0.9003424128,0.9918614007,-0.3353695575,0.8935914145,0.9423444341,0.7379255478,-0.6543144271,-0.7930252574,-0.5695753629,0.3725977996,-0.882413163,0.5885891465,-0.8408342428,-0.0128248957,-0.7545715994,0.0339004834,-0.972114039,0.9798514338,-0.384837393,-0.2125508376,-0.4922936973,-0.2679718737,-0.3125772606,-0.5259523531,-0.9731785597,-0.3209419801,0.2044567786,0.6577222376,-0.6329053708,-0.5857580347,-0.5959631972,0.028206016,-0.8779658579,0.1233398068,2.2727075443,-1.1986323819,-0.0277897234,-0.5136951474,0.0688323,0.5470218845,0.5320261639,1.610914295,-0.5016439933,0.5460319805,0.7761273273,-0.0166309784,0.1065554799,-0.6704905764,-0.9536723995,-0.1710648107,-0.4747212856,0.7551592712,0.9503243412,0.3809586516,-0.0749429736,-0.983764701,-0.4854923679,-0.1276144592,-0.6983153832,0.6731707008,-0.6897582408,-0.7899628599,-1.0131321387,0.0793355051,-0.7319216489,0.6108136373,-0.2902917566,0.096287599,-0.9418162743,-0.4193237902,0.5398530311,0.0716345196,0.7053296949,-0.2932584098,-0.1461900988,0.5139107369,0.7639708691,0.3854639051,0.2870989061,0.0963579548,0.1591291966,-0.2775756691,0.1966178028,-0.2941378785,0.5147441756,-0.8026386808,0.2762030888,-0.6659146972,0.306734849,0.184689497,-0.4494619169,0.5954946171,0.2563182138,-0.8962000474,-0.1840787791,0.7050003271,1.2142711792,-0.2144311444,-0.0326338762,-1.0364240285,-0.73549859,-0.1807575701,-0.092293734,0.0125763595,1.006735086,-0.7235523196,0.6887119642,1.6385314836,0.2658830584,-0.7289846308,0.360445237,-0.2032566074,-0.5053056348,-0.7450335269,-0.063910436,0.2093677225,0.2228039934,0.3889965993,0.0062630177,0.5218862096,0.1426153136,0.8382054581,0.3997989634,0.4074965277,0.8913753486,-1.7623050732,0.3379947078,-0.1613213038,1.0166077516,0.7179030322,-0.4778786713,0.191078758,0.8203694004,0.909230229,-0.5339861425,0.4953940008,0.8444480381,-0.8042856942,-0.9579050036,-0.4948265582,-0.1271541209,-0.496989365,0.3507164002,-0.7321754037,0.2697302942,-0.3247673233,0.8960612547,-0.2023351773,-0.2413576207,-0.2547682172,0.3004246772,0.2812935554,0.8493811506,-0.4726718784,0.0065157377,0.6512611729,-0.6113789553,0.8069448178,0.1758856574,1.1477270948,0.2667075461,-1.8889076114,-0.4372637286,-0.3607743371,-0.1679529167,-0.4798237826,0.31137822,1.2389013187,0.0519589157,0.6676436743,0.3804888671,0.019707607,0.3378050229,0.1923461965,0.8420990586,-0.1817082798,0.348212151,0.9048755452,0.1958318205,0.6437342578,0.2889923612,-0.6921625112,1.245558879,-0.4038076367,0.8658218938,0.3985959636,0.0926282879,0.9951767211,-0.2244191409,-0.3042657538,0.1074741186,0.6842827362,0.0977974059,-0.3495807462,-0.1063706466,-0.6045603337,0.6252329716,0.3477956717,-0.89658426,-0.0000185126,-0.5635887569,-0.7207723126,0.8909548638,0.9904154823,-0.5008278196,-0.1377194132,-0.3810146129,0.0220830561,0.4759417524,1.0854169204,-0.0843109491,-0.1529246893,0.1657156706,0.5989142284,0.0284257644,-0.0829867699,-0.1720200067,-0.1673969496,0.2786195022,-0.6226973701,-0.7015053278,0.7849025724,0.354307275,1.1635807653,1.1142378284,0.581346483,-0.358696097,-0.752242776,0.3289729794,0.8458242599,0.5051759585,0.9769743275,-0.0390114214,1.0258458773,-0.5253406636,0.5511759301,-0.3110292712,-0.7535630256,-0.5802031691,-0.6657285258,0.3292004253,-0.5378480267,-0.6631641399,-0.8015712625,0.4093693255,0.2662804329,-0.8078802233,-0.2360054702,0.6442049565,0.0863809155,-0.4473052304,0.4548319182,0.6536621294,-0.8738411808,0.1373927518,-0.7892636801,0.3535294312,1.2354359033,0.2967148312,0.4901245239,0.8706215583,-0.5022473331,-0.8079449405,0.6480168132,-0.2853823876,0.1544325027,0.284307214,-0.7514673664,-0.3661995727,0.6616683924,0.979321795,0.6562425992,-0.1267856101,-1.0050621897,0.9962827393,0.9310386876,-0.8888977726,0.9242290012,-0.6781284279,0.0595994521,0.5139241129,-0.4900941341,-0.7256986592,-0.1010843413,0.0715457144,0.6908054926,1.81908194,0.3653208552,-0.5530646411,-1.7697480909,-0.9103914374,-0.4085121141,0.4793573869,-0.8278062141,0.8558645121,0.7883559627,-0.8606552546,0.0989688914,-0.5237465017,0.381681936,0.284956511,-0.6588400473,0.2573854775,0.2555046371,0.2408204882,-0.0685758155,0.9205034351,0.219681699,1.3596102916,-0.7202592878,-0.4114906454,-0.669786237,-0.9006687512,-0.7654717668,-0.752752752,0.4135014854,-0.9165014852,-0.7085835466,-0.7022709106,0.4553756195,-0.0376070976,-0.6021804571,0.419365966,0.2470164839,0.4363648332,0.5248266547,0.1389490761,0.2604053829,0.5612139146,0.1660649049,0.6391884277,0.6358107323,0.4906644644,-0.8435228695,0.2374839682,-0.6020637009,-0.048497217,-0.0681491539,0.1675458351,0.3222580765,0.3455892915,-0.6038439922,0.2771644084,-0.1257900717,-0.8472114631,0.8185727225,0.9289404643,0.5755310146,-0.4836614014,-1.1334139295,1.3615468894,0.370712378,-0.4659846504,-0.9068514287,0.8068787829,-0.2415050602,0.0652248673,0.8972199479,0.8937324592,-0.69799366,0.6092264934,-0.6670700353,0.2276596977,-0.9934513529,1.0383011026,0.4851179782,-0.9300525454,-0.1977781005,-0.8522077457,0.8378765698,0.8962567035,-0.08323451,-0.396554393,-0.7730483751,-0.8699726195,-0.0960308111,-0.6943817754,0.0384834726,-0.4750698193,-0.924917268,-0.0825897815,0.5629883038,0.4329711071,-0.6865979122,0.3654906918,-0.6107952178,0.3008514101,-0.1885361926,-0.060421624,0.2990316096,0.4868881946,0.4319441601,-0.1277243619,-0.7150200712,0.0946969317,0.9834016098,0.1660821726,-0.0022265575,-0.1297202615,-0.0980016583,0.3845890718,0.3581423188,0.7697865722,0.595588853,-0.2791876771,-0.3618825827,0.1333527799,-0.9371079588,0.1420215489,0.3443295278,0.4758853727,-0.6018177937,-0.9483566133,1.4430595396,0.2387377386,-0.5811628188,-1.1341809444,0.4302532495,-0.2235955467,0.1732522078,0.6283176413,0.8347528772,-0.833822828,-0.1111397782,-0.1720266247,0.138747914,0.3051200573,0.4691697569,-0.6410511089,-0.8443017812,-0.4767413638,-1.3040565692,-0.7735999501,-0.4204683119,0.9314330569,0.4383546851,0.380682885,-0.2750941089,-0.4836683939,0.0033855934,-1.6826728156,-0.91858012,-0.93478925,-0.7531214449,-0.4537190379,0.7914213971,-0.6836411799,-0.2049054747,-0.7551554155,0.8472735912,0.5717849275,0.2363759618,0.9304068727,-0.6135640567,-0.4524255061,-0.5986114605,-0.1702226411,0.8188637174,-0.2671305214,0.3771793657,-0.849510142,-0.3419742809,0.9405369211,-0.1061969854,0.014449221,0.9306098783,-0.4068091774,0.358352831,-0.7509565639,0.8017133823,0.9437424384,-0.6425843904,-0.2669997951,0.7402233054,-0.7603356946,0.2360168547,0.206382938,-0.7467849504,-0.0446039051,-0.1877619033,-0.9557229885,0.5225832822,-0.822750857,0.9676925001,0.9875504944,-2.0409650461,-0.1201319867,-0.8590320641,-0.7663475809,-0.5391657135,0.3449908472,-1.1397683048,-0.5425603815,-0.3717091759,-1.3108537911,-0.2296064352,0.7618277583,-0.4158528943,0.8442142047,-1.092591339,-0.7141717796,-0.01617472,0.0377154512,-1.3659156923,0.0852812935,-0.0235560776,-1.5676965469,0.5956669756,-0.3099274044,0.0796446438,0.3904159587,-0.2716377897,-1.4513390191,0.5863947931,0.1115589211,-1.7257074981,-0.8438310417,0.2869417175,-1.5102646068,0.3691066474,-0.6892177258,-0.3341405104,-0.801534553,-0.1152635761,-0.4122743589,0.3712371798,1.1196838135,-1.2348232315,0.7802929217,0.7393360554,-1.0832483605,-0.6826678483,-0.1808518346,-1.4706139394,-0.7786018178,1.0216162126,-1.1545909946,-0.4393324496,-0.4876029313,-1.0611184936,-0.1760030806,-0.3261688817,0.1085192271,0.8361841614,0.4012623098,-0.0408756054,0.0301632275,-0.8402100235,-1.407892386,0.909894384,0.3262270731,-0.3942203055,0.3600932013,0.6263670703,-0.7204560932,1.5690110512,-0.8702309766,0.8128218128,0.9374811412,-0.7372499677,-0.7329473113,-0.1302357448,-0.8221281507,0.7218896586,-0.4372256418,-0.4477197304,-0.4470936393,2.6455425187,-0.1144245618,-0.3976625034,-0.1681584833,0.5761994223,-0.7871759469,0.6753955958,-0.932134499,-0.1956135656,-0.4782724475,0.757880136,-0.7749753805,0.7968082002,-0.547327431,1.0452161462,-0.7948097854,-0.76555287,0.0306736201,0.1864122527,-0.1856940293,0.8360401459,0.6314783274,0.5900612395,0.1132094914,0.3588945184,-0.9115011703,-0.3748593958,0.009247331,0.1006336979,0.3641962921,0.6326782499,-1.0675103825,0.3115663705,0.1286312396,-1.2296812527,-0.9259396279,0.8711142415,0.5248828935,0.8419821019,-0.014989261,0.6217148542,0.3361697903,-0.1117906914,-0.8974849993,-1.2520086576,-0.5181209907,0.4334173003,-0.4295967875,0.5842354283,0.8601764298,0.8943340724,0.8934793864,-0.3551507069,0.7455809338,0.5956099837,-0.0491523106,-0.0668610601,0.5885484284,0.8350590763,-0.3198369516,-0.7476397877,0.499597942,0.7494522396,0.3147025341,0.4376750072,-0.8603382567,0.7572016538,0.0361053174,-0.1348922426,0.9381149505,0.7846184957,-0.9776432906,1.1023375305,-0.2104898336,-0.2658829823,-0.3954623252,-0.7320856882,-0.0995112344,0.5769290979,0.8451834002,0.1393938817,0.1434039792,0.5791892797,0.7565454842,-0.7273654524,-0.8798521172,-0.3971199127,-0.5028093332,-0.9828560867,0.3689807681,0.8590188739,0.3898250753,0.2351223602,-0.2956910277,-0.8932254698,0.152089794,0.3350798673,0.571852464,-1.5299308956,0.9887237823,0.7359568166,1.0252167915,-0.4764837785,-0.6602558951,-0.3432288154,0.5164333385,-1.0514717598,-0.7052607067,0.484385525,0.6001285515,1.0088921266,0.3581327357,-0.3671342311,0.4717779616,-0.3596549055,0.1648052068,0.7491726836,0.5534171287,-0.0601537737,-0.1050175388,-0.9424632076,0.3255056772,0.0357481509,-1.0358626334,0.7311304944,0.3084324532,1.4293061212,-0.1119087877,-0.5821755058,-0.2323136553,0.0644977255,-0.2162370834,-0.093229984,-0.19194849,0.7191622156,0.6929019146,-1.0952838839,0.6065509627,-0.3707692167,0.2403967235,-0.1006550205,0.0608269183,-0.5226191905,-0.240638479,0.7695053903,-0.4909018836,-0.3720426126,0.3362132536,0.4727016785,-0.6433114657,-0.6115735668,0.1368318529,0.4755592672,-0.3868564108,0.3926895712,-0.3903999668,-0.9409002154,-0.6592260684,-0.2909952351,-0.3309551041,-1.7656597948,-0.9903507321,1.5420882196,0.1661362558,0.9071563815,-0.9811177558,0.3942032423,-0.8477855644,-0.689064795,0.8687221433,0.0671735528,0.2252907516,0.4252269095,-0.8774018493,-0.8035850098,0.8600891484,0.9078833761,0.5092986113,-0.9102737446,0.8575756092,0.1449797169,-0.1384599362,0.0214577827,-0.8710538304,-0.4414606644,-0.525036708,-0.7104559006,0.3841714326,0.8497308271,0.6940720012,-0.097333224,0.9526590726,-0.9447236478,0.0293418659,-0.8592733961,-0.6726277097,0.5091034769,0.5220189002,-0.0958045766,0.3789899133,0.2244546785,-0.7332124238,0.0286466625,-0.7571892427,0.6551226255,0.5392157313,-0.5810835339,0.502035324,-0.0534089715,0.9682391147,-0.8321233105,-0.9245027759,-0.3445272766,-0.5777182896,-0.0377238306,0.2875843783,0.463998052,0.9746212622,0.3259972556,-0.4456828984,0.569885965,-0.5253390228,-1.0426784085,-0.0385592661,-0.0587632001,1.3186906464,-0.0022443019,1.1188985691,-0.3785655986,0.6707901125,-0.829574997,0.1145211832,-0.8586203408,0.5728882871,-0.4876625332,0.192372617,1.0273530892,-1.1497554212,-0.5805700493,-0.1917282086,0.0735859249,-0.1948745359,-0.8171628276,-0.1561848645,-0.2558315151,-0.8883772083,0.5930154215,0.1853625882,-0.2105305388,-0.7291993343,-0.1436736793,-0.5542991793,-0.7689923254,0.0011580113,0.0140104102,0.5831701129,0.4632398704,-0.7945619744,-0.6764777116,0.5930673813,-0.0771488243,-0.0510843203,-0.6465137266,0.2420957125,-0.5065417894,0.1360014131,0.4505745685,-0.3995925464,-0.4860166302,0.6551726107,0.2866039317,-0.7302591503,-0.0972477824,-1.2780154612,0.8303276509,0.6847923511,0.4713010618,-0.3789518223,-0.2178936157,-0.5431928908,-0.3150029004,-0.8789967883,0.474355468,0.4863819336,0.6323571456,0.3057379603,-0.1497983657,-0.438229123,1.0134268897,-0.4996671099,1.2265352472,0.8973240804,0.512381122,-0.2058778922,0.6184600905,-0.7701748481,-0.5350874447,-0.3453342875,-1.0013810408,-0.1832674366,-0.6754748292,0.7451721942,-0.0019800982,0.4522988838,0.487955503,-0.8949238006,-1.260217367,-0.6240456446,-0.5831850822,-0.6488789063,0.3385456612,-0.1103924295,-1.3172104756,-0.2294349688,-0.9712711322,-1.0977448642,-0.1096979123,0.7983570007,-1.3156518619,0.0800115444,-0.1245987623,0.1823190252,-0.0924909995,0.5307766218,-0.8953633742,0.966766762,-0.8185891748,0.1347098623,0.6017288944,0.0719623517,0.4738003701,-0.4750901367,0.6354232281,-0.3763135222,-0.4148038212,0.8315218762,-0.4888619874,-0.0648151041,-0.2890567737,0.5510918368,-0.2732411975,-0.279243613,-0.9444638752,0.1840157289,0.1357530707,-0.262416772,0.4738181583,-0.4137401111,-0.4753562383,0.9235080183,-0.6777102034,-0.9169262787,-0.7898861134,1.4883275132,1.0659809874,0.4481033492,0.1563739791,0.6448297047,-0.9111547928,-0.9410615761,0.3914632207,0.717270795,0.8781114064,-0.1693906819,0.5865968871,-0.4960613144,0.2831942815,0.2123733827,-0.5856506004,-0.9165614053,-0.8763923217,-0.7293644882,-0.5256670045,-0.2268718972,0.5724959911,0.4600748023,-0.8504132025,-0.0574363792,-0.7144791233,-0.5973165157,1.0016507825,-0.0857282195,0.7834439769,-0.6468523495,-0.3867197607,0.3696797188,-0.1025330865,-0.135967346,0.7716777216,0.0397671953,0.5679465133,0.4489368493,0.7502596845,0.7961961877,0.0247933001,-0.0076578812,0.3740315014,0.2303576967,0.2038872892,-0.4452160264,-0.931718743,0.5130223716,0.7024285244,0.9636129108,0.8725570274,0.9850285141,-0.4598617752,0.0323999838,-0.7497551386,-0.789087946,-0.0961698223,-0.1503009518,0.0058960042,1.1025902732,0.072557939,0.6884262539,-0.0219287824,0.248291268,-0.4434137139,-1.2206702923,0.9429010322,-1.03974514,-1.3812228437,0.6007500241,-0.5283589511,-0.0643502371,0.7063311483,-0.9145399679,-0.26601294,0.6901259553,-0.2666196952,-0.9802592546,-0.2085340406,-0.5997833581,-0.1979207571,1.5636635743,0.8409960184,0.8879898245,-0.320134428,-0.5228061993,0.0851015471,0.4166379496,0.8302108736,0.3982413706,0.1473458175,0.7420718099,-0.7723122965,0.6935793688,0.6656690498,0.785171712,-0.8627001397,-0.9402350487,-0.8476777921,1.0897821793,0.2281153113,0.8356372874,-0.3541824937,-0.8418817148,0.2740331152,-0.9439824573,0.2091542328,0.3520592506,0.3985454194,0.7842673125,0.7601734094,0.8755016501,-1.0437315221,-0.5343439612,0.838479238,0.7806687426,0.4440988981,-0.9365467229,0.219704553,-0.195064479,0.2611508821,0.9302363481,1.2023254812,-1.4228963283,0.7940531221,-0.5775451081,0.7277042497,-0.9656088522,-0.5767106517,0.503965017,-0.482979997,0.0130296391,2.7819607133,0.6107041944,-0.8014895945,1.1411145165,0.1990382283,-0.5898058187,0.1646382247,0.8761789052,0.4949245198,1.6742091713,0.0508234085,-0.7814629227,1.1600461625,0.0423023136,0.6587928337,-0.3328666746,0.0727000239,-0.2712246456,1.1739692639,0.6514458448,0.9555448516,0.2894196341,-1.0199350772,0.4318616228,0.7779521101,0.6505612653,0.7378340008,-0.3755638392,-1.0282177481,0.9783812857,1.1588881781,-0.2378492745,0.426392667,0.5594126634,0.8668631453,-0.0982342821,0.698598713,-0.840977002,-0.6930338355,0.39954861,0.7682402633,-0.4779678923,0.2756545506,-0.9530362051,-0.8471511897,-0.508661727,-0.3977484423,-0.4578645783,-0.0591503819,-0.8564832501,0.9022139153,0.6113316728,0.1371267365,0.698184856,-0.6635219845,0.5747003579,-0.0690914556,0.2384964225,0.5224891924,1.5869280158,0.759862053,0.5097043146,0.8367916448,-1.2664729155,-0.1830878098,-0.0631926393,-0.2264582982,-0.6531092563,1.1015528247,-0.9353996033,0.9052201665,0.0199316001,-0.743328143,-0.1001610054,0.1430537137,-1.06799789,-0.8729698137,-0.1989051008,-1.3621965103,0.8680480335,0.8397163784,-0.2573886343,-0.1928718646,0.1210388839,-0.5914630603,-0.0251741955,-0.2969151129,-1.1485024203,-0.580728324,0.5824561703,-1.8357992163,0.3770002318,1.43414052,-1.9822774024,0.6694040343,0.6370435614,-1.3149182458,-0.7483305316,1.3128317814,-1.6268363668,0.7252879746,-0.1894846811,-1.7143519743,0.9938947585,0.9579356787,-1.0802561532,0.2808854753,0.975867113,-2.0715995013,0.2398823113,-0.4947419336,-1.3813024198,-0.7363173654,-0.3534672967,-0.5909676481,-0.2413261642,-0.7649277926,-1.2511964471,-0.0072130445,0.6840927029,-0.720231507,-0.5594998752,-0.7316281973,-0.2708333497,-0.9263644144,0.8111268364,-1.4910539123,-0.7638265614,-0.8439359287,-0.778791281,0.5283684742,0.9241118835,-0.6178292256,0.1286934405,0.2055747724,-0.2778224157,0.9915342601,-0.8092994666,0.3700701733,0.8542721314,-0.489201884,0.7565741697,-0.3554647339,-0.7172456407,-0.6645115508,1.574301298,0.184429641,-0.105918092,0.5979236098,0.869603924,-0.6136062356,-1.0494392394,0.6888393763,-1.1268834918,0.2742147171,0.2170896223,-0.5181751852,0.0715372288,0.5833997666,-0.2625468369,0.3646294294,1.0853460868,0.7026554346,-0.2563346156,0.1497269203,-0.2860502112,-1.0212038738,-0.3668167944,-1.0451840691,0.9380733944,0.8607022322,-1.0543047943,-0.0068062112,0.7706516698,0.2704503934,-0.5680346721,-0.4927747343,-0.0088948872,0.5660539779,-0.1445501816,0.1152427608,0.46486455,-0.5964971697,-0.6869284743,0.6547064361,-0.672840843,-1.2223771058,-0.5025746916,0.9959231847,0.1448363469,-1.1525126724,0.0829288448,-0.4748920917,0.4187177177,0.2978063645,0.3206148419,1.4405546041,0.2005941217,-0.2001844378,1.1983321925,0.2831720348,0.4324738914,-0.120836474,0.0157358209,0.6142298747,-0.5383332138,-0.1971550641,-0.7456448894,0.5645041509,0.2137159371,-0.4007766028,0.6376661802,-0.8234818088,-0.7823640087,-0.8431854369,-0.1125585186,0.4662716322,-0.92089915,-0.0198680765,-0.8654540253,0.6163688887,-0.2825187863,-0.2450967473,0.72555745,1.0793248396,0.3706231628,0.4672021956,-0.2638200203,-1.0425031659,-0.1417040514,0.4199195611,-0.2714499742,0.2856127541,-0.5232014895,-0.1195173407,0.248235161,0.6410978538,-0.4061429851,0.2021181588,0.2140224356,0.716062136,0.1814965908,-0.29697521,-2.0930570672,0.2215964494,0.1692626535,0.9645258559,-0.7134747339,-0.5675970065,0.7140337651,-1.0932759944,-0.3307918373,-0.9944331886,-1.2557041713,0.5634394974,-0.4998112447,-0.551320992,-0.5358224254,-0.4968580388,0.230698089,0.9912355193,0.1253336812,0.8642822013,-0.5970550499,-0.9624766984,-0.3002103757,-0.8560255481,0.6696890714,-0.4469144162,0.1666774567,0.2021878705,0.273945962,1.1440375754,0.7923020517,-1.0677316168,-0.5836327373,0.7124068318,-1.1231496216,0.4379040996,-0.0429180128,-1.1256408657,-0.5192091288,0.0543759212,-0.6789460277,-0.3784286901,-0.0350693682,-0.2356880558,0.9967486513,0.5709899607,-1.3328882078,-0.16311054,-0.3210699703,-0.8348686222,0.0878737814,0.1304147949,0.0585620476,0.5610469774,-0.7034098857,-1.421453943,0.6583729144,0.7266495079,-0.0850342874,0.7820359413,0.4480182415,0.3392913476,-1.6873377434,-1.7881830098,0.3229117791,0.4649684126,2.235351992,-1.0897018761,0.3105854955,0.5620455929,-1.5316265683,0.8948500863,0.2142035014,-1.4305751963,0.9646402093,-0.8579636431,-1.610937978,0.6768145287,0.2079353235,-0.2819725216,1.155677109,-0.5657613295,-0.4889131533,0.0495875463,-0.8082801811,-0.7676842375,0.84006544,-0.8554493793,-1.8719742585,0.0061272227,-0.2361503576,-0.4082816485,0.0712766064,-0.3886068004,-1.7976708865,1.0722835408,0.0521187859,-1.319852043,-0.066384588,0.0696101415,-1.1760625161,0.3748924991,0.3145026545,-0.9112525044,0.1193493508,0.6252500545,-0.5838777496,-0.3271527369,0.5937173478,-0.8276736858,-0.0060856997,-0.8580252262,-1.1791420357,-0.3561660802,0.1041243391,-0.1914287901,-0.5447385653,-0.8224521138,0.2983523374,0.3998303514,-0.4318081677,0.0602142675,0.7440002151,-0.3829622088,-0.2568739687,-1.0126379494,-0.8859586698,1.1788309325,0.9648441325,0.0560913838,0.4347363155,0.7977705967,-0.8416410901,-0.9914599716,0.4507699391,-0.196289526,-1.3255103395,-0.7408587048,0.0746814324,-1.8271856245,0.1265264874,-0.6501616863,0.8415935682,-0.5673192996,-0.8509249799,-0.9784218047,-0.7425562087,0.0243380837,0.1644816015,1.1440756944,0.1653122841,-0.7291713049,-0.2133499159,0.147959148,-0.096186152,0.9191339005,0.7430521704,-0.9083464635,-0.5828688908,0.4365956408,-1.0683940338,-0.4437421279,-0.0967356447,-1.3656756303,-0.6083270694,0.5831237547,0.0721993073,1.1432319692,-0.8411407154,-1.35528885,-0.1912548148,-1.185898306,-1.2388242567,0.3246906293,-1.2171202229,-1.6349632395,0.3855089855,-1.1439007817,-1.0311508882,-0.0122559614,0.4278428581,0.2599010059,-0.0468507338,0.6408668652,-0.1833783365,0.1477678331,0.5065793933,0.3366798913,-0.1479634156,-1.0574007955,-0.7263375339,-0.4054758464,1.6445118241,0.7874007162,0.7163043177,0.0082865614,0.1884566939,0.3697331972,0.0093738972,-1.6471003194,0.5224175915,-0.4306762887,-1.587515435,1.1412530456,-1.1535486711,0.3447783531,-0.4032502607,0.6150620745,-0.3761771051,0.6138437959,0.5436033576,0.3134470247,0.1209781978,-0.8885178529,-0.7757212336,0.9685894,-0.5250427815,0.0713429058,0.3366828653,-0.2287975547,-1.3039059894,0.4553789552,0.3605935086,-0.5660015504,-0.0257524571,-0.6028629354,-1.5165833011,-0.6027754086,-0.4561998951,-0.7497789195,-0.5561205378,-0.5010527259,0.4554215744,0.5446067201,0.5402124084,-0.4998374488,0.8695389509,0.6374864828,-1.3388971395,0.306010723,0.2675474419,0.7241834613,0.6450061782,0.5572673612,0.7865240279,1.16259033,-0.3141817196,-0.5925081191,0.9263263266,0.586497383,-0.4024856574,0.2318597771,-0.159043744,-0.4435474314,-0.3353023239,1.7211388805,-0.1527177747,-0.0818153841,0.0461938309,-0.6041483421,-0.3492921812,-1.1926004095,-1.0732548078,-0.4476061136,-0.7990738039,-0.7023508731,-0.7517365935,0.3111093534,-0.124639318,0.671785147,-0.2644448548,0.3698778947,0.4770772652,0.1054385644,-1.5676998066,-0.5100322995,0.2181063877,-1.7081712864,0.5789357553,0.4050513474,0.191766197,-0.4984979253,-0.1341773203,0.8904468492,1.0051225789,-0.4190720494,-0.0799205415,-0.221145348,-0.8770967973,0.3477613902,0.5667448676,-0.3564451872,-0.5527138925,-0.1335796616,-0.6106061981,-1.1569420385,1.1167581252,-0.9616642846,-1.3260506945,0.810227261,-0.557065917,-1.0311611609,-0.2703572442,0.5261198248,0.4196769189,1.0759116757,-0.5232589573,-0.8768138037,0.3211291877,0.9537277185,0.6659430498,-0.1075520277,-0.3964148299,0.0246722881,0.8965752333,-0.1003009092,-0.5049360001,0.8102380146,1.3257597651,0.5058610993,0.0060920187,-0.6523072608,-0.5145948353,-0.0018451884,0.0298019108,-0.0227082271,-0.8130297757,0.6513541329,-0.9010009717,0.7885860192,0.630798972,0.0489239044,-0.0407258166,-0.6943776579,1.0731874091,-0.3560303885,0.165476751,-0.8032964424,0.3134701874,-0.2054155037,0.2503839972,0.7940087045,-1.0083475697,0.6269364876,0.3213622671,-0.6922472426,-0.2363508931,1.0168226435,-0.5909208309,0.5485144348,1.006740971,-1.1155138788,-0.4540595718,0.3373082936,-0.6464316944,0.2339622825,1.0883516546,-0.8623480199,-0.9776914018,-0.737962205,0.358984473,-0.6356098223,-0.4307496034,-0.5472043858,-0.7256139481,0.2396917486,0.4429574221,-0.8747846149,-0.4927926129,-0.3647410117,-0.7633920591,0.0634523307,-0.5780918601,-0.672415398,0.5456153783,-0.3474458095,0.218874414,0.5275400613,0.8834049229,-0.2304639761,0.1666669445,1.1496560174,0.8644991292,-0.0258775457,-1.0793298411,0.5197383677,0.999467229,-0.5187170754,1.3710776221,0.4690299381,-0.8256234867,0.8461210235,-0.4563426434,-0.4782597017,2.0830729536,-0.6051132384,-0.5015465855,1.1982361209,1.0746437456,-0.6781540453,-0.5747806017,0.8208382437,0.7714561261,-0.4087652179,-0.5170679077,-0.4590031789,2.012570253,0.4841010629,-0.6570138499,-0.8217319891,-0.3220551397,-0.2328990078,0.1437128211,0.8845418556,0.6650377642,0.2586063468,0.348364158,-0.1673886528,-0.2530492311,0.3999479957,-0.1575069879,0.265080339,0.1862835097,-0.436333045,0.1400077349,0.866295697,0.5469040771,0.53681384,-0.2462172684,-0.7098878637,-0.2664687212,0.7556103949,0.4200097684,-0.9445175082,-0.257842346,0.8411182625,-0.5754761164,-0.0302799891,-0.6105266943,0.6199485331,-0.4837521415,-0.156413963,0.4047925296,0.6987784101,-0.3789312997,-0.6263707809,-0.0183981338,0.8172417818,-0.6039199321,0.1904022995,0.4204509601,-0.2075652536,0.231235362,0.4451178599,-1.1632464223,0.1082654859,0.3953920822,-0.8364942723,0.0302850597,-0.5227774807,-0.0219554773,-0.0499957472,-0.8930511201,-1.088164222,0.5020021121,0.2180916207,-1.3438695274,0.1016484548,1.4750720297,-0.7117253659,0.4951228225,0.9785221021,-0.6623967919,-0.4037746246,0.3656294558,0.4941376941,0.5329752215,0.0649595287,-1.0602783158,0.6959469678,0.3781493711,0.2155918748,0.9091255113,0.545697536,-0.7970118287,-0.8740709714,0.7146652905,-0.7211353738,-0.4211766989,0.5487488656,-0.6091502938,0.4382004278,0.0749694785,-1.1103261298,0.8110282018,-0.0933738054,-1.0066119362,0.378476297,0.1241487234,-0.0574559348,-0.8930611154,1.3549967408,0.3494542334,0.2180091576,0.9225975173,-1.1000616117,-0.7712271511,-0.1993425826,0.0841083988,0.7742699936,-0.3531503479,-1.4129330457,-0.7358768482,0.2290460045,-1.0899750611,0.2695436481,0.6459724399,0.6634447396,0.0492602334,0.5929324513,-0.4310656284,0.6688054943,-0.9042087774,-0.5182564443,1.0885069886,0.2669593977,-0.8094715354,0.1495864518,-0.4327147401,0.7324712322,-0.2463554568,0.5789950156,-0.972665964,0.4711743816,0.3847944221,0.9466451499,0.025418147,0.6779768102,0.2064755267,0.6758467088,0.3493361098,-0.4582924505,0.7381497608,-0.8542846931,-0.973036555,-0.1765269586,0.9657332999,-0.8359561087,0.1285041455,-0.4082924255,0.683125045,-0.3974265841,0.2590721013,0.5222388727,-0.8939627983,0.7888334945,0.8929841906,0.3059984315,-0.1953083763,0.8477996587,-0.6649834695,0.6455364471,0.7141672548,0.8485399562,0.5807653068,0.6070756491,-0.4026070585,0.4323436044,-0.2920090708,-0.0236108835,0.5111340686,0.3905741638,-0.5648755125,0.3156844952,0.2651530587,-0.3968122257,0.8195693958,-0.9990901327,-0.0278300892,0.8784001367,-0.0041472926,-0.5691118866,0.0956116911,-0.8580084855,1.381008242,0.9617075724,0.7330569689,1.0153853503,0.1954593031,0.0575038302,-0.3560279753,-0.924926275,0.0382994232,0.6997638142,0.4103857717,-0.9439720067,0.0439010753,-0.5220907384,-0.1245057374,-0.3614933227,-0.802277035,-0.0180197232,0.0597077576,-0.1692429777,0.8573526702,-0.655009544,0.2774567772,0.2993497116,1.0533233053,0.8106283833,0.5143232977,-0.1001887565,-0.0540941577,0.2510069698,0.1217614542,-0.3010285736,-0.362071986,0.6521500602,-0.1348454517,-0.6967086049,0.8028595413,0.3114157263,0.9811180923,0.4714932312,0.2199150361,0.4790253935,-0.4598511172,-0.3784923476,0.1026880662,-0.4062903843,-1.3449082858,0.3732595657,0.1036082087,0.5895153816,-0.6262691575,-1.0513764981,0.2062088667,-0.696448338,-0.8183534963,-0.091487397,-0.472219223,-0.0588924975,-0.7844395683,-0.0061492024,0.6488002611,1.0407890746,0.5473168189,0.5497011066,0.3748815215,0.198478066
   0.7021619412,-0.075240837,-0.6864136652,0.2394957469,0.754606,-0.1135137692,0.6041162207,-0.4738685343,-0.46550579,-0.1327851295,0.3182628804,-0.7680165469,-0.7665831508,-0.8120909677,-0.8498015496,-0.4548722997,-0.0827411903,-0.6711032259,-0.2784114673,0.9690086174,0.3905364781,-0.7244492356,0.6360578284,0.7055103377,-1.276021898,-0.6551006537,0.6163354989,-0.9545627665,-0.989040927,0.116443452,0.5877143292,-0.2494385441,-0.0818598092,-0.7622526923,0.3552436466,-0.0487355325,0.2380671168,0.5522887307,-0.2204287654,0.0873308345,-0.6651911855,0.1440149374,-0.5276045574,-0.8272177026,-1.0034386255,0.6802751735,-0.7077333075,1.201494902,-0.0517803101,-0.7989818192,-0.3369919204,-1.6207488898,0.2802340646,-0.8819786192,-1.043954823,0.6179186849,-0.1619873382,0.0797811608,-0.305333921,0.3984947748,0.0099645652,0.7712951972,-0.8026494215,-1.4173555709,0.9373912345,-0.4437923621,-0.0749263975,0.458226579,-0.2975254976,-0.5878035168,-0.4659972753,-0.4732574356,-0.3616759265,0.3727705262,0.6731660793,-0.3244810362,-0.7873700065,0.4795243672,-0.3238562321,0.9652211172,-0.2951265412,0.0351099456,0.762941953,-0.0366670162,0.7086455184,-0.0589945281,0.3653551281,-0.1341777223,-0.7003537462,-0.2031878257,-1.3741533458,-0.9012877149,0.5994573979,-0.7720386497,-0.3716887481,0.369331661,0.2049043376,-0.2717569846,-0.5800402367,-1.2815020459,0.8084644091,-0.1741331803,-0.738619117,-0.4754614424,0.1032184172,0.6962569677,-0.4498708955,-1.4717704359,1.9392431928,0.1579532408,0.7999564896,-0.4864536329,0.1798061091,-0.9797145899,0.2488861127,-0.0181392082,0.4206028289,-1.278802769,0.8289675302,-0.3400306283,-0.6094158857,-0.0100509554,-0.4773998056,0.1984150111,-0.8274927064,-0.2533139462,0.657482242,-0.4296457457,-0.6788227566,-1.4370577912,-0.2813855518,0.582947471,-1.4738681432,-0.6295679113,0.1636226692,0.84412129,-0.6858233976,0.6306852082,-0.5612251682,0.2741113535,0.0116179246,0.1465787541,0.9955119407,-0.6798497782,0.2586133743,0.6706973356,0.8327336506,0.7504898405,-0.0195901256,-0.0952423099,-0.2407582961,0.6592535626,0.228938649,0.1714836513,0.879423256,0.9289074437,-0.1892156036,-1.1016169303,0.3792317084,0.6260619748,0.0425436365,0.5504184205,-0.0866174247,1.4829472527,-0.9999496527,-0.3635269876,-0.5601398856,-0.1254867339,-0.0837015478,-0.6440093104,-1.4342712912,0.5869784126,-0.434756406,1.0625102393,0.6635198576,0.4581187831,0.2689356223,0.4447320588,0.163777473,-0.2939296728,-1.0486454568,-0.0833247635,-0.8334834724,-1.3614419326,-0.512178535,0.376656663,0.7329729891,-0.1589667272,0.58415429,-0.3399651439,0.5102052593,0.4168752932,-0.4064547877,-0.6085755525,-0.7192507599,0.0324967842,0.5618425888,-0.4640470595,0.1405817878,0.6159847079,-0.1223956957,-1.0676970151,-0.64272066,0.5274668511,-0.5008472551,-0.9038502872,0.0072147981,-0.0073688886,0.5375612091,0.5089957051,0.2725059793,0.7340918213,-0.7313389321,-0.1022885155,0.5790255617,0.5127698823,0.4123776102,-0.6201805089,-0.9661675272,0.2328741385,0.404542422,-0.0122008713,-0.426030951,-0.4944428759,0.8125051371,1.0868554603,-0.1204059417,-0.566521053,-0.2684168555,0.2309660238,0.3808914849,0.4287797831,0.7274199178,-0.7630663852,-0.9659171992,0.4932302591,0.1182375025,-0.593635213,-0.3334358955,-0.668172682,0.5881552064,0.2791339742,-1.0716465771,0.01748593,0.1991745081,0.3786093167,0.0595690453,-0.0099821362,0.8919748353,-0.2848758821,0.4334864679,0.0747724525,0.0019077619,0.0116766146,-0.6956900636,-2.0168203482,0.7907689092,0.4738768206,-0.4035663324,-0.5970617891,-0.6474118439,0.5591475872,-0.1060486432,0.9676835378,-0.6392753468,-0.5692093659,-0.2731705258,0.9709914442,-0.7848908323,0.7838943702,0.2785208507,-0.8072203682,-0.6298664713,-0.3105493191,0.7246077156,0.2158292789,0.4023858123,0.6089324493,-0.9032493419,0.8725744361,-0.2387428029,0.0121326172,-0.9705992819,0.8658874745,0.0242293441,-0.3275024546,0.0014581269,-0.5707922073,-0.3138286173,0.1327331093,-0.261256918,-0.1568539636,-0.0751482753,0.7630458538,-0.5349123522,-0.0981611278,0.5298040715,-0.7099662252,0.157117295,-0.7996147373,-0.1815774459,-0.8179425792,-1.6165922505,-0.1872635716,-0.2692796491,0.2919230193,0.5918217579,-0.3514023932,0.4023744672,0.0174245007,-0.4240994801,0.8868150391,0.9859673161,-0.8631435623,0.3024611898,0.6921752163,-0.3590935261,-0.9522006726,0.5219798483,-0.6629515158,0.6599775598,0.2360356614,-0.1243026985,-0.9854680303,0.1301940407,-0.3430805408,0.6136293205,-0.6626362563,0.2019273942,-0.9696471309,-0.3645818662,-0.0913604037,0.1106778984,-0.0720494016,-0.0898084512,0.2385735607,-0.591673464,-0.2761840227,0.806579248,0.5569828054,-0.8046007388,-0.5022013213,-0.3154311962,0.1099481131,-0.3829316783,0.4431336541,0.2480632616,0.6839365247,0.3519667506,-0.4263076003,0.2914302439,0.5029600754,-0.2336152115,-0.894034584,1.1147639082,0.2410611668,-0.4978652965,-0.1752502433,-0.1041708261,1.017770843,0.6333846293,0.0575810763,-1.0548571542,1.2299005146,-0.8383795683,-0.3541021956,0.6032524043,-0.0223507225,-1.4789981734,0.5721176291,-0.3217963704,-0.096149826,-0.6175366861,-0.1953172183,-1.0065517634,1.5689950065,-0.1818954457,-0.5187493709,1.1563244476,-0.0359076266,-0.1624122808,-0.5114355889,-0.7168643246,-0.4773276325,0.6813921834,1.0559852108,-0.3417697046,0.9283314485,0.7992974007,-0.6812782761,-0.8829792666,-0.7794851529,0.4704974487,-0.6147858414,0.0264602839,0.9388608588,-0.3941873514,0.1209384491,0.7518928084,0.0454218976,0.3048631574,-0.7227561631,-0.0379674951,-0.0617095516,-0.1150190295,0.1968196096,-0.5270651046,-0.9711547643,0.846007899,0.2998196501,-0.9238207054,1.2817630583,-0.7359703188,-0.7039177062,0.1209599009,-0.456928816,0.7661465918,0.8604007841,-0.7162639143,-0.3263264118,0.6418916855,0.420567172,0.1845609176,-0.6402528744,0.1575400977,0.7421020555,-0.2069716918,0.5071376069,0.175850047,0.1398762513,0.6810363886,0.6718324191,1.3796045443,0.6667128542,0.0072643438,1.814012979,0.5417814982,0.3298046274,0.8049871795,-0.7154612015,-1.0654777081,3.330430667,-0.5441565117,-0.1130201279,0.5639238301,-0.0199544692,-0.9485030721,1.307116537,0.531901857,0.0892114889,1.4673076299,0.940448561,0.0859196775,2.6086626294,0.8416126484,-0.7303240891,1.0906802028,0.4669586234,-0.1090291862,0.0342487168,0.1006630481,-0.1666167343,1.7142994707,0.8936510722,-0.6998630437,1.5201106978,0.8899413666,0.4295465554,0.6456336855,-0.2399894514,-0.2588936064,0.0925156342,-0.068114307,-0.9239178633,1.8807823615,-0.7205660982,0.4392949037,2.2232037657,-0.6005205219,-0.6091143209,0.486485689,-0.1455535584,0.5498600663,0.9039158041,0.1925847269,0.0298384512,0.6824953142,-0.5135423422,0.6665296556,0.4653077907,-0.5184701209,-0.4471445845,0.3654978816,1.1196137411,-0.2792848823,1.7005576882,-0.205824761,-0.0121788716,0.8979910008,0.7934457938,0.1383156416,0.3115212418,-1.5482078539,0.2990635013,0.5358875137,0.4864587944,0.5766567052,0.5305818547,0.5579023409,0.2905955429,0.8282371076,0.0988820678,-0.7178388534,0.8830854936,0.1562867978,0.8681433803,-0.7438249292,0.8980667566,0.3139249378,0.0610598989,-0.1097168431,0.2410571792,-0.6524602195,-0.572847459,0.5864707518,-0.8865613558,-0.814719409,0.1250345439,-0.1386377354,-0.067980801,0.8424983533,-0.0611604851,-0.3613362008,0.8272540584,-0.9293299487,0.953700674,-0.0580302471,0.2659946823,0.516310161,-0.2574292332,0.1472002149,0.4580851384,0.4209715913,-0.3645048123,0.0311487129,0.2215941514,-0.959933826,-0.7078854298,0.5345023703,-0.6663703117,-0.8151342321,-0.39549542,0.409694693,0.942614784,0.5174498984,0.1253223717,0.3059832887,-0.1709970449,1.4037618206,-0.1137020359,0.2458886563,0.8585624146,0.0932509895,-0.9405241357,0.5142911928,0.1627385298,-0.7425979927,-0.7874104494,-0.0809584577,0.7743916619,0.3106763888,-0.5965135847,0.677553115,0.8720807225,-0.1902575719,-0.9426093092,0.8585598037,-0.492546639,-0.8886931895,0.6576852608,0.1083428002,-0.0022956746,-0.9098120232,-0.8404568356,0.4716146977,-0.7358679149,-0.5828820024,-0.0544333882,0.3249561473,0.356875527,0.7327763993,-0.3173045124,-0.066548085,0.3422667928,0.8230603501,-0.6478506611,0.6808026438,-0.0534528753,0.1174494614,0.3226398051,-0.2760952971,0.3610434532,0.4547297321,-0.3846555771,0.1818613987,0.5732825564,0.6996620275,0.3016561409,-0.1106487471,-0.0244944876,-0.0210223284,-0.0722261277,0.8904001599,0.1088979351,-0.2015878508,0.7673701312,1.2964686059,0.6359226227,-0.3095208954,1.1014904574,0.9476676636,0.4841412057,0.7512167801,0.1972996204,0.812090973,-0.071830611,-0.4816087249,-0.4698142584,0.4666286325,0.199363827,-0.9578348348,0.8199991664,0.3713100305,-0.4536873208,-0.0283272459,0.9509360834,0.1509354216,-0.2401301625,0.7176374922,0.9195848945,-0.2609738197,-0.401272915,-0.3021761558,-0.0047770211,-0.3326399044,-0.5879688469,-0.4261617034,0.8920982908,-0.5399997365,-0.4714483365,0.3388513035,0.1366747185,0.1945900223,-0.2391683092,0.4912644256,-0.2539603828,0.7801529904,-0.8138623283,0.8009698437,0.0849398827,-0.7841775181,0.0111478886,-0.8795719107,0.4493177276,-0.6940713822,0.3474052733,-0.5734672612,-0.8482800579,0.1956402229,-0.5751264785,-0.9630889489,0.7502676471,-0.3747739904,-0.924402855,0.7115748842,-0.6382946686,-0.5093057534,-0.1874941397,0.2049810433,0.9650614453,0.2245670405,0.7315329657,0.328494859,0.1090541869,0.6324699606,0.2585284466,-0.9837130904,-0.2971951611,1.9969447169,0.3856281014,-0.0539252788,-0.3241999144,-0.546953225,-0.3593798581,0.9893725266,0.8474696984,-0.4453626176,0.766939633,-0.0368668728,0.8470941067,-0.0720119783,-0.9635554451,-0.9063090176,0.1585392273,0.1221837507,-0.5893640579,1.2439383398,-1.0356085097,0.9396985995,0.9456829231,0.7969101921,0.8243789871,0.1737013593,-0.0756106029,0.5383022745,-0.670433462,0.0717866052,-1.0001535515,-0.6430501709,-0.3430376331,-0.3062121415,0.0671458173,0.1608439278,-0.2036353716,0.9710695123,0.6561057274,0.4114863898,0.5817589963,0.7018655934,0.0182001058,-0.4131228726,0.1277241197,0.583870153,-0.3193600454,-0.4742567745,0.2552840867,-0.0419318402,0.488731716,-1.1917841808,-1.1790109554,0.3051780723,0.5954017538,1.216951246,-0.0535539875,0.3118990258,-0.3437148525,0.040334096,-0.2845019096,-0.4419769011,0.4640029762,0.559296379,0.1579064004,0.3252897793,-0.6123397749,-0.0168222881,-0.0744604689,-0.6454829755,-0.561342127,-0.3015617345,0.8851924094,0.8936097167,-0.9034783967,0.2291200132,1.5924683106,0.6058571223,0.1290213191,1.0155547484,0.8414184737,-0.3243800004,-0.1010479651,0.251287702,0.4482863853,-0.1204790029,-0.9911660386,-0.1588762442,0.2706196987,0.3886444455,0.994021927,-0.3152707879,-0.4939248757,0.3498428948,-0.6700680668,-0.6956033865,-0.1333154219,1.0963756178,0.734800195,-0.1753666217,0.9286942189,0.8045933056,-0.6073360749,-0.158195573,0.3498694266,0.0698720895,-0.0357065178,-0.7334075628,0.5391908568,1.1115920074,-0.1294753467,-0.784722745,0.3525370645,0.6264246306,1.9663990256,1.2739510964,-0.2676996334,0.3018519653,1.1483843826,0.1340089467,0.6925844662,-0.125712243,-0.0454602607,-0.5102939796,1.8143988473,-0.0704367303,-0.0799160239,-0.0018388262,-0.4455886664,-0.3842160361,1.0259849729,0.448814197,0.0175192029,1.1804991539,-0.1173686355,0.3739426192,1.01043753,-0.6538276342,0.4055689564,-0.3577087135,-0.6698194305,0.0555919246,-0.335667669,-1.0436196599,-0.4633866478,0.4789473445,0.2568710404,-0.9412682267,-0.2298679812,-0.3736386005,-0.1664497128,0.6565401787,-0.1953221166,0.7030936273,0.6097884854,-0.6251090225,0.6705162201,0.31756028,-0.6294205049,-0.7676181333,-0.0002394029,0.3429137389,-0.3543840389,0.8066136711,-0.5784415967,-0.2399259616,-0.3495671332,0.1913022038,0.332314318,1.0911058044,0.7894752515,0.6384580733,-0.2768066625,0.1018407535,0.0875104124,0.0309041109,0.2017464221,-0.3964708089,0.5119552086,-0.8965744906,0.6035994862,-0.4970912317,-0.836976895,0.0475056084,0.5219980271,0.3555898747,-0.0682202247,0.9415841899,0.8398346844,-0.2136041577,1.135035802,0.5707560248,0.9858703371,0.0565905098,0.0630990181,-0.4478748277,-0.2872739179,-0.6571524465,0.2904158262,0.3938675514,-0.6376236887,-0.170261333,0.3389857159,-0.5346077107,-0.8479533186,-0.4304466444,0.3024473143,0.3706120681,0.8784000196,-0.2150375939,-0.4963457104,-0.2641036465,-0.0432326153,0.4275297439,0.901578912,0.7174422202,0.1233976405,-0.218604848,-0.9091904114,0.428589562,-0.7466763252,0.7163978146,-0.3091420749,0.111770331,-0.2543250987,-0.0826413466,-0.4093132472,0.2524402284,0.0677659523,-0.8164963632,0.1141864343,0.3859409501,-0.7366196795,0.6290560537,0.3399587087,-0.2289615702,-0.8385923203,0.4095746214,0.9024771026,-0.4742752784,-0.2633261932,0.0282611147,0.3709306286,-0.5824053675,0.2369420209,-0.7130022532,0.5411661793,0.8209166881,-0.4931711238,0.3375381795,0.8129455459,-0.3070289381,-0.1115492726,0.1310471693,0.1643224262,0.3349787596,-0.8549222017,-0.9211425678,-0.6905490944,-0.9428664793,-0.4200715057,-0.6231396032,0.1785772611,-0.2178495066,0.7901571436,-0.2381162038,0.1193350512,-0.3316339161,-1.5155868631,-0.5392384611,-0.0275447823,0.3445603923,0.3830524171,-0.1002491097,-0.1015686413,0.7120699465,-0.4951317292,-0.6378115389,0.2059551604,-0.5726970649,0.1371058459,-0.2667545167,-0.0007372571,0.908151787,0.4955015053,-0.4918598179,-0.002096379,0.6015388473,0.0944908115,0.3604124384,0.8488956914,-0.192697388,0.0377914674,0.7115955618,-0.5629651808,-0.3945952238,-0.2083950443,-0.415773605,0.0278907929,-0.3659359341,-0.5144355251,0.6254471253,0.7738619943,-1.2189962188,-0.7259215303,-0.4266658879,0.9781837586,0.7358814819,0.1640847834,0.1517999352,-0.5485485895,-0.0751806105,-0.711860166,0.9517342428,0.7612613491,-0.2977058372,-0.5418040943,0.5769878248,0.3286413759,-0.3545540694,-0.3276997944,0.3331554107,-1.1690465973,-0.1038847211,-0.377883207,-0.6322331979,0.9097783227,-0.0416644009,0.2575055975,0.9186782781,-0.7536871211,0.1176404966,0.0651818572,-0.0158012163,0.6952966317,-0.6846412319,0.8173091175,-0.0219256972,-0.762756766,0.8023373313,-0.9859174003,0.8934501046,-0.028462923,0.1157273703,0.8224128853,0.3878029421,-0.2844429568,0.6897396301,-0.1611327602,-0.873886203,0.9935963486,-0.0231568821,0.0233639617,0.2744266659,-0.0341006749,0.8850501114,-0.5749220351,-0.8120361531,-0.0622936042,-0.0423982109,-0.5362116239,-0.4102536946,0.7484541052,0.9940922397,0.9041544667,-0.7025811984,-0.3596259579,-0.2003857182,0.4774554376,-0.5858780746,-0.6989423493,0.9003950811,-0.2351105277,-0.3979679019,-0.7556877966,-1.0393534275,-0.3430134975,-0.6879832531,0.2452173397,1.7672984446,0.5706991242,0.0193171351,0.6585317579,-0.671894285,0.1153206577,0.815662367,0.6179296063,-0.5552993564,-0.6035137883,-0.6338396865,-0.0710245655,1.0066304505,0.7576023262,-0.8677770119,0.3473982126,-0.5476869922,0.4461629731,0.0742879235,-0.2169022587,-1.1265334758,0.9132972181,0.9344688186,0.1000373732,-0.0646536059,0.0600075184,-0.6017658728,0.2039891372,-0.1724187032,-0.090500612,1.1661084107,0.8505769481,-1.2005584202,-0.248690741,-0.2876118756,-1.026352766,0.4806168857,0.8268775518,-0.0943311291,0.4616087511,0.5608790187,-0.2123407273,-0.4259424991,0.1643280651,-1.6796825182,1.3082937589,-0.767182245,-1.2469225848,0.3590159914,0.4563946738,-0.1253295155,0.9410259675,0.5121770809,-1.040828124,-0.4797949953,-2.2428911013,-0.5585477549,0.8993637405,-0.6632633551,0.8352704137,1.0611975614,-0.6069817748,0.8764102641,0.9163972307,0.8831916428,0.0875767704,-0.4104851191,-0.1161993823,-1.0920181222,0.0062897044,0.3776568116,-0.6055449388,0.2786205996,-0.6358410509,0.0852816917,0.3784746638,-0.2981131097,-0.2507927464,-0.2815642333,-2.1378242669,0.4339840751,-0.5684714081,-1.0578570744,-0.0210608764,-0.5895369943,-0.0945321787,-0.4322378245,-0.1923422082,-0.8801146302,0.0385374047,-0.2202147602,-0.1454719502,-1.056561421,0.4824726098,0.0033487063,0.5384629775,0.3200481681,-0.5712221863,-0.2746724969,0.0374335159,0.3803946424,0.2184926946,0.1269113607,-0.8756132511,-0.6050641611,-0.0049334598,0.5971609022,0.0988346621,-0.5867794207,-0.0105983801,-0.5907601248,-0.5570363147,0.0109150689,-0.7644028911,0.0296912189,-0.1356079798,-0.0599997843,-0.9515733703,-1.3877227065,-0.4586415077,1.0415827457,-1.0731549389,-0.4279263626,0.4137192925,-1.1976359452,0.5032996241,1.2128536946,-0.4294674901,0.6992500122,0.0000677359,-1.6978745623,0.065176868,0.8179250483,-1.0712006437,0.4466130653,0.729622476,-1.1399903294,-0.4762755819,0.4813356566,-0.3543150408,0.0795440154,0.1123207071,-2.2013980409,-0.3752568074,-0.0911775559,-0.305480337,0.0028852209,0.5561453487,-0.5472635135,-1.1449017555,0.9765685994,0.568337302,-0.3014856845,-0.5445914366,0.2365747681,-1.1829609976,-0.7516872022,-0.8858190779,-0.0002352657,1.0899916081,0.9054111424,0.3584233341,0.9634300194,-0.6856900467,0.0504522392,0.4900643668,-0.6421930161,-1.1784771162,0.5862116247,-0.886511386,-0.0865827666,0.4685025235,0.1766858538,0.1845789528,0.0109127889,-0.5695417574,0.1795479955,1.3518402465,-1.2676642435,0.0715573432,-0.2642231996,0.7077690102,-1.0512922996,-0.0532847153,1.0932262479,0.8450718704,0.794382305,0.9586163464,-0.2639474524,1.0626032857,0.5196036616,-0.1640976823,0.3146424545,0.4948559614,0.001152688,-0.3184525001,0.6997511069,0.2509806887,-0.8818115188,-0.5515727771,-0.3523958492,-0.423952985,1.3148667041,-0.3218101587,0.6085527913,-0.2104225295,-0.4501071311,-0.6958840829,1.2915152313,0.1674798535,-0.4398625329,-0.406219213,-0.1490133896,-0.669753578,0.5931248855,-0.0021928639,1.0875897346,0.3073269952,-0.1488893505,-0.5590878068,1.2887011223,0.1365435649,0.1179294399,-0.3692738649,0.3044362501,-0.4520737467,1.1060589261,-0.5282499659,-0.8510947671,0.4185738642,-1.1009050051,0.2214510599,0.4595743152,-0.1934317469,0.4298829819,1.000162285,0.1971571924,-0.3507032657,0.8482409772,1.5915876274,0.5801228461,-1.5131192656,-0.6040500739,-1.1893471545,1.1095460973,-0.4073678246,0.6093684335,-0.5079796695,-0.1545899612,0.9670984869,0.7184910411,-0.2848208304,-0.6132586862,1.2997380668,0.5430601571,0.5766811596,-0.5290934532,0.4425118468,-0.3357620419,-0.3554578952,-1.1658125597,-0.1624300622,-0.0450800669,0.7037137036,0.2797257285,1.1577997987,-0.9517239669,0.7796599895,1.0272504737,0.6938565762,-0.6373942154,-0.1764198452,-0.4919586702,0.7290822419,1.294660844,-1.0668761741,-0.3794148288,-0.2167938265,-1.0920584744,0.6972690757,-0.3862747389,0.5758787157,0.6683444653,0.961971838,-0.6519200997,0.4940774898,0.4766925207,-0.1177478533,-0.0649448672,0.4483075764,-0.3853735978,-0.1336778609,0.0346195317,0.4834331019,0.3343742797,1.0245864429,0.2017995125,-0.5509612628,0.8596733678,0.1112917991,0.6314041227,0.6085169798,1.761901459,0.8592123263,-1.4529496957,-0.0880817537,-0.418478,0.4418981318,0.4289272319,-0.8412739664,1.0718855623,-0.3533882126,-0.4200620771,1.3545810687,-0.4839012214,0.0073922674,1.5162280196,0.7194290948,-0.717228552,-0.1367639427,0.0405682755,-0.0213774576,-0.6551928264,-0.1772402562,1.0875276778,0.4257990019,-0.963986724,-0.6617779187,0.7393176816,0.3516536749,1.0525938777,-0.7813745147,-0.9479705815,0.5280625847,-0.2702150579,-0.689830173,-0.2478911723,1.4409842832,-0.2750238171,-0.3235181798,1.0572095311,-0.3402723234,0.4199481242,0.6112585198,-0.8408121488,0.2102976663,1.127884537,-0.7342787544,-0.6158137923,0.9118870538,-0.2922926599,0.4962879169,0.676443483,0.9403754933,0.91196113,-0.0879687081,-0.5759677795,0.0829997377,0.4869760081,-1.32524372,0.6252724416,0.7434143753,-0.9471456715,-0.754006496,-0.0402125106,1.1914702834,0.6656708957,-0.9322976121,-0.9919963696,0.7184939017,0.7415069904,0.3277347044,-0.5391291234,-0.6721335763,-0.199799858,-0.4848519504,0.9842334079,-1.0384668972,0.056203624,1.3953183503,-0.5152808803,1.0004016507,-0.2951345185,0.1134999721,-0.717895854,1.0237484372,0.5852873702,-0.1124621596,-0.4551221468,-0.4651373067,-0.1619999867,2.0875200117,0.4241283109,0.5010648639,0.7584759865,0.2022723538,0.5779168717,0.2441592696,0.5022390796,0.5768370702,2.1675712066,-0.7171975553,0.0472463312,1.6241848766,0.373877139,1.199669664,0.0931082914,0.6596102477,0.107560069,-0.675333674,0.3431705901,1.0579032501,-0.4713782395,-0.7938425255,-0.6402526817,0.7505825459,-0.7184919607,-0.3824309069,-0.44137064,0.6445283646,1.1537917594,0.9809930049,-0.8104842705,0.9816109737,0.4076643332,-1.2557284814,0.0385608701,-0.5141163331,0.0645110504,1.5275930901,-0.0342085258,-0.13697277,0.3836014972,-0.4599590645,0.5399318928,-0.3283106998,-0.8597857417,-0.924673809,0.3235337816,0.315312143,0.2396011607,0.2014902018,-0.236773363,-0.5690980564,0.3907166308,0.5592812144,-0.4227803285,0.8282479449,0.2351969143,0.2200999132,1.2050090276,1.9632731438,-0.6926093671,0.1248389407,2.0436078527,-0.0406244172,0.9560674617,0.6504701936,0.532518648,1.0528166381,0.5060856689,0.8065369116,-0.8300041085,0.7210951622,-0.6577692257,-0.3949119888,0.1945982526,0.0592617096,0.265800531,0.8660585043,0.5884410884,-0.0578902347,0.1776803244,0.1726541151,0.1957148063,-0.2022758476,-0.3168219496,0.7952119004,0.7595271575,-1.0443537174,-0.8235534295,-0.2704778785,-0.5004283245,1.0922656687,1.3253855167,-0.0725032459,0.686307778,1.0601148937,0.4135552091,-0.2053750717,0.1272143854,-0.480181239,0.6003391843,-0.3343737759,-0.2117997761,0.0331553238,-0.7151215797,0.7253349074,0.7970186079,0.4293707212,-0.9235173532,-0.3197858824,0.9762592944,0.1820407875,0.0069808752,-0.2281944166,0.0993519826,-0.1783383344,0.3635154783,-0.524711406,-0.4118757009,-0.2309311912,0.8574942179,-0.4858312378,-0.3108950105,0.6453526367,-0.1959444799,0.1069023471,-0.2994556457,-0.4823583778,-1.0521064191,0.3264008624,0.3857740658,-0.1105393856,-0.7589229236,0.070456732,0.3672671185,0.4897913637,-0.2938631282,1.3978848814,0.6555003005,-0.2982537535,-0.8386974078,-1.0394709475,-0.6622341345,-0.067045631,-0.957136565,-0.0001986762,-0.1135495571,-0.507526924,0.598628294,1.4342153876,0.0696312785,0.2292705234,0.4714332099,-0.3774115284,-0.5555863114,0.3799155988,0.4106812566,0.9494337845,-0.0868335396,0.5031479545,0.6344704631,0.9210443211,0.1117070643,-0.5733087011,-0.6628914154,-0.3393459739,0.6685670547,-1.1889855946,-0.4481151449,-0.1080910397,-0.9956297063,0.2656289537,1.0789029442,-1.1909002938,-0.9252507568,1.2913911279,0.1923119382,0.0543512881,-0.3035256374,0.0065752318,0.0518142527,-0.4786678791,-1.2847920382,0.0776312819,0.9883705593,-0.5432427457,0.7231543227,-0.6365641231,0.2953452318,-0.5216486148,-0.5103817969,-1.1620505716,0.5934629333,0.1776035902,0.5835536304,0.6254332536,-0.7646079899,0.2719435909,-1.010427534,0.2445041854,-1.005387858,0.8396739592,-0.8736300586,0.2313768854,-0.0038316733,0.3134166328,0.7875291653,-0.6618799185,0.2215748867,0.6103018944,0.6391221198,-0.7421256234,0.6496111484,-1.0938123412,0.1836750134,-0.9716681246,-0.9365059828,-0.5856628934,-0.1280318136,0.4369628695,-0.1621554673,0.4685647872,-0.9559177935,0.5076591997,-0.1607077001,-0.631637135,-0.2462902468,0.1679161101,-0.5887682081,-0.1708890341,0.4142363272,0.5551336994,0.1338351396,-0.3915707421,-0.5894725943,0.0682767909,-0.7759507078,-0.6254730762,-0.599321709,-1.6425998265,-0.8753141619,-0.2553463939,-3.004335546,-0.5952569345,0.905124212,0.2842968486,-0.6332619345,-0.1386303713,-1.1480134445,-0.5420875751,-0.6691527553,0.2434491914,-0.807666552,1.1513259696,-1.2527891085,-0.7833829417,0.9299944516,-1.0380347984,-0.0193957876,0.0968183372,-0.7386285883,0.248932923,0.0291035831,-0.5699114004,-0.5935250555,0.328650587,-1.201176328,1.0289497787,0.1393300786,-0.8299895336,0.5264196628,0.2599884089,-1.191890682,-0.609997804,0.5520422212,0.4559520994,-0.6691993956,-0.7293600779,0.0215535632,0.6617270913,-0.4964055996,-1.2648083362,0.1216954027,0.1836018239,-0.2152713215,0.8423563131,0.0698836112,-0.6309263917,0.7688319003,-0.4248638447,-0.5066966078,-0.5740904595,-0.0962052594,0.2239527416,0.1634477801,0.2144242948,0.2653478383,1.2659396317,-0.3143508377,-0.3903761519,0.4091696721,-0.1696152349,0.6302423328,0.2863616671,0.4808155294,0.7979452853,0.7654837946,0.3685341175,-0.6732370003,0.001490465,0.2840136769,0.9683324761,0.5441155748,-0.1703196016,-0.2385814157,-0.2079490558,0.5400148226,-0.5807078207,1.6695810421,0.6021947764,1.0019200641,0.5093283988,0.1371941775,0.5746982991,0.692434812,-0.6043181819,-0.2946872381,-0.8709595863,-1.0208687253,-0.2951168329,-0.305070951,-0.5730357728,0.4918321826,0.8737926363,0.3209649413,-0.5703267387,0.166418134,-0.1463330376,-0.2334645656,0.0474468457,-1.0583292749,-0.467681862,-0.8705787377,0.641228995,0.2869677737,0.6732561318,-0.2396843273,0.5568840317,1.0425237111,0.9017327203,0.4617272046,-0.4258254688,-1.0336801871,-1.0837535804,0.3813788907,-0.1025785931,0.6604633861,-0.3607400072,0.3967761468,-0.4011296552,0.3500277287,-1.0014275761,-0.5524202719,0.1562013311,0.4378511101,-0.441731312,0.9937793981,0.1799875921,-0.1809461046,0.5494406746,-0.9161250006,0.3136154793,1.032433161,-0.6786808492,-0.0813634595,-0.4076728599,0.2032905644,0.2853611296,0.7264260989,-0.9465082233,0.9586620462,0.3069565726,0.2010500482,0.2870389622,0.5817794175,0.6418791773,-0.3147414881,0.9121803106,-0.3830588188,0.3104458924,-0.2184014539,0.3809887958,0.5018942784,0.3422873098,0.8004827562,0.3291766297,-0.9260559719,-0.8988645096,-0.3015219453,-0.5741934047,-0.6853451859,-0.2532688812,0.4345345794,-1.0616769074,0.046867809,-0.8711828411,-0.2924507519,0.1321780865,-0.0926930945,-0.3611397742,-0.0299059109,0.2405914746,-0.7403029734,-0.3256913736,0.9969064977,-0.214341761,0.0900199859,-0.469380662,0.8784675736,0.5495549824,-1.7372350432,0.6703385186,1.4165673649,-0.7688347477,-0.7026816253,-0.3156914901,-0.7862216775,-0.6895655999,0.1300252969,0.5657436001,0.8727266218,0.9032963143,0.1839697231,0.3676442965,0.3987527973,0.9564781484,0.5456786925,0.2455775354,-0.7602759042,-0.770828723,0.055839149,-0.8261804811,0.0784362577,0.6091242665,1.0109861751,0.9383480259,-0.4712599363,-0.8224664369,0.6092004642,0.3514035519,-0.2665452358,0.4403851066,-0.3534956207,0.3401444338,0.1650187442,-0.3853317495,0.5083266027,-0.2457171211,0.5229407893,-0.6287443022,-0.1118331539,-0.6214977565,0.8412178802,0.6035168112,0.1975132038,-0.3029358284,-0.0144299329,0.5962231345,0.4005673951,0.8752792336,-0.7974569218,0.4647645547,-0.2576585335,-0.9030077223,0.8480692896,0.250446415,-0.8039804006,0.8095615903,-0.4179924258,-0.821551717,-0.1964759201,0.6109705313,0.8015368442,-0.0989086263,-0.1470681454,-0.00548998,-1.0378620825,0.8590653974,0.633443548,-0.1358176697,-0.9959050623,-0.0834255939,-0.3925496395,0.6629776896,-0.4763286827,0.0379149599,0.7868287039,0.2892847059,0.4258301053,0.7890531381,-0.1966133168,0.2553814913,0.7285767605,0.8787423215,0.3015625877,-0.9391237838,-0.8170284804,0.0702438542,0.789481756,-0.3846476493,-0.3939554482,0.2469628877,0.8313162616,0.6403080856,0.5456629457,0.7454187423,-0.4548223662,-0.5942467967,-0.1051389597,0.9080325148,-0.0470152494,0.7816857966,0.6772913455,0.9070500432,0.4660852541,-0.4328859188,-0.4614640166,-0.4682019144,-0.5825590684,0.459868142,-0.0907024028,-0.6938361043,-0.7027462211,-0.2654149285,0.5758190638,0.3994560204,-0.7747900055,-0.6339012782,-0.8417919046,-0.9447888423,-0.849354212,0.5467492306,-0.4539003784,1.4892217432,0.439885574,-0.4075588653,-0.9047060965,0.6162635727,0.4127974015,-1.5840137868,0.1456250208,0.5807293614,-0.9966900048,0.3394233785,1.0265907057,-0.3012901609,-0.1482327177,-0.0515484042,-0.1492186364,0.517914686,-0.1643013763,-1.050497453,-0.1746807366,0.7911262382,0.1607160867,0.8116143623,0.6930500735,-0.341139228,0.719697653,0.994592732,0.317536613,-0.9718991519,0.9772380191,-0.4361340443,-0.975487129,-0.8932207001,0.6395148344,-0.3763792457,-0.2555487114,-0.0108276641,-0.554348897,-0.0477398591,0.0569063596,-0.6139627229,-0.195152949,0.672160968,-0.3473521479,-0.0212851673,-0.6507502729,0.6846724839
