encog,BasicNetwork,java,3.4.0,1,63713990184363
[BASIC]
[BASIC:PARAMS]
[BASIC:NETWORK]
beginTraining=0
connectionLimit=0
contextTargetOffset=0,0,0,0,0
contextTargetSize=0,0,0,0,0
endTraining=4
hasContext=f
inputCount=630
layerCounts=1,101,101,101,631
layerFeedCounts=1,100,100,100,630
layerContextCount=0,0,0,0,0
layerIndex=0,1,102,203,304
output=1,0,21.2519711833704,0,0,15.3742946580818,16.9158012313696,27.3151958563595,0,0,0,0,0,18.6108381132859,20.4634457796489,0,1.95740075101354,0,0,18.5942370202735,0,0,13.9615398030251,0,16.5055305032408,0,13.1377734680788,13.0300364533668,0,0,18.8832619563426,14.0283653631406,0,13.5886405677548,0,0,0,0,0,24.334142847239,15.6312624280355,0,0,0,0,0,23.1393079741308,0,0,0,0,16.4403707904777,0,0,0,18.5152161158709,10.2472831986107,0,0,18.6432785632083,9.7202592914733,18.2746682413559,0,16.197766101666,0,17.3946697453855,21.0783081614661,4.53827925628884,12.6546980275897,0,14.4017795961063,4.36567868318411,15.4805415863351,25.076873804789,0,21.1096679185324,0,19.6814918943643,6.3739498761405,20.2629467603049,0,0,7.41016242801986,0,0,0,0,16.1820332677948,20.6480123357488,13.4608146596203,27.5427058661863,0,17.6302161295845,0,23.5611004549488,21.9963220855398,19.6587411019467,0,12.7154377241522,15.597482449581,0,1,0.29965878678605,0.980786563889881,0.942106153816336,0.947311794885559,0.988211249950788,0.0378506271313991,0.00934214350513245,0.85725280061364,0.999999676080758,0.0000032933001425503,0.999998702757203,0.999766176710592,0.999999747316179,0.00600553394923546,0.999952678563467,0.00000292252632338514,0.999996915962152,0.992017370152545,0.999780267005133,0.999997423816749,0.999993300697153,0.000346147413568941,0.950324433695697,0.998858096518672,0.999889619374064,0.99999777555164,0.921775545799529,0.999828361120583,0.999899402005771,0.999999975058048,0.00000112350018409353,0.770953003465152,0.00000161056753297898,0.999998381078752,0.924081923914437,0.999998467198345,0.934056994438443,0.929582075721315,0.999998520236874,0.000145269353679802,0.454015883331742,0.000624277914547331,0.998492877474968,0.990912172148687,0.999769425647299,0.999615162683806,0.0000415840522965054,0.999702269650329,0.921078165182453,0.836568083839634,0.551086742246695,0.870964776147117,0.924006172817531,0.999994559672246,0.00957748120992202,0.00183179837445623,0.999193060654083,0.0000400873650990691,0.0011100618375691,0.0000508159948155058,0.952472755924476,0.00269467416629561,0.999999598629299,0.999980712936265,0.855133298043399,0.15730320498574,0.999746434142127,0.999999968628868,0.999998996287383,0.0000218800814334058,0.999980907466916,0.0196271427915757,0.971773065297998,0.000123351807596671,0.00094220667211939,0.958979227539723,0.745670963103897,0.999998854422186,0.101488825638785,0.999647166217002,0.999591965868572,0.096886754887633,0.9999999548312,0.999744329721629,0.999954677066174,0.999993419698594,0.999960360054094,0.999849200991164,0.998736324051422,0.999995068041798,0.996621559916326,0.966273267620019,0.520617338975006,0.00000268151921983471,0.0467735756902246,0.299290644900644,0.999961055325126,0.0250866717698796,0.999998779497462,0.99984206019242,1,1,1,0.00000000000000000001,0.00000000000000000001,1,1,1,1,1,1,0.00000000000000000001,1,1,1,1,0.00000000000000000001,0.00000000000000000001,1,0.00000000000000000001,1,1,1,1,1,0.00000000000000000001,1,0.00000000000000000001,0.00000000000000000001,1,1,1,0.00000000000000000001,1,0.00000000000000000001,0.00000000000000000001,0.00000000000000000001,0.00000000000000000001,1,1,1,0.00000000000000000001,1,0.00000000000000000001,1,1,1,0.00000000000000000001,1,0.00000000000000000001,1,0.00000000000000000001,1,1,1,0.00000000000000000001,0.00000000000000000001,0.00000000000000000001,1,1,1,1,1,0.00000000000000000001,0.00000000000000000001,1,0.00000000000000000001,1,1,0.00000000000000000001,0.00000000000000000001,1,0.00000000000000000001,0.00000000000000000001,0.00000000000000000001,0.00000000000000000001,0.00000000000000000001,0.00000000000000000001,1,0.00000000000000000001,0.00000000000000000001,1,0.00000000000000000001,0.00000000000000000001,1,0.00000000000000000001,1,0.00000000000000000001,0.00000000000000000001,1,0.00000000000000000001,0.00000000000000000001,0.00000000000000000001,0.00000000000000000001,1,1,0.00000000000000000001,1,0.00000000000000000001,0.00000000000000000001,0.00000000000000000001,1,-78,358,-511,-35656,-5053,798,-59238,9,3826,-96644,10160,14332,-106498,17134,27288,-58228,32509,7177,-101049,61489,31339,-113685,71040,43830,-128376,79165,54904,-46731,40583,15984,-86693,73735,43871,-102225,85293,57133,-125574,101223,73968,-34856,44837,26119,-65018,75380,55487,-78532,85235,69034,-97527,100282,87383,-21593,42561,36661,-39809,66352,59615,-52077,78547,73879,-66418,93034,91904,-36,35,178,-35543,-5135,732,-59185,-380,3752,-96712,9302,14228,-106641,16170,27161,-58439,32229,6860,-101404,61093,30851,-114017,70540,43405,-128693,78396,54618,-46991,40446,15618,-87125,73398,43448,-102668,84616,56949,-126074,99994,74032,-35144,44851,25716,-65484,75292,54969,-79025,84957,68598,-98096,99726,86992,-21857,42742,36268,-40262,66440,59141,-52668,78390,73444,-67191,92516,91497,412,-4,6,-35537,-4842,612,-59138,98,3682,-96563,10052,14274,-106399,16945,27290,-58163,32698,6918,-101020,61516,31172,-113653,70851,43856,-128324,78876,54993,-46680,40782,15743,-86645,73937,43591,-102133,85496,56881,-125439,101499,73674,-34817,45064,25880,-65006,75579,55225,-78501,85401,68799,-97471,100479,87114,-21553,42829,36428,-39906,66359,59504,-52310,78168,73960,-66777,92196,92122,741,497,-1136,-35538,-2065,-2280,-58960,4091,-71,-96108,16138,9220,-105856,23796,22011,-56426,36859,1720,-98829,68283,23375,-111496,77604,36241,-126122,85462,47365,-44987,44615,10907,-84298,81056,35404,-99609,94102,47453,-122726,112072,62410,-33419,48668,21464,-63491,81822,47956,-77353,92680,60328,-96636,109091,77012,-20782,46171,32733,-39668,70603,54299,-53208,82095,67993,-68780,95492,85119,1715,591,-2396,-30933,9044,-17185,-47286,23534,-27891,-71534,52566,-38485,-74260,69256,-31058,-27066,46412,-40672,-50628,95698,-56805,-61681,112771,-54804,-74101,127938,-53900,-15567,53693,-31279,-35315,107436,-44898,-48658,126929,-44004,-66683,152892,-45452,-6221,59128,-19257,-19739,108811,-25844,-32563,126245,-23290,-48999,149542,-20585,523,59885,-3529,-7457,96313,-5448,-19627,114364,-3362,-34319,132636,1153,-178,-288,5515,-28987,9492,-19971,-44039,24629,-31601,-64311,55448,-42693,-63206,72556,-34399,-19232,40882,-49027,-36082,87965,-75844,-45295,105843,-78200,-55639,122060,-81644,-7979,48711,-39810,-19379,100533,-64870,-28825,121219,-69379,-42674,148364,-77427,763,55418,-27987,-4540,104122,-44843,-12413,123494,-47670,-23997,149719,-52031,5728,58639,-12013,6562,95118,-21499,2615,116124,-24884,-6061,140135,-27284,997,-561,544,-32490,11238,-13781,-47171,26206,-26107,-67633,56640,-39342,-67468,74019,-33064,-26315,45906,-40364,-43300,95982,-61663,-48667,115083,-64196,-57089,132902,-67092,-13663,52842,-32105,-26878,106772,-51682,-34401,128204,-56428,-46606,157448,-63697,-3482,58375,-20783,-10291,108163,-33908,-16470,128010,-38125,-25687,156270,-42847,3598,59874,-5198,1991,96665,-13139,-2899,117785,-17658,-9659,143606,-20413,-849,829,2547,-36819,8939,-6780,-54001,22361,-17580,-78630,50546,-28435,-79644,67646,-21924,-37156,46052,-30737,-61395,95979,-43900,-68873,114808,-42773,-79217,131920,-42245,-24184,53470,-23480,-44923,107457,-35016,-55046,128625,-35592,-70720,157232,-37710,-13164,59003,-12984,-26235,108871,-19980,-34740,128448,-21139,-47055,156084,-21699,-4219,59899,1642,-10414,96821,-2693,-18289,117589,-4643,-27939,142776,-4176,2515,2302,-1008,-38425,-1381,6715,-60664,8495,5741,-95218,28278,9710,-102604,40992,19594,-53329,40233,2165,-89897,81450,17337,-100191,96015,27135,-112938,109073,35884,-40488,48143,9017,-74015,93160,27468,-87426,109597,38017,-107747,132499,50724,-28030,52616,18389,-52163,94895,37078,-63913,110620,45944,-80336,133094,58943,-15319,50838,29684,-29379,82962,43675,-40764,100068,52841,-53930,120112,65954,1036,-366,-837,-37171,-5566,2268,-60918,-248,2744,-98731,11065,9480,-108620,19510,21351,-58428,33049,5946,-100184,65537,27498,-112616,76174,38900,-127120,84067,50242,-46527,41486,13792,-85134,77539,39995,-100315,88637,53947,-123245,102751,71985,-34366,46129,23346,-63047,79771,50778,-76233,89389,64757,-94973,102748,83891,-20960,44316,33796,-37776,70627,55092,-49630,83201,69148,-63954,96803,87266,1
outputCount=1
weightIndex=0,101,10201,20301,83401
weights=##0
##double#83401
   0.1251311615,-0.2978921112,0.3206741785,0.890911372,-0.286004477,-0.782433617,-1.134606953,0.9377475856,0.2658696904,0.922907344,0.5846000936,-0.0607460038,-1.0512479994,-0.2492907818,0.7047082339,-0.0988547373,0.9019625587,0.3153140389,-0.8220995946,0.518168555,0.4691378608,-0.8918644304,0.1972867042,-1.1052831628,0.342517868,-0.3823610591,-0.6944793725,-0.0558134707,0.3423888867,-1.0245148774,-0.1291523927,0.4371373564,-0.9603213606,0.3595126473,0.3656204169,0.4394917324,0.8319567484,0.7077935529,-0.7430348052,-0.8669943345,0.440407017,0.8534464584,0.9635582836,0.0747987763,0.4426648136,-0.856620595,0.3714764391,0.4015236746,0.2775930452,0.7259708583,-0.4274652815,0.9023586288,0.1030720409,0.4386702969,-0.4079064372,-0.1830044081,0.7248211846,0.2059573412,-0.671606496,-0.8836434179,-1.1879542444,0.0412065177,-0.5046413011,0.0703845678,-0.3879402632,-1.1725372628,-0.1004246432,-0.4107606467,0.4050888013,-0.7347834984,-0.0308114857,-1.0058309942,-0.2816511558,0.8248947398,-0.922238462,0.6156914024,-0.9754227141,-0.8775120722,-0.6479479764,0.0791384629,0.2461625017,-0.2160030471,0.6665934841,0.2964180284,0.4229504041,0.0884889785,-0.7659346845,-0.5189916575,-0.6725809155,-0.671375175,0.7146705478,-0.4740005928,0.2594000489,-0.9593913873,-0.89904009,-0.8207995008,0.2580877595,-0.3068262842,-0.8572609604,0.4952020764,0.2438040482,0.4894754585,-0.2893433616,-0.0467090008,0.5712348722,-0.1693122934,0.22313574,0.2844398427,0.2959104082,0.285671378,0.3594058729,0.1820394298,-0.5572111811,-0.6356550064,0.226183915,-0.8607526273,-0.7241540728,-0.21919326,0.2992062266,-0.2759304483,-0.2030555734,-0.9264303801,-0.695639085,-0.7707216573,0.0502343069,0.3649626314,-0.7583386777,-0.8423641502,0.4253853285,0.6707880866,0.0102799976,-1.1738056049,0.6884464777,-0.4275771434,-0.5271513983,0.5327440068,-0.166036939,-0.4880415489,0.170810738,-0.7913482069,0.2007777052,-0.1305341867,-1.0682351107,-0.8614387522,0.0248453434,-0.9009031114,0.0002210888,-0.589268146,0.2802585275,-0.1834665833,0.4803229604,-0.7940749778,0.2500214236,-1.1156784075,0.1797834601,-0.5517288818,0.0966562697,-0.3851668647,-0.5686859209,-0.6599749699,-1.1318871381,0.3353120782,-0.2800183844,-0.6678404119,-1.2110549987,-1.2070368689,0.2846859344,0.506550347,-0.8216796928,-0.1152940083,0.0844682403,-0.8127633408,0.7521073443,-0.3303412523,-0.9675243014,0.4557090407,0.2879359643,-0.7959587072,-1.2112155336,-1.0950238595,0.283380588,-0.8944646326,-1.212737988,-1.1299647048,0.1334685594,0.5083058491,-1.1704432101,-0.1158015074,-0.018757031,0.1495918822,-0.2053263455,-0.5716942055,-0.2262570809,0.5403105557,-0.937474507,-0.688031531,-0.4845178182,-0.2742107946,0.1070930607,-0.270000709,-0.8910257808,-1.049735401,0.5686618918,0.0558670533,1.075705426,1.0586323461,-0.2263224939,-0.5353315311,-0.6163469782,0.1878056738,0.9568924086,1.1512198879,0.0716563926,-0.5711530658,-0.1877904147,1.1060065666,0.7340462646,0.7460118905,1.0048847293,0.3007408146,0.4811757718,0.1811966531,-0.2867868277,-0.4008977064,-0.4279039097,-0.5870117793,-0.1534468396,-0.68518523,-0.3481787765,1.1089498393,-0.4740289269,-0.6724145698,0.3656378629,1.2109446053,-0.1627864301,0.4582890448,0.3883628285,0.7597460002,-0.0212533514,0.4353393809,0.5480448715,0.8389363141,0.189001655,-0.1565126566,-0.4750951161,0.3699939045,-0.4209922101,0.6293557938,-0.2992436462,-0.5093871696,0.912885002,0.9671974333,0.0608069447,-0.7790999913,0.7644567099,1.1215463935,0.5992525629,1.0133178618,0.9079448805,0.2921447547,0.0737486507,0.0700616592,-0.125510164,-0.1058998857,-0.0964476246,-0.1233517121,0.0347665657,1.0611303851,0.7341561783,0.6823687833,0.8733512071,0.8431991237,0.7086535227,1.0883621417,0.8630219308,1.1602538305,-0.2943148115,0.8603775018,-0.4559743987,0.5810352116,-0.4057584131,1.0013278547,0.2561925201,0.4320743055,-0.6802542337,0.0283820729,0.1204658921,0.1384113056,1.0552652601,-0.6980476479,1.0928311248,0.7021346763,0.5569385616,1.0655327469,0.2185784474,-0.3011747435,-0.643893521,0.8677518294,0.885221176,-0.6108476665,-0.067815116,0.3521484591,0.8530964498,0.6699339726,-0.4850304228,0.2190763004,-0.0282481245,-1.0004637848,-0.0527673165,-0.2826747501,-0.89492857,-0.6906934055,-0.9895878696,-1.0192503111,0.3044575569,0.6159745191,0.0376326035,0.2334780697,0.2194306342,-0.1037118116,0.0690891746,-0.7480612714,0.3515831805,-0.0976645152,-1.1687627353,0.5458261078,-0.5158185316,0.7587389543,-1.0657310274,0.5815560935,-1.0155149961,0.494165449,0.4980248544,0.4832135519,-0.1002262223,-0.1195206975,0.3116966649,-0.8031160366,-0.0782549043,-1.0410431625,0.2727701631,0.0479906931,-0.5992624443,0.2549101752,-0.5034941918,-0.3609264175,0.5192640606,-0.4888267069,-1.080668566,0.7132014145,0.4877090608,0.2125282506,-0.6551363133,0.4722818626,0.7526230111,0.3347231443,0.5067999657,-1.0610585177,-1.1049725276,-0.6902596746,-0.4989473009,-1.0469791612,0.3497277466,-0.5607963968,-0.8130089343,-0.074410062,-0.9600056551,-0.6141610974,0.5128721414,-0.2205627112,-0.0711360925,-1.1601765056,-1.2131674842,0.7307663501,-1.1760387675,-0.8034648998,-0.3250030296,-0.1647012334,-0.434077206,0.5926334249,-0.8177163639,-0.8482275904,-0.3884813961,0.5578721255,-0.313206977,-0.5723112849,-0.389131924,0.3102265163,-0.3418799311,-0.9018723649,-1.148421162,-0.6891318103,-1.1311512405,0.5325089037,-0.7365286034,-0.778216214,0.2967035961,0.1485713556,0.1742674181,-0.3860855129,0.1375793278,-0.2506348824,-0.2804065,0.0518034709,0.0971245089,-1.1924645279,0.6119293567,0.579086037,-0.3667706054,0.7497102457,-0.2417195447,0.0712003385,0.2904506246,0.7555937997,0.2884428682,0.2683517742,0.7182167011,-1.0822008021,0.4183283053,0.2726445202,-0.507020574,-0.1653907073,-0.0416771972,0.7527835627,-0.8738732125,-0.9391942845,-0.9504291696,-0.2188373998,0.523395226,-0.0861422389,0.7324963749,-0.2224286429,-0.3370094102,-0.0409882848,0.0259510571,0.2804215844,-0.5056476257,-0.710691141,0.6347974088,-0.3869341024,-1.1689376843,0.0320932636,-0.8686470511,0.425733292,-0.7890625671,-1.1951496576,-0.5706957047,-1.1878364852,-0.3667591259,-0.6004628679,0.2195867453,0.6998798844,0.2395103708,-1.0978056017,0.2334858742,0.4693579903,0.3767701402,-0.9925512869,0.1358689092,-0.5828986186,0.1318081556,0.4700251432,-0.9418520538,-0.5606745202,-0.563276343,0.0293803777,-0.5207712352,0.4601962069,-1.1602213925,-0.5428892113,-1.1014732162,-0.4558647777,-0.9956226462,0.5076284321,-0.2908918921,0.6313358924,-1.0769656591,-0.0829526453,0.4805831151,0.2850638781,0.7187337696,-1.2073779835,0.7113505375,0.7372485769,0.3376749535,0.6289520223,0.6068967736,-0.2762412669,0.3203705144,-0.5682125501,-0.268543586,-0.555752499,0.4178050314,-0.2773732355,0.6889627564,-0.108411621,0.0833826888,-0.9564787747,0.4463331406,0.3866514913,0.2231818311,-0.028645978,-0.3634051027,-1.0859360399,-0.4050929201,0.4597753239,-0.1054992409,-0.6895466081,-0.0075459875,0.1140152633,-0.1430043144,0.1544556029,1.0001838591,0.6029013628,0.8838063954,0.9174510354,-0.0171669632,0.7388836416,0.8910369241,1.0227598652,0.6722982572,0.0937576953,1.1451851653,-0.7424703871,0.9875013029,-0.1464933142,0.8709225739,-0.5533969706,0.1920265497,-0.7506387594,-0.7587519406,-0.6397760796,0.6569485022,-0.4747422529,0.3728660791,1.0498468943,0.4912968659,0.859357982,0.7117401669,-0.7793241755,1.0770251585,-0.3857902033,0.8974205033,-0.4965919886,0.0831875314,0.8654297889,0.8176590019,0.8576609111,-0.556176215,-0.2654979755,0.1117888305,0.3629385213,-0.5292239726,0.5194311076,1.1922386459,-0.0670599782,-0.0418728444,-0.0560565222,-0.095235282,-0.2314086756,-0.4128311514,0.3585899657,-0.5758544352,-0.5471966533,0.1300833418,-0.3900848828,-0.6570491843,-0.3959533782,1.0304245746,0.2865994822,0.3634050124,-0.2306847409,0.7543508448,0.2178137319,0.4035786883,0.5609687138,0.3962998948,0.0914582784,0.7719476186,0.9216751513,0.4513126275,0.8348391541,1.1361126678,-0.5684136223,0.3464472562,0.4562211371,0.8103957382,0.4970356942,-0.7341670903,-0.5263162335,0.9729953195,0.2133313956,-0.5804363961,0.1010346485,-0.1161965573,0.0933520447,1.0724869195,0.310032103,-0.3698839997,0.1528851788,0.4979806765,1.2026017208,0.9710463445,0.3553536347,0.3594372569,1.0650081897,-0.6896577558,0.4206380424,-0.0545858372,0.6654550489,-0.7563109283,0.2728909411,-0.6847341775,-0.2576577211,1.0446947778,0.2464589242,1.0664220016,0.24418757,0.0483620425,0.8052585051,-0.3920946219,0.2848160815,0.0635001023,-0.5275227899,1.1447933942,-0.2161453287,-0.00347502,-0.2575374082,-0.0631702304,0.4927258575,-0.5511727125,0.4620258668,-0.5111664688,-0.4770853609,0.6838303339,-0.3078432376,0.0131183897,0.3058904454,-0.5042366205,-0.049901049,0.4748093587,1.0199247293,0.3281702891,-0.1729203522,0.0080632611,0.8343122137,-0.0594588792,1.2176508543,0.6206675311,-0.3044809396,0.9128616602,1.2138936299,0.6897715721,0.4388805869,0.0985452921,0.8758932865,-0.2837436595,0.9481124712,-0.5128790174,0.8271479999,-0.20241446,0.1403661256,1.0450321,1.0322985576,-0.3107977765,-0.1441358006,0.4477325118,0.3767906407,1.1045874834,0.4322235239,0.0120603793,0.7724352647,0.6273840451,-0.2484280043,-0.3161109309,-0.28988078,0.7742776108,0.3538150898,0.1804842919,-0.0325158428,0.5167051954,0.2834704312,0.2775583768,1.1318766598,0.3167530222,0.9548752095,1.2037686447,0.8678248917,0.7825568282,-0.0083333602,0.2395764783,-0.7071228499,0.0210750389,0.0446917533,-0.1699827252,1.1236670029,1.199005035,-0.5974191638,-0.3684618506,-0.2963738604,-0.1619910769,-0.291242056,-0.5743271966,-0.5592082586,-0.0443603931,-0.3148994031,-0.4109369605,1.1291176679,0.036730088,-0.4917830253,0.6424842933,0.1007062595,-0.492566668,0.7765848432,-0.2798114032,0.4899882944,0.8740490816,-0.2620192184,0.8275935567,0.6646385603,0.8651195104,0.8736412163,-0.6939339029,1.1832804729,0.8172079176,-0.664782725,0.7629153468,-0.3016051357,0.0736208257,-0.0057097863,0.4435730529,1.1004457196,1.1887732933,0.4200772493,0.9416522962,1.1481904082,0.1948862679,0.931823318,-0.7011911372,-0.7382822369,0.9796894613,-0.48756606,-0.6452299633,-0.0771924223,0.7215960967,1.0170717511,-0.1616777688,0.2819628732,0.5882383566,1.1817121508,0.601496554,0.6804586938,1.1377545784,-0.0661749405,0.5177745073,1.0757151676,0.3697353172,-0.2269045491,0.412084598,0.1445019159,0.6760330526,0.5164968389,1.1585369932,1.0757578632,-0.068822401,0.5074255578,0.1564579222,1.1918551161,-0.5317760311,0.4775050719,-0.7215439516,-0.1992635638,-0.3962328681,0.0801618907,1.1537118184,0.4787228898,0.2405049166,0.0375167957,-0.5526791081,-0.7312733808,-0.0756249385,0.2391318276,0.1797506081,-0.4934986947,0.8248829824,0.3778454669,0.3809534571,0.9000259266,0.1660823447,0.6971650636,-0.2900328492,0.9524267466,0.8847516953,-0.4735768471,0.9897608908,-0.0204485546,1.0074934654,1.0147359177,-0.7585354799,1.0767056078,0.4873585179,0.4420444741,0.3447913479,0.1951003156,0.928600561,-0.7617901347,1.1625404239,-0.4445649502,-0.3043791147,0.3640364357,0.0342022761,0.7612612021,0.2919853474,-1.1832872315,0.739477066,-0.9673628063,0.650760004,0.3966768221,-0.4172087162,-0.0774196672,-0.950943363,-0.7915543337,0.0976708209,-0.842022433,-1.1289876413,0.1528141744,-0.6338181933,-0.7632605639,0.1255443603,0.0988674279,0.1748288706,0.7745294512,-0.9356199802,-0.0526264894,-1.1292178456,-0.3695364239,0.3639174909,-0.5191168784,-0.2628845412,-0.2745736649,0.5301521016,0.3384526852,-1.1330428228,0.2925765007,-0.1705962371,-0.249792828,0.7509375128,0.5502339253,-1.028201027,-1.0451002737,0.1219696006,-0.3318514468,0.6611168884,-0.1712899206,-0.4780123335,0.5026220945,-0.6589467209,-0.8486135808,-0.9483969762,-0.903835999,0.4849966937,0.2383941593,-0.9411303365,-0.0024093424,0.0291561869,0.0838268338,-1.1479800653,0.3662892287,-0.4449340849,0.3828732441,0.1066854097,-0.5290084052,-0.7495507626,0.0580670595,-1.1478579838,0.505057558,0.7025382283,0.0894115766,-0.5918165091,-1.0849092335,-0.9904641473,0.0119432028,-0.5503031564,-0.7597711375,0.2233975524,-0.0270029909,-0.6648656987,-0.5277018733,-0.5092833135,0.6619821607,-1.0719930252,-0.4508657007,0.5316588828,-1.095051191,-0.4740638136,-0.7043621559,0.5270710854,-1.073151394,-0.183362942,-0.9248855935,-0.9542000863,-0.4120439914,-0.8474291042,-1.147694818,-0.6717809551,0.0873843537,0.742532443,0.7072673921,0.1890983781,-0.1429557742,-0.1935296056,-0.9408628169,0.1679931743,0.2007676814,0.4663818745,-0.9238090852,0.1751313279,-0.388758513,0.3026657845,-0.8774938426,0.4188353722,-0.3543372367,-0.5674560694,0.3872285872,-0.9458949828,0.6416902557,0.3112582718,0.5712529818,-0.8730310855,-0.4065418475,-1.0277657464,0.0716458749,-0.3515551936,-0.9247411211,0.640577655,-1.0310576038,-0.9348762968,0.6837063503,-1.1494274812,-0.7989987052,0.6321541636,0.2467540255,0.182986203,-1.0705367832,0.773079735,-0.7583489251,0.7390089926,-0.6983139198,-0.0364956881,0.2191100302,-1.0785767112,-0.8972415413,0.6917245134,-0.263493724,0.3563299789,-0.1510573772,0.5240361314,0.6226830898,-0.5276694735,-0.7421873343,0.4844157813,-0.0986550131,-0.6203075358,-0.9627112003,-0.0723883675,0.6645945075,0.1437092483,0.0327462203,-0.0287179264,0.7375109789,-1.1675199757,-0.1389816727,0.3664327883,0.4670388983,-0.6820179382,-1.1655370698,-0.1388739895,-0.53193501,-0.8423849718,-0.1839585963,-0.338846309,0.3915792401,-0.1604184012,-0.2408204608,0.4644241711,-1.2117481048,-0.9238321056,-0.7112442199,0.7103314285,-0.4659037505,-0.2739117069,-0.934068327,-1.1404753087,0.6536757077,0.3733270304,-0.4373119258,-0.8194127279,-0.0069172063,-0.2241840007,-0.5822421945,-0.9869324203,-1.2156246112,-0.4347256961,0.2857783572,-0.7287745178,-0.9259338073,0.3857632173,0.2116039101,-0.7507296214,-0.1456355944,-0.8490607451,-0.725436098,-0.5195724945,-0.1447033833,-0.2172782652,0.7014804479,0.637191164,-1.1122538915,-0.9478367289,0.4950931664,0.731173298,-0.8064060696,-0.5316714318,-0.2829934422,-0.3426511277,-1.0128823418,0.4575510589,-0.0926027426,-1.1582591238,-1.0838113532,-0.9115146996,-0.721157738,-0.509296351,-0.1960834849,0.020459764,0.2042036377,0.1414210055,-0.0036052788,0.4322000123,-0.1774840884,0.2195868664,-0.7973067295,0.2026298767,0.3051271099,0.5837635143,-0.4430112288,0.0273646259,-0.2896891775,0.1096756844,0.6173022135,0.5867547957,-0.9521668788,0.1817469554,-0.3466439907,-0.9856495924,-0.2868721185,-0.9052110101,0.6172011268,0.0976718901,-0.1223576579,0.5283534467,0.769186733,0.6710263534,-0.920437378,-0.8833516856,-0.7121858234,0.278898166,-0.8675498321,-0.053047639,0.7613759848,0.2252158881,-0.6744380416,-1.018994529,0.0561251811,-0.6049831062,-1.050708648,-0.5867297379,-1.2010280641,-1.0384775011,-0.2009745583,0.2845571437,-0.0149028401,0.3915918297,-1.1911855315,0.35718827,-1.0672435613,0.4328070065,-0.7956058784,0.3071158002,-0.9283274115,-0.9920152921,0.0864720823,-0.5555852381,-0.6144788116,-0.3345212842,0.7722761153,-0.0142086192,0.3000102411,-0.9095045916,-0.1831164032,-0.2574546233,-0.7378457208,0.6673253734,-0.6904691504,0.4071635851,0.6537049531,-0.4073729113,-0.2915988367,-0.8492444373,-0.663831803,-0.3383504616,-0.9762544866,-0.0897688714,0.4103621706,-0.1605455743,0.0235179526,0.1632265937,0.0225564477,-0.6717465622,-1.1688387378,-1.1573704195,-0.9326166484,-0.4784738858,-0.8824069175,-1.1133946164,-0.9820875974,-0.0627354884,0.4357001572,-0.572671391,-0.1056202322,-0.1670176385,-0.6133976457,0.69555179,0.3336058105,-1.0096848888,-0.0651864025,-0.3683305139,-0.5655494751,-0.5268747992,0.7725247366,-0.6385021135,-0.1518209239,-0.5869356328,0.0753147633,-0.160466328,0.4372203672,-0.5634053023,0.4853865482,-0.7388413987,0.0884383082,0.7361232403,0.6815274317,0.6419733834,-0.9895953817,-0.1969213512,-0.7638415182,-0.044403427,0.1967288809,0.4567905092,0.3812990976,-0.9734197987,0.4300171533,-0.0193211843,0.0813364446,0.0480147073,-0.6131177507,0.0856091775,0.113173663,0.3106261841,0.3314298675,-1.2014381208,0.4803277427,-1.1466536506,-0.0440919685,0.1285421917,-0.6617453797,-1.0412590394,0.5195928063,0.0393237298,-0.2372978579,-0.541629509,-0.8715440567,-0.7740472444,0.0130663704,0.1483001806,0.5363689415,0.2267934507,-0.8038022705,-0.5555789498,0.0503776626,-0.0842377923,0.2688413835,0.469213219,-0.9022915905,-1.1766171579,-0.7739748071,-0.7968345127,-0.796543466,0.7541221089,-0.4944151816,0.5989435535,0.713118321,-1.0418517414,-0.2922762333,-0.1616012359,-0.3310883118,0.4345926499,-0.5714703295,0.488885026,-1.0246634746,-0.8500639006,0.0387785419,0.7301551847,-0.9806726882,-0.7481086421,-0.6641828509,-0.9812058899,-0.2863725905,0.158621782,-0.8551730876,-0.0711984388,0.9061532542,0.5466010792,0.2421425345,0.1884169519,0.8529623104,-0.8371506677,-0.7978200353,0.658658251,-0.8071991893,0.3657409974,0.0886211633,0.396617253,0.7454402148,-0.6064327162,0.2232692154,-0.5578821113,-0.5384212898,0.1383276084,0.4441035732,-0.0488621942,0.9718913762,0.2560311683,0.0590032512,0.5157006567,-0.1886754749,0.4013321639,0.8121719145,0.9734397456,0.9639430195,-0.2106413065,0.9329169849,0.0917450986,-0.8969081891,0.6360827124,0.024228727,-0.9634319609,-0.0022327793,0.2870168375,0.1385477954,-0.88450584,-0.9757583961,-0.4738557662,-0.492859828,0.0993094068,0.7971541173,0.8452275916,-0.1393623208,-0.2084761389,-0.5031651806,0.035093836,0.1242975533,0.6843780715,-0.7399767105,-0.6833510463,-0.7464333092,-0.7784680528,0.1707581548,-0.4597343874,0.758483962,-0.504774587,0.8782110195,0.3685805115,-0.5244188903,-0.1795214979,-0.4872542263,-0.71265537,-0.159834717,-0.5710825015,-0.167152329,0.9699753672,-0.721665399,-0.6805770582,0.9578727055,-0.399693974,-0.3730997021,-0.6891344123,-0.4966253394,-0.7757292286,0.6678393463,-0.367542166,0.6170511728,-0.8046061666,0.8845279542,-0.0347687951,-0.8030918305,-0.1474934216,-0.6759283895,0.9449599664,0.104890836,0.5825032357,0.8221967843,0.0028436077,0.3358516626,0.2225098217,-0.7763633455,0.3537105469,0.1789939969,-0.2061752793,-0.6205621163,0.7773092278,0.3119462876,-0.2682160944,-0.6409524555,0.3543152966,0.2497565884,-0.669273989,0.7061670842,-0.6576885541,-0.7566465751,0.2861086771,1.0453476246,-0.4536219086,0.7977990322,-0.5106185485,1.0175151901,1.0916654656,-0.4805350011,0.5279122246,-0.736934466,1.1841209813,0.4918563924,0.3697642562,0.3223402499,0.9462867604,-0.4176707561,0.6679800451,-0.1571063757,-0.583139544,0.4988125264,-0.744057954,0.0469016309,-0.3635968301,0.053890485,0.0107261945,-0.6715265966,0.3758659324,-0.2869566516,1.1657344115,0.4473130814,-0.3188855438,0.6514430176,-0.5187127689,1.0560284156,0.325649116,0.9771050309,-0.3248225446,0.4119854959,-0.2271501985,0.0577260039,0.1012174214,0.7786970074,0.366982716,1.1512506187,0.7256223737,-0.1129820406,0.0514749938,-0.5015171399,0.539246533,-0.2335692378,-0.1495088054,0.7623671499,0.3830658792,0.1295381251,-0.4659967651,-0.3386761784,-0.0392063673,0.4477443461,0.8566005352,-0.3494130415,0.3995805847,0.1592346251,-0.4248113479,1.2197000266,-0.3625332364,-0.3993562679,0.2618974874,1.0450619275,0.8771770504,1.1233510768,-0.3980380842,1.0585882246,1.1150556553,0.9216303827,0.4377978089,-0.7095298308,0.8670287273,0.3568773063,0.2066060852,-0.3694202309,-0.5719017662,0.2643278742,1.0885472365,0.7441265639,0.5790477283,0.2873420863,1.0280867398,0.7679589857,0.9786746252,0.0834369042,0.6299428642,1.1520369139,0.5314768999,0.0586568887,-0.4321114603,-0.771743654,-0.4430948678,0.2991554028,-0.271802111,0.8101963672,1.1222442661,1.1290873543,0.2330417808,0.033164717,0.7521156455,-0.6474124851,0.7396669677,0.4969922089,0.1660444296,1.1374288092,0.4906429787,0.4038543896,0.0748857965,0.0859858689,-0.4129331778,-0.5407585107,0.2388639634,-0.5142632179,0.3988198618,0.7089019185,-0.2058627013,-0.6229722692,-0.1520261135,0.5317588914,1.1707627217,-0.4789022315,0.2578058753,0.5858994247,-0.075593172,0.3554302378,0.8038829603,0.0831998854,-0.2670904775,0.168280944,0.6783518996,0.7835473894,0.3742368779,1.1724682872,-0.1465414897,0.4385986932,0.4029769328,0.2017690165,0.7329321206,0.9018185037,0.341961433,-0.4339672612,0.1100812431,0.8085352351,-0.5428667018,-0.3011370408,0.0637180719,0.3592057655,-0.4506664868,0.1794369517,1.1754572794,-0.7751597434,0.7598748487,0.5723089911,1.0443714645,0.5098749929,-0.4302944248,-0.091744224,-0.5327125253,0.805103682,0.7842788343,-0.4268707228,0.120139932,0.2177503237,-0.5269810172,-0.7409927274,1.011325665,0.5475706905,0.9357742398,-0.6466444513,0.6342042182,-0.3454226195,0.6362348804,1.1318338888,1.2099550043,0.526274641,1.0397467615,0.2137674846,0.6377162961,-0.6821337693,0.1919565478,0.0902973352,-0.9077106212,0.6756549437,-0.9371361548,0.6781716288,0.1221719332,-0.9034431503,-0.051390534,0.7691855288,0.3748345277,0.1909238607,-0.0158274692,-0.8248622884,0.4163833228,0.2802976831,0.6823863617,-0.8451429625,-0.7446858613,0.2972275247,-0.4728658506,-0.5027357144,-0.3653925824,-0.9019974956,-0.6973329717,0.4268807448,0.7567430369,0.337199355,-0.4991776346,-0.0742158086,-0.789828267,-0.6122306213,0.1413686233,0.6340288097,-0.7370928554,0.7326713053,-0.2115197645,0.7077665252,-0.5712996982,0.3531875783,-0.7406227431,-0.241778096,-0.2292027695,0.2594006215,-0.999877318,-0.5129169551,-1.1997784844,-0.6909576114,0.6581341193,-0.7439682158,-0.2496062273,0.3348214556,0.4531360218,0.2905572722,-0.0807675502,-0.6351867476,0.6215324762,-0.0743614302,-0.6921348972,-0.2931255063,-0.8309310042,-0.2847021602,0.622190762,-0.7434489206,-0.9975962324,0.170287115,0.6150359052,-0.8890970956,-0.0166129076,0.0967041136,0.3398621441,-1.0861609273,-1.0401852505,0.4362025005,0.5760919923,-0.1958178736,0.3503945223,-0.0855168241,-0.6176992021,0.4648896303,-0.7859029929,-0.966320729,0.3486625035,0.0212500937,-0.3785659437,0.6927141172,0.0155199304,-0.7335726954,-0.4021921306,-0.7592097605,-0.9099235946,-1.0667377861,0.4794391967,0.0451622162,-0.0361539141,0.332740841,-0.7993449262,0.6866712027,0.0555671801,-0.8109540204,-0.9863541687,-0.7364438419,0.4406835471,-0.4371873575,0.770191823,-0.9848005911,-0.9702008189,-0.6997455013,-0.6136833483,0.3470972447,0.8880439745,0.7947826329,-0.0712233191,-0.0226889723,0.3172316129,0.6256044282,-0.2677859959,-0.8729547448,0.3034346929,0.8792827231,-0.6267487535,-0.502922639,-0.7240413678,-0.4242523636,0.8665553396,0.7738436404,0.8603618275,0.5541414365,-0.1895042021,0.1258149236,0.4924132021,0.2165184222,0.2545745025,-0.5256675675,0.14472214,-0.4678843745,0.4148475804,-0.6113777019,-0.8967528622,-0.0998686408,0.8953673876,0.0828900705,-0.0695849299,-0.6641165007,-0.6842248215,0.0909113079,-0.0967704417,-0.4394248461,-0.9671356082,0.9068318912,-0.6332719296,-0.4697282479,0.2562729508,-0.6208697975,0.3312785622,-0.7120709148,0.5159179035,0.8518717381,-0.9674513256,0.6819047777,-0.6246477382,0.6239999186,-0.9861244755,0.932868774,-0.4095923525,-0.7285372241,0.3937259127,0.8252312736,-0.0756796054,0.3687275198,0.8917636051,-0.8640057435,0.801003673,-0.8818310247,0.109345093,-0.5899614047,0.5660253892,-0.3645485199,0.279100984,0.4003098344,0.6894735087,-0.4099528126,-0.7690324037,0.7707532615,0.538957631,0.1826356264,0.9817087185,-0.1391198827,-0.2628628338,0.3168714816,-0.3002937591,0.990315604,0.8245324622,-0.0263090241,0.3493013351,0.2257541005,0.9693359285,0.6987917226,0.3697232508,0.3292855748,-0.3087973852,-0.4016894891,0.5475918919,-0.3660549883,-0.4819788159,-0.6570420079,-0.67170408,-0.2234804004,0.2549433554,-0.3761276722,0.5714190692,0.555960354,0.6365625846,0.7220913513,-0.9129647642,0.0580704579,-1.1810134577,-0.8800710143,0.4926178787,-1.1937389916,-0.3655333685,-0.307419434,0.487561938,-0.2632516397,-1.0966798637,0.5168095553,0.4666332226,-0.3174456617,0.6244867413,-1.1386338978,0.055356067,-0.408158156,0.262466229,-1.1760880381,-0.2204112641,0.6119842917,-0.3915858854,-0.2526263434,-0.1479605331,0.0111097939,-0.6441477723,-0.0504181056,0.4777999479,-0.4886781871,0.3474975419,-0.7042414826,-1.14830496,0.2626775191,0.4568163199,-0.1780946457,-0.9804302167,0.4800433019,-0.3060882975,0.0373536836,-0.169539985,-0.3721308586,-0.7200255404,0.0428863348,-0.439341464,-0.1632311603,0.3579276023,-0.2459961239,0.747334602,-0.8154038694,0.6950283821,-0.8139909469,-1.0642582143,0.456852106,0.3117833766,-0.8068174152,0.5296155816,-0.7241741279,0.5200909922,-0.4764456692,0.7029310052,0.5342052622,-0.3308354857,-0.9902275262,-0.8073968301,-0.8803238423,-1.0540846858,0.2538488186,0.0977401253,0.6462600433,0.753667983,-0.6744707115,0.0735260317,-0.1569689473,-0.7130233199,0.5458375584,0.2209298587,-1.1325170149,0.3564805365,-1.14360429,-0.1257544213,-0.7567540501,-0.8967329321,-0.2018888591,0.5764785219,-0.7735805736,0.6611869705,-1.1373239236,-1.0632922586,-0.5085527905,-0.2552340867,-0.3818375607,-0.016756782,-0.3795502576,-0.2000659339,0.1462686671,-0.0385799098,-0.5611894736,-0.073009405,0.1624603974,0.1767652737,-0.4813489494,-0.6029053544,-0.797891507,-0.5460123913,-0.4916122471,-0.9617157198,0.1563679561,-0.8540350535,-0.8465738027,-0.9678368197,-1.1549997891,0.172391781,0.6161292043,-0.0817332889,0.7745073025,-0.9884744428,-0.5989731513,-1.2016318843,0.6382071382,-0.4394652423,-1.0715276759,0.7260774529,0.6922836701,0.6692089258,0.199603897,0.0585694316,0.3330928474,-0.5138240195,-1.0326095542,-0.4481233786,-0.9967318579,-0.7774986961,-0.9747189341,0.5756075109,-0.9347003215,0.1272480119,-0.3045809239,0.1404038345,-0.414848917,0.7199453168,0.7098209203,0.4064537851,-1.0584704831,-0.30955814,0.2204619799,-0.4966592099,0.6782152482,-0.4343953988,0.3433809211,-1.032333363,-1.1588146493,-0.8522222741,-0.3201058431,0.0381062379,0.0119728281,-0.9177019979,0.3294654028,0.1288430126,-0.3223311825,-0.0663205978,-0.711377251,-0.1179223589,-0.0609817102,0.7286643402,0.7628147488,-1.1600856234,-0.1159810421,0.628737128,-0.3182480548,-0.2168012557,0.2280581393,-0.7268692628,-1.1706153827,-0.6090632174,-0.8538240186,0.7203819656,-1.1462891654,-1.1110662438,-0.6693650419,-0.2268342485,-0.3092407592,0.6953762972,-0.5229276884,0.7474704093,-0.5512004047,-0.0930489178,-0.9371801327,-0.1219770142,-0.1909373382,0.2550969426,0.1655399695,0.3687327205,0.858779085,-0.6373967991,-0.5223292602,-0.2965711667,-0.2935481374,-0.7678703318,0.3957200049,-0.0077949486,-0.6335487623,0.1539719084,1.0449954962,-0.0158916957,0.6044647377,-0.227980291,-0.6813183694,-0.7019829067,0.2845456338,-0.2163854469,0.460819451,-0.4777657684,0.7407382625,0.874463643,0.378860209,-0.4378531953,1.0492650663,0.6414040541,-0.3831070657,0.950377525,-0.6683383544,0.013296466,0.3685479694,-0.4654879342,1.0574491268,0.3697035181,-0.1894745933,0.1246261864,0.1426028775,0.8325033245,-0.5212936463,-0.2114783744,-0.2498339298,1.0088580737,0.625102465,0.7067198493,0.345017054,0.102879727,-0.5082817865,0.2339518422,0.6153393416,0.5048612067,0.0880679187,-0.0595664329,0.6521702008,-0.7075670638,1.2175326713,-0.0377499697,0.6034388747,-0.2636402626,0.9096493601,0.9717377863,0.9041225446,-0.2221149946,1.2159825892,-0.0999055359,0.9048946222,-0.6950605397,-0.2521857298,1.0152723754,0.9724080601,-0.0788309773,0.0474742592,0.2302478215,0.8208149495,0.8370920504,-0.4350115085,0.4649895783,0.0825880754,0.9645037876,0.8142732587,0.2579110542,-0.1388444504,0.0656525294,-0.5954315417,0.8385139723,0.6464236965,0.8900177759,1.0890737178,-0.3553384156,1.0875573486,0.1732708502,0.3962241932,-0.4122701004,0.7775927531,0.3413528081,0.0987579941,-0.6817882635,-0.2786673396,-0.6291469137,0.5703973183,0.6900784054,-0.59186914,-0.0218189048,-0.2411735848,-0.388981535,-0.9145270382,0.0896765128,0.2097087581,-0.6843936164,0.4493827862,-0.3441688752,-0.4441645778,0.7511207114,-1.0965024561,-1.1064382673,0.5828340516,-0.7526515415,0.132810715,0.2270306716,-0.0819131422,-0.7018021867,-0.0174956878,0.6184585026,0.5458090255,-0.8447997245,-0.0456052131,0.135515449,0.0980003163
   -0.3259255736,-0.793929997,-0.2516959401,0.111219969,-0.8810446077,0.4056057115,-0.939724913,0.2035508104,0.2876752135,-1.1920215518,-0.460004893,-0.2085689239,-1.0834801413,0.6111486188,-0.1655218003,-0.3319753081,-0.1130224091,-1.1932805425,0.2398473755,-1.212324111,0.6574396078,-0.5073920627,0.3921161727,0.1341814216,-0.2404779594,-0.778202016,-0.8088818892,0.3914924558,-0.6910560066,0.6838650402,0.0875322627,-1.028639082,0.2340874341,-0.0661803863,-0.5937006743,0.535957418,-0.2829295125,0.671081077,-0.5459091067,0.2027958393,-0.199928195,-0.8041139795,-0.9709135295,0.6934872276,-1.1235208458,-0.7012400087,0.0548326125,0.0802891388,0.6162929569,0.4819874201,0.2245226227,0.0082521805,0.1109996199,0.4411949614,-0.7136530802,0.7497556831,-0.5183330336,-0.5106073273,0.2515166462,-0.6985342447,-1.1566731401,-0.7010535402,-0.8213720611,0.5787257344,0.1362018319,0.2277211626,-1.056214112,-0.5882456898,0.4950841363,-0.9471243519,-0.5021619647,0.0994741557,-0.1748528394,0.4204935744,-0.4053775453,0.1719783632,0.4766632575,-0.4779484336,0.7003517492,-0.3753818393,-0.4283869275,-1.0972480674,-0.8730589711,0.5651139483,-0.5621087802,0.0570833379,0.1228887638,0.0704189785,0.7022021522,-0.2750274584,-0.1736366383,0.2176103484,0.6687036703,-0.4065581578,-1.060439028,-0.1753701416,0.0584834901,-0.3459105276,-0.8821557175,0.2307292944,0.2704855282,-0.2343818152,-1.0301106071,-0.0188552921,0.6078078781,0.3536472512,-0.2260171732,0.1453130836,-0.6991648516,-0.9627429481,-0.5797044905,-0.7136432203,0.7113751915,-0.0463137736,0.5666163625,-0.762485494,-0.2958653735,-0.2195051422,0.6840070669,-1.1800125048,-0.4292744714,0.5141273612,0.4143194505,0.4928634936,-0.1985328661,-1.1175491384,-0.4596432018,0.4762108881,-0.9284071421,0.7248058596,-0.8484192752,0.4173148736,0.6184879324,-0.3472384902,-0.5199690358,-0.332897174,-0.109577798,0.6907603523,0.4861099064,0.4860298797,-0.2173096638,-0.2827412903,-0.9962184831,-1.1931646152,0.4765694938,-0.963574459,0.3017128506,-0.8188669682,-0.9369467396,-0.9264722291,0.2495152899,0.0772107228,0.5649770811,-0.7231914262,0.031920031,0.4448487419,-0.7208829355,-0.364791178,-0.047774242,-0.2845494131,-0.8573115283,-1.0842070377,0.3804852604,-0.7399764946,0.2477551554,0.6605266404,0.3143071146,0.388556439,0.223536639,-0.8727183324,0.3644822701,-0.4386344048,0.5603507819,-0.6675323006,-0.5398585951,-0.3183464561,-0.0304567137,-0.0894345104,0.28505781,0.2239189481,-0.0871611539,-0.5633596197,1.0144535798,-0.4198107156,0.5978366239,0.7484949669,0.0564969244,-0.7162256648,0.2269352142,0.8962524693,0.9330942138,0.2099980952,-0.0343350594,0.3340964167,0.8210059936,0.3421645563,-0.400269981,-0.2858989327,0.7662707903,-0.5728484482,0.1377774707,-0.2758735749,0.1848474981,-0.6621847084,-0.4654690135,0.1664958436,-0.033259245,-0.1223192628,-0.0827058222,-0.180734903,-0.0086522152,0.9242391243,-0.2219251436,-0.1845949091,0.3563388808,0.120337283,-0.2506536156,0.0927829982,-0.6102294201,-0.5945314817,-0.0887428041,1.2020228908,1.0996525262,0.7443720866,-0.5235305043,-0.5307980614,0.6618126249,-0.3377059945,1.0947415309,-0.2275302228,0.9276377672,-0.1271538561,-0.0292637612,-0.6363305223,-0.1696724309,0.916010148,-0.5000274131,0.9743827937,-0.0304585782,1.1961092989,0.8080776111,-0.3938191892,0.6852276689,0.1713024273,0.934070957,0.9269456231,0.2046415161,0.7477428317,1.0135298624,0.4086295477,1.2007999693,-0.2223889105,-0.4458414042,0.5515548931,0.9929435888,0.1923556894,0.773467782,-0.4771629857,-0.2902521924,-0.1689578857,0.5759462751,-0.3601274076,0.1024685714,0.6991734104,0.1091754182,-0.3729070551,0.5506492629,-0.4016469154,-0.1407943837,-0.6618581746,0.0774317865,-0.1306692421,0.6734107127,0.9340991286,0.7875547028,-0.0652027844,-0.2926354351,0.4298097487,0.2199908825,0.4500466143,-0.2366038019,-0.4003087663,-0.0007613289,-0.802278624,-0.6355358316,-1.0148617776,0.2954873037,-1.0389559979,-0.224205667,0.1140624037,0.1619688798,0.2994884816,-0.9608609892,-0.2484056594,-0.325099021,-0.9697237026,0.3518227688,0.7525429416,-0.9112527334,-0.2970627498,0.0341172305,-0.9364613771,-0.41060088,0.2840886344,-0.5597780384,0.5929287035,0.2484070458,0.0759294288,0.2616479084,-0.1083677716,0.1555742327,0.2310105753,0.6232710356,-0.9765733119,-1.1499315232,-1.1948237422,-0.2078620529,-0.0786234687,-0.4844263447,-0.0059519286,0.2598711368,0.0328469112,-1.052258406,-0.5029924036,-0.0625435251,-0.8651796888,-0.5378244481,0.1730091985,0.6468908029,-0.6318881241,-0.3159534538,-0.7866854994,-1.000822331,0.3787513762,-0.4438594849,-0.6274161581,0.3201434989,0.5016764426,-0.0374768495,-0.342259148,0.4122126769,0.1029182713,-0.3881516483,-0.6803277154,0.1302742552,-0.9237828861,0.0028146602,-1.0349446341,-0.1295184817,0.0371949126,0.4315040368,0.1353894765,-0.813597696,-0.372143383,-0.1794910038,-0.5730406418,-0.3762506031,0.6528776881,0.7441355807,-0.7336454904,0.6878504489,-0.8626665679,0.4774212712,-1.101064699,-0.9647859215,-0.7827861403,-0.4245565253,0.7389853203,0.6954731491,-0.6569223301,-0.5055460976,-0.9604191223,-0.6061782762,0.7126576981,0.2630255366,0.1773249623,0.0278777282,-0.1616165474,0.4096692315,1.1661891865,-0.1296646627,1.0244362281,-0.6401721478,0.8136170554,0.5330979479,-0.4484541775,0.6555084763,-0.0139929115,0.749854669,0.8037554669,0.7966508531,-0.0452977748,-0.4680876765,0.4694715244,-0.4915518077,-0.6407518514,-0.099395987,1.1231785177,0.7023001639,-0.4122157279,0.3265770467,1.1052840987,-0.3742223573,0.4779582842,-0.1427303202,0.0194637288,1.1342033187,0.5968327494,1.2183319687,0.1543441198,-0.5087649604,0.5272091552,0.4018920882,0.2165892988,0.3313509094,0.1037689221,0.030339875,0.3179507664,0.0190552451,0.7509750277,1.1504795758,0.0255848157,-0.3377212356,-0.211328126,-0.6830303815,-0.7158922457,0.1491122513,-0.5162850596,0.8078292786,-0.574934513,-0.1813204609,-0.4233372989,-0.1629778635,0.283848116,0.0065035184,1.0086947653,-0.2512235813,0.7220460875,0.6956950193,0.3967665656,-0.6218702948,-0.5821775148,0.8617985799,-0.1000817217,-0.5889645569,0.725540598,-0.5434229035,-0.4648678224,-0.2549942541,0.0665525009,0.4104469408,0.7718554112,1.1008557596,0.3207440347,-0.6341010822,0.3897165338,1.0512811888,-0.6428881601,-0.4011222818,0.8776838063,0.5802334649,-0.7564664099,1.1451821935,0.9321620913,0.4933311491,0.8930401151,0.7802081705,-0.3550440441,1.1363979981,-0.0541142722,1.018753729,0.97107643,-0.25129851,-0.1919755604,0.8453935786,0.4224378782,0.7023073994,-0.0742121904,0.6833351,-0.7264110167,-0.2002104416,0.7452438285,0.5213641362,0.3512286362,-1.0915223772,0.5612053625,-0.7973762984,-1.1889500611,0.0966027811,0.7504203186,-0.5125499749,-0.7166527398,0.3993508802,-0.0102378015,0.3413988384,-0.8894906976,0.7663479203,0.4429365029,0.4811448954,-0.9709298864,0.7004294532,0.2612246261,0.5293073958,0.0593348503,0.5412161458,-0.4653989048,-0.8151982427,-0.7231669873,0.4040337918,0.5209321869,-0.1057852774,-0.2889214678,0.5378908148,-1.0829003707,-0.8319233666,0.7354205369,-0.0174646868,-0.6186602898,0.7404603639,-1.0851815699,-0.2354143623,-0.5863624746,0.7075794457,-0.2861046193,0.3475956158,0.4933466833,-0.6641287664,0.6016482633,-0.5950406594,-0.1311207085,0.1705563864,-0.0822675784,-0.2238707792,0.4018583433,0.6303049192,-0.260526154,0.4796020413,-0.906445291,0.5943887072,0.0392646597,-0.4412664835,0.6734092065,-0.2642938949,-1.1191541983,-0.1215399017,-0.7975406722,-0.0218109085,-1.140337609,-1.0973674936,-0.1250478073,0.3396192337,-0.1813906671,-0.3347844219,-0.9750715905,-0.0138358415,-0.3399578266,-1.1424450113,-0.5272952765,0.7492649757,-0.0883963115,-0.991587816,0.4556365745,-0.3774446033,-0.2151622044,-0.9060473387,-0.7845479828,-0.7140725674,0.7082277785,0.1550377201,-0.119602977,0.4557770384,0.7071195642,-1.0389243459,-1.1207468186,0.7477049368,-0.4054625136,0.0418680099,0.0334462834,0.44801745,-0.397740142,0.8308264605,1.0203856855,0.0110670772,-0.3892346933,0.4500549099,0.8312394918,-0.378423207,-0.7491934828,0.540875649,0.9460591051,1.204869604,-0.1537723554,0.176028026,0.973129267,0.0544994219,-0.543448649,0.9739521501,1.1474957124,-0.0866114398,0.8122608793,-0.7318938977,0.1179980149,-0.5912494293,0.2800945759,-0.7724342791,0.4337608012,0.2971494895,-0.5387635358,0.6260466678,0.9895053722,0.4839269183,0.4649504879,0.154673402,0.9667990023,0.7174960589,0.2685528293,-0.3083582516,0.1551705038,1.0174811167,0.2041818283,-0.5129083782,-0.5844987087,-0.2029806808,1.0073119804,1.0803622354,-0.1461597368,0.9325966678,1.0886858713,-0.6925866023,-0.2326110252,0.8850868252,-0.2492134566,-0.4207317378,-0.521396617,-0.452099063,-0.597612443,0.1389549763,0.9488881027,0.2351828821,0.853000613,0.8234347171,-0.3604324679,0.6388792861,0.8065055731,0.3978352853,0.1681985518,0.1581901533,1.1792646053,-0.3524131966,-0.6801994524,-0.4485150301,0.5783518916,0.0537333383,0.5443262793,0.5330573785,-0.4898783551,-0.0249440552,-0.2802482634,-0.7272075337,0.8495468843,-0.157802422,0.7105178489,-0.3008689652,-0.1739004808,0.9301277074,0.2315629244,0.5044389543,0.5546280695,-0.2761856219,0.4942571036,-0.2626785538,-0.5310783178,-0.5428716341,0.2537850158,-0.2502979445,-0.1135370968,-0.3251018911,0.6043797601,0.7987003346,0.4782738713,1.1017633157,0.5036153681,-0.1879977234,-0.4402961326,1.1629617608,0.8046097346,-0.2117313421,0.8331133687,0.1329531602,0.689207471,-0.4075804712,-0.0066017586,0.1916104544,0.0427923675,-0.0705364033,0.812654093,-0.6873358001,0.4581209364,-0.177154058,1.0316899383,-0.5159604899,0.4980595279,0.8174104961,0.8326365837,0.3537172515,-0.3390624733,0.1522997345,-0.6152293828,1.0973290263,0.9423389082,0.5597295099,-0.6654462951,0.2115186563,0.5816108752,-0.2881587748,-0.5270664707,0.1053032332,0.7932468411,1.1235851974,0.0444783538,-0.047344019,0.4294016518,0.1028105614,1.1959753039,-0.1971455658,-0.5914055851,-0.2771761496,-0.46839729,0.1913116796,0.1530274029,0.6784178224,0.7471942809,-0.2564996178,1.1895185432,-0.3033625274,-0.5680025691,0.4674347173,-0.6994504507,-0.0728659764,-0.5093168454,-0.2795744617,-0.3947752719,0.30519394,-0.6372658579,1.1817973054,-0.33994888,-0.1006586294,0.4362126113,-0.7493469927,0.8543908727,0.0066736188,0.063073863,-0.7071154664,-0.182899821,-0.26864248,0.5015681609,0.3628331095,0.7956588353,-0.3279703367,0.567103927,0.5225531561,-0.1692913048,0.7069302798,0.4979068478,1.1783525071,0.4367000823,-0.4971902832,-0.2003020238,0.175337591,0.4844001773,-0.2013870053,0.9993586514,1.1130345857,0.3388094547,1.0008835338,0.9168367238,0.4548268122,0.039352697,-0.4440192772,-0.7647131502,0.3542579177,0.7671946947,-0.553109248,-0.3980364033,0.3767127932,-0.3760471956,-0.1965487726,-0.0823486098,0.4676693042,0.679982486,0.8699007779,-0.7458217953,0.9445811463,0.2841390023,-0.5482498955,0.6284186447,-0.5005735259,-0.0724695134,0.4937179533,0.5520906316,-0.6381917017,0.767290552,0.5091294979,-0.4378803547,-0.4919485727,0.0237968699,-0.2463205053,-0.5046312937,-0.0004561753,0.9583730008,0.831101586,0.6255292853,-0.7269538984,0.2378927419,-0.5598119346,0.7227133036,0.9415510781,0.1496966989,-0.2047212753,0.541931208,-0.7416279454,-0.8705413667,0.2862047894,-0.5141350559,-0.925984554,0.9138760445,0.4142497207,0.9007731797,-0.9539946653,-0.2764909767,-0.4805547462,0.3313155125,0.5134046215,0.3350851337,-0.2260797113,0.7603180305,0.9192559793,0.6662538003,0.3325780329,-0.2485316355,0.3250486941,0.7625965419,-0.0356680877,-0.6188867658,-0.0347261992,0.9762966651,-0.7531279604,0.0799631472,0.4734337355,-0.0553207365,-0.361030366,-0.0346201495,-0.9122314779,0.5838251047,0.2260231251,-0.7639835234,-0.5903931938,-0.8368801334,0.9576918715,-0.9773200983,-0.7639172458,-0.3032897642,0.8743974324,0.4018593409,-0.976091709,0.2326344928,0.5954824321,-0.12277633,-0.1339457012,0.0628761524,-0.936816833,-0.1317626336,0.3738164144,0.0946936445,-0.9436943568,0.9574294584,0.7598176439,-0.1250467948,0.2206297429,-0.5175075547,-0.3652324338,-1.1587986073,-0.4701134506,0.203395883,-0.4021528511,-0.1158029146,0.7167523789,0.6204398858,0.2785788965,-0.9682865377,-0.4571207146,0.1658852784,-0.6468827948,-0.5516726141,-1.2144522092,-0.0470803237,0.340929558,-0.2161826713,0.2005937262,0.2994425618,-0.8614258069,0.1023553716,-1.0245119139,0.6656199607,-0.3706387559,-1.0523659877,0.6412165078,-0.109528559,0.6627860271,-1.1165233098,0.0810986202,-0.3712625893,-0.4018169873,-0.7333143773,-0.1676810875,-0.2038113659,-0.892995963,-1.0944504861,-0.7273823377,-0.2281581739,-0.1122558152,0.3756015659,0.2111346865,0.5530706929,0.448431932,-0.5037350244,-0.0260020128,-0.8873821898,-0.2690774731,-0.6309657516,-0.1185771336,0.0800777081,0.0706540862,-0.1320912426,0.109637529,0.4363531019,-0.7982281075,-0.3669022376,0.3914265824,-0.3312080613,-1.1111936907,-0.4224720717,0.2474106983,-0.2663720211,-0.3184790097,-0.3959287171,-0.0904536161,0.4372337885,-1.0734928504,-1.1202159107,-0.9560772703,-0.0254159399,-0.0875580755,-0.7647255017,0.071308873,0.4954723218,0.4661871889,-0.1828931279,-0.7286203262,-0.3392472554,-0.5120803443,-0.3149919713,0.018760973,-0.4576062457,-0.8919137606,0.4536929071,-0.201945544,-0.9451668599,-0.0156572095,0.4043191024,-1.1869022159,-0.0041954235,0.3730093516,-0.4623688915,0.3347015385,0.6292018179,-1.1096963922,-0.7790339497,-0.7939852998,-0.500643772,0.0385531256,-0.6371763786,0.4255676809,-0.2490882189,0.9651494894,-0.6758184197,-0.7720111569,0.5753996623,1.1244740544,0.3025054809,0.5026647429,0.7745182636,0.1456403972,0.2682720803,0.6338776145,-0.5941502802,0.2586153641,-0.4125436726,-0.6079978185,0.0655972946,0.2826498019,-0.4554587198,0.8712426527,1.1195925914,0.0033838783,-0.2561598927,0.2610942179,1.0952915356,0.3403525686,0.4469734196,0.1829381378,0.2036634262,-0.264571506,0.5191234489,1.1236911455,0.8289059308,0.2537162153,1.037811787,0.3526648533,-0.0464947022,0.6510561546,0.0624396202,0.0627146472,-0.0959103213,0.9457305261,1.069764971,0.4133221795,-0.5260944894,-0.3177687987,0.9451536612,0.1936100905,0.1867777479,0.4515154389,0.6500483341,0.9398993786,1.0007040707,-0.3470421755,0.5454764822,0.3408849536,-0.1005744695,0.4967412911,0.9042561921,-0.4582549031,-0.4372121585,0.6004881449,0.2605085986,-0.6322401479,0.4128431956,-0.2607415239,-0.4463613281,1.0925961306,1.0210029205,1.1245392936,0.4864072324,0.0891596998,1.0749450654,-0.0474319871,0.6870777859,-0.4952545348,-0.2810545065,0.1882061304,0.0762010233,-0.0220342142,-0.6700828063,0.6602645125,-0.3587120618,0.6731818477,-0.3173996364,0.21418819,0.2083486633,1.0261609966,-0.1253228117,-0.1778976726,-0.2615458392,-0.1815404682,-0.6435716792,0.4215370211,0.1460049979,1.012652496,1.0092577275,1.1870755574,0.7889177101,-0.7741080483,0.959819925,0.5405029634,0.4034376626,-0.1262342423,-0.6224242764,-0.4349332319,-0.9374968018,-0.0895521245,-0.410173089,0.0834617359,-0.7899422607,-0.6448295441,0.1967801699,0.6958053502,0.9442090625,-0.7663138545,-0.7523867459,0.6931549542,0.6419042114,0.7720000752,0.4996348086,0.5962039901,-0.971762537,0.8321190038,0.597782363,-0.4188589525,-0.4689044913,0.9746010946,0.7876663533,0.5874373622,0.0891538342,0.7926595536,0.480491596,0.7950634955,0.8939713221,-0.2012072276,-0.7566207646,-0.0864302922,0.0773686511,-0.4891910178,0.9352689124,0.3115324757,0.8370586484,0.1861620607,-0.4943070232,0.24232092,-0.2061949695,-0.2561394951,-0.4983307605,0.8245717007,0.4545618628,0.7802051444,0.9283012775,0.7878385828,-0.547794367,0.2301021466,0.0478317528,0.9684305498,0.0118308314,0.6763804274,-0.0863071424,0.7222756174,0.7438218145,0.0784732937,-0.5494778489,-0.8418324682,0.0747884144,0.2379982216,-0.5484546281,0.3718089756,0.2106147395,0.9586452935,-0.0649141907,0.9344182638,-0.5524903795,-0.5771588048,-0.7418355987,0.9277884345,-0.6663698124,0.9481342425,0.3855561229,0.4790467925,0.4023511053,0.1976349462,0.4376735051,-0.3827180357,0.110643745,0.0460585267,0.6833247606,-0.9623435242,0.965608444,0.4179154874,0.9628211856,0.941940627,-0.1326139249,0.6129659608,0.2614271563,0.2191030389,0.7219258918,-0.0995787741,0.7376809193,-0.4975807163,-0.91045901,0.4911869174,-0.7069690181,-0.9124510355,0.3325276342,0.5003839522,-0.9944268681,-0.627797002,-0.1687004005,0.2516247104,-0.6156174801,-0.564530136,0.6777735955,-0.52808577,0.7317733026,-0.6618171781,0.0373616948,-0.6946803909,-0.9462172614,0.280822529,-0.1047668212,-0.352341798,0.6269984028,-0.126857084,-1.1380614194,-0.2417469414,0.4642787134,-0.3685078079,-0.5551938815,-0.1623349392,0.5682398971,-0.2801933874,-0.4313810159,0.6722945298,-0.0038369137,-0.1453743174,0.2965425667,-0.9424688184,-0.8585375381,0.373349966,0.4223636003,-0.6209576968,0.4599539773,-0.1990157289,0.3208729881,-0.8469966707,-0.7791774767,0.6507326576,-0.4099781484,0.0330481328,-0.2926188473,0.6441315894,-0.4713784958,-0.1420912014,-0.2945697362,-1.0883089678,-0.9707898452,-0.2944862906,-0.4132774853,0.6315876866,-0.4512853677,-1.070191093,0.0478472145,-1.0358434293,-0.2609008782,-0.2730027743,0.4854248553,-0.7998187636,0.0524568542,0.4147294197,0.6918570461,0.7519915371,-0.3887878739,0.3936215523,0.103853119,-0.3850657883,0.0803470075,0.3812027401,-0.7034982722,-0.1114558649,0.7299439941,0.0782112362,-0.9414312794,-0.6553875571,0.3415311608,-0.6701991642,0.7608138264,-0.1160628672,0.6408127403,-1.1532707533,-0.9115557048,-0.5946271112,-0.4022083486,-0.9189856612,-1.0786238743,0.1647000307,-0.8170733043,-1.0879737131,-0.9555774025,0.6784466372,-0.1609813733,0.8253968433,0.5599186345,0.6073371507,0.7412346835,0.5151063613,-0.2016815407,0.5932664834,0.8375904449,-0.6893494592,0.8674765426,-0.4352713922,0.772821528,-0.3530890583,0.9201326772,0.7746851985,0.7822321524,-0.7243598026,-0.6931750948,1.0701628599,0.0286444348,0.7735675145,-0.621760015,0.242491111,0.9872963756,0.4238145509,0.2136852218,1.1751449287,-0.0907796662,-0.7595728503,0.3975211884,0.3049161451,0.3953004767,0.8861280839,0.1790336508,0.507277335,0.2040858099,-0.5394390771,0.5588893825,-0.4677172579,-0.6093297681,0.747776798,1.1146960661,-0.0780889731,0.9273247133,0.0289943551,0.7158714636,-0.3331396575,0.1203531807,-0.7777333425,-0.5371923843,1.1166641956,1.1856361369,0.4983026655,0.2436892342,0.3773368214,-0.2108396072,0.7533430336,1.0205884484,0.0377695958,-0.4720588127,0.7627045978,0.1377581654,-0.6278743023,0.740315117,0.0392890085,0.9362153347,0.3210714663,-0.5602846002,0.8812406483,-0.674369075,0.6514358884,0.8937751652,-0.3981077629,-0.6512299493,-0.1308662774,0.4183231395,-0.4691699637,-0.7204815361,0.0617297336,-0.6341788169,0.2781901395,-0.2602863418,-0.1908784708,-0.2694875295,0.0029241449,0.2597238727,0.5779991671,-0.4993230631,0.0019246486,0.0270665713,-0.1898834318,-0.3414885481,0.8708887828,-0.6861918687,-0.0853857625,0.7429610109,1.1131179791,0.2611311486,-0.1491672242,0.6852800641,-0.7968302388,-0.347458653,-0.7917943737,-0.2591009343,-0.0466283585,-0.943614035,-0.7870201255,0.642720983,-1.2119205755,0.3347097984,-1.0205783147,-0.5778980031,-0.3914757342,-0.6769437725,-0.2195035739,0.258378861,0.6135389522,-0.9578606124,-0.6509645591,-1.2051631438,-0.8709765264,-0.4501241473,0.3782272074,-1.1926315988,-1.1506031689,-1.1364069993,0.1162854865,-1.0862652373,-0.1197711422,-0.8619741091,-0.4703302094,-0.9982423579,-0.9907847104,0.4455107595,0.0654884096,0.1712677334,0.0246692843,0.1511141839,0.0865852026,0.1800294448,-0.7029518467,0.0255258021,-1.0781777065,-0.5793881202,0.0226410128,-0.0053867536,-0.177994157,-0.558936825,-1.1375155498,0.5621396234,-0.518094371,-0.4371022404,0.693188802,-0.3471916028,-0.2461743185,-0.2748818051,0.6447937476,-0.5725379707,-0.8054169352,-0.9015181513,-0.0972906758,-0.6504267408,-0.9415603328,0.0072439549,-0.70658175,-0.7471063268,-0.2209428584,-0.6149079706,-0.4928624452,0.5629298069,-0.1361193757,0.0575214646,-0.4260260015,-0.1824594697,0.1119358003,0.1888030296,-1.0419542307,-0.0151980805,-0.2320600392,0.0446456842,-0.4462519669,0.3872644059,-0.8397677132,-0.1255535257,-0.4166250004,0.3268112871,-0.4794284598,0.7504405563,0.1028032353,-0.1467206932,0.4934472214,-0.9648132475,0.2008385504,-1.0773329988,-0.397397491,0.7355667033,-0.9926374677,-0.2906423237,-1.0516120812,0.1687652649,0.1091337394,-0.1150008354,-1.0466620253,-0.0771773669,0.7791465155,0.7499341468,-0.6385870781,0.0939634027,0.739104497,-0.8744255622,0.0911825005,0.5830421286,-0.4136522355,0.0304988672,0.2224570647,-0.6570960889,-0.1710612492,-0.2497573661,-1.1450763533,0.3160991217,-0.2022956431,-1.0592496229,-1.1937581452,-0.6092844903,0.2532742009,-0.670273914,0.6630804685,0.5162715368,0.6239218066,-0.7293186719,-1.1878763719,-0.8590512593,-0.6185699226,-1.1548990274,-1.2051651965,-0.7564697322,-0.8391461029,0.5490793331,-0.8538757824,0.5873909505,0.4433958154,0.1829694439,0.1567350648,-0.5519771445,0.683741097,-1.1959258395,0.643952022,-0.7426571278,-1.0777670482,-0.4171586706,-0.1224402168,0.4620462428,-0.6217312021,0.5858401792,-0.0643608986,0.3151626983,0.4628815246,0.4031620925,-1.1231332833,0.5467630733,0.3287427346,-0.9375500727,-0.1628454064,0.7727508393,0.6224838687,-0.5686337389,-1.0371794926,-0.0688637353,-0.7398450906,-0.9883643809,0.3180128341,-1.053254598,-0.3475018841,0.0791697897,0.2232974586,-1.1426523842,0.644162825,0.626101432,-0.2232348824,-0.7858057572,0.7428240941,0.7698793865,-0.7154210592,-0.3304881806,-0.8759257981,-0.4859782829,0.5561698774,-0.3062921044,0.197804959,0.0449287178,-1.1656761889,-0.8458106807,-0.6675853217,-0.6599947773,-1.2113737159,-1.1541792864,0.4774567537,-0.5599601296,-0.1969318956,-0.3640665019,0.395216961,0.5099748034,0.5804134557,-0.3563985581,-0.6791194687,-0.8618692598,-0.6997808078,-0.7038922161,0.5460205074,0.3479855531,-0.7771335701,0.2352701541,0.1504196249,-0.2564440787,-1.1705733652,-1.2083758519,-1.1895346681,0.198333587,0.3194272234,-0.7367966799,-0.3097694822,-0.6447533397,-0.5904718674,-0.5135915856,0.1685631,0.2428416782,0.5805946296,0.549052863,-0.2478670951,0.3028859948,-0.4485675636,-0.5296489056,-0.0617776268,-0.1485130021,-0.1894508859,-0.5657651256,-0.0942444547,-0.7022238132,0.2037129825,-0.1873259449,0.5076352242,0.493452692,0.7607934686,-0.9863359017,-0.3908283318,-1.2195472971,-0.2577683412,-0.7120946041,-1.1253218923,-0.0861706638,0.2280189781,-0.3507567661,0.4879243742,-0.2685094064,-0.0842758014,-1.2019221906,-1.0300876407,-0.6655272758,0.0549820153,-0.0093208288,-0.9788651365,-1.1452822846,0.3714075633,-0.3615586412,0.1098467478,0.6815598492,-0.0341966382,0.7515539059,0.4918403566,-0.5142759019,0.3960969723,-0.3434376892,0.3818214876,-0.3547949808,0.5572749158,-0.4163725142,-0.5362715879,0.4371697889,-0.7715224289,-0.8815542339,0.3468598058,0.021105571,0.1168237286,-0.8173081382,-0.6001470061,-0.214978013,0.5221350515,0.4006214957,-0.3947967644,-0.8365565334,-0.3656206847,0.5843846124,0.6189745978,-0.395434277,-0.9055108476,-0.3099606855,-0.747653002,-0.5926500903,-0.547696718,-1.2118198483,0.7433525777,0.0946612352,0.4184048889,-1.1497600332,0.3142861533,-1.1103933968,-0.9851524897,-0.6158826239,-1.0035019779,0.5662872788,-0.3815125868,0.3167230519,-1.0336133541,-0.2360206058,0.6554459461,0.2785619092,-0.0482732306,-0.7920440231,0.7786371212,0.7156296034,-1.1375258884,0.0946230352,-0.6019880837,-0.6572853876,-0.8821498594,-0.5939583657,-0.259254867,0.6162145796,-0.3122197053,0.2762567238,-0.7224039231,-1.0559637465,-0.85548356,0.4170396817,0.2566732713,0.280959493,-1.1226026157,0.686848751,-0.8571689102,-0.1941204711,-0.7576647625,-0.6615816662,0.2911887937,0.085401771,-0.3763265404,-1.1298538877,0.1410905108,0.7383056476,-0.2030202316,0.2249733894,0.4466362051,-0.3031995844,0.2518071434,0.5160267936,-0.008524276,0.1636929423,-0.4948023492,0.1887882319,-0.5788322137,0.6614396532,-0.0099228077,-1.2035092602,-0.0250749911,0.035651048,-0.6028104825,-0.299632483,-0.2520943655,-1.0925352315,-0.1287771778,0.4468802759,-0.7702585022,0.6806435256,-0.1151503145,-0.5123038105,0.5377565302,-0.3987387222,-0.4076251368,-1.1667245321,0.0582307422,0.2403785022,0.7533967455,-0.512202368,-1.1204716044,0.0540058244,0.7391184333,-1.0613746105,-0.2816555694,0.5528011253,-1.2173305557,-0.1607401583,-1.024075363,0.091307606,0.7311549352,0.1512880459,0.0374424852,0.5928827204,0.6697218015,0.0326842697,-0.8138596724,-0.7157633277,0.601971177,0.1053971968,-0.841617101,0.0897245113,0.3517591977,0.5693030941,-0.5653519555,0.2739442656,-0.2492282975,-1.1606601349,0.6213277445,0.4505142081,-0.923873772,0.7501626059,-0.6964676241,-0.3673070062,-1.082871807,0.1032716738,-0.8372767829,0.7766287129,0.498407018,0.3347780746,-0.6412259377,-0.278846179,-0.5320504326,0.4924607143,-0.140050112,-0.642635107,-1.2044961567,-0.8259502101,-0.3088860538,-1.0465296695,0.3114511561,-0.9528313606,0.5066502482,0.1607114118,0.6869429114,-0.7890513121,0.479625654,0.7271405102,-0.0901153765,-0.2866889916,-0.3890354455,0.4382597865,0.6941317773,-0.0087570657,-1.1462830894,-0.6483511934,-0.6602867832,-0.1299102043,0.3023864343,-0.079874329,-0.9825523451,-0.4463962679,0.4953867361,0.0738321919,0.1961298039,-0.5363258784,0.2821926749,-0.1151833671,0.5496419674,-0.5514508616,0.5727719763,0.108187443,-0.0963302299,0.2623976622,0.1603896091,-0.762764833,0.7207121008,0.1865684701,0.6557610982,-1.1204609528,-1.0864545547,-0.90243027,-0.8168367856,-0.8157197359,0.1447014384,0.7147462281,-0.029805632,0.6554416545,-0.7746757959,0.4783571684,-1.1834362403,0.7051648932,0.4943385586,0.4013231672,0.6569460469,0.1454828665,-0.7352937572,-0.6702456744,0.49482323,-0.6142366389,-0.0527507958,0.1543898456,-0.4807411534,0.3057187931,0.166598515,0.6761009001,0.2682205918,0.5426088177,0.057760632,-1.0772583207,0.6743763822,-0.7131915791,0.7136936893,0.8246645463,0.5617562942,0.7604532764,-0.5620973619,0.4694647239,-0.3754760907,1.2040846965,0.9000427948,-0.5558336606,-0.2072202511,0.9795812277,1.135421918,-0.3465151596,0.727583834,1.1661504016,1.1840651345,0.9050060335,1.0056419085,0.7687258889,0.1458117447,0.4324953769,-0.4727337962,0.7243845314,-0.0789468441,1.1975402555,-0.6790093544,0.1544075252,0.1423353625,-0.1359483138,-0.3106324165,0.0094028494,-0.0913911419,-0.2381921126,1.0794426419,-0.1637509776,1.0141394876,0.7327932353,0.9133408983,0.7080055177,1.1485177095,-0.5348166699,-0.0047297369,-0.1163971754,0.3197940568,0.1296070858,1.2077634039,0.5845255591,0.4631747528,-0.6681353745,0.4146293019,-0.1629217858,-0.4764227602,-0.104887348,0.9907937014,-0.1102765541,0.0348857331,0.1538880093,-0.4863023884,-0.1060076965,-0.0702362669,0.1199011651,1.0134018205,0.6036381982,0.8827386993,0.6847648844,0.4910001139,0.5169074144,0.5510919801,0.4518936639,0.9615066332,-0.229159269,0.968676787,0.2491129225,0.2832954459,-0.4897051617,0.9600971454,0.3192881428,0.6061590546,-0.1387061704,0.8661823553,0.9649585897,-0.0127452196,0.0930547563,0.5103956935,0.7964275107,1.1787946748,-0.6068190081,-0.5821713923,-0.458673351,0.1283135821,-0.5327669742,0.2775863212,0.9166966548,-0.3790195068,-0.4271011181,-0.203411194,0.0724487712,-0.7066132172,-0.1320069669,0.2946762962,0.5686091343,-0.2661391035,0.7421057821,-0.6486346346,0.1659294439,0.2224517826,1.0964590639,0.969264527,1.0772449134,0.5322110643,0.9699127685,1.1952742816,0.6787062818,1.1572057533,0.3224183394,-0.0856759049,0.1717774326,0.1844669569,0.5791937708,0.9163219492,0.8211339555,-0.7749167967,-0.4424813237,-0.7249263699,0.8010724961,0.1769172025,0.8899919895,1.1071875219,0.5642711343,0.4174270154,-0.0417660748,-0.5978709428,-0.7536141106,0.3487193657,-0.2615481368,-0.0781782133,-0.6138812458,-0.3034277479,1.0372803874,0.7348375563,1.0838143874,0.5818172171,-0.749777097,0.7465000088,-0.4473492015,0.1839954171,-0.4974293826,-0.0523641578,-0.2750488924,0.0886189646,-0.5807721295,1.0539570965,-0.546676451,0.3591785457,0.2938640414,0.0292326526,0.0515319134
   1.219570379,-0.570839034,0.0516426197,0.0437809925,-0.1903559905,-0.052762545,-0.6390178452,1.1504216532,0.9778812212,0.5267493175,-0.5271398012,0.1386929981,0.9757839992,-0.249922736,0.4899264368,0.5165179977,1.0467879075,0.2046875616,-0.4728836115,0.7860490447,0.0347995168,-0.213359808,1.0578813033,-0.7188293475,0.7160885018,0.5303945178,-0.1475412784,0.4483479912,-0.3259081836,-0.0508972624,0.1232279313,0.513790355,0.1531476162,0.2985932099,-0.2854235726,0.1198037916,-0.6531489237,-0.2254401822,-0.3067556931,-0.085869416,-0.2992103132,-0.5975897812,-0.2004667776,0.0685746695,0.4008923107,-0.2529868128,-0.2537416181,0.2476628688,-0.3243208656,-0.7301938655,-1.1877602826,-0.7298476762,0.6447906109,0.1717035551,-0.8610955077,0.0178195241,0.1376865799,-0.5773357972,0.5029313439,0.2539982586,-0.1757603388,0.3228025814,-0.7400808279,0.6519943566,0.5188344601,0.147595894,-0.4672746462,-0.9301104444,0.4730841076,-0.2838484839,-0.7204906792,-0.932530108,0.5706728842,-0.8004712081,-0.7564226119,-0.4450488285,-0.2795957996,-0.9706394385,-0.6631568922,-0.0626454127,-0.8685286549,0.5477132076,0.2544108457,0.2396742566,-0.597446274,-1.0919895006,-0.547901092,0.7201102951,0.0751670612,-0.100242336,0.564183395,0.2971345265,-1.004466437,0.1401858464,-0.2663406039,-0.1121409822,0.5275255643,-0.9150423679,-1.1551059608,-0.4158909105,-0.8855867676,-0.3269898266,0.6160237739,0.5690617977,-0.1926973106,-0.3409469927,-0.0905205521,-0.2805180566,-0.5772298099,-0.5401550363,0.6696465338,-0.7431289638,-1.0180258101,-0.7178209806,-0.92641381,-0.6393868001,-1.0668657154,-0.118753907,0.2333709676,0.5804317646,-0.3503610975,0.3871209813,-1.1322277973,0.6742375974,-0.415720025,0.1125127993,-0.9848487211,0.6239133064,-0.4176591773,-0.2462074708,-0.1463391574,0.3770543519,0.5839209898,0.4310734091,-0.8992692773,-0.4141367356,-0.0432533218,0.6313313522,-0.0105754926,-0.0182401395,-0.2167681481,0.3505545403,0.3497237233,-0.2467497762,0.1668150913,-0.9448352392,0.2572050518,-0.0973326608,-1.0454905007,-0.9787492064,-0.9276134699,-0.2410955297,-0.1933962673,-0.7420777707,-0.8908316308,0.2753404132,-0.7965752511,-0.2047129113,-0.6289963806,0.6907887884,0.3807419888,0.0258184535,-1.0504936913,-0.5416602007,0.146174759,-0.9763829477,-0.5997865796,0.4073514254,-0.8591401177,0.1929346672,-0.0151527838,-0.6635471117,0.0082194566,0.115248362,-0.7806891883,-0.96973997,0.5384316012,0.0172798022,0.3010251173,0.5830726387,-0.4013555729,0.5115141883,-1.0862292035,-0.1997418159,-0.7326782579,0.1092980098,-0.9908244211,-0.8733386231,-0.7998743235,0.5990791355,-0.7584870747,-0.7375429357,-0.3672515767,-0.6896220716,-0.2792126544,0.5048605703,0.2320918324,-0.1606621144,-0.7541498924,-0.0015461023,-0.6756873485,-1.2002100649,-0.0337831329,0.3060750724,0.3520812211,-0.0188610029,0.3440119396,0.3258358478,-0.1291565185,0.0046853277,0.4794853875,0.1699210838,0.2214699429,-1.1551523136,-0.5258980635,-0.1906721878,-0.4691052389,-0.3379337367,-1.1718656842,-0.7125812201,0.2462581791,0.1794652663,-0.8339849916,-0.3012487812,0.2917290185,-0.0281002854,0.1917352196,0.0263950567,0.7064135081,0.5312458096,-0.0620535833,-0.635761817,-0.0397524468,-0.2246706176,-1.1095557653,0.6543138192,-0.7785297502,-1.1164804876,0.5033774093,0.7400877547,-0.960520222,-0.1479444716,-0.6022841884,-0.8480369841,-0.6579397079,-0.8643079354,-1.0760525756,0.6810384799,0.4030126198,0.1652499991,-0.3865859405,-0.757345493,0.587258604,-0.7905087127,-0.2514683854,-1.0741346378,0.2083560475,-1.1248400679,-0.4882058025,-0.0247457611,-0.3007228419,-0.4081124327,-0.7076408314,-0.1472897034,0.3551697317,0.3802426909,0.597850761,-0.3960058427,0.0535740083,-0.6995031936,-0.3472185748,-0.8607515647,-0.6129076937,-1.0689557076,0.1353922583,-0.599595204,-1.1464703383,-0.0040680549,0.0598599728,0.5405923255,-0.9402667602,-0.9215609535,0.6299536812,0.0718957198,0.1061058188,-0.57637884,0.4515599083,-0.1748146683,0.659314295,0.5032101698,-0.2631208653,-0.0239591558,-0.6525551714,-0.791426953,-1.1549136483,-0.2506481631,-0.2215616338,0.0676927849,-0.8902811018,-1.1726816355,-1.1283131998,-0.8331788788,-0.0985430523,-1.1089314169,-1.0141919238,-0.2599906733,0.6795538363,0.5186894094,0.4079467119,0.1363277774,-1.1619247936,0.4448606731,-1.0328745304,-0.5110713951,0.1367434565,-0.715880163,-0.2734074423,0.2468580105,-0.5451497277,-0.7720755349,-0.6606210936,0.1381441349,0.0655208606,-1.0180203041,-0.8431846249,0.4591032588,-0.5714294184,-0.3104349708,-0.9648422237,-0.159716889,0.4782306622,0.4543552534,0.3759839726,0.3618161664,-0.8559129658,-1.0057111859,0.6567914874,0.0881933005,-0.4718332625,0.7393867343,0.1430923644,-0.8189645867,-1.0706688605,-0.7420406063,-1.0530950196,-0.893241766,-0.8619974201,-0.6705550998,-0.2397401489,0.0507534345,0.5597312205,-0.159856471,0.2800431321,-0.3392542906,0.4005563581,-0.8205267704,-0.2152964024,-0.4356904718,-0.4192374133,-1.2094553749,0.4028407294,-0.9515685683,0.1362585075,-0.3234158799,0.2268930445,-0.4167217956,0.5506340727,-0.9947774421,0.5327796373,-0.0618894721,-0.4037409917,-0.3533757989,0.4609000502,0.3317472995,0.3593595955,-0.5390137936,-0.5459024282,-0.7511103386,0.3192227953,-0.758429857,-0.4340301872,-0.093661064,-0.3529264572,-0.0351577892,-1.1127824785,0.0405613839,-0.1282745104,0.3929457381,-0.0355573284,-0.1831287367,-0.2179230943,-0.8622785547,-0.1531444264,-0.3825966826,-0.056514736,-1.0396354824,0.5453717947,-0.1261402496,-0.8440261503,-0.7572394982,-0.1812841955,0.457462804,-0.5623911321,-0.4137009083,0.4555189401,-0.8186955807,0.248051655,-0.8334025574,-0.4292988627,-0.4971641627,-0.2066327993,0.7099299605,-1.1085267069,0.7435605812,-0.3298356736,-0.5234466669,0.0842043817,-0.7740701018,0.3593618148,0.1777456807,0.0198345746,-0.6919461638,-0.3511300803,-1.1284519296,-0.0003989774,0.2017447636,0.379806248,-0.6008869204,-1.0044010982,-0.1442694857,-0.9470900922,0.2107546762,-0.6443822123,-0.0984396364,-0.6727590496,0.7253480243,0.7620906501,0.0036873141,0.2020171121,-0.5094145927,-0.1036996373,-1.0153723798,0.0941204712,0.5061159419,0.7388314155,-0.5790056502,-0.2446727034,-0.3832537782,-1.0191925291,-0.4916686946,-0.7145660175,-1.1460272905,0.4396204944,0.4349591802,-0.6189223435,-0.3203603177,0.7341089684,-0.6113267932,-0.6482729409,0.5845825603,-0.1826867915,0.11446083,0.1760454144,0.6021350824,-1.166672759,-0.6463548643,-0.1847985012,-0.7886642526,-0.935287851,-0.7117460072,0.3326349608,-0.1495603144,-0.8891479253,0.3223273638,0.4393647588,-0.2458798269,0.3632879569,-0.5098618333,-0.2367571469,0.631479846,0.7762209649,-0.8758353201,-0.2601148009,-0.8975534282,-0.4685142589,-0.999230615,0.1073100654,0.1511142956,0.7606907736,-0.2835042307,0.367869128,0.6749028402,0.5957293432,-0.1444797299,-0.5208487212,0.1924705705,-0.3589222951,-0.1973017825,0.1793802375,0.0515917562,-0.9080880993,-1.1438871317,0.6553165043,0.3712673974,0.2160239336,0.365521369,-0.2546594597,-0.6730310861,0.7189124028,0.6839716078,0.0441190687,-0.5827249055,-0.8479783536,-0.1903329592,-0.0107964088,-0.3053489344,0.533339799,0.2653132709,0.6937868052,-0.3836089222,-0.1923730557,0.1542700244,-1.1941476225,-0.2578043498,-0.4716250132,-0.0913413211,-0.4815609417,-0.944785922,0.2876144903,-0.9178429843,0.5280743889,-0.0680357914,-0.9104385359,-0.3725825361,-0.1477018117,0.6941986677,-0.0286664308,0.690849764,-0.2611381466,-0.6342947539,-0.7830893156,-0.1819590626,-0.1480548342,-0.0044578125,-0.7015347891,-0.7884132732,-0.3572025745,-1.0700307239,-0.2305911796,0.5215633284,-0.7382068035,0.8072214677,-0.0767924044,1.219167705,1.1606951666,0.1429608909,-0.683786269,-0.502768193,0.1106169892,0.4375421432,-0.2180866445,0.7017589202,0.3017793389,1.0052987413,0.1785625822,0.8683015063,0.8356323252,0.301230165,-0.4841394812,0.7520279233,0.3323337332,-0.138848957,0.7255616058,1.0057407358,0.3564828353,0.8554000092,1.0100277152,0.5997467311,0.7121974696,1.2176586215,1.2069564576,-0.0134900374,0.2532487817,0.117940448,0.7162615741,0.4768530306,-0.3998353263,-0.6279661103,0.0912470163,-0.069899944,0.2928397561,0.1538762606,0.2062319897,-0.1385854114,0.7694644146,0.0395047196,0.5114039014,0.9482208697,0.1354639397,-0.3321000314,0.9733580418,-0.0652024312,-0.24654327,0.40712257,-0.6418053728,-0.2418660069,0.0936775475,0.7435168159,0.5426182495,1.0818400357,-0.4635815002,0.4894782798,0.6278357897,-0.6655958757,-0.5740972353,-0.7019805067,0.4423705851,0.9821184875,0.7999782535,-0.1557929697,0.4550569308,1.153803969,0.6191790355,1.0265625773,0.8865105436,-0.1649271468,0.4593788254,-0.1330062248,0.6338374913,0.9821402348,-0.5991362293,0.2097178612,0.6540609272,0.9860846178,1.0699099071,0.0446490084,-0.3942101323,0.8994320614,0.5864545516,0.7034323188,-0.3979298189,0.2747219417,0.0292452459,0.2979878558,0.7141806288,-0.2047534216,0.9690920163,-0.6182278522,0.0903463063,0.5816286075,-0.117305295,0.3085489548,0.7656739007,0.1940633742,-0.4935110127,-1.1897091756,-0.7589082225,-0.525736317,0.2114806533,-0.204913249,0.5887304997,-1.0715272065,-0.135577115,-1.1327611108,-0.1382839519,-1.2083174514,-0.7911826857,0.0505552873,-1.1548549386,-1.0024911632,-0.4152455925,0.3878778522,0.6316016891,-0.8277237966,-0.7491497752,-0.8951170623,0.4361404474,-0.6242701132,-1.0836427083,-0.9407870352,0.7173762281,-0.8763849354,-1.0982573118,0.1514029991,-0.2691678859,-0.3428487851,0.3443393712,0.029482623,0.7728727336,-0.0807472576,0.7653753801,-0.2796703249,0.6301052763,-0.1033549856,-0.3457381575,-0.5602418705,-0.0081224811,-0.7640799312,0.2729362831,-0.1238439993,0.0999545524,-0.0849772046,0.6472080663,0.5254626224,-0.2583783789,-1.2085223238,0.0756764872,-1.174922989,-0.1324959572,0.7741756017,0.2629907033,0.2626414089,0.3996014898,-0.17477342,-0.8010023954,0.3861949952,-0.8594909619,-0.2102575961,0.4587503723,-0.7815712812,-0.351210405,0.4740196425,-0.540496299,0.3676036536,-1.0310617091,0.3161860476,-0.6681768931,0.3935764008,-0.8709797478,0.512622519,-1.093264512,-0.781973701,-0.310051876,-0.4112064819,-0.3720830948,0.7200982335,0.7256310235,0.0247318888,-0.9356475157,0.7779196656,-1.0612850899,0.6137159082,0.7411895038,-0.0915431247,0.4204682052,0.7420266268,-0.5237394422,-0.8676304297,0.7709254415,-1.2119115854,-1.1071215786,-0.1028992866,-0.2309818592,-0.886919588,0.6370159822,0.5483486854,-0.2640268382,-0.0006507679,-0.7989491085,-0.7177609885,-0.0236854075,0.5082240771,-1.150696032,-0.1821168994,-0.8759611315,-0.1298235922,0.1647246121,0.4375458048,-0.9989091932,-0.9138975638,-0.1714741604,-0.3022041552,0.2026025331,0.6521717679,0.3931329265,0.5624569623,-0.6694126837,0.6159044342,0.5188564459,-0.165901968,-1.1377706772,-0.6829242073,-0.0941081408,-0.4817092856,-0.7345403443,-0.5522140581,0.6370346897,0.0670048589,-0.9221718713,-0.1611057937,0.2213204917,-0.0967267488,0.044299086,0.5634362862,-1.1109529196,-1.0266683793,-0.4003358985,-0.0153203697,-0.405750851,-1.0665048158,-0.9450681202,0.3230030234,0.5289286679,-0.6999982642,-0.1448033357,-0.2642293319,-0.0066767155,-1.154542506,-0.9391324605,-0.1620768614,0.0958967939,-0.4277206276,0.0265025714,-0.7855319167,-0.0626752513,-0.8681097311,0.0986391784,0.0754797406,-0.3785542854,-0.5011256495,-1.11546959,0.1521904677,0.61267311,0.3288772409,-0.0842979706,-0.2556897009,-0.6870533573,0.0183455929,-0.3141122207,-1.156736932,-0.5753881642,0.1801517135,-0.7388075292,-0.7237609485,-0.3785038114,-1.0360973619,-0.8228826654,-0.6390349697,-0.2708033927,-0.7793660788,-0.6803057185,0.6115406413,0.3034862955,-0.8960535118,-0.8470667462,0.0517789604,0.0984017089,-0.7772676256,-0.7027137811,-0.2799355023,0.281376298,0.5344527407,-0.5573440771,0.3174193515,0.0606172936,-0.0661395506,-0.4420375003,0.1276626823,0.5843446046,0.6217366808,-0.1089254624,0.3019128986,0.4280072418,0.30885601,-1.0411666894,-0.7364897253,0.04308748,-0.2575231286,-0.0229677993,0.6700391068,-0.0495663785,-0.6402194304,-0.7019857234,-0.8514581314,-0.8022301663,0.7106020047,-0.416779424,-0.2398561237,-1.0598134512,0.3626378072,-1.1390730396,0.3333634702,-0.2342283044,-0.2700314101,-0.2157660004,0.1127885546,0.4634696791,0.4399816576,-0.6782336356,0.5361468062,0.7473791956,0.2712856461,-0.0231380022,-0.1977212222,0.1864374275,-0.5376075319,-0.1470891468,-0.8556114818,-0.2680971351,-0.8657558347,-1.0161848461,-0.0697927957,0.334636413,0.3162550717,-0.9015844316,-0.6177182132,-0.7429764504,-0.1879977256,-0.5811320925,0.3406816977,0.3753338778,0.1250651101,-0.2489250626,-0.6267293459,0.462978168,-0.3930994616,-0.8393774741,-0.3384054581,0.7620087831,0.1631977702,-0.4979596519,0.2082355734,0.3924079412,-0.8366465225,0.2376440712,-0.2040250607,-0.5269523784,0.6255175924,0.6319585029,-0.5213723787,-1.0247944306,-1.1447215986,-0.4693336104,-0.4541924353,-0.2271325847,0.3451558328,0.1567825837,-0.3976334844,-0.6536451513,-0.8945284301,-1.1478305657,-0.6709623113,-0.8053454506,0.205875995,-1.0417438375,-0.005805711,0.720139912,-0.5329546658,0.0164869952,-0.7942780574,-1.0960180743,-0.6402426381,0.5138916761,-0.3839373587,-1.1750556605,-0.1010201189,-0.7869607676,-0.5456328382,-1.1573225094,-0.2017879205,-0.839786768,0.6715111944,-1.204872682,0.0858470224,-0.5123696764,-0.5992512768,0.2697066278,-0.963362476,0.5365562845,-0.2178341707,0.0729902548,0.6143382244,-0.3938704858,-0.7074278696,0.1441665938,-0.7554994747,-1.007459745,-0.377540252,-1.1746046927,-0.4334149378,-0.4688124237,-0.2865234062,-0.7387569724,-0.5381511235,-0.3311683134,-0.5829828567,-0.0844971861,-0.7846059343,0.145023988,-0.799998995,-0.4652118878,-0.4987958669,-1.0198634147,-0.0028689342,0.002672301,-0.0901290492,-0.7705471488,-0.9756771784,0.6167127412,-0.5334660932,-0.3813329701,0.3196267937,0.2021663007,0.5514046304,-0.9616266872,0.6715979564,-0.587649662,-1.1086772412,-0.7457014798,-0.8707060824,-0.864745414,-0.5153690678,0.0489448638,-0.401009973,-0.3388247079,0.4797258783,0.260464705,-0.8498433764,-0.8103338434,0.0633237105,-0.4282090365,0.6967997539,-0.0453012322,-0.8478867152,-0.9503926217,0.0118707235,0.6200314338,0.0793388834,-0.4759374512,-0.247940108,0.5148351496,0.4184994665,-1.111876867,0.5067399289,-0.6726424899,-0.1313294775,0.2061651511,-0.7220250378,0.7419029127,0.6315420686,0.6574409284,-1.2180185069,-1.1677979224,-0.3074872865,-0.9142686642,-0.4137194062,0.726534615,-0.9510825222,0.7746323354,0.0552531158,-0.603467077,-0.5773319676,-0.7147573252,-1.1550641984,-0.0481370964,-0.2971761436,0.8941322529,0.5737649966,0.2980407261,0.2986388382,0.7308693128,0.7448868622,1.1655996388,-0.2737069498,0.9528219804,-0.3372534546,-0.4972957155,-0.05379923,0.3236202466,0.2420218501,-0.2205107319,-0.2196687995,0.4444819511,0.1176611751,0.7629330969,0.0112613846,0.3476891917,1.1495855248,0.5580956172,-0.6509236383,0.9392704825,0.6931667952,-0.2142839296,0.9725474502,-0.7715840207,0.6231521591,1.1146407036,-0.1248596687,0.8722747854,0.2876727319,-0.5469307542,-0.0716951819,-0.3493955196,1.1729295536,-0.0199187178,0.0348408899,0.9769221387,0.1375606672,0.4129078937,0.1368579322,-0.7235019036,-0.0416004931,1.1979894045,0.3384889335,-0.1434356891,0.4900794187,-0.7562511942,0.2588873373,-0.3861141219,-0.0989402145,0.7208740032,0.31942543,0.5985806873,1.0370960992,1.0868796708,-0.3422829988,-0.4627817968,-0.5421570322,-0.289433002,0.5085752699,0.7525989516,0.2889934823,-0.6660343964,0.0723996467,0.1967988729,0.6942062061,-0.300864967,0.356987981,-0.5288765185,-0.676951463,0.8147198922,1.0262286134,0.784311168,0.3921602684,0.5963438768,1.0197463764,1.134901644,0.6602498814,0.1676196435,-0.12879804,-0.0217026065,0.0957060817,0.6651837723,0.0439007838,-0.5989042741,0.7397176996,1.200064935,0.7802735745,0.2651750909,-0.7613515069,-0.5404574923,0.6094505358,-0.3059151019,-0.1265997089,-0.76103764,0.4353199032,-1.0431685449,0.5646231199,-0.1347257651,0.2832533638,-1.1620973258,-0.701670399,0.4775239905,-0.971243974,-0.6431266628,0.1076614302,0.0247776027,-0.9521323071,0.6087293156,-0.6518341247,-0.4060966958,-0.4923969087,-1.0495138356,0.4859433226,-0.8598455955,0.7060093169,0.6732886291,-0.6879757792,-0.1084196975,-0.204478232,-0.0905002511,-0.1264060938,-0.2012296717,0.4068818945,-0.8707973027,-0.1193371273,-1.150059229,0.281581229,-0.0560409731,-0.8747250318,0.1877299402,-0.8917280129,0.0473722931,0.4368237001,0.6164926939,0.1008356096,0.6749316479,0.1897100298,-0.0596049667,-0.6140542971,-0.4162449966,-0.208638666,0.0604969602,0.3079594909,-0.8217254738,-1.056382768,-0.7050482994,-0.6692544036,-0.8126258143,0.4672326544,-1.0407445926,-0.73866589,-0.7193696201,-0.3280568056,-0.1719297802,-0.3945276959,0.3159894408,0.3052886021,-0.177404424,0.5978918938,-1.0428915147,-0.3988653951,-0.2808975939,0.2570963124,-0.0825457347,0.75367898,-0.389840437,-0.4113274188,-0.4426602199,-0.1051453284,-0.60187989,-0.6907810914,-0.6544907838,-0.3442946298,-0.8516032445,-0.2844044834,-1.0156775007,-1.0620315775,-1.1099568682,-0.7285843296,-0.5207390328,-0.5061955405,0.3169618645,-0.5845663277,0.3551005726,0.2170572937,-0.4526027543,0.4898785274,0.2660381603,0.2981362925,-0.4806371247,-0.1526888951,0.763102872,-0.9923570502,-0.8274296234,-0.9301785847,-1.0081191446,-1.2042844913,-0.3391707855,0.2686749217,-0.5113408956,0.0719317257,-0.6535531646,-0.2301754707,-1.1943552413,0.2601857627,0.6050835667,0.0937572889,0.5243222635,-0.9037645907,-0.2406392142,-0.1518817905,0.4712546352,-0.7129711518,0.0850051291,0.6049631207,-0.9119750421,-0.6653963244,0.1395444259,0.2401940836,-0.8622288332,0.1493165171,-0.4570630304,-0.4274588794,0.4410504108,0.6803490405,0.7292590585,-0.3450410765,-0.7029373218,0.3582812888,0.6630173797,-0.5717961592,-1.1870114731,-0.1358396734,-0.1617166882,-0.0420007535,0.72048791,-0.1482111372,0.6602683232,0.6718146146,0.1173241636,0.2698171273,0.7261368983,-1.0999966936,-0.2810181014,0.5544856681,-0.1336730046,0.6575462461,-0.4634656486,-0.0327164677,0.7054391892,0.6205282059,-0.7299427903,0.081789126,-0.614891001,-1.0819145164,-0.75235534,-0.5171214053,-0.8688142589,-0.9858680155,-0.1220874104,0.2961684274,0.2254871628,-0.0629080187,-0.1312153095,-1.1385581524,0.6733786023,-0.6024276102,0.4141868777,-0.9873704455,-0.5247428966,0.5339274235,0.2744405581,-0.4968140162,0.0134836876,0.4970048988,-0.8259501784,0.7601669177,0.6555235113,-0.4421688727,0.148963421,0.6354254509,0.4153474211,-0.1811663907,-1.0967014937,-0.1372252924,-0.8372945675,0.4480953278,-0.9007330277,0.6373291254,-1.0342590224,-0.0633463717,-0.2445587309,0.4853526611,0.6583339606,0.6290668302,-0.5086232051,-1.1127474068,0.7495356125,0.7210096612,-0.1014885993,0.2839149623,-1.192405795,-0.6505758408,-1.0053444832,-0.8238403658,-0.553431387,0.4329844513,0.0568469729,-0.9361883943,0.7610004393,-1.2122052128,-0.3063315086,-0.5997153539,-0.7641958511,-0.5558554753,0.7020052296,-1.0072894498,0.1228361729,0.5214248333,-0.8029862466,-0.8520162032,0.0796264143,-0.3561721378,0.1331692602,0.2110337824,-0.6748818467,-0.8365060902,-1.174492948,0.6375697941,0.2725810338,-0.0017741794,-0.1039997653,0.3137305402,0.4789709985,-0.1447463173,-0.7361748377,0.6079873802,-1.0700673519,0.2618081695,-0.193907582,-0.6706360932,0.3435499058,0.0914786853,0.4667489804,0.4148254157,-0.0104157121,-0.9832387931,-1.0113270638,-0.4919991558,0.0542568726,-0.5858072554,-0.4653793461,-0.0583262692,-0.2203569317,0.1005874866,-0.5102474614,-0.0984307925,-0.5924855489,-0.1146415069,0.0532501706,-0.4197738738,-0.4247924144,-1.1641025266,0.0583458677,0.6888866394,-0.3244921862,-0.0616587658,-0.6703730384,0.1519321831,-1.16518534,-1.1754314371,-0.061174981,-0.7810978685,-0.69466013,-1.0970290026,0.2606164538,-0.0419315451,-0.2754248863,0.4919753555,-0.4780416953,-0.1789094319,0.1012014676,-0.8015800957,-0.9449504336,0.7106275593,0.1880694501,-0.3840264574,0.6058322542,-0.5936455549,-0.9298552164,0.5240750123,0.2332515097,0.702588651,0.5302928133,-1.085244165,-1.0061418099,-0.21297653,-1.0841479099,-0.1221475754,-0.387617379,-0.4872345194,-0.3218658012,-0.4088545158,0.0186384429,1.1457605364,-0.1941458857,0.7286767299,0.0227739137,0.9952831298,-0.4490673007,0.8430862763,-0.4705511523,1.1167946479,-0.4260652424,1.1228634904,-0.3502355614,-0.5723757638,1.1735719184,-0.0879293162,0.4629131955,0.9276864912,0.326008587,0.3134458939,0.3628123997,0.658904559,1.0274371786,0.8088232848,0.5992162293,1.0854063772,-0.7668420474,0.7977492437,0.2146737024,0.5436574276,-0.743314414,0.2737970779,0.1697130099,1.0763372511,-0.3711680225,0.4323437688,0.061701941,0.1307448388,0.5594058986,0.6921098139,0.9563389925,0.2444401987,0.7980194903,1.1109823577,0.877812327,-0.5300416058,1.0731556017,1.1561633761,1.0985512149,0.8797124132,0.9907010888,0.3310391603,-0.7675419866,-0.7333903627,-0.6974351766,1.0743115285,0.5752005875,0.2923845256,-0.279246232,-0.3994336832,0.1694590848,-0.4964681273,0.3393651488,0.4821822149,-0.0809891516,-0.2989622163,-0.3539049397,-0.5428943062,-0.1885176594,0.3076312913,-0.2436049995,-0.4480931159,-0.7021201287,-0.7028457072,0.0410620744,-0.3884545635,-0.1100602638,-0.4360435778,0.8533499707,0.9095385206,1.0137789558,0.4952132748,0.8978544978,0.2822323244,-0.091283182,-0.2592924651,0.4715610164,-0.0933199193,0.4213829449,0.442781614,0.4041081992,-0.1220329808,0.8032748169,-0.0045265,-0.4736917443,-0.448572381,0.6893340536,-0.3109969054,-0.3562522871,0.3206693827,1.2056298966,-0.3407832081,0.0316009966,0.5192700279,0.9312177982,0.4392165885,-0.755797194,0.354293852,0.9678480692,0.6024095798,0.5723121585,0.0395934579,0.5077125262,-0.2507918686,-0.5815953888,1.1228480099,-0.0874363737,0.6221963586,-0.7104516762,-0.0038667604,-0.7413081589,-0.5254902296,0.6798583791,0.3612589034,0.1459405885,0.332464706,0.9516634086,0.1819506341,-0.7343178985,-0.7448321355,0.275449829,-0.325302036,1.1806106663,0.9065716137,1.0905769367,0.0453726144,1.1731269325,0.4714276063,1.0492148634,-0.4079376548,-0.6306736913,0.2547525706,1.1594746581,0.7382356367,0.3768808906,-0.6040491263,-0.6105444735,0.440819485,-0.1174910324,0.1774894546,0.0135295872,-0.0158135075,0.3471953681,1.2184679352,1.0292887913,1.1644433842,0.1649845091,0.4639714676,-0.5078129988,-0.5254377924,0.4834217093,0.7485766355,-0.6415272641,-0.7678605036,0.8594783229,-0.426834187,-0.0868342979,-0.5148382788,1.1250172315,-0.0552671332,1.1021791782,-0.4606935834,-0.3367586764,0.671173377,1.0108175447,-0.6081743051,-0.2274082214,0.2549063226,-0.2434324869,0.270631545,0.4585580415,0.6585146757,0.9682522175,0.0013703766,-0.2928766892,0.755500244,0.9791303763,-0.1933500259,-0.3503387072,1.1241724083,1.1127628528,-0.1626596436,-0.6916425812,-0.1022376971,0.7165885782,-0.1651249094,-0.1772901038,-1.0261353237,0.6885024884,-1.0141043227,-0.8213585364,-0.3363691083,0.0412722708,0.123961788,0.5285670027,0.0991710326,0.1267557194,-0.5734818298,-0.5266403695,-0.8088344169,-0.3297877664,-1.0400161391,-1.0759569893,-0.9546037523,-0.3983981962,-0.9304185688,-1.1537043259,-0.9770631251,-0.4127204752,-0.8404468513,0.6642409541,0.4836159102,-0.3793024606,-1.0717173994,-0.1404492806,-0.4181175613,0.2273634686,0.1127091594,-0.6974624405,0.1012841411,0.5366411364,-1.1632693999,-1.0558282325,0.0877360733,0.1520683453,-0.1353818166,0.3288678373,-0.2761746029,0.3913493962,-0.0564716474,-0.8055797509,-0.0750402815,0.709484657,0.0079094426,-1.1171287636,-0.2441225944,-0.6302590417,-0.7340133665,0.0987244569,-1.0685524887,-1.1853444094,-0.4288593129,-0.3307286844,0.03463038,-0.3670329143,0.0349972745,-1.146078856,-1.1580940059,-0.0860433846,-0.2581240673,0.2541251373,0.7170257137,-1.0110822918,-1.028762093,-0.5894795684,-0.1063210775,-0.9470751315,-0.0275635912,-0.5744525184,0.2379665649,-0.3702276879,0.0084902759,0.768873465,-0.2513638752,-0.2653670924,0.30638497,-0.4791811415,-0.8307668381,-0.8516750914,-0.9931319218,-0.3757535078,-0.8058886175,-0.2094391433,0.257931828,-0.8354689191,0.5338958237,0.0069205978,-0.3202752982,-0.1699107278,-0.1804068729,-0.6566478927,0.3530288092,-0.286702073,0.1856402982,0.3353306097,-0.4404728142,0.4291229225,-0.9842285124,-0.1379437556,-1.1034138754,-0.9705929311,0.025562689,0.3492008778,0.1427964553,-0.4225026023,-0.4885456254,-0.0037913534,0.6788663079,-0.4547587874,-0.4615495316,-0.91388015,0.4538771366,0.6568272166,-0.515271591,-0.4156241351,-1.1803823498,-1.0365094637,0.2123350319,-0.7782685282,-1.071941253,-0.9364740561,-0.8836028037,-0.3478380924,-0.9510151261,0.1757784508,-0.2734732803,-0.1431042307,-0.3014388744,0.5690102331,0.5229410283,-0.1178526662,-0.6226474549,-1.0743510762,0.6145359405,-0.2229352508,-0.7238191357,-1.0633602163,0.5169686336,-0.5554296998,0.3985550418,-1.1599816626,-1.0117109671,-0.4193062828,0.1137466183,0.2709226501,-0.0809628132,0.1155586321,-0.7192440676,-0.4568303888,0.4889080707,0.7468938657,0.3017344787,0.3402619432,0.5383647714,0.6927181889,0.4372045831,0.1665173205,0.5610329812,-1.0895728154,-0.3150550219,0.4498949186,-0.1367722207,-0.7722908026,0.3150496562,0.1376387089,-0.7510543708,0.6487880514,-0.7187080821,0.4941892536,0.508829055,0.6715293542,-1.1715555305,0.6448518258,0.0140673829,0.7117776654,0.0815396014,-0.9941265082,0.4418020701,0.7265909367,-0.450318817,-0.9511890031,-0.0468157303,-1.0500069486,-0.3654135213,-0.8270545584,-0.8605832533,0.0375370405,-0.8041913557,-1.0276992667,-1.1614845593,-0.694614212,-0.4291821317,0.3498176266,0.4231909882,-0.914787003,-0.4504451117,0.123971539,0.5171556217,0.5694960715,-0.6086633006,-0.6557996279,0.5583403734,-0.0007035214,0.1079855661,-0.5516538905,0.6270518191,0.3827227157,0.9492452621,0.7729700981,0.6973929294,-0.6082510069,1.1877963825,0.6503491728,0.3549810451,1.09329364,0.7232172275,0.7132104542,0.0678135005,1.2064356425,-0.0968097154,-0.2003391799,-0.7594992832,0.300733147,-0.5178294001,0.6045503653,-0.1068384753,0.4563552112,-0.6516105054,-0.0057900421,-0.0308819556,1.0963877926,0.1934201874,0.6150941364,0.1437188766,0.2951750828,1.1339626864,0.0840166302,-0.384067588,-0.3368020211,1.0495977227,-0.7156100214,-0.2655141349,0.2675778771,-0.5603966514,-0.0880423136,-0.2743086354,-0.4277157314,0.9661636876,0.7863231646,0.8518376109,0.2843986496,-0.2721091513,0.0568923268,-0.5618635124,0.8609721606,0.9499498123,1.059720224,0.5386741002,0.1797234386,-0.436831052,0.6549916705,0.6599641051,0.1214626904,-0.613630599,0.9414046836,-0.7623190179,0.885675124,1.021918026,-0.2505606594,0.0694457169,0.948703386,0.2680821482,0.7974281209,-0.1180262178,-0.1601516999,0.9138053601,0.026457858,0.2713083642,1.0996935882,0.08497023,1.0996870466,-0.084706915,-0.064653451,1.0847339399,1.0292320533,1.1666186184,-0.4297051602,0.4223530142,-0.3433006681,1.2007349779,0.9565506588,-0.5770143341,-0.1922558131,0.9592135764,0.6455758372,0.5639286497,0.4436490851,-0.7379425892,0.0921959502,0.7814607965,-0.7682421261,-0.4877590989,-0.3003730685,0.192068327,-0.677051814,-0.5337696211,0.9244006929,-0.6110556327,0.2013245698,0.8529998782,-0.4034246137,0.2567739317,0.7540140376,0.2648092795,0.0667318392,0.9191689902,-0.7407417267,0.9086338143,-0.4964225372,1.0600055905,1.1601181256,-0.7213383053,-0.6015030729,-0.7059714652,1.0606106699,0.1811534835,-0.6473418005,-0.5568122991,0.4481082576,0.1316296148,-0.3561997735,0.7217914937,-0.4045689362,-0.533210321,0.2860024225,-0.6697738438,0.1167137378,-0.151132326,1.031766263,1.1480170276,1.0679486722,-0.1665228265,0.5905692894,-0.7516775063,1.1574827053,0.3244768501,0.5025762859,0.8369357643,0.8068344398,-0.6764472254,-0.1544733759,-0.5892618193,0.2788566526,-0.6260218254,-0.5906769378,-0.6714345344,0.0306890287,-0.7582419922,0.5338483704,0.4011952392,0.5947322352,-0.2900497974,0.0006119047,0.6108570425,0.8677201961,0.7768994393,0.5914799738,-0.1938477069,-0.7203764214,0.444314083,0.1333819104,0.2964993471,-0.2400266914,-0.5864042729,0.087941813,1.1269863483,-0.4782182244,0.845991023,0.6765304329,-0.1533044804,0.4034286708,1.1808488539,-0.1251618838,-0.2246849392
