encog,BasicNetwork,java,3.4.0,1,63714592696438
[BASIC]
[BASIC:PARAMS]
[BASIC:NETWORK]
beginTraining=0
connectionLimit=0
contextTargetOffset=0,0,0
contextTargetSize=0,0,0
endTraining=2
hasContext=f
inputCount=630
layerCounts=1,101,631
layerFeedCounts=1,100,630
layerContextCount=0,0,0
layerIndex=0,1,102
output=0,0,0,0,0,0,0,0,0,0,0,0,0,0,0,0,0,0,0,0,0,0,0,0,0,0,0,0,0,0,0,0,0,0,0,0,0,0,0,0,0,0,0,0,0,0,0,0,0,0,0,0,0,0,0,0,0,0,0,0,0,0,0,0,0,0,0,0,0,0,0,0,0,0,0,0,0,0,0,0,0,0,0,0,0,0,0,0,0,0,0,0,0,0,0,0,0,0,0,0,0,1,0,0,0,0,0,0,0,0,0,0,0,0,0,0,0,0,0,0,0,0,0,0,0,0,0,0,0,0,0,0,0,0,0,0,0,0,0,0,0,0,0,0,0,0,0,0,0,0,0,0,0,0,0,0,0,0,0,0,0,0,0,0,0,0,0,0,0,0,0,0,0,0,0,0,0,0,0,0,0,0,0,0,0,0,0,0,0,0,0,0,0,0,0,0,0,0,0,0,0,0,0,0,0,0,0,0,0,0,0,0,0,0,0,0,0,0,0,0,0,0,0,0,0,0,0,0,0,0,0,0,0,0,0,0,0,0,0,0,0,0,0,0,0,0,0,0,0,0,0,0,0,0,0,0,0,0,0,0,0,0,0,0,0,0,0,0,0,0,0,0,0,0,0,0,0,0,0,0,0,0,0,0,0,0,0,0,0,0,0,0,0,0,0,0,0,0,0,0,0,0,0,0,0,0,0,0,0,0,0,0,0,0,0,0,0,0,0,0,0,0,0,0,0,0,0,0,0,0,0,0,0,0,0,0,0,0,0,0,0,0,0,0,0,0,0,0,0,0,0,0,0,0,0,0,0,0,0,0,0,0,0,0,0,0,0,0,0,0,0,0,0,0,0,0,0,0,0,0,0,0,0,0,0,0,0,0,0,0,0,0,0,0,0,0,0,0,0,0,0,0,0,0,0,0,0,0,0,0,0,0,0,0,0,0,0,0,0,0,0,0,0,0,0,0,0,0,0,0,0,0,0,0,0,0,0,0,0,0,0,0,0,0,0,0,0,0,0,0,0,0,0,0,0,0,0,0,0,0,0,0,0,0,0,0,0,0,0,0,0,0,0,0,0,0,0,0,0,0,0,0,0,0,0,0,0,0,0,0,0,0,0,0,0,0,0,0,0,0,0,0,0,0,0,0,0,0,0,0,0,0,0,0,0,0,0,0,0,0,0,0,0,0,0,0,0,0,0,0,0,0,0,0,0,0,0,0,0,0,0,0,0,0,0,0,0,0,0,0,0,0,0,0,0,0,0,0,0,0,0,0,0,0,0,0,0,0,0,0,0,0,0,0,0,0,0,0,0,0,0,0,0,0,0,0,0,0,0,0,0,0,0,0,0,0,0,0,0,0,0,0,0,0,0,0,0,0,0,0,0,0,0,0,0,0,0,0,0,0,0,0,0,0,0,0,0,0,0,0,0,0,0,0,0,0,0,0,0,0,0,0,0,0,0,0,0,0,0,0,0,0,0,0,0,0,0,0,0,0,0,0,0,0,0,0,0,0,0,0,0,0,0,0,0,0,0,0,0,0,0,0,0,0,0,0,0,0,0,0,0,0,0,0,0,0,0,0,0,0,0,0,0,0,0,0,0,0,0,0,0,0,0,0,0,0,0,0,0,0,0,0,0,0,0,0,0,0,0,0,0,0,1
outputCount=1
weightIndex=0,101,63201
weights=##0
##double#63201
   -0.3688372073,-0.0952894757,-0.3177551727,-0.951014581,0.2696422611,-0.7199808842,-0.182804128,1.0257892906,1.0380886419,3.0740347962,-0.5701203185,0.1730357348,0.3650949559,-0.2341180809,0.335641902,0.8361455799,0.8293519263,-0.2721204608,1.1993146399,0.3671446555,-0.3246337394,0.2106902813,0.1887329016,-0.1239757691,0.3057167833,0.6645242502,0.4753905321,-0.0829659287,0.5542920143,-0.8227499161,-0.4678078764,-0.7055518987,0.0903188967,-0.1350384195,0.9527803919,2.5802686595,0.5432266973,0.9355978277,0.2998256626,0.8323271402,0.5025969835,-0.9084185387,-0.3540702885,-0.4683080366,1.1085290892,-0.2741063639,-0.7680244339,-0.567200227,-1.0074555006,-0.7878356368,0.3869615868,-0.0052847504,0.087951281,0.5970752928,-0.428673286,0.6325285114,0.6899515528,-1.0081929446,-0.1761794843,0.6106105725,0.0377650902,0.8922008007,-0.9229444243,0.7433204396,0.4344228181,-0.8900375998,-1.0416452319,-0.5129571246,-0.0949980429,1.1077982286,-0.8290639398,-0.8467442623,0.5731688165,0.728495341,0.7687127903,-0.4291475206,-0.7421636318,-0.9247811468,0.1510575167,-0.6236331728,0.4370033641,0.1137590025,-0.0678436081,0.178423706,-0.1139141213,0.539873749,0.3706523203,0.5807123539,-0.8140398785,-0.8422669394,0.8974596895,0.5388975804,-0.273483587,0.7481907217,-0.3811620891,1.5426330232,1.0007035039,0.0184411535,0.1989277069,0.634324689,-0.2786636319,0.7479064373,-0.2389112817,0.6533051454,0.525126023,-0.1970374531,-0.5755276383,-1.2080660542,-0.5241878912,0.4514864379,0.6613229922,-0.6820736378,-0.7637369588,-0.1052056674,1.0107348905,0.9303243771,-1.3687385705,0.07853335,0.1967428394,-0.9507818899,0.1246797695,-0.4352054308,-0.1525195048,0.5372393304,0.6191970915,-0.5217742281,1.3036824557,0.870098326,-1.274643758,1.0022664316,0.4328854078,-0.7092890607,-0.0910131057,-0.296550828,0.9391260204,0.5032076199,-0.4276342905,0.3294788338,0.5640218654,0.3280446569,0.5837255144,0.697951666,-0.8860965635,-1.0801521469,1.1241945971,-0.2080574082,-0.6388991901,-0.325659503,0.6680267225,0.3145826401,1.290815631,0.8219393394,0.3522740068,-0.3983949811,-0.52500973,0.5187760267,1.1622944479,0.8370168568,-0.6203936506,0.6446176709,0.4611316299,-1.8091588604,-0.4076774351,-0.1128802997,0.3127281399,2.2011856816,-0.5426146855,-1.0013288205,0.5816668441,0.9902143588,-0.5052134236,0.044299326,-0.4971599365,0.0919012815,0.2936571423,-0.5729173397,0.3850337731,0.9239301718,-0.2761053489,0.2051360772,0.8373536674,-1.3129426342,0.9195048493,0.3230391235,0.2574205274,0.3512495559,-0.921434198,0.4255654532,0.8959718448,0.5978692515,0.5144027092,0.0145933271,-0.0532439922,0.4875482546,-0.8145317731,0.0774833118,-0.5263404599,0.4041649092,-0.0083017383,-0.4362451035,0.9880239246,0.0746947866,0.6515711466,-0.2747155843,-0.1755030382,-0.666033438,-0.1765290922,-0.7110233309,0.5685187877,-0.0992318256,0.4150073476,0.2485081981,0.8581298348,0.0398289425,-0.0069764405,0.4328803695,0.1896592011,-0.9633075033,-0.6142706239,0.4870939007,-0.9995245009,0.1558453973,-0.2454579724,-0.5285145813,-0.2261217059,-0.7828013024,-0.7695220426,0.9873513348,-0.1830133145,0.254957642,-0.8144342574,0.6716204753,0.1843167128,0.7546545693,1.268660304,0.2285114119,0.4902467158,0.598592174,-0.4429490332,0.5028267017,0.2010092136,-0.6461601948,0.8475371153,-0.0179709422,-0.250166476,-0.8340088332,0.6353882692,0.6537252514,0.5981476837,-0.3686005026,-0.7753143437,-0.4845684318,-0.8507453453,-0.6548013327,0.9933859409,0.5224487362,0.3922428001,-0.7368372732,-0.131753025,-0.2334068002,-0.056799699,0.4108302897,0.779807094,0.9317762394,0.4687799538,-0.2454604302,-0.1924250571,-0.6206570488,0.2658598878,-0.2737661065,-0.3005011657,0.9106050331,0.9136147891,-0.8514004091,-0.3300235263,-0.1336633819,0.5558127795,-0.6509340669,0.619688992,-0.732651414,-0.7927168297,0.9495221308,0.014849622,0.0047016179,-0.6526814412,-0.8434517982,-0.2317693227,-0.1777718029,-0.6079704837,-0.4215691857,1.0644096431,-0.4204364296,0.8389458273,-0.04036386,-0.1589845782,0.7906975995,-0.4762409357,0.0464164138,0.9430733749,0.4827310544,0.2005955375,0.3938972441,0.4281581527,0.7887579838,0.4878634262,-0.0281547228,-0.1487728928,-1.033309231,-0.908769762,-0.5278287376,0.1797752815,0.8388960017,-0.4421310424,-0.6912377992,0.0681565716,0.4607728081,-0.0199461243,-0.303372701,0.6090572784,0.3983438518,-0.7256986792,-0.4286555764,0.1351472094,0.2339924786,0.8843350047,0.6430689483,-0.2483246529,0.8946841574,0.9996274213,-0.8488744068,-0.7408087213,-0.1844370254,-0.2690871584,0.2748242966,-0.6956204103,0.0736992153,-0.6544336425,0.4670553183,0.89876333,0.364659963,0.8091592343,-0.1633417074,-0.1347537882,0.7074107333,-0.3519085809,-0.0023877692,-0.3526097578,-0.5823697678,-0.162362687,-0.011663371,0.2929921781,0.8615226949,0.8862474875,1.9198240369,1.2079263205,0.3486888756,-0.223579373,-0.8273211309,0.4256672705,-0.4511690856,0.0885486303,-0.0703094423,-0.3537936868,-0.7063200796,4.9000022237,-0.1070190504,0.1579842333,0.6963675401,0.6113049231,0.0193721687,0.3591389501,0.054486581,-0.7188712271,-0.5780545912,-0.407311319,0.6492935611,0.4823979055,-0.679178507,-0.136051582,1.3515578647,-0.9148425903,0.3305394089,-0.6950518592,0.8717417701,-0.928186834,-0.3621444484,0.8987261488,-0.3529814797,0.0684360098,-0.9803328988,-0.4661968536,0.5305083368,-0.1387632678,-0.5336322222,-0.2303230238,-0.904784409,0.7423351249,0.7125772818,0.827917387,0.5635454184,0.2311275565,-0.6331478017,0.1037740561,-0.1692721362,-0.352569756,-0.0425252154,-0.8413532798,-0.1327527254,-0.5278713283,-0.5765904526,-0.2469205936,-0.8461290058,0.1347929843,0.5763715477,-0.1495795201,-0.3754069577,0.5362699186,1.6503255956,-2.3927122489,0.9924432298,-0.7415311664,-0.2776553035,-0.0233972424,0.2819843702,0.6602416723,0.8506748984,-0.9100192251,3.2978763006,0.2114944474,-0.8072415678,5.5367976437,-0.6656378363,0.7120867763,-0.1904488456,-0.7394005335,-0.8101669896,0.2083474578,0.3010012897,-0.3639444969,-0.5565587417,0.9488037267,0.9134530907,-0.0625441973,0.4882642972,0.1630088554,-0.5114931976,-0.5501671456,0.2439523771,0.2366085765,-0.1954196005,0.3231441811,1.7037305844,0.3539552827,-0.0744921907,-0.5469002683,0.3113714382,0.6266146973,-0.8205403041,0.5336488486,0.1676025933,-0.2283469325,0.0230036488,-0.8563102886,1.14811897,-0.0710967539,-0.6100763707,-0.6072620423,0.625366124,-0.7953889982,0.2412266937,1.0044106395,0.8321556214,-0.8119026302,0.7748156683,-0.107830741,0.0812680589,0.9250515644,-0.7948516935,1.0254083018,-0.0209261147,0.1996254422,-0.8000284826,0.0912259914,-0.9479949829,-0.4581239663,-0.6436458519,-0.240053422,0.8520327053,0.9634646206,0.8242242933,1.344624054,-0.9168095867,0.5368518084,1.1216896248,0.9202667491,0.3720126812,-0.4095358203,-0.9450378212,0.8348455835,-0.7995584471,0.6198921238,0.8190385268,-0.9323147018,0.9380131186,0.0727375032,-0.4035455617,-0.7356223493,0.8820636683,0.2588471296,-0.2471428602,0.3699571997,-0.6223961659,-0.8405396387,-0.9278476538,-0.7294460104,0.6827780425,-0.3640546425,0.2909834666,-0.4388608734,-0.5290121162,-0.4247199254,0.1070783277,-0.7324586363,-0.4901364812,-0.926344901,-0.0802049887,-0.1289429563,-0.9399881862,0.6194091026,0.2068935652,-0.8634738178,0.3870459142,-0.26621006,0.9006194249,-0.4433494569,0.2018007799,0.6882307184,-0.6387877903,0.2771972916,0.6521658766,-0.1508004999,0.1133673669,-1.1178969593,-0.0116284952,1.9476863059,-0.5401796214,-0.444403619,-0.7885305714,0.9292902348,-0.5344800554,-0.1471805954,-0.898338467,0.8248243861,-0.6741918549,-0.2437758991,-0.8132755244,-0.731560191,0.3315535751,-0.7391141827,0.0494660858,0.6962239276,-0.3457418418,0.1148991712,-0.331482711,-0.9225727747,-0.4946560774,-0.5881276549,-0.8925719204,-0.8663395313,0.8601315447,-0.8900858981,-1.2190557479,-0.9759563747,0.3778004847,-0.0540646721,-0.0963598512,-0.040616549,0.872692849,-0.1809385667,0.9237503494,0.2442433081,0.0266996506,0.5944453645,-0.0176144998,0.4294725769,0.5864549816,-0.2878385094,-0.8687664136,-0.8930267774,-0.9702511272,-0.0167676491,0.6123695354,-0.4321167437,0.9975950865,0.793021679,-0.7244145932,0.0420605732,-0.2639500701,0.2638730163,-0.476623139,0.5091942182,-0.6133728936,0.1167774998,0.6534294821,0.5876052598,-0.7090356871,-0.5022717332,1.77214919,0.7514687643,-0.079927745,-1.0622530982,0.0799567284,0.297652788,0.1514832602,-0.3458982342,0.791763896,-0.9470557974,0.5115764373,-0.464198676,-0.0472650543,-0.1739301652,-0.719246511,-0.0323480851,-0.6860961343,0.7853042341,0.2206599825,0.1524300321,-0.5570863112,0.3476021299,0.0007488368,0.7421645456,-0.8028880243,-0.2326409862,-0.9475874042,-0.5304462546,0.4891169834,-0.806011918,0.1893917333,0.2222650403,-0.4019995719,0.571837727,0.8683028294,-0.6400383159,-0.5384333055,-0.4276626444,-0.177760689,0.3027095564,0.9188277715,0.9105042674,-0.9019496149,0.5822768594,-0.4645008425,-0.4112025392,0.3714201395,0.4286161052,-0.5884338441,-0.6927015493,0.1680951638,0.9507757445,-0.8607446606,-0.7097642943,0.0641205411,0.94256661,0.6760606502,-0.6965098988,0.273796384,0.8795843079,-0.2246752771,-0.9869045887,-0.7064292755,-0.0339528029,0.7560757275,0.4437448535,-0.963086337,0.8567830946,0.7767458642,0.6824052435,0.0943966092,-0.1848617705,0.3003363746,0.0748580672,0.5286376182,-0.2575995756,-0.8342562151,-0.5385192778,0.1332338401,-0.8272652093,0.9788980073,-0.2590436867,0.043646203,0.4125328591,0.3838643693,0.0735108931,-0.6785894537,-0.3250212587,-0.6106802812,-0.7016286092,-0.0149737558,-0.1886879015,-0.477676751,0.5352599715,-0.7171031532,0.1943624454,-0.6600620901,0.044716421,-0.2571111373,0.5644828103,0.8811409955,0.4121805289,-0.3453136676,0.7384710368,-0.5479667912,0.3820005068,-0.7532739051,0.2417450524,-0.0682020898,-0.1172881035,-0.9092290765,0.4458202254,-0.3914380501,0.4524479079,0.1790090202,-0.0544203906,-0.8304452133,0.092840419,0.1484410043,-0.4009470426,-0.5090047573,0.0679661405,0.5152637685,-0.5109778754,-0.3174826738,-0.4064307588,-0.0742789413,0.5029093463,0.7412935963,-0.1311811031,0.8428117242,-0.326817409,0.2433163814,-0.3246111558,-0.6975842006,0.4880545168,0.483653861,-0.4832088145,-0.8695832267,-0.0557638091,-0.4179689669,-0.6621306788,1.544565434,-1.3438129465,-0.6364105671,1.1244631523,-1.2299080065,-0.0982363645,-0.2718775072,-0.1373775906,-0.5624423981,1.4534445132,-0.4176974693,0.2533590185,-0.0826862151,-0.8194528353,0.9243253911,1.5982106145,0.3107980243,0.943097836,0.75693341,-0.6387876337,-0.5734902177,-0.2280513227,-0.9550812993,0.9369452307,0.1020432242,-0.2754372928,0.9554500462,1.0798485662,-0.2790331798,0.1948752592,0.2720286633,-0.4645231234,0.4625398909,-0.2913055021,0.7317819088,0.8531631197,0.2491295512,-1.3419471523,0.839793281,1.4149345361,-0.8515664946,1.0561513563,1.4815007166,0.1590936452,1.1580433331,-0.2948906358,-0.1459173945,1.4606083021,1.1314993331,-1.4183433515,-1.794163393,-0.7363058096,-0.165629679,-0.3993696669,-0.4564397985,-1.2742760472,2.032704815,0.6060257273,-1.3963135065,1.2413115652,-0.218743579,-1.5874044936,-0.0235570729,-1.9374677642,-0.9090971025,0.1515808773,0.0253260308,-1.0737193405,0.0546867658,0.576519184,-1.4890307601,-0.3412258947,1.0713840857,-1.3776507157,0.5096711385,-0.1327903627,-0.111037295,-0.2845294797,-0.0632174333,-1.2253180586,1.5294307902,0.0262791635,-1.3287657176,0.2650429315,-0.1147493712,-0.231691919,-0.3424208291,-0.0144413394,0.2313708509,-0.0493716294,-0.0428231006,-0.6346357715,-0.1624006009,-0.0566929552,-1.0188729857,0.916148698,-0.1677021339,0.3010401563,0.6772255673,1.011107135,-0.3207494987,-0.0025249435,0.6340979973,-0.3375417458,-0.3864211874,0.8189877861,-1.3700052093,0.1519186801,1.2432675534,0.3894314714,-0.0636723897,0.1392607405,0.3596962286,-0.2600366701,0.018888852,-0.8905669004,0.0106026592,0.3726096205,-0.2859753554,0.9837241217,-0.1229315905,-0.9286473701,0.2223256768,1.1269414957,-1.2308130527,0.2284771304,-2.5388913028,-1.2638059,0.7088922495,-0.0728597537,-1.3216870895,0.6852133171,0.5153864465,-0.3603053808,-0.1981253834,-0.5693021495,-1.0411928372,0.6403658995,0.0703030056,-1.4046962609,1.1085073735,0.0734414039,0.1118183997,0.4006440926,0.0692371651,-0.7553431801,-0.3936332852,1.317221494,-1.5493880365,-0.3424494207,0.0943251317,0.1363193043,1.4739947546,0.4300093792,-0.9448372732,0.4404976627,-0.3584399813,-1.223273419,0.805591316,0.465785809,-0.876443252,0.927660998,0.0578952524,-1.4187055838,0.6937410384,0.9412287533,0.3147868733,1.2661630784,-0.2593554009,0.3221862629,1.3054096897,0.892234983,0.0171498826,0.4071607569,-0.138040163,-0.5813998337,-1.1233901625,0.267276928,-1.0757993079,-0.2811775574,-0.7809374897,-1.4840746851,1.5256535656,-0.0273871631,-0.1845177083,-0.0433793593,0.9690184901,-0.7260279981,-0.095022744,-0.2854776529,-1.0089603077,-0.117152614,-0.4346211283,-0.0341334181,1.0261449228,1.7428890403,0.3167354945,1.1374207224,1.598068989,-0.3308623422,0.7397804158,0.5394491169,-0.966253481,1.0361076818,1.4770509806,-0.9105106993,1.0839527083,0.5545588889,-1.4813406526,1.0886670017,1.1947835418,0.0003681289,0.8522143029,-0.1928854452,-0.6934369094,0.7859099405,1.2293362284,0.0959503925,0.8336407393,1.3441434061,0.0166041929,1.0632271926,0.1272440354,-1.1261944046,1.1570490833,1.3770234886,-0.094552918,0.165397844,1.454671006,-1.4676837403,1.186295585,1.5202753212,-0.6315349479,0.6028107199,0.2875409143,1.0930798362,0.4985768421,-0.136309372,-1.2827481779,-1.4542210199,-0.720930964,0.2670956678,-0.0943032145,0.3864840353,-0.520149988,-0.2856651755,0.9464158384,-1.2989368003,0.1662385193,1.5247547128,0.1589844231,0.0138323027,0.1368825105,-1.5368081502,0.1514134553,0.8369540929,-0.0079116669,-0.3268838316,1.6778706339,0.114911132,-0.5327841261,2.4557146964,0.2717643609,-0.1044177222,-0.58839122,-0.4125377888,0.2915558729,1.7248139243,-0.8040598491,1.268807187,0.0878867783,-0.0966803177,0.449305944,0.1841989992,-0.0855779682,1.052254256,-0.0815029742,0.1196366227,0.8842995428,1.3119571963,0.2212546808,-0.3523243438,1.1300057758,-0.1709034161,0.3413876638,0.6680148799,-1.4024206226,0.7392354337,1.3686641048,-0.774404482,1.3384382681,1.7492101427,-0.0083514008,0.1717916212,1.5138945927,-1.7387166947,-0.2837157981,1.2144022809,0.3870391145,0.7141165641,-1.9940278888,-1.2723586273,-0.8283761541,-1.1703386898,-1.1810223006,0.3533734451,0.0526695948,-1.1895767732,0.0789951241,0.370990826,-0.8482234096,-0.4951770225,0.8336707529,0.3543899381,-0.2873039425,-1.2042694761,-0.5897353523,0.5672299488,0.3118056065,-0.397059419,0.3062717421,0.5842258373,-1.3070468579,0.632029135,-0.1997858291,-1.0878592815,1.0986130788,-1.2415897199,-0.4897774512,0.5343192368,-0.4069431623,0.0722073786,0.1973098868,-0.3274761499,-1.4827276229,0.8637552839,0.6923840428,-0.002134767,1.0617691606,0.1999538727,-1.5008794203,-0.3208007594,-0.0332662768,-0.7441194756,0.3706475317,0.0866309175,-0.4006924348,1.406926025,1.6245453126,-0.6884967973,1.1823902132,1.317817474,-0.4704645479,0.8251159405,-0.2183291842,-0.8703398544,0.2932396044,0.1348615662,-1.5254885818,0.9601043398,0.6559818707,0.833398993,0.3804295742,-0.9374635074,-1.2443066819,-0.3628645411,-1.5748934246,-0.3472478872,0.3741241515,0.2659152013,0.1145255197,0.6361161314,0.8177521222,-0.9997885256,1.0384751606,0.1063647047,-0.2898172724,0.1380628801,0.1710897198,-1.4750059073,1.3476282733,0.1890429192,-0.6663828203,-0.0974295774,0.558658899,-0.2142123363,0.1805353956,-0.372230653,-0.5048060434,-0.1659504431,-0.0633798753,0.3703434715,0.3265102764,0.3767323106,-1.4449294855,1.570901411,-0.3535590177,-0.1084375518,0.7766072657,0.8139988374,-0.2509519381,1.1109205504,-0.2488022086,-1.3040986557,-0.2200711402,0.7414265259,-0.5445364331,0.3504516462,1.0601040962,-1.4218581601,1.1586149188,0.26655908,-0.2699000134,1.1358429791,0.4565791712,-1.4202063198,1.1741698833,0.1226917679,-0.4970626383,-0.0983888632,1.1991473587,-0.3881787591,0.0336550191,-0.0672911316,-1.0644243771,1.7033453011,0.4509801351,-0.2019022812,-0.5313101481,-1.5253361094,-0.9275271204,0.6694907341,0.0462248227,-1.5797642101,-0.0083347619,-0.8236801018,0.0705181513,0.6765136402,0.3077210394,-0.7119849911,0.1042207513,-0.5441181267,-0.2213629286,-0.3165319763,-0.6938293144,-0.5214140796,0.0164139025,1.3161497979,-0.7019620211,0.1703236761,1.764788943,-1.1545333501,-0.1154754799,0.2723603465,0.237262229,-0.0608994099,1.7636625347,-0.7878859742,0.9000271466,1.2292407881,-0.8431479708,1.037740836,1.5795180615,0.3204321261,1.3762845642,-0.0403942979,-0.203526044,0.2919692907,0.3654715761,-1.070436367,-0.1572044301,1.5587295856,-0.2439221728,0.4050981754,1.1191555558,-0.3565264035,0.7127799987,1.1408855253,-0.5471295005,-0.3780188231,0.970074591,-0.971530811,0.728914584,0.59147499,0.1585151204,0.7251333501,1.3087906809,0.1660835205,0.0534538834,0.4666270544,-0.0559832637,0.0619271191,-0.0390687833,-0.6901442566,0.6745989927,-0.3774210858,-0.5041334004,-0.1495173581,0.2431228901,-0.9211877296,1.1022232847,0.2494722586,-0.9811793529,1.0761946087,-1.4445914564,0.3474501256,-0.1396812186,-0.5981708046,-0.5085304592,0.9632027327,-0.1475971544,-0.3666867751,0.8927983353,1.5055139388,-0.6811861433,0.0038734764,-0.5882189288,-1.4549283165,1.0925669569,1.2269708584,0.3801336098,0.1693493451,-0.0016853723,-1.3420631776,0.7601262573,1.2453698599,-1.1154719015,0.9349492063,0.8598180218,-0.1966065249,0.4631232292,0.2953710756,-0.9204051626,0.8619972375,0.1542174214,-0.2867269029,0.6033575692,0.9670914478,-1.583071533,0.0441373592,0.0460387763,-0.2117115191,1.3993743354,0.4487516105,-1.2028518889,0.2114058507,1.3526478729,0.1703844252,-0.1147239809,0.519598944,-1.5920246154,-0.342993048,1.0367031849,-1.3530142468,-0.8174578718,-1.4036701685,-0.8995879312,1.8564892249,-1.4059559101,-0.2835332684,-0.1698933801,-0.6071555999,0.3361475669,1.3605941797,1.0951236165,-0.2090748359,0.326824473,-1.4617932785,-0.6683595282,1.0671182416,0.5825106702,-0.0368184481,0.8082987703,0.3582118778,-0.7285707285,0.6694403383,0.2796504011,0.2964417222,-0.1862286455,0.8158180638,-0.054162772,1.3261543217,0.9766065777,-1.5448877377,-0.3862498417,1.0554476235,-0.0537971152,0.8363612201,0.423372262,-0.4104998827,1.2868547144,0.0480560005,-0.6528684021,0.0740340274,0.2428246417,-0.3010637665,-0.2089464893,0.3810636371,-1.1118546838,0.2184264462,1.0984066223,-0.5292535283,0.5446412059,1.1691439926,-0.4792285541,-0.0429469835,1.0031919695,-0.8166894531,1.4394228657,-0.1028175889,-0.851776164,0.1366247494,0.3992884064,1.1453588221,0.8056252377,0.2253726716,0.245277161,0.2042781687,0.341681015,-0.0114204324,-0.0890273795,0.2929559364,0.9182119179,0.7030086447,-0.2189749964,0.7725954572,-0.5745362036,-0.3296943555,-0.2842522562,-0.4181206663,0.0425127283,-0.1038387939,0.1680525967,1.4295956122,0.6950296326,0.2037750384,1.3159022096,0.6332562318,-0.2071315176,0.822817991,-0.6488008651,-0.2466040386,-0.2860934407,0.0091205389,-0.3767222479,1.9855428739,-0.1516349381,-0.1140270327,1.9431169275,0.40049262,-0.0327539246,1.9775268948,0.6450493656,-1.1414299928,1.6036336885,-0.1078968821,-1.2506958941,0.3571980905,0.6575842578,-0.2903598429,1.0934721507,0.1538058782,-0.6348482787,0.2879351342,-0.0900185117,-1.0986186384,0.3586268742,-0.8223770413,-0.7821235857,1.5869519793,-0.1903132675,-0.0784609178,1.6402979017,-0.6993827357,-0.0795301639,1.1013908746,0.891134189,0.3797804192,1.6311350826,-0.2425237232,0.4916082484,0.58661245,-0.1495055165,-0.5614525938,0.3387059223,-0.5986367192,0.9609347741,1.5908536287,-0.2679285308,0.1600929142,0.1508715231,-0.7059019639,0.8138362079,0.1100416591,-1.2270950333,0.8077766597,-0.532033454,-1.3020639863,0.5100258876,0.4088407747,-1.1272321554,-0.8231349298,-0.1876245608,-0.835223588,0.2664275598,-0.244980829,-0.1224876324,-0.6449132978,0.0012358557,-0.1138067119,0.5949285141,-0.0558879895,-0.4376406713,0.5081491059,0.6325657192,-0.1419120417,0.313069881,-0.2975298969,-0.7339320345,-0.4975764345,-0.975073627,-0.6188865568,-0.63988448,0.6364341808,-0.1776567851,0.8769667596,0.8132761719,0.5795400927,-0.5534693689,0.1776858449,0.834004745,-0.7608142531,0.7919635026,-0.303706879,0.3602553911,0.0842337747,0.4733693322,1.1658205349,-0.9633886914,0.2664353112,0.0990886059,0.6346721257,-0.2401446888,-0.8477948246,-0.0932854984,-0.3414923779,-0.9295032289,0.3096336335,-0.903411699,0.3522797346,-0.2254817664,-0.4289616431,-0.5041351837,0.1155524537,-0.1742474521,0.7980547559,-0.2140233465,0.1518863658,-0.7688826274,0.5564899232,-0.2626941279,-0.8755846795,0.9439473342,-0.7139387287,-0.5502944168,0.4210593515,-0.0758669256,0.3231001236,0.068094151,-1.0845054624,-0.8963293776,-0.7527764248,-0.7239035965,0.2697501264,-0.3661926938,-1.0352469263,-0.8297198219,0.7600848099,0.1592482719,0.0794143182,0.9259163843,-0.410649895,0.9166000582,-0.7938146905,-0.8543720855,-0.8190687698,0.5049040383,0.7901810671,0.3803254951,0.4719199296,-0.3201233728,-0.7797115685,-0.5138201277,-0.8557860048,0.6451504909,-0.2501113878,-0.7208387223,1.1922923129,0.1054104087,-0.5612875404,-0.0071443746,-0.8853059653,0.0184727664,-1.1056122188,2.4656581379,-1.2458696482,-0.2825619989,0.3111640401,0.2027067559,0.3384383826,0.1341721472,0.9008160261,0.341161976,0.3841786017,-0.2739436155,0.6952801616,-0.7255438135,0.0859634154,-0.409992451,-0.8552919736,-1.204340658,-0.2832933604,0.8077013207,0.0492404674,0.0989102383,-0.7198813804,0.5509297755,0.8825138574,0.7235895575,0.1394865315,-0.1072437448,0.5396488366,0.3013766164,0.8475021534,0.7066343783,0.508167785,0.5094286323,0.709664417,0.3160251883,-0.124631748,-0.1649527893,0.7281497018,0.7404582996,0.6216547948,-0.056573938,0.2163646864,0.8440000128,-0.3897193806,-0.2968221461,-0.8048972312,0.0416028953,0.9203171637,-0.7248196765,1.0657654173,0.1064502529,-0.1330161392,0.5565073682,-0.588852342,-0.4620628728,-0.3200648637,0.2898574655,0.0242789727,0.8033940001,-0.1010908651,-0.1588712536,0.2126495854,1.2631552217,0.4547924972,0.0066267583,-0.6498854991,-1.3553224897,0.7836296926,-0.0300208711,-0.0397834202,0.1069544864,0.1800021755,-0.7335255845,0.7633986222,0.9967983608,0.198501709,1.3734388208,0.9364427315,-0.9862309374,0.7914224128,-0.4288901556,-0.2545323309,0.4213541358,0.3309659756,0.1168980002,1.5313824331,0.289163872,-0.2938825891,1.2919062619,0.8750627316,0.2348312782,0.1371773893,-0.4763968491,0.4920108413,-0.7425578062,0.9074775732,-0.3407224118,-0.5710028275,-0.3244129652,-0.9692904505,-0.3582420792,0.9214191127,-0.2730289504,-0.5682941118,0.3207741791,-0.0645464601,0.5057687797,0.9481825732,0.4685806171,0.7830453087,0.8287986756,-0.1059083117,0.1863711653,1.1555896981,-0.7569620323,-0.0943955277,0.5605155549,-0.3450866611,-0.4162506094,-0.6504463786,-0.7468820233,0.5932702589,0.202542751,-0.7069059554,1.2692390915,1.426957268,0.5181892757,-1.9742129353,-0.6605968619,0.1346457372,0.3170541665,1.0167204415,-0.0364707073,0.3739919431,-0.749822907,0.7151237031,0.1340526984,0.7850421276,-0.8758911337,0.8850696363,0.3628812275,0.832736783,-0.2558210987,-0.2562200264,0.475654401,-0.5966907409,-0.1608631038,-0.4474263564,0.5846369848,0.4576001529,0.1829411009,0.194712293,-0.554749601,0.6111740537,-0.0190605229,-0.3666451218,-0.8493540857,0.1819047597,0.5086803025,0.784869786,1.0187752615,0.9999509073,-0.5659897747,0.344111587,-0.6128160724,-0.3449639764,1.4965733208,-0.7368335319,0.9433279556,0.1507009598,0.8932508573,0.4593262854,-0.7057423047,-0.8594299172,0.8034659518,0.7879584658,-0.1241518207,0.2467304068,-0.3399296112,0.397212385,-0.2969185728,-0.6020778441,0.5583980018,-0.2257970142,0.6427413814,-0.0835277951,-0.7883848414,-0.6567708763,0.7000894183,0.7838308765,-0.6868659124,0.882766397,-1.1558815606,0.8106363177,0.7472002248,0.8403146954,-0.3254164424,0.026279423,0.2706666472,1.004380594,-0.9420052728,0.4762512438,1.2423320156,-0.3516177426,-0.2874316557,-0.3678882263,0.678142135,-0.3541077192,1.3901040472,-0.8236257609,-0.0096807701,0.9470343382,-0.8149557773,0.1204924055,0.2154506404,0.2033013496,-0.9942501267,-0.3926902244,-0.3458856725,-0.339267781,0.7722093443,-0.8282705125,-0.5291479668,0.4047669892,0.3335230926,0.0442247989,1.301788075,-0.3010849135,-0.5244822673,0.2974914379,0.1589574897,-0.7632397918,-0.5952846437,-0.2169310057,-0.7741206234,-0.8603658351,1.0042075097,-0.4947757703,-0.350049537,-0.4160087328,-0.4263124059,0.7351325571,-0.4689090379,-0.8289814211,0.0376952102,-0.6109243792,-0.1406293259,0.7789403515,-0.2322974634,0.2972085805,0.7551522097,-0.0405837123,0.7040312933,0.6409428965,-0.638119925,-0.4419906473,-0.4278251969,-0.9568973159,0.3208656615,-0.5037923764,0.407893231,0.2900642888,0.0049227999,-0.9349831658,-0.7361245814,0.0956714257,0.7247525726,-0.1854322322,0.1218461926,-0.3079441391,-0.594689635,0.6409581561,-0.6992329757,0.4240021274,1.3992982843,-0.9225852825,0.0579562304,1.8016619783,0.1592740696,0.1119592599,-0.6443208474,0.4965646973,0.1994855586,-0.7537736675,-0.3715729868,-0.150288089,-0.8684807458,-0.3430187559,0.400358614,-0.2222649998,0.3499081732,0.8988934153,-0.8403963815,-0.1416010775,0.1858460329,-0.9362854249,0.4976709344,-0.6501838435,0.4501337521,0.5555043126,-0.7519248878,-0.1807029953,0.194521398,0.6767271741,0.0008861765,-0.3687938523,-0.2849721386,0.6461811737,1.2199171131,0.6733398657,0.1264918702,0.1576682425,0.735477627,-0.5579462554,-0.4274065352,0.2770096619,1.0749258928,0.6742345266,-1.2041755727,0.6364942207,0.9651055015,0.2962728861,-0.504353116,-0.9345872373,0.1314739747,0.0545434345,-0.0994249307,0.1868972561,-0.7772551869,0.316769179,0.5325096596,-0.4924406719,0.148605026,-0.7513842187,-0.2719302149,0.0542722602,-0.9417039282,-0.3111884257,-0.7930827,-0.6874872366,0.9906845691,-0.3800152422,-0.2502375759,-1.1641650042,-0.8214482589,-0.7861194988,-0.6073146253,0.683142241,-0.5420111353,0.9574143014,-0.7703573331,0.351154338,-0.8249413638,0.5135005472,0.3241930707,-0.4808283387,0.5172879381,-0.7485814403,0.1907428346,-0.3584577549,0.823485579,0.352839312,-0.3733130978,-0.8105868461,-0.306243626,-0.3491813257,-0.4179664562,0.7773254043,-0.3218388479,-0.1913258701,0.1554384708,0.8750404436,-0.1657663581,1.1058671138,-0.3032860617,-0.9317994798,-0.4499551782,-0.6816300466,-0.8292491063,-0.0718469209,0.566540493,-0.4052296011,-1.1683528205,-0.1255289986,0.6672014505,-0.0432435004,-0.7144261177,-0.2091404071,0.0074884375,-0.7111696869,-0.7014546701,-0.502618081,0.6218746744,-0.7508471317,-0.5028489324,-0.2454700354,-0.3248694569,-1.3256892968,0.7286021504,0.7599337951,0.6153397051,-0.434443116,0.2632422549,-0.0175317072,-0.3836851505,-0.6543686208,-0.0044509933,-0.1859747092,-0.8660257315,-0.2793995327,0.8472945197,-0.4695094237,-0.1996890915,-0.4923836019,-0.9280063954,0.1938827476,0.7513731292,-0.5320082087,0.5867085618,0.9376438887,0.2809624457,-0.0439618838,-0.1369806849,0.8159190381,0.5873814547,-0.5496830621,0.1374884125,0.3453155114,0.7047780649,0.377235682,0.4031768265,0.6135516603,-0.2626756185,0.1354718013,0.3905700257,-0.5274239675,0.1180826993,0.0696374458,0.2088659578,-0.0096014385,1.0046682743,0.0297328243,0.5414788485,-0.1433006099,-1.2356610526,0.5468096505,-0.7334221504,-1.1498085661,0.0023469133,-0.5095408051,-0.3584044082,0.8578362841,-0.0162137246,-0.4809032709,0.8993997209,0.2754938257,-0.8549504698,1.1970813469,-0.0361536501,-0.1873762076,0.3070170926,-0.249982307,-0.3708061299,-0.569263782,-0.9825058269,0.6643749273,-0.6377444403,0.7516570521,-1.5415778249,-0.6369358358,0.0108345242,-0.4426687945,0.5040062388,0.9621985278,0.6681214146,0.8641465876,0.8236129109,-0.9129864485,0.6558188565,0.2152755604,-0.7715403229,-0.0774589599,0.1222213384,-0.1128690754,0.0462761765,-0.6538408664,-0.6048661649,1.0443810205,-0.2969480738,0.7925258918,0.3421047542,0.5680476521,-0.8852417276,1.3019706959,-0.5508930585
   -0.5138627519,0.5736866458,0.4163067583,-0.2458786115,-0.0265654078,-0.5857846164,-0.8261743329,1.1587572221,0.8610416392,0.5229090666,0.2556092681,0.1865158708,0.299390982,-0.7543642292,-0.9993144467,0.4308703155,1.511004598,0.3838193571,-0.583291432,1.2027179844,0.2306079143,-0.9257044049,0.7323374198,0.8506653955,-0.7532902455,-0.6219963564,-0.8762202031,0.9183731784,-0.6873636856,-1.0775519849,0.4469740488,0.6374362233,0.0149356634,0.6873530834,-0.2999473394,0.00035509,-0.247788608,0.6477876607,-0.3635049508,-0.2780529353,-0.2609243163,-0.0437317003,-0.6612445844,-0.3377998568,0.6760105181,-0.2918257126,-0.8052670887,-1.0777348627,-0.267333215,0.9078354074,0.1827876607,-0.3182904599,-0.1876833647,-0.4186377174,0.646928024,0.9120194225,-0.0469890848,0.4107747687,-0.6386284554,0.1579402661,0.6382396766,0.2951326891,-0.2544057168,-0.9421360067,0.565689182,-0.8273724671,-0.2577690407,0.723168512,0.0333152715,-0.4744404927,0.7007440376,0.3294467614,0.041318689,-0.1549625361,-0.2666253502,0.7536885927,-0.3342065732,0.3368854386,-0.6030491508,-0.3582030092,-0.4715182911,-0.4196435474,1.0238815152,0.1713181579,0.0439684496,0.7132645676,-0.2992959843,0.2935013877,0.2496269791,-0.3842037722,-0.5667970218,-1.0404228445,0.3176610001,0.9626354582,-0.3553854424,0.314280438,0.6331838207,0.2856123869,0.8802081052,-0.8004816148,0.7095614601,-0.2395822615,-0.8390553456,-0.079988138,-0.3719280158,0.2341435722,0.3562371507,0.9471212555,0.3403000202,0.1299025704,0.739257336,0.4799662386,-0.4760881592,-1.0505615611,0.5745563931,-0.803206287,-0.8234358434,-0.5308621266,-0.7416476883,0.1017315965,1.0025714689,-0.5753761237,-0.5877576874,-0.7176413328,0.250124012,-0.122060018,-0.8535470797,0.0656298919,0.5131805462,0.276024043,0.2458938564,0.3943598658,-0.6767024166,-0.4620919036,-0.9195783809,0.9781413628,1.0215764592,-0.4368713232,-0.1796621458,-0.4661089478,-0.4213675401,0.1828158845,-0.4264844403,0.6681684692,0.9589686158,-0.7416097008,1.9247795465,-0.6751431954,-0.0474761507,1.2222233781,-0.1968739283,-0.9023940644,0.5007579795,-0.3422000901,0.7607067989,0.7452695515,-0.4036267651,0.4552038327,0.7852173238,0.567770408,-0.03769818,0.0769604686,0.7674707645,0.2925489752,0.0833684416,0.1972000397,-0.5474980354,0.4334993228,-0.2150225154,-0.853128333,-0.0962053235,0.1929545042,0.9278813538,-0.7100897817,0.6027118671,-0.9526768787,0.3751490163,0.2578455194,-0.3800041875,0.5507299027,0.4571774131,-0.3226420352,-0.0583340023,-0.0052486433,0.3464189162,0.7862270813,0.9892313249,0.2936224061,-0.1522189245,-0.7242805009,0.2014295001,0.0054785665,0.5563550279,0.6406007568,-0.2247613213,-0.1602594032,-0.7391327942,-0.2913731161,1.526586991,-0.1373494905,-0.6344764747,-0.7199263083,-1.4510413529,-0.8830257313,-0.4373681452,-0.6445278747,-0.2262397448,-0.4612750709,-1.0079633319,2.1560506677,-0.5459952355,0.6911184735,3.2411509782,-0.7128724047,-0.3685341547,0.230062989,-0.0067230135,0.4292957555,0.7768977166,-0.7492945661,0.5413004491,0.5816323704,-0.1222276677,-0.4040550756,4.6897527989,0.1140739157,0.2684701112,0.0433681994,-0.9039500721,0.6105264162,-0.6691118319,-0.2208106061,0.716600686,2.2783437419,0.8268901367,-1.138802374,0.984427875,-0.7471786492,0.7175975604,-0.2544354479,-0.5112389773,0.8050396363,1.278383397,-0.6149172346,-0.2590471435,0.0200058171,0.8397789231,-0.3645243223,0.8914090057,0.0313747168,-0.1583761818,0.9441178437,-0.197227659,0.0779431731,0.7473448709,-0.8075671187,0.657197429,0.7951969173,-0.9281574583,0.7472638446,0.0755836619,0.0934728539,0.2509364879,-1.0246342833,-0.4140530688,-0.6350828802,-0.34314152,-0.4683100414,0.3178060075,0.5395515221,-0.8093866037,-0.9747353206,0.959277149,-0.7597229222,-0.2209349542,1.8950856166,0.3372162211,-0.1329442685,-0.8562991696,-0.9205365249,-0.0204693328,-0.8023345085,0.8510833063,0.2247796351,0.0381182269,-0.8055841971,-0.8498010161,1.7207888808,0.7669163957,0.5281024454,-0.7894272064,0.9218248703,0.6214101147,1.4055242631,-0.4990368775,0.1552178342,1.0036013961,0.5400354615,0.3399697752,0.9584694094,0.6635539119,0.9328116966,1.2017900308,0.3888174001,0.2905643861,-0.6296789693,0.4648089348,-0.8061627081,0.3547765436,0.433777804,-0.1435603431,1.6419715345,0.6089300377,-0.9155724669,0.5554370799,-0.8327303412,0.5814098428,0.5637780058,-0.1692591636,0.4504435668,0.3541529132,-0.3411135647,0.3505525114,0.3148108255,0.2388501759,-0.2421206425,0.3332786283,-0.3828310149,-1.0767869178,-0.4860333786,-0.5301887543,0.0734378138,-0.5959112183,0.4678448704,0.2778846464,1.4004756981,0.6442023139,-0.1679210014,1.2344827017,0.2584466611,-0.3867983105,0.9712607461,-0.5525630164,0.038000693,-0.2546442703,-0.8666869013,-0.8658973138,1.154107974,0.1597251653,0.3809681083,1.738624765,0.9078760591,-0.7191040574,-0.6666283044,-0.2894287984,0.4573460168,0.5603767809,-0.6667119284,-1.1506322009,0.4477587338,-0.292934006,0.7354659314,2.0500114983,0.8856635204,0.8153537414,-0.0734507684,-0.6949595261,-0.5372837675,0.2756939106,-0.8668918891,0.2123902386,-0.2275726538,-0.7684367878,-0.7264152393,0.0621711193,-0.5148436009,-1.0124829642,0.1613666647,0.5542428869,-0.1979452374,-0.9851857979,0.5891709205,0.6784110694,-0.9962992637,-0.1504172001,0.7934815842,0.2271235846,-1.4795878248,0.6079583679,1.2142715806,-0.6024146996,0.2279282384,0.3227272375,-0.3194032032,-1.2488517046,0.8950833051,-0.74003011,-0.2558199207,0.3522850544,-0.6113407725,0.3134611872,0.7407532655,-0.6500399049,0.1727496449,-0.5058851159,0.7972817864,0.1935313873,0.6665719595,-0.7351202184,0.0467465319,0.2041149057,0.44507793,-0.1852498228,1.7972199733,-0.4283962399,-0.2052400941,0.2368483166,-0.4470007727,0.0430017767,0.9547945073,0.0495121658,0.2693407078,1.1404692865,-0.4273786983,-1.0531784027,-0.6810231809,0.9891654705,-0.8208470757,0.5405811802,0.6729069795,-0.0424650332,0.1589705456,-0.0514189599,-0.9811543512,-0.0576522388,-0.3842953909,-0.4160308131,-0.5075913962,1.0399447249,-0.9579417665,0.0515603642,-0.0936478531,-0.243325664,-0.3958578536,-0.3602739092,0.8673975516,-0.223433679,0.8911008287,0.2333636059,-0.3120454383,-1.3232264093,2.3652923168,-0.1810834256,-0.3835032864,0.5128713451,-0.4044545184,-0.539210979,1.1315058187,-0.6530470028,-0.0446671898,0.0387167542,-0.6889892581,0.1558718405,0.4401241151,-0.192140895,0.9373032895,-0.7065509486,0.5072024841,-0.6053056951,-0.7603398276,0.5690029906,-0.5884026867,0.1617404407,-0.0510775689,1.0294469527,0.6641566431,0.5586764802,-0.6531670951,0.3842947216,-0.6348974566,0.5944087519,-0.6045225891,-1.0096468125,-0.6462292002,0.6221869887,-0.6686620894,-0.6189124045,0.6154194503,0.4706194866,-0.1561160152,0.755835063,0.0017240666,-0.8471438579,0.4022083394,-0.6616791473,0.611767164,0.4183575185,0.925735894,-0.1297726611,-0.3064220011,-0.2132227841,-0.3442629805,-0.5164775713,0.0222802141,0.8875869537,0.4352542153,-0.7935543001,0.9630835454,0.3322717445,0.7819831584,0.7887282023,-1.0194678928,0.3167036377,-0.6178149331,-1.0195499991,-0.3511138474,-0.5349308144,0.530148193,-0.1545806918,-0.6054524249,-0.0691246197,-0.8086088542,0.8035514351,0.1100178037,-1.0581272105,0.7028556136,0.1473854227,-0.4554460745,0.4849459282,-0.5342557134,-1.034712305,0.8332385641,0.0789966147,-0.6412629913,-0.5642940468,0.6422471722,0.1479157683,-0.6235533525,0.66663377,0.0724705213,-0.0479941264,-0.8226077709,-0.0930601019,-0.0323989641,0.5657115179,-0.2615809733,-0.2222359599,0.0130776398,-0.9969189233,-0.6566419929,-0.6270407797,0.3278332777,0.2680607097,-0.808842446,-0.0007915654,0.6970813969,-0.0489580848,-0.9309875486,0.9884007207,0.9488715402,-0.428449556,-0.7736023489,-0.9927065845,-0.8505355418,-0.2420171014,-0.6668299721,-0.6980360221,0.5497032343,-0.2887300964,-1.100790209,0.1850812047,-0.82450717,0.4331950812,-0.3633886063,0.1256269336,-1.0775667039,-1.1006307711,-0.8345324081,-1.0610736309,-0.8455584481,-0.3015992012,-0.1186315323,-0.87446701,2.7776724244,-1.0752073126,-0.9537765984,0.0297321554,-0.7753476933,0.1104875106,1.2523629067,-1.3790283918,-0.8609458426,2.8865921617,-1.4365889932,-0.5390072625,0.7256489379,-1.0071045327,-0.7380139439,-0.3560698694,-0.3732093718,0.2599020881,-0.2245172171,-0.1769996551,0.8327484387,1.4693023087,0.1496075862,-0.2255769428,0.7417583113,-1.034402593,0.8944415986,-0.1033114216,0.6035909717,0.194490228,1.1056201657,-0.0916082286,0.3092124157,1.1807548996,-0.1276479841,0.882083734,3.6191486356,-0.2097932636,-0.6135515936,0.2234747062,0.5613687,0.6971744517,0.8524784159,0.1596308506,-0.2263001279,0.3241847975,-0.6231723554,-0.5818600247,1.4417539271,-0.7977973854,0.7942258915,4.1829105933,-0.5951586382,-0.5955754018,5.5377504452,0.5984810813,-0.7251972866,-0.9611880367,0.1278554665,-0.8042994905,0.680279085,-0.5039657355,1.5667577302,0.0180164937,0.4935434388,1.0532023729,0.6519603172,0.8590702928,-0.175844154,-0.2461831749,-0.1109307054,0.2640313365,0.5417954864,-0.8432865158,1.6679859048,0.2605361143,0.1144824501,0.1590952536,-0.6797984781,-0.0750298635,-0.3501890995,-0.3663867122,0.5377418937,-0.1025669289,-0.3995324035,0.1524132098,0.7082971622,0.516073074,-0.5558781014,-0.3550036187,0.5410663912,-0.3830401758,0.5407362283,-0.1818609914,-0.59629752,0.1597908371,0.450148842,0.2609118794,0.1204039914,-0.1458240036,0.3898425096,0.2405034687,0.8814257672,0.399427988,0.5130020011,0.4258817664,-0.1493750726,0.7690680674,-0.372029972,-0.9206185399,0.3893614973,-0.6988673134,-0.6050543749,-0.0468870205,-0.7540361632,0.9495735659,-0.4074649461,0.2720513713,-0.9659997768,0.7147933547,-0.6751534457,0.7821628862,-1.0416326462,-0.9252873885,0.2376924286,1.4798369854,-0.0659513112,0.4749153534,1.3130436037,-0.1294921797,0.3645606809,-0.2395574835,-0.0177110743,-0.3944094562,0.5718426975,-0.4897027935,-0.3244038042,2.602186479,0.371516436,-0.9056601521,0.2100897538,0.4780827451,0.0043285956,0.7299708222,-0.7671319171,-0.6118790561,0.0186440961,0.9059474691,-0.2907519465,0.9407757908,0.9067287202,-0.3907819795,0.8947835138,0.9685757905,-0.2190585145,0.9072037146,-0.1565903449,-0.9418151239,-0.2418717261,-0.1950782152,0.9797052054,-0.0632210083,0.1232886068,-0.2978723099,0.6403522952,0.7854940611,-0.4787283289,0.6393855112,-0.5229845445,-0.5728393037,0.1035848987,-0.8302645193,0.5591636323,0.7882897756,-0.1577305091,0.9770804799,0.5619656717,0.9715992346,-0.7051704462,-0.8819327472,0.0176983229,0.4052739873,-0.3602491823,-0.9664375284,-0.5407919326,0.8671053669,-0.755391407,1.1564560756,-0.7974220495,-0.0856967999,1.9334752235,-0.4018727948,0.3857053435,1.2929651863,0.3626953616,-0.7756873058,0.6588016324,0.7276460901,-0.65542611,0.5000510104,0.6901316266,0.7689189947,-0.8135839371,0.0087494291,-0.7353437504,-0.2425284398,0.4875976189,-0.1068811468,-0.2700162776,0.1597941026,0.7838820106,0.1320073165,1.5696415707,0.8881387328,0.9967140567,-0.979798927,0.4901931367,-0.2529037701,0.2348335068,-0.16859581,-0.5203815873,0.4760596147,-0.8646278865,-0.7786566295,-0.3006365695,-0.7785505307,0.9960248035,0.6948517323,-0.959271864,-0.2647533783,-0.2210114133,-0.867271006,-0.1623205918,-0.4917803979,-0.2881710925,0.066294818,-0.7583119229,0.9426760984,-0.1941118309,0.1149832049,-0.0788403211,0.0417030293,-0.7515934094,1.0058915749,-0.2062383847,-0.1987990843,-2.6388141048,-0.4517327249,-0.5148088057,-0.0717567604,1.5961594878,0.2139284737,-0.2936624729,1.9677855567,-0.7880638279,-0.5828025439,-0.1437416942,-0.4018075913,0.395694118,0.5907214387,-0.9817585753,-0.3194539395,-0.1571290217,-0.2094755634,0.4779839932,-0.723078606,0.4199586946,-0.0311675384,0.5370344169,0.5239673154,0.511159946,0.8120332085,-0.2539731043,-0.6696665528,0.0647821555,-0.7366965927,-0.3534952483,-0.0953482427,0.0066069939,-0.1322675446,-0.1097970363,-0.9321890063,0.9975517094,-0.9489997694,0.2943916634,0.6689810669,0.1431194188,1.0881072166,0.7015807789,0.6970693619,0.8888373216,0.2335389657,-0.6246969898,0.5050539083,0.5518575033,0.5855231493,-0.9172731926,0.5200605941,0.2809213576,-0.6814513298,-0.0706332288,-0.464389197,0.5754839348,0.6477481941,0.3214190536,0.945785068,-0.6945892875,-0.2207384557,-0.0293666697,0.1206454053,-2.0241401318,1.9078274617,-0.9645992883,1.8469201263,0.4207161372,0.9077476918,1.3101073594,-0.1002549243,0.0751572166,0.537214033,-2.1609292414,-0.1937344198,-0.7806035351,-0.1670769472,-0.0425441298,0.6923207809,-0.2520801161,-0.8455751193,-0.3078237512,-0.8602604163,-0.8604225385,0.3095163211,-0.4318069205,0.6892557254,-0.656023361,-1.2052137776,0.730647765,-0.8933792201,0.5164277731,0.5115435056,-0.2044787417,-0.1464913449,0.6948750092,-0.7435418063,-0.9251157465,-0.138703119,-0.2411986022,0.9444421222,-0.7961527643,-0.1480765901,0.3871472715,0.0222593346,0.5963220755,0.1132641577,-0.0787588661,-0.9033278696,0.2758107182,-0.3186914685,0.8852455295,0.3641960935,0.2001902202,0.5423071043,0.5668036106,0.3887489653,-0.531775444,-0.733408369,0.7520102114,0.5626601133,-0.3670151724,0.403954474,0.75581482,0.942018345,-1.4199709136,-1.802591188,-0.4122837562,-0.2951003387,1.0847518717,-0.3728778378,0.7528408209,0.2013405556,-0.5503558421,-0.9961238901,-0.5936626164,-2.2928018598,-0.9030108122,-0.2160311186,0.0994497308,0.1023916598,-0.2166183799,-0.6579513778,-0.3443269103,-0.0016130693,-0.0529634061,0.4773734526,-0.8206163369,-1.1603645304,-0.4147076353,0.2571321783,-0.422133101,-0.2203049665,-0.5130907926,-0.0631132503,0.5452212387,0.9493900356,-0.1605899986,0.8854250073,0.3373938168,-0.4159622602,-0.7235830066,-0.2635316617,-0.6353933385,-0.2068358902,0.6491725747,1.3894324546,-0.439476704,-0.1106764025,-0.0612862403,0.3716589917,-0.0055193221,0.4834613857,0.4504414561,-0.4277835778,-0.6436419858,0.0082878592,-0.8776033924,0.1563749834,0.1605088841,-0.0404122064,-0.1248265749,0.0478541129,0.2980845852,0.3894139391,-0.0054746303,0.958377264,0.5442608462,1.068023968,-0.2222847238,-0.4565850733,-0.5155061558,1.2610399716,-0.0235292604,0.6154945603,1.2504797162,0.0121396175,0.2861639919,-0.723636746,0.3797413581,0.5089539104,-0.3959012064,-0.9286044782,0.4560994233,0.8993974097,-0.0353977957,0.6355299594,-0.2598330149,0.2992937573,-0.2058777032,0.5481057971,-0.5199360363,0.6190976406,0.2869929689,-0.0619426014,0.1185003422,-0.1613328786,0.0246848819,0.3397495101,0.3142413729,1.1899598001,0.7203616554,-0.7236976245,0.8347265155,0.5697034037,-0.42761656,0.6817575431,-0.674414628,-0.8109834098,0.5710426731,0.2310676469,0.2699240957,-0.2429823077,-0.08983238,0.3986989383,0.7612624489,0.5576647034,-0.1066629216,0.8974182046,0.3759362623,0.7889392936,0.3870326026,0.8140496555,-0.2536007775,0.8086822522,0.7641019876,-0.511729144,-0.5405656209,-0.2656743048,0.0317918109,-0.5527557188,-0.2524129983,-0.9382285723,-0.8926789151,-0.4258109815,-0.2380507252,0.4515122754,-0.5859726336,-0.8269656754,0.1036072663,-0.6227773414,0.7157696679,0.8048938857,0.8440766039,-0.5561336892,0.146494521,0.8052849256,-0.8841602967,1.1792151852,-0.4549680564,-0.9466740216,0.0367125943,-0.553625888,0.7398802704,-0.2422634022,-0.6621280348,0.6884497874,-0.3528486237,-0.0355364834,-0.4260661029,1.2157920579,0.2816930633,1.0285417682,-0.4651101721,-0.733291773,-0.9453884367,0.1695346949,-0.3445845513,-0.7408655875,-0.268492039,0.6086425975,-0.9069545434,1.1039754882,0.9519907534,-0.6161091389,0.711670338,0.6435200459,0.4560073701,0.1840697309,0.9865967907,-0.9629472675,-0.1695545303,-0.8750668267,-0.2025459254,0.9231164334,0.2723163633,0.5746237068,0.942756366,0.3294401873,-0.6360770274,-0.9345897371,-0.3293458826,0.3332885512,0.1186706494,1.2868083897,-1.6928154164,-0.3210028642,-0.491322943,1.198657628,0.7858414655,-0.0096873285,-0.6390956864,1.1926016288,-0.3241761876,-0.7882846783,0.8318874094,0.1440250724,-0.8152108899,0.5832523164,-0.1485620528,0.6069716961,2.6166258661,0.3990984212,0.7482478415,0.244195931,-0.9232723228,-0.2896504555,1.1697240849,0.0734754731,-0.323627363,-0.7150508711,-0.5940039761,0.7122351733,1.9093435607,0.9370277226,-0.5332564688,-0.1453333433,-0.4855791356,0.1681534274,-0.5105948918,0.387096957,0.4465298013,0.184030231,-0.6531303076,-0.5705275187,0.6615646927,0.1906580549,-0.7349891845,0.6545952283,-0.3988154788,-0.2257930994,0.7887258907,-0.5444266654,0.9200633105,0.6046383912,-0.034782778,0.5927825384,0.2567522714,0.3104938843,0.7127474799,0.1427166678,-0.3022451584,0.1476274392,0.9225878162,0.863178228,0.5012811432,0.361655252,-0.4241617533,-0.2496176916,-0.1726306034,0.7564760856,-0.7338103366,-0.3087996981,-0.7745044071,-1.6390631391,-0.0111720692,0.1697131923,0.0188550092,0.957937266,-0.2470760285,-0.4370985236,-0.4531910418,-0.3525698414,-3.8944973619,1.0172584048,0.9040878089,-1.2171943604,-0.4773306954,-0.5044806867,0.6366488057,0.0014746868,0.1126447829,-0.6285826857,0.4799137463,-0.3623297667,-0.7470202438,0.9473344618,-0.7148017723,-0.8239076425,0.169312154,-0.6326752554,-1.5473193451,0.2179568595,-0.2589606862,0.6003875691,0.3522460255,-0.1657423307,-0.704229452,2.1083505282,0.2056602041,-4.276045937,1.1917501712,0.5696786482,-2.7345605816,0.2349809407,-0.7007806113,-1.1818888108,-0.4732904327,0.4156187547,-0.2355914581,2.1300156875,-0.3834640315,-2.3151274535,1.1041302486,0.8198279021,-3.7403352749,0.4571400259,-0.524227862,-3.5840715147,0.5930618411,-0.8352060493,-0.669522416,1.0989691188,0.1711991054,-0.0198193835,-1.0645937258,0.0213880046,-0.9472376069,1.1770897196,0.4809540812,-0.7337254507,0.9495609755,-0.7873144924,-1.0644355807,0.1534833382,-0.3082709055,0.3505399685,-0.0148508176,-4.888629751,-0.7576532472,-0.305303552,-0.955946661,0.6196207197,-0.6010150313,-0.2302489561,0.0131865008,1.0005772793,-0.5231105613,-0.0202098051,-0.3869376743,-0.0017562125,0.7687379654,-0.439049471,-0.100400625,-0.7279723488,-0.6975347002,-0.2668716375,0.2121071169,-0.8785204332,-0.877700191,-0.467796451,-0.2933429537,0.1209847926,0.1649437637,-0.8246871894,0.2427216956,0.4270085349,0.8954481695,0.9630987699,0.7313209998,-0.6750085217,0.1208862517,0.0658453744,0.2980816878,-0.9832006476,0.727835861,-0.8874865557,-0.7844640226,0.1479306554,0.9476173302,0.6515996984,0.083748819,0.3809767936,-0.2530811324,-0.9498504044,-1.1033297351,0.6032433201,0.3618222104,0.4715150445,0.4680767009,-0.2052489094,-0.4733063747,0.4769607948,0.1503731596,-0.4792537986,0.4112786221,0.8731919118,0.7731572574,0.8107081072,0.4929015043,0.1065293598,-5.4857259774,-1.0314778916,-0.204621243,-0.0480456168,-0.8741523027,-0.6771341804,-0.2369789026,-0.1304497697,-0.5976022816,0.4597372098,0.308188067,0.1103994046,-0.2928900818,0.2931300782,-0.2533199524,-0.4007845886,-0.1679917931,1.0086908234,0.0126939602,-0.2110850258,-0.1639727065,-0.6178303668,0.1922646973,1.0473770579,-0.0157387398,-0.5502170786,-0.117529052,0.2386579617,0.1021837582,0.9202137206,0.3655032996,0.0697997128,0.4273388661,0.2710133274,0.0724629775,0.9949416933,-0.2952667469,0.0947147679,0.052417451,-0.8062617914,-0.5363268644,-0.4230344576,-0.7299111085,0.5411831531,-0.504897901,0.0119457845,2.1924069459,0.4223515989,-1.0266326311,-0.4772279581,-0.1153373725,0.2427113131,-0.4536787099,0.6405537944,-0.4539490225,0.4107370654,-0.6106161652,-0.4910180462,-0.8332949409,0.0118723484,0.0046711416,0.4010973584,-0.0381281711,-0.43679461,-0.1587085979,0.3254351155,-0.3992596958,0.5716763584,0.5172987307,-0.1670827031,0.712965885,0.827851991,-0.6309063493,-0.2155229752,0.5837013826,0.7470589923,-0.4156983062,-0.60094464,0.0523066707,-0.6430499913,0.5141653974,-0.3403289562,0.0447409968,-0.8211862147,0.3600670576,0.7841953719,0.5145652985,0.7282867275,-0.0985244924,0.7830628508,-0.9066348704,-0.750935653,-0.770414548,0.6392751749,-0.416516665,0.0924632209,-0.1742341743,0.300858949,0.0447419184,-0.8165480508,0.6158033571,0.6561820439,0.7419021031,-0.5468084987,0.4687127887,-0.1821102507,-0.370529681,0.0261429105,1.0869653988,2.0473082994,0.4293781417,-0.4058398277,-0.5723825193,-0.7053582245,1.1105184313,-0.3803085184,0.0317155835,1.3043137046,-0.4458466373,0.560323425,0.1241316788,0.4819651645,-0.7999594296,-0.4285891664,-0.9736477582,-0.4492276016,-0.7247929334,0.5358686244,-0.1345307312,1.09637916,0.4480061244,-0.5012501039,0.8005906186,0.9165897158,1.0284942481,-0.6363119784,0.1273538191,0.8552319452,0.6521759796,-0.3084030563,0.2369967154,0.240279305,-0.5026396053,0.0085298283,-0.5069590443,0.58338959,-0.3702086037,-0.2200701989,-0.9983243616,0.7140993492,-0.455246299,0.4037990735,-0.7201041672,-0.171607134,-1.065601948,-0.5059077142,0.8372670686,-0.4157606136,0.8429254673,-0.2284273879,-0.200450912,0.4056410438,0.1349556668,-0.9577776535,0.6301960663,-0.2604879394,0.7735848718,0.4432875538,-0.1287707436,0.2828715489,0.8592936032,-0.4672550415,0.3202299906,1.0229696774,-1.87352876,0.8962423135,-2.0554763363,0.4775118061,0.6895289785,-0.7522250456,-0.0066132069,0.0978569171,0.216549446,1.1283873307,-0.3928133245,-0.6724257705,1.0866733265,-0.9741939233,-0.4879217048,-0.4651793459,0.1425756756,-0.0278284621,-0.3512546234,0.1470733331,0.4964960587,0.0320558392,0.8420671472,0.3975555809,0.9582985516,0.2027685959,0.9012968022,0.2571916626,-0.0910646106,0.3597789608,0.3886270057,0.8765874981,0.7749951707,0.4984641372,0.5831327758,0.1240852173,-0.1939933124,-0.0498441797,0.4632218267,-0.607487385,0.0855134921,-0.4434679391,-0.3800008327,-0.1004203618,0.8905958647,-0.2905108606,-0.9270031562,-0.4374531328,0.4877593341,0.8285408892,-0.0143536953,-0.179424312,-0.490991463,-0.8310094159,0.3855811422,-0.3203667461,0.39699408,0.311359116,0.0794252483,-0.8108471306,0.9830844574,0.8139165964,-0.7623981975,0.9995089846,-0.2835586929,-1.4807990195,0.8517714139,-0.0157384903,0.9466261541,0.8830280378,-0.8617958192,0.0481349556,0.8877336846,-1.0446094786,0.0772000179,-0.0834953818,-0.311491158,0.6917110238,-0.121538813,-0.4009289055,0.7033656433,0.1644682931,0.3253903604,0.7531601365,0.070619503,-0.5980396312,-0.6141507038,0.9337881648,0.5687333412,0.8987760511,-0.6946446333,-0.4601625011,0.5837196379,-0.5837539029,-0.9600283763,-0.8008407547,0.9969462684,0.414343605,0.8642813256,0.0689496827,0.3419311798,-0.0827484951,0.2675837852,0.4876113601,-0.5746907796,0.3874245796,0.8925880939,-0.2397872287,0.6913401486,0.3104047298,-0.9061405602,-0.7624715742,0.3470395086,-0.1340034055,0.6457254946,0.7960543763,-0.361171346,0.9411501981,-0.8127999292,-0.1064521602,-0.6166995541,-0.5666671126,0.6891246193,-0.2137990157,-1.0383958957,0.4721444405,0.3749621056,-0.5054409227,0.2180951689,0.0382576903,0.3955482057,-0.4740459203,0.4194282743,-0.4806135973,-0.3964944074,0.0524153887,0.8274252741,1.0333589535,0.7679802938,-1.0820783515,0.9382578344,0.7587415661,-0.6498949001,-0.1021971364,0.2417663447,-0.9830159053,0.016946318,-0.3970643164,-0.9152782883,0.6356803334,-0.3533766599,-0.4268484363,-0.7992059583,-0.1549374992,-0.1038120542,-0.4807181199,0.5750186192,-0.9281489658,0.3281559241,0.759834358,-0.5865002058,0.3724179255,-0.5530688904,0.2063818906,-0.894963277,0.1471094819,-0.6646369581,-0.3350306161,-0.8570212022,0.4876061168,-0.858581286,0.6215591122,-0.4875635991,0.461892196,0.5715768315,0.2295119376,-0.0674701045,0.6165008136,-0.3419183927,-0.6552686849,-0.009291525,-1.0159517939,0.2821987071,0.1149644967,0.3327633212,-0.4160853455,0.5240452598,-0.4922368918,1.8122306395,1.7369257554,0.3533194961,-1.1778590083,-0.1632518963,-0.6934077205,-0.1187288732,0.9798224342,0.1171687792,-0.1525592013,0.1901685029,0.5993345845,0.8535162987,0.5341338374,0.1257964187,-0.8277571084,0.6906384568,-0.4636460453,-0.0388634285,0.0445132598,-0.3586129434,0.7907130623,0.1431868546,0.3467393971,-0.1760563857,-0.3322629824,0.7932705014,1.0101136039,-1.2679586752,0.6011794398,-0.2053974315,-0.2351878128,-0.5733476229,0.2150659678,0.2350452199,0.4360596235,-0.7634811494,-0.7807609328,-0.8761549982,1.0341658318,-0.2689521118,-0.6219535688,-0.2062457425,-0.4232479038,0.8888251531,0.0447712386,1.0579790238,0.8579820898,0.0462046558,0.8083303783,0.064325631,-0.4777726887,-0.5604363943,-0.9290607412,-0.2441035507,-0.873212753,0.5710806491,0.977779609,-0.3827722867,0.1846518101,0.0701394057,0.3237273801,0.9109899608,-0.9031971218,0.9270101042,0.6379064837,1.0518297007,0.1719949468,-0.3934426685,0.3701830259,-0.5217582697,-0.2156569376,-0.6047324164,0.704336078,-0.4707720975,0.9311129795,-0.3141492299,-0.0279133739,-0.2142373594,-2.2490217098,-0.8758300689,0.5621498736,-0.2855346816,-0.667982743,1.0652056177,-0.3150280092,-0.0045568548,0.5908306704,0.6669056307,-0.3560879735,0.4958602956,0.4083825506,-0.7183788656,0.2396018314,-0.2570977864,0.2855391641,0.132019727,0.1858597514,0.7238856767,0.372198599,-0.129849971,-0.535166337,0.840511613,-0.7292043432,-0.4723967021,-0.5091907874,-0.661811339,-0.9542361056,0.7330625316,0.2541486616,0.0994463451,-0.6119425752,-0.4534143208,0.6901376238,-0.4189552443,-0.5812013599,-0.0729611865,0.2818241683,0.0131860388,0.1843270991,0.2443517954,0.8275341213,-0.4512774755,0.3162763124,0.5359707211,-0.1502263048,0.3698211561,-0.3044925613,-0.2862603943,-0.877583814,0.3619721611,0.2373952562,-0.7720298816,-0.1826488131,0.1770310973,-0.8467839929,-0.32843474,0.5337083177,0.6127098712,0.6831198903,-0.3130975001,-0.3663354529,1.125406695,0.582174202,0.1165546071,1.2634808447,0.6493612077,-0.644835907,0.1827498791,0.797088606,0.7142421508,1.1516854363,-0.1186974954,-0.1179615317,0.3935932662,0.8328130121,-0.5319216161,0.0700919115,0.3085296288,0.285697469,-0.1160980964,-0.6166700101,0.1852089097,0.2594344089,0.5255705744,-0.5990792864,-0.3342801942,0.6909265151,-0.0324555589,-0.166255389,-0.0992266705,-0.3098140052,-0.1987261957,0.439896294,0.2635524594,-0.4238299103,0.4620346931,0.7825732211,1.3808301319,0.0965259888,0.0338401786,-0.4807832015,0.6806503182,-0.344241108,-0.3380008851,0.0816029785,0.7382612315,1.081165226,-0.0084437291,1.2737564652,1.967896048,0.2233245336,0.6897492729,0.4036128415,0.0208968301,-0.4972843139,0.8936947207,-0.7475157286,-0.7535261165,-0.327134888,-0.4884130684,0.3540380781,0.2643282955,0.29563057,-0.1863819674,0.2062120196,-0.3951720568,0.5552307256,0.1482669739,-1.852889543,0.3054270576,-0.7612177152,0.3313736723,0.1599516001,-0.8247863426,0.3393997548,0.4760632893,0.2972873776,-1.1677512425,-0.9807942277,0.0510128023,-0.8589354162,-1.0014716087,0.7080667016,-1.0729565657,-0.2050790054,0.0268872804,0.7255880185,-0.8416542822,-0.711926293,0.6120600889,-0.0517176367,-0.8316059642,0.3134359231,-0.5304346965,0.957386828,-0.5296463649,0.8254853935,-0.7347382725,0.6014399088,0.8275278739,0.8214628399,-0.2733492318,-0.0818732602,-0.8564860512,-0.4598877661,0.098660951,0.7926959879,0.693894522,-0.6720826699,0.915639638,0.5293061935,0.5304321377,0.6186458306,-0.9383479137,0.8317360016,0.718905721,-0.0455801401,0.569989105,0.8009105769,-0.8262436051,-0.8093122065,0.1391456458,-0.7953989659,0.4117130286,-0.3449829225,0.6491967893,0.496844243,-0.5270611674,-0.8708263818,-0.6269929228,0.8821521368,-0.6633566714,-0.1864914115,0.3815891934,0.3866802393,-0.6284835204,0.0662576495,0.1237538236,0.2418346949,-0.0558364708,-1.0244631404,-0.9330516756,-0.6463959691,0.2068821883,-0.648614653,-0.9792923844,0.1550642789,-0.1586498081,0.672675982,-0.6071601875,0.2480171634,0.4381757054,-0.9964900254,-0.140643925,-0.3380385736,0.4467368395,-0.5768663562,-0.6656859227,-0.7464856366,0.4610988907,-0.54799942,0.2397525949,0.1264862235,-0.6404732174,-0.8325769194,0.4884927725,0.7174549558,0.0274064656,0.0281588589,0.9483026993,0.2042180081,0.9201142343,0.7869426747,-0.4353412183,0.8914932795,2.3308213579,-1.2355676866,-0.2601222183,-1.1328417766,1.1922624389,0.6527713857,-0.1918490331,0.5547370695,-0.2447125805,0.8276940427,0.4528010158,1.0481562666,-0.8647246306,-0.4788140757,0.960280626,-0.7915183226,-1.0786572487,-0.9599335545,-0.0322570481
   0.6495728247,-0.2993134041,-0.4654094231,-0.4772970141,0.6639931054,-0.5403297657,0.4432424387,0.3551208726,0.3446681817,0.2228296067,0.5828647279,-0.9123289576,0.630847659,0.4195734439,-0.7287939417,0.7239135298,-0.379963757,-0.416306435,0.0366804393,0.3640350751,-0.5455250165,-0.7806577065,0.5943564687,-0.6710276054,0.0889756099,-0.0447230835,-0.4407386583,-0.310790402,0.4676852403,0.6960354901,0.7983077033,-0.9453073378,-0.3905619071,-1.085245779,0.9402126342,-0.3877030366,-0.9032264064,0.2622738598,0.6290921037,0.1670517274,-0.9600609334,-0.7421852898,-0.5949326868,1.4975996394,0.4889033668,-0.4255830228,-0.7707842126,-1.5260396715,-0.6622982874,0.8975801994,-1.2099658074,0.9423420119,-0.5128097745,-0.1058604905,1.6281744609,-0.3873485146,-0.2384750146,3.1290628616,0.0252792605,-0.3103969211,-0.1872129469,-0.3459775864,-0.3254960391,1.3230138397,-0.7011960266,0.8147042333,0.4399066629,-0.7191215154,-0.9207095563,0.8878302227,-0.9340277902,0.0336547196,1.3191562576,-0.5782994235,-0.5858145321,-0.2471169851,-0.5361689101,0.9523765953,-0.0675263958,0.915630161,-0.3892734462,1.4181387599,0.0521787026,-0.8832226232,0.053868426,-0.3202922714,-0.6464615138,0.9126096478,0.642079616,0.6538106775,0.5642251592,-0.6517804205,0.5483257662,1.1190376396,-0.2278960793,-0.143034099,0.3571526081,-0.5591651071,-0.8490296713,0.9994305575,0.3095753432,-0.9635090363,0.6462428078,-0.9035142148,-0.9825416627,0.796216286,1.148819639,1.1565966297,-2.2741264975,-0.5461492466,0.2234875243,-0.1014931324,0.9763289993,0.3326405393,0.8361838325,-0.5823266838,-0.8291762112,1.8207441366,-0.2813551179,-0.6128819011,1.2565223612,-0.7194894543,-0.7222054834,0.7915175343,0.50727938,0.8143487124,0.5904246689,-0.4909733026,-0.9179293405,0.5760212931,0.3138228281,0.529982067,0.3666160961,0.1045494055,-0.8981527672,0.8027969191,0.3933687822,-0.4466054255,-0.1557476776,0.6531422276,0.4614156553,-0.1734104072,0.6580965035,-0.0896315025,0.7210746083,-1.0018645373,0.4270086532,0.6778835683,-0.7122370702,-0.1167921747,0.414177231,0.4307829325,-1.02460078,0.8404459336,0.0654413009,0.9383739769,1.0068088573,-0.3473343831,-0.8626844806,-0.4979255964,-0.796986315,-0.921259638,-0.1025887011,-0.61086292,-0.6718553109,-0.0029688041,0.9664845867,0.4230509248,1.3206691855,1.6035532552,-0.0828362652,0.4559444655,0.6123990848,-1.4344020275,0.7290320399,-0.5899721014,1.0726194919,-0.0145595136,0.6720815515,0.1036874271,0.5010728606,-0.7428804494,-0.1692341317,1.3222497677,0.5331293015,-0.9165589963,0.7836686205,0.0696679824,-0.939500186,1.011527611,0.3684565545,-0.4430997299,0.8425421342,-0.1149091649,-0.640899922,1.4917621402,0.409991954,0.4497189263,1.2353655076,-0.3770201576,-0.7276705553,-0.0139738921,0.3883311727,0.9170685918,1.0045346829,-0.4729969199,-0.3249232071,1.2102343006,-0.0437448832,0.5810189268,0.1779949187,-0.3585908224,0.6289756565,-0.2155930347,-0.4745692897,-0.4276226164,0.5638087588,-0.8238381647,-0.1986016585,0.8251022729,-1.0688083213,0.8028886235,1.0426513354,-0.295976002,0.5601808509,0.0648924717,-0.0435122629,-0.5037500093,0.1732467544,-0.9146883413,0.7327426008,1.2217370964,-1.8281830018,-0.8322719881,0.9565918585,-0.1184618958,-1.6311460373,0.3730732078,1.0386608807,1.0693794571,0.9106760582,-0.6086410756,-0.2566691265,0.3698569907,0.1274253466,0.1517100127,0.5318342757,0.7401836577,0.1077523576,0.1726952317,-0.0323425322,-0.8111767359,0.400474931,-0.0819015897,-0.9112028111,0.7416173373,0.7581832037,-0.6097090833,1.1546667574,-0.9716061616,-0.5694106522,0.9375192895,-0.5026674678,-0.0585825322,0.1257547179,0.5229500746,0.320295091,0.3553686669,-0.1769211147,-0.1008537365,-0.2018959296,0.4481396978,-0.7121158162,0.3049264935,-1.0101664132,0.0535545176,0.6296163543,0.863442799,-0.108366915,-0.7177868278,0.6851617294,-0.370607528,1.1117154126,-0.265907348,0.0949658507,-0.5563941076,-0.5720867086,-0.7624300523,-0.3736210714,-0.6356372813,0.6567002514,0.4710675345,0.6802502422,0.4462686531,-0.7123915515,0.1467848438,0.9726399792,-0.0003724434,-0.8691696938,-0.3101130217,0.9774175053,0.9926441922,0.0507159425,0.5392823727,0.2392962945,0.7388242727,0.6392455374,0.6803744073,-0.4104629356,0.3622317493,-0.3492411318,0.6001763933,0.6209441427,0.4525328586,-0.4530339262,-0.0950733104,-1.0124573631,-0.3150790558,0.8647678801,-0.152135243,-0.14236008,0.782990941,0.615792805,0.3693730507,0.1959190063,-0.3752879349,0.6764935783,0.644803492,0.2585275489,0.0479611495,0.1877841442,-0.2691416865,0.513553928,0.4339070328,0.7858055995,0.420239038,0.0564065374,-0.8173822434,-0.4936720467,0.4031377997,0.5633812575,0.5558309335,0.9529931034,0.9316208709,-0.4104397,-0.0192484002,-0.4084404408,0.9321979658,-0.1224235111,-0.4680087584,-0.3419050572,0.0734158224,-0.9942019554,-0.2661643249,0.6830024726,0.5760005496,0.327308184,-0.9216189897,-1.132635615,0.3301564498,-0.1619888374,1.0566886315,-0.8220451277,0.6989609302,-0.8812458733,1.1454141336,-0.8200144484,-0.8196435634,0.9477174216,-0.7079541625,-0.0753040528,-0.2812347261,0.5511103056,0.5290922483,-0.8482973552,-0.101409645,-0.1143741043,0.611921239,-0.7050995576,0.7147314792,-1.0127030389,0.0140550732,0.3896086141,-0.1791457214,0.2041610219,0.8622711978,0.1595302178,-0.7030815482,0.7874066326,-0.5565825979,-0.9091549097,0.8255854139,0.0784554495,-0.1776210127,-0.1368502177,-0.480951647,0.8347471578,0.7006498246,-0.402181688,-0.727862559,-0.0786130443,0.1452133799,-0.9739643237,-0.2038256529,-0.593295549,0.5074384572,0.074404463,0.9888161076,0.8524440162,0.4542106628,-0.5548015047,0.7136402928,0.254151747,0.1523416355,-0.8176584877,0.6947051434,-0.2953809813,0.8837635078,0.8990747092,-0.9360872274,0.0888194856,-0.574288965,-0.2341587225,-0.9029668822,0.7726315253,1.2515509093,-0.8822272235,0.4107443132,1.8672502233,-0.596697987,-0.5263325697,0.552447138,0.6022071891,0.4483660805,0.1725912955,0.9099361056,-0.3977428622,5.277279948,-0.5578999221,0.6980954159,0.6604221278,-1.2923010667,-0.5671143582,0.5392999017,0.3371870552,-0.8213107023,0.3808235251,-1.3303666759,-0.7336673965,5.0817521503,-0.4540284395,0.4484838276,1.2060160115,-0.5731268277,0.7245590289,1.0939417279,0.2223845879,-0.9287500713,-0.4735405737,-1.1601562897,-0.3419756752,2.2116904665,0.5359618321,-0.0420197902,5.0241765541,-0.1352122651,0.3096498335,0.2251652045,-0.7119769198,-0.1980386285,-0.0084440145,-0.7275012662,-0.2036931731,-0.4384134323,-0.9418806169,0.3788928893,3.7534836751,-1.0421396267,0.7476575079,3.8911082435,-0.3949764774,0.7880965455,5.7095939393,-0.3594698629,-0.451627564,1.0615413568,-1.5874710323,-0.1954517514,0.3091915437,0.0924311219,0.0486003814,0.4807891736,-1.2834288762,0.9600759394,0.5453822211,-0.9140460527,0.5073480186,0.3031186585,-0.0696163386,-0.3225318802,-0.3062197026,0.6471848727,3.3166451878,0.6408575638,0.0022676457,0.5138969068,-0.2490085131,-0.6449406105,-0.7628939488,-0.8422903561,0.6244007015,-0.7057460035,0.2264160563,0.8180847628,-0.1801776482,0.7036049734,-0.8228478083,0.2153412126,0.3498841182,0.1156388204,0.3326148348,0.3224485128,-0.140328766,0.2652969076,-0.6574563844,-0.1373458954,-0.922132186,0.2428231186,-0.1636208158,0.4255750575,-0.6696179362,0.6272236986,0.558370722,-0.3515810464,-0.0804190907,-0.8250872447,0.5594985762,-0.789291509,-0.1671561954,-0.5961049275,-0.5013822721,-0.9981263481,-0.7914588556,0.2012265371,0.8495122192,-0.031788634,-0.0011957894,1.0002316383,-0.753131514,0.1379986433,0.9912995122,0.2393496615,1.2694954061,-0.8784400303,0.8367646275,0.3653749849,-0.3299492909,-0.3799558566,-0.7033326449,-0.4124565497,0.2760101959,0.2172079408,0.4274592549,0.4917679731,-0.7723041452,0.7401647158,-0.2776439181,-0.511068934,-0.0632129522,-0.4930030127,0.4095628011,0.2042416866,-0.6490415066,0.2053800505,0.1338340388,0.0479647062,-0.4862830837,-0.5721337637,-0.7147987468,-0.4099696067,0.5362767862,-0.1587088778,-0.4941743438,0.6796297372,0.7915574569,-0.195247939,-0.7230684013,-0.9616766044,-0.7054121302,-0.5246783525,-0.7758021329,0.0539369174,0.3650533617,0.9210051397,-0.9244126012,0.0851517965,0.8739221027,0.8249211109,-0.5202031219,0.954271241,0.4899153412,-0.4368552401,0.8301355122,0.8543837744,0.4685748872,0.8528335202,0.5632268657,0.3538483991,0.3954546492,-0.5198941756,0.7383359928,-0.9386569284,-0.9945814998,-0.0065513122,0.5991470304,1.7988734693,0.1921059219,0.1137901388,-0.1762814589,-1.0153629984,0.3055192337,0.3258320954,0.9358073466,0.2343207339,-0.5413256606,-0.3675817018,-0.43680787,0.1630567483,-0.0029945941,-0.6735196991,0.1077465576,0.582388147,-0.7175181371,0.0376591412,-0.291607029,-0.5593713076,0.7922624734,-0.0126408625,-0.2895985823,-0.4862850786,-0.2136024095,0.0485230434,-0.3839043838,-0.1300102804,0.3802933314,-0.4055848366,-0.3134864652,0.8152485858,-0.2087219536,-0.3772707164,-0.7482157473,-0.8890006538,-0.4970551602,0.891075309,-0.9613571098,0.6900824256,0.6382446619,0.0691309338,0.8072111171,0.6340137743,-0.0641629213,-0.7682027971,0.0813517174,-0.865649464,-0.7687296402,-0.547217745,0.1378322672,0.1001613368,0.9913427137,0.3827642213,0.4120760323,-0.7626827036,0.7234628697,-0.893243724,-0.6918945415,-1.8627040505,0.6998546186,-0.9599989667,3.876464002,0.1172939767,0.987558236,1.3633740786,0.0732268664,0.920013757,0.0464676941,-0.661589078,-0.4239635617,0.9533869514,-1.0932384447,0.9674899072,0.8373980259,0.3560775032,0.5989116416,0.4033843209,-0.7710980868,0.0753879046,-0.0430445203,0.0294599025,-0.1219069668,0.991042177,0.6709397862,0.1615885414,0.7969538278,-1.1889203824,0.5322924968,-0.4301790846,0.543032585,0.9370868929,0.9256489731,-0.7909726157,-0.8685083569,-0.0416759371,0.1572934066,0.6667620446,-0.6027508835,0.2687808493,0.7736014542,-0.7422296527,0.5835731554,0.8917121026,0.4965052656,0.2448691903,-0.2788642217,-0.1520015102,-0.1538923916,-0.1664308286,0.5245020321,0.7760364728,0.4449761678,0.8140125784,0.0373788392,0.3747454975,-0.4632376339,0.1166786701,-0.4037424776,-0.0550725094,0.1430669901,0.7112418061,-2.5262446194,0.5227741127,0.1467166969,2.1136104862,-0.7069745123,-0.4448358894,-0.0023630646,-0.7987580178,0.6648567156,0.3301283225,-2.8391428533,0.5628732116,0.7922996135,-0.9043648408,-0.7825079144,-0.8504453871,0.5988218515,-0.2582763713,0.8147813861,-0.7251347901,-0.1411004541,-0.1873564914,-0.0689121009,0.0426680652,-0.9227467647,-0.9790602533,-0.9066548481,0.5008366513,-1.1622235915,0.4409028351,-0.7984966534,0.0982968999,-0.4573215713,-0.4930822448,0.5512235534,0.839237996,0.8168569176,-0.1503256671,-0.3720692928,-0.1324045898,0.8581184218,0.1938124515,-0.1564872542,0.7772550032,0.4007023873,0.2776861837,-0.4692544824,-0.0306882299,-0.3823939267,0.4294948141,0.8480996723,0.6515015021,-0.3698358128,0.7814185786,0.0904925725,0.8277599293,0.50037049,0.7625178781,-0.4623738837,-0.3309854016,-0.4597252806,0.2135347957,-0.9308050455,-0.3425685201,1.5217591685,-0.1878770488,1.348502391,-0.5386087764,0.8336751092,0.7335154921,0.4693772934,-0.0189905976,0.2899748293,0.3079897609,-0.298093711,-0.7242419659,-0.830486538,0.7116540535,-0.8751482546,-0.087955165,-0.8951911585,-0.5703615248,0.0722169742,0.3073804213,0.47000243,-0.3394199652,-0.2917974983,-0.0210930237,-1.2391890271,-0.4426021046,0.4167803522,0.9299202947,-0.8493311455,0.3385892235,-0.7231687274,-0.0994402412,0.7176456374,0.5204984696,-0.2302575149,-0.9098908782,0.4267506863,0.6265990138,0.1967782286,-0.526614737,0.0642136113,-0.8253028238,0.5142733182,0.0975341956,-0.3600342751,0.5675692108,0.0356569691,-0.481102195,-0.0670450289,0.4042486333,0.126672863,0.3716066825,-0.3148104636,-0.3777633769,-0.5743942776,0.5316535638,0.6023963831,-0.1476712983,0.7139455124,-0.0785964655,-0.5179366454,-0.5538818381,-0.5270866795,-0.6669749661,-0.8696123058,0.8232504347,0.9198083315,-0.7341197118,0.6421820747,0.6936495288,-0.8072096033,-0.1918774686,-0.9562642574,-0.4120837423,0.0181540007,0.5527804386,-0.5543094428,0.1964347637,0.6995893566,-0.452611575,-0.7092082399,0.5134395933,0.1127938434,-0.0095665964,0.5181736203,-0.3588651224,-0.0114381529,0.5995806739,0.6739324941,0.7747799599,0.7406903014,0.1380232965,-0.6942709986,-0.5682447641,0.4527146586,0.637568515,0.3023956402,-0.8942066704,0.7616905768,-0.4843114084,0.6060445066,-0.0763314843,-0.986328446,-0.1438229522,-0.932629746,0.285850867,0.9094890708,0.4815603374,0.4732053133,-0.2354190543,-0.4925060341,-0.8760316023,-0.9730558273,0.8520383912,0.49972701,1.0111008635,0.8871900405,-0.7362993503,0.925046335,-0.303787594,0.5162807863,0.1332473864,-0.5077585796,0.1885302849,0.7759547717,0.1701627859,-0.1554164601,0.2611349189,1.3006248376,-0.6218410794,-0.3472793961,-0.0116830231,0.7021488172,0.331524079,-0.5217204814,0.2321892433,-0.5943304284,0.0670066009,0.8700352351,-0.8111930185,0.1913098771,0.3871501081,0.8864594014,0.137283727,-0.8904146402,-0.5072810586,-0.8875301244,-0.526236479,0.0749815927,-0.7121910383,0.5333387374,0.2362574629,-0.1018241132,0.4329421341,-0.1796255652,-0.2287055955,0.7180156006,-0.956867943,0.7349465519,0.8396217531,-0.2902694093,-0.6666058269,-0.8603223238,0.6385955186,0.194457448,-0.2550738048,-0.8378469638,0.0865927692,-0.1531460246,-0.1016727413,0.9264563018,0.5379997532,-0.148871239,0.0276301362,-0.0888918891,-0.1414630784,0.5708534207,0.0278765661,0.4805642485,0.3552255314,0.9530436335,0.9708009812,-0.8728721902,0.6351380444,0.8245503399,-0.933651772,0.175399201,1.0530775249,-0.2128664817,0.3273097608,-0.7700969627,-0.1305155017,1.9838287693,0.2692559695,-1.4255604464,1.2497722926,0.3104970886,0.0173775966,2.4344987544,0.5555760584,-0.0537620754,1.0231812002,0.5585126497,0.0168428803,1.5076777475,-0.1746150573,-0.4992598914,-0.3436653397,0.8618461816,-0.6146256276,0.576970976,0.5177326028,-0.7429513834,0.4118392869,0.1267500781,-0.4990199501,0.2128527308,0.639681416,0.4715107131,0.2473822106,-0.6664226029,0.0734070827,0.8440572036,-0.4682665329,0.0940626412,-0.4332695913,0.0737979897,-0.5300089246,0.5131529581,0.0813618341,0.3030358423,-0.5269900405,-0.437044385,0.6357252991,0.0198089629,0.1633323563,0.2511594361,-0.6572378263,0.9271308384,-0.3305440185,0.3473904069,0.2284246811,-0.2168417724,-0.2442832321,0.6105482372,-0.9773941931,0.8307642232,0.2758886807,0.6877711128,0.0178742976,-0.6054236002,-0.3648014123,-0.6562160387,-0.3911521067,-0.2650046965,-0.3751246317,-0.5489935815,0.2060000695,0.2213440085,-0.396389442,0.2772409424,-1.0719312315,-0.6228796426,-0.4877488067,0.0906300357,-0.4575857376,1.4379362436,-0.9929653145,0.0047498864,-0.3204864744,-1.0213118481,0.3832381711,0.6142537437,-0.798638932,-0.6924836958,0.7452885344,-1.4508968159,-0.6426466253,0.8005243811,-0.3097872364,0.1456344498,0.9216638396,-0.8068859201,-0.5005290709,-0.9996634625,-0.6232800123,-0.8464854208,-0.4974992557,-0.7677288561,-0.2243063351,-0.3904765419,-0.9530259442,-0.581092524,0.9820940475,0.0869814279,-0.3486654455,-0.5115667895,-0.4979575886,0.2228273068,0.3549019476,-0.9886419265,-0.8287224217,1.6062555704,-0.1800293883,-0.8190023431,0.4398049805,-0.4949902708,-0.6631876692,0.1345796639,-1.2167901961,-0.4102013963,1.0313601095,-0.5891496094,0.3820816091,-0.4092389259,-0.9630393344,-0.689574615,0.0020958401,0.2543518096,1.2864125601,0.1237266717,-1.6880653802,0.2577583522,0.5166540009,-0.5989885988,-0.2526127678,-0.9982181271,-0.569687287,-0.0001085517,-0.6968946224,1.0465551183,1.4004225875,-0.0730262685,0.7775595042,0.6077831373,-0.3108699683,-0.0029690769,0.2247309184,-0.514005985,-0.6533615633,-0.0864182362,0.4952104453,1.0409582151,0.0158622824,0.8634379569,-0.2762523388,1.3763202725,-0.3741235704,-0.4238092337,0.4798372941,0.6149851183,-0.8129555036,-0.5958053042,-0.3176438461,-0.340178772,0.9441266503,0.7537553308,1.0174882267,-0.2197464506,-0.0417445988,0.8351739887,0.0826821477,-0.5730143821,0.6046296581,-0.3060290088,-0.9850860623,0.9211961912,0.3843845204,0.2124573889,-0.4368325749,1.1171217138,0.6653613198,0.3776300902,-0.0783388912,0.8338148415,-0.7201668338,-0.3478011054,-0.875397413,0.3549309886,-0.3210243332,-1.1326768579,-0.4357421303,0.4051886536,0.6743001419,-1.7427375221,0.1836444197,-1.044278272,0.2730754202,0.0003547949,0.0078223757,0.3324360387,-0.5358696075,0.6667687387,0.5441481214,-0.2574036041,0.1207477901,0.1742455056,1.2102372228,-0.1608605131,0.6507583757,1.4603506725,0.6111189515,-0.4845563842,-0.4176052378,-0.9374617906,-0.345337364,0.9169149346,-0.0062457217,-0.4581852465,1.6788992245,0.7766306361,-0.2289381802,1.0098433066,0.0291933655,1.005477407,0.41550888,-0.8061058632,-0.4180861992,1.0360735679,0.646495056,-0.1769080657,0.8942160454,0.5343938561,1.0332216932,-0.1183533314,0.2994395235,-0.364688533,0.1901315605,0.5687595699,-0.0327735318,-0.0801528644,-0.9582413933,0.504370326,-0.5726233403,0.3888733756,0.7736354331,-0.2172667588,0.7981059391,0.3983709661,-0.2686679194,0.568477984,-0.4523540884,0.9730691162,-0.6156728102,0.257195733,0.1471719027,0.2187217233,-0.862813902,-1.8449402813,-0.1574411933,1.0834984385,-0.8967679929,-0.8686524345,-0.1691422733,-1.0230834669,-1.1037956087,0.5575709039,0.2952007141,0.2001799964,1.1458217553,-0.8130350721,-0.8297852901,0.0938710664,0.4708279994,0.394782175,1.0001473617,0.4878385296,-0.030434039,1.0814567521,0.2883517328,-0.2180672677,-0.7552349255,-0.0485111097,0.4427464247,0.9403032553,0.9562294432,-0.6200645919,-0.5699351335,0.8787789148,0.6736845121,0.5622248057,-0.7556264056,-0.6566127436,0.8376489183,0.6568841742,0.5105788123,0.3256040245,0.5162207626,0.1514433563,0.70544674,-0.9198255534,-1.0692389615,-0.6775356303,0.5665480851,-0.8132442332,-0.3217828128,0.9447005284,-0.5990083541,-0.3493749734,-0.6682741515,-0.281726299,0.2751064283,-0.5433383881,-2.8604028805,-0.7894508013,0.9886846003,-0.5038035243,1.7946899337,-0.8580619481,0.4958888538,0.3855952813,-1.6281780892,-0.2011697355,-0.4998338354,-0.7339610312,-0.0951471326,0.7808000645,-1.4163678851,-0.3646787042,-0.0472679519,0.4575295215,-0.414831369,-0.6478824898,-1.3432246516,-0.0890215473,0.6321521287,-1.5933392105,0.0576264341,1.1147854216,-1.2574950599,-0.1993861058,1.1256553621,0.2701985481,0.5957154636,0.2928392441,0.2310606557,0.335305926,-0.3244887164,-0.3751366065,-0.2485650672,-0.7360404808,-1.5512078598,-0.8044331256,0.5809519676,0.2321865599,0.6670007143,-0.4291605644,0.2082618084,0.8439607867,-0.5290531608,0.1296585945,-0.8421653527,-0.5451122,-0.9303908294,-0.3206904334,1.0026990851,0.321491539,-0.8358612379,0.3328714195,0.7372170439,-0.0874427054,-0.3361113744,-0.5674939177,-0.6057532525,0.8951394808,-0.4685430669,-1.3460036036,-1.0716980321,1.3804766552,-0.6724919064,0.7127777644,-0.9806188607,-0.5814795399,-0.0167375775,0.0347571292,-0.1772192984,0.5064834965,-0.9896114831,-0.8139219378,0.719152071,-1.0411916453,-0.7293568727,0.4055239238,0.5909645156,0.665544404,-0.7764340997,0.175513567,-0.3448854733,-0.4483451553,-0.2397376537,-0.1991398634,0.4754414452,-1.4503706667,0.8509671929,0.7934504584,-0.7164476371,-0.4006860896,0.0792123027,-0.4121786182,-0.0152199548,0.8771976137,-0.6961676858,-0.4506686658,0.7930688036,-0.9304627276,0.1132934692,-0.4584846479,-0.7533599127,0.5499549796,-0.4690995992,-0.1616121284,0.3444201238,-0.1496504775,-0.8894307777,0.3887602687,0.4282799489,-0.172431365,0.7779198894,0.228821465,-0.7895364216,-0.9328982401,-0.375386364,0.1445411515,0.7141570079,-0.2471539054,0.2824922923,-0.44054688,-0.2668514864,0.5818781481,-1.7157167739,-0.2668757669,1.3010087791,0.5021084448,1.4533915761,0.26079441,-0.8529243878,0.7559579944,-0.596843076,0.0366965694,0.8169022368,-1.5932484834,0.1200891122,-0.5341177815,-1.2760626808,0.9513811591,1.1840222698,0.3062982833,-0.8713758635,-0.627251631,-0.8335545437,0.2682205849,0.2192301754,-0.0004310343,0.5646740014,-0.0586554321,-1.8326970174,-0.2343464031,1.0150173144,0.2298218541,0.4461677592,0.6552152416,-1.0378171668,0.6294817489,-0.4472892469,-1.8451261797,-0.3882632686,-0.4319641347,-0.9412382484,0.0125310603,-0.7043092747,0.0433449037,-0.6804371,-0.6299969976,0.7712072772,-1.0707130132,0.0921859056,0.6576883518,-1.0120765292,0.6543029376,0.1131197265,-0.3787883889,-0.3572852938,-0.235458279,-0.2111395199,0.0850500809,-0.8605989838,-0.0316234948,-0.8010311956,-0.9967895936,-0.9640885561,0.1880669966,-0.1405110402,-0.2226692014,-0.0699790553,-0.6714424108,-0.842523387,0.9116265644,0.8572244728,0.0032225484,-0.1404120258,0.5129673914,-0.1291397434,1.0527863671,0.4734395457,-0.6805187827,-0.0314008915,-0.7571688334,0.6951094744,0.0829095581,-0.9389434203,0.3337382642,1.0057889403,-0.5354950921,0.2552270043,0.2865192618,-0.6499173747,0.0557719329,0.1153110272,-0.8477752297,-0.9773768055,-0.1680713195,-0.645883791,0.1494894852,0.1005004077,-0.9764428878,-0.2335284465,0.9770247201,0.0107323826,-0.6055779227,1.2034489421,-1.126104198,-0.9845246383,-0.4586332742,0.1926748894,-0.7214183658,-0.113570897,0.0477458805,0.8967001912,-0.7061003146,-0.025096955,-0.9882530193,0.7601946061,-0.6016965937,-0.4783985584,-0.1497534875,-0.7110628255,-0.4538087374,0.5602775107,0.4917609099,0.1951766564,-0.5529602111,-0.0390270358,0.2704165639,1.0875547921,0.1511119264,-0.1768049042,-1.3992836106,0.080825431,-0.7890935509,-0.2776694606,-0.6227749103,-0.3843014138,-1.6314970364,0.4931124611,0.1072191959,-0.2352468344,-0.963693583,-0.9727003886,-0.3219233273,0.7406951529,0.8483902914,-0.1911195647,-0.4011523402,0.826121114,-0.2363969331,-0.4195275959,-0.4268562299,-0.8161077351,-0.5485009413,-0.2837623765,0.074818158,0.0981467976,-0.9194963804,1.1082306555,0.3251389586,-1.0532620402,-0.7782270615,0.84569115,0.8537100222,0.6134497846,-0.3233789942,0.1372937952,0.5130120223,-0.5098552941,0.3240673477,-0.51567872,-0.4282493958,-0.2278142336,-0.3977476742,1.2948901254,0.1172159259,-0.1608785358,-0.2782917258,-0.8103983825,-0.6365687857,0.0636152526,-0.8631806907,0.6588898725,-0.3413399076,0.5786069303,-0.2718811456,-0.2935987884,0.7780207921,0.2358974281,-0.8904683071,0.9007959188,-0.7052186586,-0.2936103007,0.8022971759,-0.9897169899,0.3897350421,-0.206621387,-0.8141507966,0.3681053874,-1.0110430872,-1.6449826591,0.5594297237,-0.4379383551,0.6146420799,0.622597448,0.3102328527,-0.6708186489,0.8483253519,-0.9780879562,0.8195941183,-0.2750547617,-0.0765189861,0.9303324348,1.210302429,0.2229021447,-0.355726314,0.3969947784,0.7658421907,-0.5203121959,-0.4430691888,0.3034223911,0.1185481605,0.8699878091,-0.6490985565,1.0647615301,-0.2290238336,-0.275377889,0.6104117765,-0.0712529007,0.6465565541,0.8793335607,0.4539751581,0.3924167637,0.6826863479,1.2493554602,0.377311355,0.4748732943,-0.4061858763,0.5236116357,-0.6606949422,1.0894286984,0.6905843637,1.0862591504,0.9087204333,-0.8805894118,0.1681158434,-0.5122153146,0.2694983436,0.9247324443,-0.4252399748,0.1888310426,0.975925162,-0.3762505381,-0.0388769364,0.6388181218,0.3972959185,-0.2722919303,0.1421371697,-0.8653192929,-0.2037574327,-0.5111981322,-0.0582759875,-0.0535569064,2.5942520035,-1.0172879226,0.6648432938,0.8145277114,0.1052794127,0.8192572948,-0.8785591734,0.6175035588,-0.3089257977,2.1412609791,-0.4375765805,-0.073966619,-0.2580053508,-1.7108088259,-0.2053504739,-0.2366734697,-0.2222318966,0.7347664209,0.1081521099,-0.94586614,-0.4075218686,4.7503606585,-0.4190076696,0.8754551952,-0.3595485779,-1.3046859195,0.0511953297,-0.5188582541,-1.2488216521,-0.3576714727,-0.8502731674,-1.4101278257,0.5855349851,-0.1033925589,-0.1181323512,0.4003224111,0.1428064279,-0.3718049382,-0.8189563917,0.4469452561,-0.5475215529,-0.8407627957,-0.3920419813,-1.7152622321,0.0045648484,-0.8542224572,-1.3764308075,0.1699019025,2.0192125273,-0.5914465185,0.9439777454,0.6439143446,-0.0220585443,-0.2623516102,-0.6213978748,-0.7673677979,0.3467928365,-0.061840437,-2.3612386813,0.8915219884,1.0470285919,0.1707603484,0.8923963627,-0.2858444812,-1.0014439871,1.0510774731,0.3726554315,-2.3437013738,-0.9015708545,-0.3363529496,-1.4675484206,-0.0308318927,0.9044966893,-0.4621884406,0.8009219624,-0.0941878981,0.7923878983,0.9106016977,-0.8362261606,-0.9472782031,0.0246654142,0.932299679,-0.2864105339,-0.0224595812,-0.1342512076,-0.7377322678,1.5999918269,0.2999994389,-0.6555261849,-0.8229456184,-0.7213003815,-0.6669272133,-0.5839843699,0.8685018251,0.2958177859,0.5396782887,0.584182957,-1.034969939,-0.0259890446,0.4180451806,-0.1255769638,-0.4314038466,-0.6570461581,-0.3904145512,-0.6876178715,-0.3895867579,-0.8502391526,-0.2813292596,-0.2708302341,-0.4410299852,0.6301484138,0.0675206664,0.1049567898,0.1012348965,0.3213506878,-0.0276820484,0.5606885968,0.2730995074,-0.4433710569,-0.9243948842,-0.5896901436,-1.458467482,0.4427064037,-0.8381146285,-0.7167714481,0.9173432041,-0.1295664213,-0.8177555738,0.8179534352,0.0041071107,-0.5442455253,-0.9039029222,-0.7082285358,-0.1805533785,0.8441783345,1.0907003452,0.6049701974,0.7346997104,0.7553699705,-0.8171859938,0.8327403073,-0.8588747112,0.1007694201,0.4022854667,-0.0782476465,0.8866886751,-0.1850552506,0.1125203945,-0.0869019419,1.0642036593,0.0461964501,-0.5226900479,-0.7008736295,-0.3783182912,-0.6975424853,-0.5943683903,0.820698687,-0.7806756892,-0.2323095354,-0.3308524496,0.3830404856,-0.0195107813,0.073762232,-0.3981942221,-0.6520940906,-0.3605885842,-0.7478226474,0.3046634066,-0.1917238924,-0.8211237421,-0.8910070003,0.3305771615,0.3536487004,0.7673512672,-0.3898911194,0.857227905,-0.087296521,0.4943998398,-0.5677357273,0.3469577372,-0.378013583,-0.2291416928,-0.8832716868,-0.4877432333,-2.1626520571,0.0989549352,0.0788204936,0.2904202457,-0.0464385816,-0.3395752065,0.0374711724,0.1424866904,-0.8203034977,-0.2017066307,0.161835904,0.751199047,-0.1610973963,-0.4038557544,0.097304422,0.1821454699,-0.5968572832,1.0724600126,-0.7413185523,-0.174749194,0.9089958834,0.508803242,-0.369165787,0.6529630255,-0.002887142,0.234847987,0.6148013806,-0.9270134158,0.3886259986,0.3382168828,0.3532043659,-0.0741066515,-0.2293805974,0.6472109642,-0.5665538129,0.2872582114,-0.3544333524,-0.406857191,-0.0653315722,-1.030077152,-0.1263110843,-0.4825786713,0.5352741891,0.4752850992,-0.6127056686,0.5152036232,0.2874604863,-0.2790908944,-0.1992638833,-0.8861399182,0.2667306199,0.0940344841,0.1568748612,0.9964729976,0.5619558908,-0.1986991127,0.4003573551,-0.7341921828,0.3963261802,0.3530943955,-0.2241599124,0.2576074018,-0.9712725987,-0.4948112543,1.3032490837,-0.1705923421,1.6994908579,-0.6501653938,0.4805918213,-0.5984542067,0.34824684,0.9050010275,0.5776297514,-0.3068458063,0.4408757694,-0.5314755204,-0.0420284018,0.734926856,-0.3019440604,-0.3895697242,0.9392790226,0.0159610928,-0.9494132121,0.7806894309,0.8636916935,-0.857535765,-0.2437959199,0.6094324646,-0.1120388339,-0.5979531098,-0.5227887917,0.2243100764,-0.8399221505,0.6710780908,-0.1153928663,0.963550761,0.3693364273,0.6615931642,-0.8078931955,0.8798072916,0.6074262966,0.8800520664,-1.0456953468,-0.5071748829,0.4097630491,-0.2488087427,-0.1714184174,1.0081161699,0.6824712324,0.8614383413,0.5030950116,-0.2318793521,-0.5704983959,-0.6206216676,-0.1402244238,-0.747720525,-0.1091522291,0.0181737997,-1.0394378154,0.1395001342,-0.3311315014,0.5603260612,-0.2572673941,-0.3885187503,0.0909008136,-1.0172397067,-0.6397979108,1.8911330085,0.0021502492,1.1066344277,0.5594355819,-0.0690002875,0.6171011611,0.1724137765,-0.3933575765,-0.9219139591,-1.7041959892,0.8998918403,-0.2548959542,-1.6869970097,0.7055094288,-0.6580537226,0.5109921934,0.380277245,-0.963255303,-0.3079607209,0.5326376077,0.7697871671,-0.2989793332,-0.3849014778,0.1307216618,-0.5303065879,0.1377726072,-0.95288279,0.399506318,0.5221692638,-0.5886850137,-0.7288494197,-0.8225917573,0.220878249,-1.2571050991,-0.2373166615,0.3805679782,-0.3252185812,0.9701550351,-0.4214766945,0.9178106583,0.6481694811,-0.8900558656,0.673550889,-0.6364340072,-0.342316665,-0.6685114072,0.9875027817
