encog,BasicNetwork,java,3.4.0,1,63713904491338
[BASIC]
[BASIC:PARAMS]
[BASIC:NETWORK]
beginTraining=0
connectionLimit=0
contextTargetOffset=0,0,0
contextTargetSize=0,0,0
endTraining=2
hasContext=f
inputCount=630
layerCounts=1,101,631
layerFeedCounts=1,100,630
layerContextCount=0,0,0
layerIndex=0,1,102
output=0.140281723016206,0.00000000000000000001,0.00000000000000000001,1,0.00000000000000000001,1,0.00000000000000000001,0.00000000000000000001,0.00000000000000000001,1,0.00000000000000000001,0.00000000000000000001,1,0.00000000000000000001,0.00000000000000000001,0.00000000000000000001,0.00000000000000000001,0.00000000000000000001,0.00000000000000000001,1,1,1,1,0.00000000000000000001,1,0.00000000000000000001,0.00000000000000000001,0.00000000000000000001,0.00000000000000000001,0.00000000000000000001,0.00000000000000000001,0.00000000000000000001,0.00000000000000000001,0.00000000000000000001,0.00000000000000000001,1,0.00000000000000000001,1,1,0.00000000000000000001,1,0.00000000000000000001,0.00000000000000000001,0.00000000000000000001,0.00000000000000000001,1,1,0.00000000000000000001,0.00000000000000000001,1,0.00000000000000000001,1,0.00000000000000000001,1,1,1,1,0.00000000000000000001,1,0.00000000000000000001,0.00000000000000000001,0.00000000000000000001,0.00000000000000000001,1,1,1,1,0.00000000000000000001,1,0.00000000000000000001,0.00000000000000000001,1,0.00000000000000000001,0.00000000000000000001,0.00000000000000000001,0.00000000000000000001,1,0.00000000000000000001,0.00000000000000000001,0.00000000000000000001,1,0.00000000000000000001,1,0.00000000000000000001,0.00000000000000000001,1,0.00000000000000000001,1,1,1,0.00000000000000000001,1,1,0.00000000000000000001,0.00000000000000000001,1,1,1,1,1,1,1,72360,-254471,310950,39566,-246829,326616,26387,-240243,340764,7389,-229182,366786,1820,-222776,385775,38284,-208329,337353,21447,-177043,372603,11734,-171310,395477,8091,-176687,408889,53159,-205876,340429,43069,-172740,377432,34532,-166370,403058,29530,-175506,416327,67875,-208524,343518,65517,-178492,378392,59994,-172447,403210,54422,-180912,416370,81143,-215609,347772,86952,-188571,377088,86907,-181797,395863,81746,-186484,406772,313,630,-941,-33276,9528,14249,-46417,17718,27591,-65333,31379,52420,-70767,39095,70933,-32769,48574,23292,-49097,83540,55554,-59267,92721,76923,-63924,89009,90567,-17912,50444,26862,-27337,86710,61212,-36206,96663,85705,-42414,89828,99879,-3490,47191,30701,-5613,79233,63831,-11723,87557,87974,-18264,80734,101666,9180,39601,35862,15444,68383,63502,15391,77322,81354,9764,74109,92510,-500,499,-206,-33760,14049,10756,-46486,26147,21256,-64856,46361,41670,-70177,57771,58201,-28587,53904,13680,-43033,95231,38415,-53834,108791,57077,-60116,107967,70560,-13978,54646,18486,-22383,95311,47286,-32809,107854,70471,-41045,103577,84738,-485,50452,24304,-2818,85664,53299,-11638,95553,76429,-20392,90640,89817,10632,42446,31873,16639,74264,55912,13992,84931,72437,6253,82979,82634,159,-488,544,-33873,14555,10343,-46866,27359,19600,-65739,48970,38016,-71433,61538,53547,-28190,54477,10370,-43038,96845,32543,-54688,111057,50690,-61332,111538,64084,-13618,55388,15251,-22188,97571,41409,-33062,111760,64055,-41493,109369,78676,-230,51486,21499,-2628,88373,48118,-11685,100017,70797,-20519,96776,84652,10742,43959,29730,16209,76724,52289,12693,87567,68794,4671,85789,78764,134,-141,29,-33814,14391,9982,-47205,27194,18639,-66782,48889,36156,-72945,61632,51329,-28570,54231,9912,-43841,97186,30952,-55690,112375,48064,-62622,113476,61268,-14078,55275,14997,-22817,98311,40098,-33618,113324,61799,-42237,110737,76203,-767,51488,21474,-3186,89355,47164,-11985,102242,68988,-20983,99373,82787,10124,44067,29911,15100,77230,52098,11387,88591,68220,3287,87161,78196,-62,20,269,-33727,14219,10367,-47234,26809,19155,-66952,48157,36918,-73114,60707,52243,-28747,54056,10596,-44013,96743,32199,-55733,111600,49640,-62494,112321,62960,-14202,55139,15529,-22923,97720,41333,-33574,112141,63530,-41998,109123,77961,-805,51366,21835,-3026,88999,47913,-11469,101809,70022,-20249,99016,83986,10206,43929,30100,15450,76917,52522,12176,88271,68845,4298,86896,78966,-217,26,116,-33503,13399,11639,-46980,25282,21407,-66704,45389,40622,-72991,57203,56537,-29421,53247,13585,-44931,94418,37764,-56504,108519,56262,-62969,109228,69756,-14738,54440,18072,-23601,95491,46178,-33888,109101,69461,-41777,106062,84213,-1056,50689,23748,-3233,86835,51799,-11130,98578,75003,-19271,95488,89319,10385,43130,31281,15741,74888,55315,13073,85402,72634,5834,83815,83177,65,-832,1226,-33102,9593,14937,-46876,18042,27437,-66827,32252,51062,-72815,40446,69157,-32490,48668,23224,-48618,83186,55740,-59148,93057,77738,-64352,92085,91759,-17583,50549,26574,-27108,85884,61488,-36288,95663,87256,-42452,90565,102214,-3131,47320,30305,-5272,78537,63864,-11467,86264,89108,-17749,80472,103478,9595,39823,35427,15824,68017,63481,15889,76499,82346,10955,74351,94211,-197,711,-543,-32611,7656,15580,-46209,14171,29346,-66017,25119,54787,-72209,31474,73576,-34165,45735,27108,-51218,77239,62293,-61460,84565,84691,-65695,80563,98400,-19295,48191,30178,-29583,81408,67179,-38473,89522,92717,-43806,81985,106794,-4572,45518,33193,-6900,75655,68102,-12246,83434,93000,-17736,76762,107229,8720,38379,37290,14319,65130,66949,14467,72786,85931,9894,69470,97619,0,0,0,0,0,0,0,0,0,0,0,0,0,0,0,0,0,0,0,0,0,0,0,0,0,0,0,0,0,0,0,0,0,0,0,0,0,0,0,0,0,0,0,0,0,0,0,0,0,0,0,0,0,0,0,0,0,0,0,0,0,0,0,1
outputCount=1
weightIndex=0,101,63201
weights=##0
##double#63201
   0.5964365566,1.3826468294,0.3218519658,1.0612848777,-0.7573159555,0.8201192679,-1.3889750664,1.6771440907,-0.7746540796,0.8465869488,0.390760812,-0.3157912883,1.2914324436,1.3141658277,0.7346951752,-1.4227657408,1.6107420139,0.9569970052,-0.1774188541,-0.727762923,-0.6606743839,0.0310824815,0.0446806486,0.8187311628,0.0051021724,-0.104340294,-0.4490881606,0.4748315722,0.0084894991,0.401522778,0.3692844979,-0.5675050614,0.076268155,0.4480996421,-0.1296712943,-1.14182553,0.8866542616,-0.0255138175,0.003121252,0.5158270457,-0.5353926558,0.747349343,3.8133930276,-0.028431733,0.543552511,0.6911926494,4.4499144941,0.4080786954,-0.7150215696,-0.1069091424,0.8968650598,0.0135577869,-0.5884813706,0.9116763716,-0.2342878218,-0.3694521749,0.0379661808,0.501486428,-0.0438172946,-0.0464381615,1.3837199845,0.0291853614,-0.3114829083,-0.3761768575,-0.3292350491,0.1566314984,0.4112093067,-0.6599359485,-0.720295578,0.5397207052,-0.2245998775,-0.0347942246,-0.2908805248,-0.0883427749,2.775220469,-0.3395612269,0.0291390039,-0.9268876183,-0.6514557232,0.210640773,0.2037954361,0.141198769,0.8833156418,0.8153986415,0.6747545932,-0.444273289,-0.5920986908,0.0613230334,0.0742155889,-0.8602191194,0.3553739142,-0.4213696664,0.5248409771,2.1231594135,-0.6582835077,0.6071532328,0.2293135013,0.4715828351,-0.2122716839,-0.3929821124,-0.9200166573,-0.3569997265,0.1338218286,-0.3471396952,-0.5742141405,0.1503308866,0.0322666743,-0.9296058237,-0.5897762813,-0.7757647938,-13.7695026621,0.7088634676,0.7528073556,-26.2563407356,0.2286445279,-0.6170934649,-0.7128410988,0.4617904402,-0.2843196126,-0.9426528772,-0.4815612668,0.8663776406,-7.1481542621,-0.0566757719,-0.0497719956,-14.8854935873,0.0430437525,-0.7085299032,-0.8119660045,0.8130296056,0.9102176429,-0.8987893246,-0.014153308,-0.3151570451,0.6890975694,0.7068692685,-0.6462646626,0.2436954713,0.0821953438,0.2274065072,-0.7628994954,-0.8763477729,0.935076954,-0.5195520823,0.1171374594,-0.5354979239,0.3213000473,-0.6550138295,0.8143961477,0.9576128323,-0.2807426852,-0.6026966345,-0.6021336788,0.2455248865,0.016068544,0.3716879561,0.9644861797,0.359529172,0.1857770437,0.967864665,-0.7384362627,0.2717736623,0.5999838082,0.6179634007,0.9307466962,0.8080222972,-0.4418133917,0.6853394263,-0.8105069098,-0.6064955356,-0.8072581292,-0.539180894,-0.1793421697,-0.2286093708,0.7323668181,0.6863059225,-0.4304659887,0.2842279597,-0.2129297316,-0.9435182942,-0.7039530619,0.8041706878,-0.547245129,0.4707063585,0.8727086132,0.0471143968,-0.2167053496,-0.4819686362,0.648106774,0.7148210193,-0.2775659789,0.4837735338,-0.892812384,-0.0190588406,-0.0054219055,0.9477823574,-0.9221987648,-0.1312612992,-0.7178887433,-0.7299915279,0.9074281806,0.6747612842,-0.9584856329,-0.1559910085,0.2867581377,0.3752816672,-0.8254975661,0.492412501,0.9386237945,0.8822955212,0.29778516,-0.8067848596,0.6461745264,0.7474267437,-0.3405892863,-0.1937657729,0.6718397914,0.4356924462,0.0827001303,-0.0212144072,0.0015598225,0.8276184882,-0.5865783017,-0.41506232,-0.2696830243,0.8655593117,0.750338886,0.2219423905,0.0264142135,0.2053206696,-0.8666451752,-0.6206699168,-0.0584510307,-0.5700148558,0.0337344191,0.0038225546,-0.777237557,0.6165477056,-0.1452008135,-0.2745840855,0.4365762714,-0.8073256069,-0.5350268967,0.0147565619,-0.537820132,-0.5730319796,-0.8620076894,-0.0103498244,-0.5690161195,-0.8933158067,0.7476231643,0.8093036932,-0.8738253803,0.1087882945,-0.9156930048,-0.7549274309,0.534168913,0.9531721545,-0.2964013055,0.1973953134,-0.3436651676,-0.406110072,-0.37468743,-0.6769545312,0.9477918718,0.2399770122,-2.690373823,-0.4422150371,0.8173250054,-0.7286638558,0.0076822068,0.2467997035,-0.3187494486,0.0151922747,0.2322856866,0.7142766636,0.1426333438,0.0322791596,-0.1451758234,0.1832766997,0.2392742474,0.4573860876,-0.0550363439,0.4151394143,-0.3363505997,-0.5298321839,-0.8302490131,0.6067525996,0.2261827382,-0.4871896976,-0.8232894856,11.9007720103,-26.9119452818,-0.0345311851,0.8643207831,0.2405308847,-0.8651999367,-0.8782147372,0.3608919623,-0.332993524,-0.315382834,-0.4508773307,0.0859484927,-0.160364644,0.6278788988,-0.6834678865,0.6487644231,-0.9205556212,-0.6087680198,0.1908429533,-0.0562259521,-0.2911450498,0.7757454553,-0.9232011463,0.2727048504,-0.8399944675,-0.4849484791,-0.5433630058,-0.3841905645,0.8673798583,0.2254758434,-0.8634088931,0.5967473481,0.0617279823,-0.0348144679,0.6569936909,0.225691995,-0.0880110658,0.5694743553,-27.212614479,0.6960148206,0.2061336598,-1.2887562758,0.4341032579,0.3544702594,-0.7135242456,-0.915310595,-0.4339306639,0.6238023551,0.2348345097,-0.9129452051,-0.3679395341,0.2902590361,-0.06668059,-0.7361566403,-0.3884571143,-0.2793161156,-0.8386621799,-0.8323928739,0.3781311371,-0.6907184922,0.3878584503,0.2049953312,1.2952398123,-1.456594779,-0.5013151167,0.7546049242,0.4287321185,-0.8077472716,0.6573754415,-0.3311583516,0.7540994092,-0.0446658141,0.0427500165,-0.6627158826,0.2310836552,0.4384996406,-0.9753263395,-0.0030873378,-0.8891390727,-0.383744814,-0.3594741308,0.3799199265,-0.9093869438,0.8151080037,0.2809528931,0.3489653122,-0.3306238576,-0.2119796168,-0.7700473943,-0.9373978238,0.3076059361,0.3460645702,0.8676177214,-0.1356376329,-0.3009689566,0.7222382796,-0.172817117,-0.123580918,0.9397290626,0.8837155403,0.4435442238,-26.6724200027,0.4213753612,0.8741663714,-9.5559140223,0.7131646528,-0.7507337385,-0.2981147048,-0.9587739592,-0.6470504483,0.3834391958,-0.0894729973,-0.7754761294,0.3376747806,-0.7560430483,0.4492174293,-0.6715634564,0.6426678961,0.0855920266,-0.8423581009,0.6733438559,-0.3996064779,-0.3980412115,0.312796858,0.7624775452,0.9868969119,0.6684600697,-0.5396919677,-0.6678538425,0.8954077718,0.8130140147,-0.0951436504,0.373226745,-0.9192705273,-0.6523376303,0.0641298739,0.9723243464,-0.0840150805,-0.2419536034,-0.0537659203,0.0336902256,0.6062925188,0.8219828709,-0.781420867,0.9411485672,0.2424701926,0.2620695926,-0.3033855338,-0.6074728729,-0.2603035083,-0.383456104,0.1447511621,0.3855723091,0.2581383836,0.0934612656,-0.4044986739,-0.6827848532,-0.5423710575,0.9991782958,-0.3759099222,-0.7434989723,0.6223650888,0.0382979826,-0.9311491938,-27.3667070908,0.1350576382,-0.2206885716,-17.1192440061,-0.829077183,0.7955493369,-0.7325780737,-0.0105378826,0.0723680851,-0.9041452745,0.3373723346,-0.1078781535,0.6291957554,-0.3312480342,0.0389666657,-0.4404877671,0.9644320525,-0.6950805072,0.6582188206,0.7087349734,0.158753691,-0.5157960174,-0.6294425918,0.939812055,-0.1590274825,-0.1217564534,2.9731340279,-0.9665156716,-0.4243323947,0.0557658037,0.6037465069,0.6780347629,0.2257059885,0.7541270616,-0.2205978999,0.069874279,0.8865574316,0.1751194827,0.357062308,0.467568412,0.780940285,0.2035899533,0.5873369533,0.3282659723,0.2531569412,0.4634645316,0.0316418258,-0.9205091351,0.5517776344,0.76775146,0.2600560541,0.7482062827,-0.142120967,0.5680028004,0.8456159762,-0.8571465432,0.3269581607,0.9254675021,0.9745759351,-0.1743031287,0.483780989,0.9469153082,0.3548238872,-26.3670155257,0.593220612,0.2568052717,-3.5380548196,-0.0785259617,-0.2479413398,0.08230224,-0.3453169563,-0.4582025935,0.028167778,-0.1249725598,-0.8596324983,-0.8944331191,0.1545044545,0.0325557624,0.1683031719,-0.8994771128,-0.3498058091,0.4521893905,0.2178101752,0.3263820595,-0.2643763641,-0.6128223209,0.3406181446,0.4061966598,0.0867367868,-0.1389067958,0.5107879718,0.7453928991,0.8863215662,0.05257626,-0.8718993251,0.6548090149,0.9539671883,-0.4893727885,0.5881246682,0.2974733044,-0.5714637438,-0.5979203233,-0.7626231472,0.6458701287,0.1868370621,-0.2230693501,-0.0959172932,-0.5040827603,-0.1879019773,0.1274983871,0.7783748918,-0.2980069684,0.760076034,-0.4875056562,0.5180831147,-0.0361698757,-0.5764725633,-0.1489898206,0.6337639848,0.2229895413,-0.3114235549,-0.6832988957,-0.8310853119,0.5733609028,0.6204843689,-0.740321146,0.5217464532,0.3770221285,0.4230818524,-0.1217128909,0.524145469,-0.6855004268,-0.3850777456,0.8686841495,0.2110498574,-0.6727789445,0.5255159642,0.3494042334,0.0825584249,0.8051999827,-0.1384633122,-0.6532120757,0.9825702395,0.0285439554,0.3050264845,0.8185743095,0.7276460697,0.5519295754,-0.2789898789,-0.8405273163,-0.8507204013,-0.2673230596,0.630032386,-0.4313407391,-0.9895457502,0.5682449574,-0.3771850401,0.9690477859,-0.372446774,-0.9867787847,-0.4800811564,-0.6835113583,-0.4826584458,0.971631569,0.6005151533,0.4916274515,-0.1607268559,0.4215443609,0.1982129723,-0.4744118131,0.9306185862,-0.5181267783,-0.0674464938,-0.8175110386,0.7186158734,-0.1860196659,-0.5229639286,-0.4685254022,0.1758516699,0.7065707008,-0.7033113372,-0.1105237877,-0.9369370246,-0.6797578931,0.3105645998,0.5958636124,-0.7631145959,-0.8860168315,-0.7313868354,-0.8879156848,0.6092333244,-0.8077254432,-0.8383396041,-0.2569257565,-0.4387628012,0.0512722696,0.763402979,-0.9200760943,-0.9496442295,-0.7833104568,0.9442010663,-0.9373190047,0.7103673202,-0.2285321182,0.8652490081,0.5471641887,0.9203423608,0.3732598321,-0.5000201133,-0.6286828253,0.4624489657,-0.8154975443,0.2954099177,4.6843705664,-26.9472193516,26.4370197598,0.6563409545,-0.4943669211,-0.8501213181,-0.7081248798,-0.7241951271,0.038509185,-0.4662431748,-0.3446964337,-0.1268353048,0.4214926981,-0.2602219427,0.343578017,0.1331276133,0.8083100413,-0.0418745163,0.9294577127,-0.1709769791,-0.4991447988,-0.6095161494,0.3230717041,0.2205689825,0.8236732713,0.4715506434,0.1812912055,-0.2819910542,-0.5512859594,0.9718641585,0.8422231867,-0.6652811539,0.4061033585,-0.9827855399,0.9055870177,-0.4312956571,0.5366861062,0.3756034355,0.3902244828,0.8099183188,-0.4170724698,0.8616381885,-0.3380498072,-0.7111306867,0.6310539432,0.689965258,-0.7732026714,-0.9456522807,0.3136171004,-0.5163776004,-0.7512349763,-0.3229248585,-0.023501158,0.9096246205,0.245284828,-0.9122465427,-0.1489356275,0.9024804076,-0.3463614429,0.0694828329,0.3046622036,-0.3190192305,-0.4762586379,0.0623399743,0.1864441045,0.2988709849,-0.2599173257,-0.2650315719,-0.8814599879,0.3605580645,0.9342019941,-0.0798587368,-0.4110796512,-14.6566876931,-0.7355506933,-0.5746510016,-27.7791930733,-0.53159633,-0.7982168083,-0.5640174612,0.9407477619,0.7968994194,-0.935987694,0.2012078915,0.2229322128,-5.489447262,0.910691492,-0.7270611624,-13.8670777344,0.881633247,-0.9185102328,-0.5714893952,-0.2311309211,-0.4257884868,0.0062702193,0.8838492788,0.7074474758,0.1760768032,0.3699214081,0.9689426359,-0.925390084,-0.812304847,-0.8557956738,0.4969778424,0.9559267804,0.9768858125,0.4559044781,0.6663631169,-0.0219196317,-0.754993363,0.8520845284,0.2167789953,0.8219544237,-0.592948962,0.4581841071,0.6051317863,-0.3943688077,-0.9863398893,-0.6561013149,0.4766964172,0.8027777477,0.36352175,0.9960459143,-0.3919278649,0.8606337096,-0.6846782631,-0.4840201349,-0.6291983728,0.5167719676,0.5145112233,0.495592929,-0.8080848983,0.0138698823,0.4636698519,-0.5680081142,-0.9064029816,0.7199300096,-0.1120995463,0.5048128133,0.7511844827,-0.9185048908,-0.7239048161,0.4733151472,0.9888904776,0.7913070182,-0.7231814052,-0.1129084652,0.794984459,-0.4085670681,-0.6895480143,-0.2419781707,-0.0505535647,0.4222941687,-0.7599433751,0.2459151004,0.4327681064,-0.4756703065,0.5124696116,-0.8160029284,0.3789452434,0.2983967815,0.5653685657,0.2608585906,0.8600482333,0.985506789,-0.6460708935,0.1192107668,0.140450402,0.8368440691,-0.3737511962,0.5286457082,0.1168463051,0.4613484871,0.8769515847,-0.4209890575,0.9853349652,-0.5789069362,-0.7802773106,-0.5788657857,0.4423420168,0.6246307828,-0.2717723115,-0.9302315281,0.1219953045,-0.601390543,0.7526058332,0.9864415407,-0.4570834968,0.1695049804,0.0638153299,0.5179290105,0.2493621278,0.5436047395,0.510192052,0.6247845255,-0.100399217,0.0681808333,0.5483469618,-0.5657601632,-0.3638714439,-0.9448095726,0.3585300361,-0.3561133713,0.7896348081,-0.9114745071,0.6376729744,-0.3486717906,0.4650775575,0.4656115589,-0.1310925617,-0.4821238104,0.0559572441,0.178430816,-0.3721281574,-0.4697361467,-0.143522737,-0.4945369237,0.5720886715,0.3951450017,0.8117833036,0.6707449096,0.851761629,-0.2167294011,0.1937682269,-0.450904367,0.3730248193,0.5064438167,-0.9117809001,0.5854928065,-2.4268159352,-0.3203558246,-0.7466256802,-1.5608800054,0.5483425883,-0.0212144128,-1.0218932756,-0.6569049783,0.6230456466,0.5892745886,0.6974790348,-0.3894748795,0.1778714403,0.473507259,-0.4083057367,-0.677279269,-0.6621296114,0.0917428152,0.4159522792,-0.6355035693,-0.0965690877,-0.048398306,0.9046586874,0.7176287035,0.8872636165,11.8242213366,-28.0909792715,0.0287326698,-0.9329176487,0.5191489933,0.8964080203,0.3623534766,0.0432202571,0.7790645097,0.169635074,0.362796395,-0.7605875079,-0.2433350509,-0.7669074737,-0.5040051303,-0.440054094,0.3943198853,0.0768736827,0.5810022475,0.1002608647,0.6750832197,-0.1527895512,-0.8747242212,-0.3184359305,-0.2525953291,0.1555861819,0.1728141181,0.7104112367,-0.7508071341,0.656019745,0.5544381877,0.1686006186,-0.8968262171,0.7804257237,0.5885776896,-0.8435626879,-0.1638210149,0.6976518566,-27.7880357474,0.5888788812,0.7465349902,-2.8272636859,0.2695531974,-0.3943815366,0.1977855242,0.0959194831,-0.3589647324,0.8115054012,0.2110397041,-0.6953180531,0.8649338057,-0.3455862994,-0.7329507216,-0.6723055119,-0.6069711424,0.634529532,0.0671326981,-0.5655899426,0.5466008717,0.2467212079,-0.5020547952,-0.1325480755,0.7884444728,-0.4552961339,0.3491795712,-0.1014097517,0.6433105795,0.5768627422,-0.9489986759,0.9279474897,0.4471413399,-0.026789475,0.7223760328,0.9791832065,-0.7870572536,0.9815320961,-0.281078339,-0.2865208945,0.660296036,0.3410403466,-0.7983929274,-0.5962755974,0.7376672393,-0.9184248337,0.5291672824,0.2403477196,-0.7082217616,0.689896904,-0.681654072,0.2536757993,0.3022142983,0.6594709009,0.7887990593,0.2734578595,0.1855554663,-0.9810476975,0.8227947951,-0.0838289348,-0.6864171159,0.5580248041,0.1198895814,-27.9826101547,-0.6387901824,0.9942756577,-9.0583313331,0.6267662673,0.3222003503,0.1136228501,0.623276135,-0.6970695133,0.8690658293,0.5963098435,-0.6176667061,-0.3917098655,0.1577656621,-0.2243537571,-0.1673975022,0.2565655697,0.0336093844,0.1058374976,-0.4987560087,0.030697487,-0.8628684596,0.4953154278,-0.9316703442,1.3262675725,-0.449278255,0.8683494431,0.8340218037,0.9239062883,0.2049159695,-0.5426816726,-0.5392234154,0.4934300063,0.496602845,0.8994893312,0.4580513611,-0.4390556514,0.7112911577,0.2454304684,-0.1190962808,0.5077739944,0.8867000976,0.5208230992,0.7604366663,0.3989463904,-0.6997578331,-0.2422455339,-0.0358290908,-0.1337747954,0.7064759322,-0.8654668468,-0.7598926342,0.0229195931,0.8775180002,0.5859541461,-0.750473567,-0.3431211575,0.8421433146,-0.6605162468,0.3524994514,0.0743505855,-0.722148758,0.2634718333,-27.7786194829,-0.8902549266,0.6007674309,-16.43513966,-0.2110919928,-0.5353359874,0.1736243594,0.6031338191,0.5067372778,-0.2705297841,0.3017564284,-0.8355778881,-0.9551217172,-0.7796691197,-0.7203799911,0.9112635256,0.5213798554,0.638161907,0.0132813162,-0.8884508635,-0.1369485132,-0.4985058899,0.1439079007,-0.4097133945,-0.2520987989,-0.129888682,2.5974707519,-0.6125801914,0.039067921,-0.4138684445,0.5723440755,-0.9582678459,-0.5227175761,-0.860837699,-0.2972135706,0.803736304,0.9718647783,-0.1195486256,0.9453711167,0.1604021139,0.5337150749,0.6331286244,-0.5573403658,-0.7934908911,-0.5534321662,-0.4709043502,0.9625447757,-0.8512186433,0.5940313084,0.7423165749,0.3171107274,-0.91231542,-0.0055263883,-0.3006908255,0.7047396746,0.737932887,-0.7360539107,0.0137558852,0.8988679239,-0.286584713,0.0249748261,-0.8911878976,-0.6421386438,-27.3083607065,0.416262594,-0.2335352939,-2.4242059624,-0.9531929211,-0.2390529517,0.2965031084,-0.5309789298,0.548492019,0.2049521528,-0.879266219,-0.1194804128,-0.8249838526,0.3963381694,0.8114129632,-0.8751327803,-0.3562376252,-0.3773599001,0.1519003443,0.1518521363,-0.0641803698,-0.2987407655,-0.9079022424,0.4070242987,-0.7163549347,0.9137393852,-0.2941592367,-0.5504306024,-0.2582572051,-0.9574040349,-0.5268862974,-0.3333578906,-0.92324483,-0.5048421342,0.8996038802,0.4570492608,0.6657102486,0.6060764156,-0.2128988592,0.9172210449,0.7612242504,-0.8267724828,-0.0330950774,0.5110976407,0.7974345406,-0.1579998022,-0.4747635764,0.0019802644,0.959427065,-0.7918480669,0.9711479565,-0.9247144267,-0.5388103589,0.0521529668,0.4743485865,0.1523119405,0.6518067913,-0.4750681882,-0.1426248405,-0.6364922604,0.0643512107,0.9912683006,0.0226824477,-0.9008602513,0.5123315379,0.4151991046,0.4754570125,-0.9292656116,-0.1830202931,-0.2614802838,-0.2428134916,-0.1735897431,-0.053195439,-0.6808044199,-0.8824481906,-0.6689335337,0.2766132595,-0.0754611709,-0.828856779,-0.7866936854,-0.4717914588,0.8533727323,-0.1892304554,-0.3814292815,-0.4230540232,0.5183326397,0.7307073484,-0.5000626624,0.1354503181,-0.043306428,-0.5131430458,0.7984158975,-0.0473701258,0.1886331824,-0.0081429438,-0.7716654592,-0.1943896821,-0.2401173482,-0.5558243241,0.6978261141,0.6192888087,0.4941046452,0.8671432554,-0.1004169987,-0.9100014528,-0.7239166471,-0.0271078854,-0.9109827855,-0.743062419,-0.845620481,0.1474289119,0.8028681741,-0.3772693802,-0.500722461,-0.1902927037,0.8553835909,0.601627728,-0.9873071482,-0.5469775503,0.8135425636,-0.1511493929,0.2172984591,0.6208076338,-0.9256453953,0.7936313405,0.9505563836,0.3172237069,-0.0671364007,-0.0683844167,-0.7401212468,-0.9579008043,-0.8721751605,-0.3160414201,-0.3526582303,-0.5357728336,-0.8075148716,0.3925075567,0.1656044086,-0.9918429626,-0.9172859925,-0.5484223604,-0.2498247124,-0.9687464691,0.6921996288,-0.9625031648,0.828959386,0.4224394587,0.9729993019,0.545255945,-0.662325041,3.0326022407,-26.1190653992,27.0768971093,0.6809690647,-0.6013818659,-0.3376260963,-0.3877842751,-0.310188103,0.3703297234,0.4046707838,-0.0781502103,-0.6611018272,-0.9171327019,-0.3896608301,0.774788008,-0.6735307016,0.1256887966,-0.4500886115,-0.0292345199,0.8201629269,-0.4377483229,-0.0422290682,-0.8146712684,-0.7193134453,0.7850121965,-0.7114447808,-0.4617919323,0.7637965583,0.9571669085,-0.4146315795,-0.9542873122,-0.2132198395,-0.3544557658,-0.3125573069,-0.2051310115,-0.146045809,-0.1843332488,-0.5286790231,0.5522500304,-0.6822456473,0.6869352777,0.0210355005,0.7046464364,0.0751515103,-0.9802055003,0.8220022942,0.8867673633,0.8542198326,-0.5931452066,0.0076843386,0.8381635706,-0.6748375574,-0.8504086162,-0.0465474234,-0.1815835625,-0.2979356474,0.997971086,0.3243729404,0.3119073509,-0.3535573506,-0.0698784832,0.943472407,-0.4962106548,0.4620342226,0.743233176,-0.7716955571,0.6995729758,0.0300797892,-0.9502797343,0.4840260092,-0.3795868442,-0.7811871405,-0.6861539992,-15.0688201148,-0.7231336302,-0.1458545964,-27.7086738653,-0.7950628196,-0.9101526893,-0.8614221539,-0.5422257539,0.5517005017,0.8790126984,0.5611670013,-0.8302520502,-6.3279046595,0.3357427804,-0.3592108353,-13.7121944008,-0.6524147103,0.0989120991,0.5501155909,-0.3997362218,0.1161858353,-0.3270035428,-0.8577852371,0.2625065547,-0.429169551,0.7284634315,-0.3648967105,-0.2169620408,0.2833918132,0.3099244357,-0.6089616777,-0.991575177,0.9603687731,0.5082334168,-0.42804725,0.9568571646,-0.4267358515,-0.7319467543,-0.8054349746,-0.6407750255,0.9173844361,-0.5674544886,0.7847980932,-0.2389983729,-0.1096238898,0.8240625794,-0.7965750304,-0.427919067,-0.1289572989,-0.9696590204,-0.9746513597,0.173550926,-0.9805746406,-0.1936554847,0.7420123445,-0.3092121997,-0.5287092683,0.4722280181,0.24170164,0.9157075781,0.232231364,0.3596820178,0.395252454,0.0436137405,-0.6992633675,0.1438866405,-0.7436160092,-0.6904685513,-0.5283808164,0.1753269978,-0.0480836298,0.1088439466,-0.2313598188,-0.0868515673,0.7749485058,0.2781394659,0.3087380592,-0.0003595355,-0.5255024917,-0.7524260419,-0.2771981111,-0.8372066637,0.3824793556,-0.9448998075,-0.6971129999,0.6237948332,-0.013630545,0.9476645764,0.7042946155,-0.7290888258,-0.1408800155,0.5396064846,-0.6657503542,0.3797243538,-0.3513615685,0.4867112301,-0.9503287239,-0.53265556,0.8610217405,-0.9551081729,0.5759997964,-0.790532272,0.6165716533,-0.3101622569,0.4090828997,-0.9942153094,0.3076224885,0.8098364445,-0.3988533621,-0.3112132013,-0.5256237821,0.2001772121,-0.977124919,-0.3152682227,-0.2857121121,-0.2246976666,-0.537909634,0.1018895313,0.9607175414,0.716893585,0.2053342624,-0.0337177211,-0.5612386256,-0.7492608075,0.796722144,-0.3684417284,0.2859708419,0.7267429643,-0.0201648262,0.9784263817,-0.0925944954,0.2439812281,-0.3099233237,0.7603309593,0.1844031157,-0.4609417067,0.9610528128,0.9912407242,-0.0989936299,-0.9093683639,0.1600587878,-0.0423772379,-0.0962174445,-0.2707436163,-0.6350484248,0.7001153548,-0.7938101941,0.6777788379,0.5011232234,0.0748587993,0.2710283961,0.1693548605,0.4242881117,-0.5771192471,0.3064097854,-0.8517656286,-1.4633586046,0.5644216211,-0.5142874872,-0.6059459062,-0.3314913162,0.3974601588,-0.1691727343,-0.6413515877,-0.4700890552,-0.9593304919,0.1128272636,0.3861407255,-0.4743131143,-0.6815993382,-0.9644947301,0.2191427795,0.0534273086,0.7917255527,-0.8878447746,0.5355441561,0.6623793198,0.7921610485,-0.198051535,0.1065684257,0.5328736536,11.4583270784,-26.4385975302,0.1034039318,0.9409285972,-0.1066114272,0.2742933141,0.3517055361,-0.5773149818,-0.6843041378,-0.5728375675,-0.9018437739,0.3793353732,0.6806347436,-0.9129369489,0.1290635945,-0.8783369555,-0.8059528653,-0.3507843836,-0.9457218226,0.0258272856,0.0813355523,-0.6251477866,0.1940219121,0.4115948998,-0.8767643121,0.6605385039,0.1198002941,0.4340029982,-0.4682202577,0.827451674,-0.8783332843,0.8437707975,0.9680384852,0.8733300847,-0.5004226515,0.9540936637,0.3311141728,0.355179862,-27.1814740919,-0.7855572129,0.2732951481,-1.7299806787,0.0219160008,-0.2263005501,0.8206098329,-0.9429557442,0.7678839919,-0.4407883211,-0.4543633596,0.7235683697,0.3687849994,0.431275132,-0.4187774803,-0.6802184243,0.8391639247,0.8852860817,-0.705632649,0.2797337387,0.8707361455,0.1093971029,-0.8335586085,0.7955124193,0.2595482292,-1.5731905679,0.6714050321,-0.0502128375,0.0417527815,0.2037305886,-0.2476438375,-0.1299357483,-0.468810068,-0.9693131095,0.7764390354,-0.9678030664,-0.2817358811,0.8638267816,0.4248086586,0.2630611848,-0.1018301,-0.7411700941,0.6570731305,-0.2170292888,-0.9564499667,0.5558165513,0.9608722973,-0.8201399415,-0.4436754546,-0.5488181818,0.4080400243,-0.6490338184,-0.0253204948,-0.3718335596,0.4808580675,-0.30122578,0.0573271753,-0.9725818766,0.2531877783,0.4119166182,-0.0924552258,0.3817798466,-0.6542686919,-27.7952376034,0.0820770541,0.6066473974,-8.7871830723,0.4337605954,-0.5564101241,0.7972887761,0.0773939609,0.6944199447,0.6833021498,0.8061829555,-0.4678948266,-0.396743651,-0.8166959311,-0.7495860184,0.4566869689,-0.4986996674,-0.891011588,0.175580724,-0.7920944855,-0.1567692499,-0.693054347,0.9374664223,-0.9491816934,-0.1843288059,0.1490542779,0.7001885556,0.6798515931,0.9943035377,-0.4144660519,0.5199229564,0.0189814416,-0.0277401687,-0.3842805185,-0.3923135796,-0.4739376013,-0.5368204713,-0.5288476893,0.7839270561,-0.7185137692,-0.8021687164,0.7252115962,0.1253610545,0.7942644023,0.9034036493,-0.0992314646,0.0605403713,0.7115175017,-0.778538637,0.9647437783,0.8585280442,0.4629049176,0.1466080684,0.3458955613,-0.8230927187,0.7893772508,-0.3969397764,0.0228352773,0.9030573239,0.8216637402,0.4739392721,0.7879909995,0.6417549812,-26.9385601322,0.8843360722,0.6880051122,-17.3560430954,-0.3959135269,-0.5558572408,-0.0308881437,0.7827689313,-0.8373846651,-0.5542084565,0.2022810111,-0.0489608574,0.1178626397,0.567536708,0.0633085507,-0.2996195773,0.7269587666,0.5656991731,0.0617719542,-0.5810167627,-0.0008765536,-0.532697382,-0.8717392718,0.7077214486,-0.1525878991,-0.3851276352,3.5046019334,0.4052928803,-0.7860074711,0.769374393,0.1982445981,0.5250989338,0.3697520512,-0.3793831765,-0.3931764285,0.3704001381,-0.7206190657,0.5266081588,-0.9046055626,-0.0564365012,0.2408566566,-0.5968842596,0.8665539787,0.5280767316,0.0517182059,-0.3951016133,0.2940929037,0.5493266722,0.6840897059,-0.3969474523,-0.73229688,0.2688191546,-0.9885420006,0.3214582185,0.3892731662,-0.0983887318,0.686108117,0.4499964803,0.5521762101,0.6706759241,0.9281857188,0.4169108029,0.0868423486,-26.2654885854,0.573819071,-0.5214455105,-2.3549472083,-0.7397600614,-0.3211624254,-0.3183124306,0.2788384192,0.6806317615,0.2734651886,0.740763763,-0.2671387237,0.0837621836,-0.7694698709,-0.130722687,-0.1498947985,-0.3576024486,0.4167202552,-0.4383479678,-0.6957630493,0.1507248374,0.4320718711,-0.2339908959,-0.6469036291,-0.9732822006,-0.7408545406,0.591170597,-0.0089903434,0.6828669338,0.874188821,-0.0367845183,-0.6649090812,0.739165214,-0.8793094774,0.9971581867,0.5563207054,0.5781740784,-0.2851803223,-0.6926721266,-0.6345600821,-0.6148338566,0.8759445894,-0.2904052528,-0.7792548525,-0.8251289052,0.7109940719,0.516625544,-0.2480951896,0.8891299616,-0.3706421288,-0.5833568588,-0.7961489857,0.8626585548,0.7852456002,-0.2494397153,-0.8053058783,0.3684860327,-0.2207371321,-0.7080918231,0.5561584011,-0.6345026503,-0.5601910125,-0.9280350197,0.5552285689,0.1265193641,0.3964674835,-0.2797826682,-0.9524770358,-0.2287581837,0.5293053748,-0.1628570923,0.6560907057,-0.7392215022,-0.1973457862,0.0892033761,0.3689405964,0.2627028644,-0.0795257896,0.3883871752,0.0809993332,0.1393144417,0.9184063749,-0.9689110506,0.1986468833,-0.2532402253,0.1565902157,-0.8756170587,0.4102619413,0.2812927958,-0.537844429,0.8967612728,0.5951001756,-0.0072191398,0.1296672526,-0.804687198,-0.9534487899,-0.140354391,0.960781892,-0.7801202812,0.3093367763,0.8982704432,-0.8792646869,-0.0690492026,-0.5142639815,0.8478113274,0.4779392262,-0.0168416549,-0.2153162485,-0.4943451248,-0.420946429,-0.1737507613,0.8244811843,0.3025457858,-0.6450062605,0.8165883345,-0.8957944054,-0.1052076578,-0.7884611712,0.1773288537,-0.7745718106,0.8561739817,-0.0957155771,0.7485431471,-0.0371842158,0.0722694311,0.5524212066,0.1087794868,-0.4141274528,-0.716232102,0.0811334437,-0.2756270919,0.9194006344,-0.8438395114,-0.5367249637,0.9583104888,0.9569662165,0.9675103567,0.1053680217,0.5243986761,-0.7922893182,-0.2679669312,-0.8567867481,0.4107834882,-0.2102743531,0.8558728231,-0.250732968,0.0322857571,-0.8498071029,0.673617349,-0.157153847,4.1533394129,-26.3320035078,27.4413236124,0.1814554533,0.1886393799,-0.9942325026,0.0007218982,-0.6327142153,-0.9777500759,-0.4478709921,0.7049615216,0.4685055975,-0.2483970074,-0.2584910313,-0.688596974,0.4778292296,-0.6946629702,-0.0257103457,-0.6913777963,-0.3960848297,0.9166633664,0.355817703,0.5875337254,-0.8537672906,0.2939270189,-0.274119629,0.8851948511,-0.3317225872,-0.4821956209,-0.4791798336,-0.8423425845,-0.0104774947,-0.3339542313,-0.0611479327,-0.5995885288,-0.8313399187,0.7635834093,-0.5735380301,-0.6219758462,-0.0707650441,0.9892995685,0.3931915089,-0.0139166596,0.609765118,-0.4228764395,-0.6400136193,-0.6865773933,-0.96405726,0.8355689922,0.0878851663,-0.8793166184,0.3107772346,0.121978821,0.2381963095,0.9837353658,0.6721169874,0.6437361399,0.2817315456,-0.5997998776,-0.4296605443,-0.4705230614,0.1629804548,-0.8569665763,-0.0477139645,0.6149429614,-0.3431727475,-0.4369331054,-0.0292585327,-0.1935591985,-0.3176187849,0.5657371255,-0.5586191257,-0.2591695762,-14.9376415774,-0.0906948939,-0.7104369296,-27.7487452558,-0.2517667346,0.8281324889,-0.9253948412,0.7360782927,0.6959358138,0.9474663075,-0.7244097647,-0.88226114,-6.2630885357,0.6452219762,0.6466092598,-14.0535226186,-0.1687759075,-0.3920936403,0.7098288555,0.1088235614,-0.98543818,-0.3250653729,-0.2366537767,-0.0980715382,0.0001803364,0.5151557555,0.1571813336,-0.266869578,-0.0739972114,0.5196241373,0.2916680471,0.1870199883,-0.8928269984,0.7248971174,0.0035412072,0.7592815031,-0.8809002812,-0.2082331225,0.5973763438,-0.6130366927,-0.3066271673,-0.004263622,0.9863740087,0.1688454425,-0.4653955088
   0.0144107032,0.6533652755,-0.5002613846,0.082348923,0.4694727944,-0.4972019256,0.8000146189,0.9803932577,0.7591208686,0.1131223709,-0.9856839661,0.0483441504,-0.4459933275,-0.8713732508,-0.409573942,-0.0241517711,-0.6806130499,-0.6395645091,-0.0087118547,-0.8499816784,0.7508608569,0.6381113339,-0.4487463036,0.317751468,0.8298211114,-0.9153097614,0.2370699782,0.5645349543,0.1904185049,0.4545206092,-0.748778604,0.3552425661,0.7362422432,0.5241390938,-0.5239308277,0.4618722423,0.6491260981,0.5429046647,-0.6742441763,0.1116450181,0.9394321043,-0.1672263112,-0.6087297844,0.691742437,-0.2087623592,0.0644420333,0.331997808,0.4226780794,0.2426410655,-0.3043135958,-0.0425817411,0.1485691845,-0.9116994606,0.0278615334,-0.2386311472,0.062140743,-0.1044442499,-0.7531005611,0.2608420642,0.4366203769,0.0238326543,-0.3546538981,-0.8101796673,0.6246323912,0.4322484712,-0.3311131564,0.0351145023,0.7015087838,-0.1498862499,-0.5031420137,-0.8533834635,-0.6436538981,-0.8911624898,-0.0782914416,-0.0086795816,0.8177033083,0.0193713938,-0.1687909946,0.9830898845,-0.9067935774,0.787024337,0.4154193965,0.3356496653,-0.3303708206,0.4128312864,-0.1811534813,0.8120241781,-0.1527299572,0.5705519561,0.6898633214,-0.4737063609,0.8845141829,0.5987254866,-0.1310193946,0.9959409798,-0.2684853183,0.5820493489,0.4093705629,0.8515260901,0.5361398119,0.0726912485,-0.0551646755,0.2453014696,-0.4957716545,0.0823765097,0.2181310657,-0.5776528023,-0.3280822695,-0.5112684276,-0.6638956513,-0.8132058798,-1.0261528009,-0.2681764974,-0.143387155,-2.2195093151,0.0598173232,-0.6247497588,-0.4286716398,-0.397427158,-0.1787098529,-0.6862247177,-0.7712561578,-0.2604367597,-0.4868434077,0.7905956545,0.0687074081,0.551992733,0.7693307168,0.416624111,-0.008074811,0.1593519159,-0.3813605304,0.5453645875,0.8851718699,0.7672146271,0.0742927152,11.8969835894,-26.5821695785,-0.4135598959,-0.2540645911,0.5801973734,-0.5540051991,-0.705525655,-0.8689143422,-0.2110910796,-0.6161664283,0.2754667232,-0.7331839428,-0.5102205822,0.1465113412,0.7286443996,0.818889022,-0.9130644572,0.724602929,-0.7552328097,-0.981590851,0.2954421522,0.2516742254,0.323672572,0.0315164498,0.2466315449,-0.4710770645,-0.023537128,-0.4838328087,-0.076290604,0.6372707287,0.963978138,-0.6555001788,0.9557569518,-0.4624756132,-0.3140981025,0.3332087784,-0.7907742548,-0.0436233807,-27.1625939416,0.3255389723,0.2885555931,-1.9705007054,0.3907889201,0.5660139993,0.9849381911,0.0997023524,0.532164501,0.6335257037,-0.2927478463,0.56210915,0.4911596924,-0.2253594765,0.8025104935,-0.4728732924,-0.3142028502,0.1564468013,-0.7799328293,-0.3962539113,-0.9722806698,0.9739779739,0.9521200584,-0.768560521,-0.0431522123,-1.7493811184,-0.1380392617,-0.2335022351,-0.5680309819,0.6636488298,0.8246444731,0.092761589,0.5112950727,-0.7306521098,-0.6619577274,0.7583058291,0.4650171423,0.5288511812,0.3283951756,-0.6960675195,-0.5592095084,0.1478007237,-0.8325239188,-0.8448068143,0.7420887016,-0.921777947,0.5576746035,-0.5598248668,-0.1396258853,0.1470188906,-0.5753867604,0.2506281374,-0.5949680904,-0.786457366,0.739445401,0.4953420572,-0.0780263034,0.9023166036,-0.3295209598,0.883515359,-0.478470141,-0.1418955572,-0.2368368156,-27.9685773429,0.6305642165,0.8458461362,-9.8791892561,-0.6124826331,-0.9801771341,0.2806162149,-0.45813306,0.8329067706,0.8750318342,-0.941475041,0.9808821578,-0.4402044094,0.4740436095,-0.6219393868,0.1697331693,-0.2369711291,0.8480375001,0.805293236,0.2131205749,-0.4227062236,0.4744572751,-0.1652738129,-0.1556310871,-0.45686561,-0.2342459317,0.3723890061,0.6100852216,0.302733898,-0.2831113259,0.6963800934,0.4431932736,-0.1452482626,-0.6627322622,-0.8778165465,0.038485917,0.2726642652,-0.1381732881,-0.8573372483,0.6081137206,-0.6092686584,0.8105466209,0.9924350807,0.0886430319,0.370419152,0.4845403438,-0.7783404064,-0.3016556794,0.956711767,-0.043705311,-0.9223883532,0.2769923177,-0.219205934,0.5229158001,0.1815465161,0.8435322653,0.5375929698,-0.1600807903,-0.3877947922,-0.9442878484,0.894877332,-0.2100272182,-0.5477991519,-26.1308837523,-0.6282118816,0.3738233409,-17.802686586,0.7705816497,-0.374841195,-0.3034374703,-0.9924968209,0.4562750905,-0.1723934755,-0.3592444923,0.0397638024,-0.4969537077,-0.5939560771,-0.8450281459,-0.0481722088,0.2982872909,0.9646845592,0.4701454397,0.6328287805,-0.4023937466,0.3397540924,0.9229017162,0.3415452958,-0.4033701543,-0.1379775352,3.6062193638,0.1203472562,-0.9211408708,-0.0190083127,-0.7839664622,0.8470343176,0.9347901812,0.5190562965,-0.1128352092,-0.743967666,-0.5487431418,0.3213442144,0.2679656547,-0.5115541136,0.2755445799,0.4863674081,0.1951301595,-0.3420088649,0.127688471,-0.036077013,-0.0980199467,0.4159209392,-0.2677497667,0.4820974292,0.506522472,0.5169002624,-0.130155614,-0.8715418267,-0.4257117686,-0.7182041478,-0.7947027336,0.8861785463,-0.2595673878,0.3651684363,0.0683619653,0.9289230585,0.2169454748,-26.4892883087,-0.0156181988,-0.8099913529,-2.386095913,-0.943992351,-0.5821025526,0.9283368911,0.6074627536,-0.0896162561,0.3631163253,-0.0138045906,0.3492213924,0.2356925037,-0.7655221957,-0.2058514621,0.9321590934,-0.8309237461,0.1622774199,0.9161560304,0.6387362406,0.0218625578,-0.2998033869,-0.7037107503,-0.761052367,-0.8963610626,0.6211448889,-0.2050770133,0.0421362438,-0.1763514107,-0.2931175152,-0.6890798854,0.1093824941,-0.8080156731,-0.1331929572,-0.4447474894,-0.2600089213,-0.1463112699,0.063002046,-0.1494297985,-0.213491557,0.7676189841,-0.7283426557,-0.8581175526,-0.5302661718,-0.0967673318,0.6053034464,0.3460842277,0.961311022,0.9432527905,0.5872874819,-0.1523240575,-0.5452627018,-0.0082757131,-0.2865532752,0.7762790599,0.6162219942,0.6862972426,0.6924761568,0.8881587918,-0.346880116,-0.4895724449,-0.8866533774,-0.7236658555,0.4976180711,-0.0945476688,0.8682311914,-0.8904668696,-0.2435531313,0.8325040938,-0.6510534203,0.3521313443,0.8195616828,0.0201235686,0.8227546784,0.4749951427,-0.6453198107,-0.7186035268,-0.1281903529,-0.8276962859,-0.7890384641,-0.0359560673,-0.6289071456,0.7679293566,0.6211807812,-0.3606716222,0.0177419546,-0.4459895059,-0.9073131853,1.0004879898,0.7923421435,-0.5852242745,-0.6593786149,-0.9454866739,-0.3710559745,0.0320481367,-0.7301883387,0.570863294,-0.7582781442,-0.5397376395,0.6943430804,-0.5087842276,0.0835803112,0.6961809487,-0.7362633074,-0.0252407326,0.0595608701,-0.4407647313,0.0699038978,-0.0881033975,0.3973272787,0.0413327131,-0.8648194216,0.7408262268,0.5807105387,-0.5541213425,-0.5751189362,-0.0558288762,-0.949075049,0.0270026836,-0.9030550371,-0.2518395705,0.0306246772,-0.0615388754,-0.7412169567,0.5099891135,0.28979405,-0.4613043961,0.594976021,0.2835493533,-0.3163919676,-0.4101993474,0.0507892917,0.2294369344,0.2528341187,-0.7828142268,0.1358629208,0.9061796862,-0.3614739519,-0.4843273643,-0.1077036824,-0.2290634712,-0.8263661207,-0.6296178415,0.0020901037,0.5082656303,0.7543049865,-0.1504282117,-0.5987907467,-0.3716294165,-0.4393797661,4.4506707416,-27.136579716,27.7645113959,0.8265236511,0.461144994,0.5748580294,-0.8105190658,-0.6608632958,0.8768011229,-0.5512785148,-0.596484182,0.9428567654,-0.2643466395,0.6145554138,-0.730553679,-0.1440028462,-0.3048457386,0.9069988457,0.2294383677,-0.7273153771,-0.8954626545,0.2735743536,-0.7606738877,0.2894764279,0.2576413484,0.4389721685,-0.0953370095,-0.9886816956,0.7938089614,-0.3193128514,-0.864303345,-0.0430113741,0.1903236674,-0.1872931894,-0.621009423,0.6273785457,-0.5815023817,0.8386112369,-0.6387577035,-0.7819177954,-0.2683370453,-0.6843430899,-0.3280242473,-0.8352895125,-0.9170192319,-0.7911215938,-0.6815520317,0.5733383857,-0.9315429192,0.3958263471,0.3922105645,-0.5241991866,-0.9765280371,0.0603130895,0.5236473361,0.1609193401,-0.7615345658,-0.3916981953,0.0530727242,-0.356106088,0.0176015208,-0.098466568,-0.7435475333,-0.6437747866,-0.034425671,-0.4715144099,-0.0175158723,-0.7682997427,0.8857067238,0.7774562507,0.0751506782,-0.3851974145,0.5806004811,13.9520471041,-0.0516004435,0.4882130153,26.6903425624,-0.5771547999,0.063141214,-0.6777891349,0.1419260276,-0.4271177481,-0.7211906119,0.7371020988,-0.6529987743,6.3084671974,0.8260898601,-0.8349521599,14.0603232432,0.8339668346,0.8836579292,-0.243605255,0.878856239,0.2334349467,0.7792333911,0.3179985256,0.9600255254,0.2715051728,-0.0119142191,-0.6908602063,-0.9234958106,-0.380348315,0.9488672752,0.1952985007,-0.0089345763,-0.4321528263,0.0851896781,-0.8121360538,0.457742848,0.9612053221,0.7126673852,0.3201403436,0.957891735,0.831168986,0.521555577,0.851891102,0.0014671308,-0.7984198491,0.2584823681,0.1183220938,-0.5335456319,0.1281621869,0.4873948106,0.325204614,-0.0046125787,0.6790682469,0.6436738843,1.0175368652,-0.8378014157,0.4976992589,-0.2191571998,-0.2455469331,0.939863106,0.8789794633,0.1311640454,0.1781377908,0.0052969919,0.8788285309,-0.0594575542,-0.4424181203,-0.1958743909,-0.427912319,-0.3888193634,0.166917967,0.2518032123,-0.491050175,0.1954094101,-0.1052296038,-0.6397567639,-0.1235312491,0.3978455565,-0.7024652582,0.1662135947,0.1889600702,0.2931355563,0.1295020351,-0.1340143781,-0.3900607494,-0.7433851511,0.5444048304,0.1320308575,0.818773587,-0.4610126223,-0.47206388,-0.2403917851,0.7533826313,-0.6929974895,0.9813622327,-0.3087154346,0.3990544259,0.0858251428,0.0854927705,-0.0946768549,-0.9220216853,0.2193131423,0.2891251741,0.4578695898,0.7981539654,0.3587682885,-0.377915183,-0.0175788297,0.6210383285,0.2315568667,0.7147969861,0.873291631,0.3408602043,0.3219318878,0.8783540844,0.1323097799,0.438891158,-0.1876207732,-0.6667465774,-0.5321924505,-0.7481118708,0.1825010463,0.9667875625,-0.3280107607,0.8435855459,0.0659426947,0.1902294157,0.3970166161,-0.3316437573,-0.573822023,-0.3742607188,-0.5457528559,-0.8711895111,0.2830118038,0.4780999362,-0.0715295024,0.0580271253,0.1482009053,-0.8080920798,0.0835501192,-0.6133984896,0.2974013517,0.8778970127,-0.3449462847,0.2386032341,-0.4073893893,0.2160818338,-0.9967546433,0.4109663325,0.2502495678,0.0821228053,0.5674112957,-0.5167928543,-0.7104242702,-0.1121897583,0.9597359773,1.090856189,-0.7811046039,0.0010253613,1.1480574085,0.8238759541,0.7268302233,0.3790270746,0.4560499112,0.6472369028,-0.584482838,-0.1079237729,0.7777935329,0.5453301189,-0.3147447844,-0.0609273284,0.8416121655,-0.3563783578,0.1883407378,0.5917986618,0.9666790467,0.2399863204,0.0227389776,-0.0336271503,-0.3464383789,-0.0537247206,-11.7216621519,26.1382433306,0.8355964321,-0.1763855319,-0.2859106724,-0.847778755,0.1050570201,-0.0194740507,0.4970086291,0.8051918835,0.245206105,-0.2337313904,-0.1794752598,0.7838005234,0.6663622857,-0.5840926431,-0.5939686103,-0.4075372624,-0.0017082027,-0.9221048496,0.0226125389,-0.7506506015,-0.8913349809,0.9679290943,-0.1982833145,-0.3610417683,0.0084283647,-0.8390624198,0.9606748473,0.7855594252,0.6114676945,0.2668092394,0.0478882666,0.2750009582,0.0788393918,0.8036771632,-0.3547742952,-0.2097021721,27.0664241373,0.688524149,0.8781484652,2.9314935189,0.6226173198,0.5142640514,0.6409076889,-0.4902819311,0.5605305131,-0.72753623,0.9301682867,-0.5017450051,0.8901385979,1.0015026478,0.5816260088,-0.4003458078,0.3726492026,-0.3220623218,0.6794765076,-0.2425239634,-0.1878137428,-0.8165380937,-0.0389072725,-0.6712017367,-0.6398280563,0.5239045204,0.3490265186,-0.1490893768,-0.6576322317,-0.8295805595,0.5236429814,-0.8006917463,0.3914026203,0.4331115167,-0.3538111578,-0.4135603746,-0.5752253957,-0.833756555,0.9222895314,0.7746767561,-0.2551524582,-0.9167487613,-0.6515541259,0.2486428473,-0.0150287149,-0.5915306905,0.9601641044,-0.0617596281,-0.9510423595,-0.2973807965,-0.2926777432,0.0603082355,0.6836893583,0.1384438438,-0.2878632717,0.8067236903,-0.304158395,0.788205824,0.0104529013,0.5577934641,-0.8544381389,-0.0374109463,-0.3442024653,27.5661090423,-0.225025582,-0.8688574789,8.4917845407,-0.7270842223,0.7635775122,0.0203606558,-0.1034479735,0.2393742664,0.6897221776,-0.8299379955,0.6003119178,-0.2544233388,0.0743426069,0.6852631733,0.2098800953,0.4276446621,-0.2926694219,0.9936671534,0.6659803592,-0.6338741053,-0.3655198858,0.3306280779,-0.9593090966,-1.2696183831,-0.3121223136,0.9223635383,0.8386039372,0.0113189428,-0.4320618025,-0.4198871474,-0.7302769442,-0.8916871987,-0.9450159946,-0.3209491129,0.94912671,-0.5523093674,-0.476912925,-0.3602250795,-0.2574579608,-0.3298409543,0.4217673685,-0.3578872527,-0.8198433492,0.0538387646,-0.4255487057,-0.8791031289,-0.8545751815,0.8056482609,-0.2440170784,-0.0631527693,-0.4012405886,0.3975279317,-0.3624799716,0.8243126889,0.9998328004,-0.6493624626,-0.3297785078,-0.656674129,0.7847879787,-0.4618164166,-0.1711852288,-0.5975482417,27.0201256232,0.4111090754,0.2855678885,17.895621689,-0.5260955626,0.4795296821,0.6927186344,0.7776068716,-0.9921175858,-0.0122722437,-0.5845169518,0.9099240841,0.7672505935,-0.3992810602,0.4095023782,0.7832399371,0.5803866085,-0.8554737476,-0.9767335972,-0.0713443977,-0.5957851121,-0.0960358221,-0.7911643312,0.9596995765,-0.8132658576,0.1256154443,-2.7901152522,0.6230395753,-0.1049873706,-0.3990950239,-0.1057988371,-0.268254591,0.9215806543,0.8024611977,0.4263200988,-0.3189225997,-0.9321800924,-0.7293725145,0.309622941,-0.1853770617,-0.6921973946,0.6392572994,-0.2143817147,-0.22783552,0.8288420501,-0.790993761,0.2818102626,0.2578224441,0.6011514664,0.552340658,-0.0269184631,0.6391882003,0.0209291738,-0.0693626644,-0.1459669418,0.3687010244,0.3628871725,0.1144627247,-0.4380225194,0.2412284747,-0.1287944544,0.033442234,0.9796191899,28.0034753949,-0.579422811,0.9816029321,2.8813764649,0.4586297511,0.1128205837,0.9851848187,-0.2036601732,-0.7423072086,-0.9632226394,-0.7131997087,-0.3368962974,-0.1190800395,0.9542340336,-0.5662197331,-0.9617535306,0.632537766,-0.6377468556,0.5266624946,0.2979989764,0.2908462337,-0.1043872486,0.7298066203,0.6246617088,-0.7715110477,0.5502647717,-0.3131549042,-0.6082973523,0.3656619354,0.6947373055,-0.6053397521,-0.0139697592,-0.9651388341,0.66674993,0.8492825932,-0.7694274533,0.1558452312,0.9970068287,-0.0666330054,0.5236927923,0.7426474808,0.8904641333,-0.0014048818,0.607436909,0.8848054453,-0.1387106361,-0.7362028892,0.2749475953,-0.800356032,-0.9033242475,-0.73481707,-0.8928983796,-0.9244214782,0.1028141932,-0.895346022,-0.6629414708,-0.4858754836,-0.7397373744,0.0514790186,0.11225725,-0.2614581663,-0.2039619627,-0.0259133966,-0.3685853549,-0.9293830005,0.0081945102,0.0923003763,0.1589367291,-0.7804640775,0.0072800896,0.6536329637,-0.5306670442,-0.0172805491,-0.9404738854,0.0605320449,0.38890087,-0.7226054772,0.2621998186,-0.5821132809,-0.7937695143,0.8045581949,-0.0289328273,-0.0915399378,0.0606920359,0.2399162058,-0.8256634335,-0.682860123,-0.7492440709,-0.255987968,0.6788040291,0.1457886005,0.630762762,-0.3558104102,0.3473057038,-0.4026660387,-0.9774876434,0.4879991794,-0.9638923949,0.3319815113,-0.3879888388,0.331551569,-0.1535569297,-0.8929938439,0.5040254132,0.508101665,-0.3762553851,0.6560492307,0.9247942406,-0.1318293254,-0.0564054947,0.3457167209,0.9763710203,0.8233421014,0.6237244155,-0.9265957752,0.4251855952,-0.0759896354,-0.341621445,0.8754746576,0.1548115112,0.5466346778,-0.5289941244,-0.9509667849,-0.9712204093,-0.975762224,-0.3422840749,0.7489581479,0.8416564089,0.543481384,-0.0762647082,0.9824755339,0.1749737788,0.2261844211,0.5168497866,-0.5665704673,-0.2221897081,0.5474182075,0.0952873922,-0.4058006619,0.6528690994,-0.7841068554,-0.3246312103,1.0014526842,0.7592919699,0.9244146922,0.5236652135,0.2805130355,-0.4385565127,0.6968699988,-0.246763462,-4.2829337809,27.9551169722,-28.0697984732,-0.1635737823,-0.4346895282,-0.8241157691,0.7544867406,0.2931157159,-0.2509000345,0.0492817403,0.868665748,-0.6537707102,-0.371655704,-0.0508464563,-0.9109404916,-0.9416502693,0.0570064954,-0.4647056812,-0.8888237846,-0.7215198689,-0.9881192632,-0.1139038097,-0.5774923442,-0.8074912084,-0.3879501964,-0.9395310201,0.7512003247,0.7249640506,-0.3659098436,-0.8720378393,0.5201807227,-0.1667721279,-0.503360264,-0.2010191897,-0.1297998259,-0.6058524763,0.5184200182,0.9268791431,-0.5822318159,-0.0662917305,0.1913439551,-0.4998488873,-0.3513315019,0.7864182942,0.9980433842,-0.9409499501,-0.2326918485,-0.3467805655,-0.6859942811,-0.2332300263,0.372623634,0.9745455235,-0.8401434292,-0.1601464281,0.9431332033,0.5711098021,0.4117136723,0.7990603995,-0.047616611,-0.6802939587,-0.6332822548,0.9357614748,0.6548576854,-0.662945157,-0.1310155972,0.2383454828,-0.8593237081,-0.9918185526,-0.0407049374,-0.4157071472,0.6906463923,-0.7997882507,0.3302027852,-15.211676357,-0.8962291751,-0.557298441,-26.6452542647,0.3962960108,-0.0041377715,0.2853320417,0.322673799,0.3943877862,-0.1759856887,0.5180475065,0.1364404408,-6.3239031408,-0.3754812487,-0.8484417402,-14.0230287268,-0.4541042847,0.9829919545,-0.8051062,-0.0166941003,0.1292159453,0.5037759486,0.6520225886,0.3975923908,-0.0340013237,0.7402439105,-0.1919684246,0.1352168208,-0.293847734,-0.5548000592,-0.5260396158,-0.9966446815,0.6637690086,0.239560305,-0.2408544727,-0.5547508305,0.0928716545,0.948967085,0.1386699991,0.7299012952,-0.8911048241,-0.5018737591,-0.0320196536,0.2423185459,0.3071428378,0.3722632536,0.2720549967,-0.3591301986,-0.7722646926,-0.1673246946,-0.6081303131,0.6806183169,0.0450438972,0.663073862,0.6068843698,0.0502947391,0.4504476696,-0.5792540219,0.456525092,-0.032602045,0.9221268005,0.5493095964,0.7348382427,-0.5054544257,-0.8845484534,0.7434718768,0.1171980122,0.4148113345,-0.038154187,-0.5022434191,-0.9440115017,0.7035223088,-0.5834730584,0.2007282887,0.6906107478,0.7740110081,0.5223486088,0.4996518455,-0.8664892224,-0.2102658566,0.0171134805,0.6412390942,-0.6888117321,-0.1520367818,-0.3266720072,0.632837927,0.3530398345,0.1537110008,-0.407562301,0.796792918,0.7003901327,-0.2740541291,-0.9072444129,0.6388948154,0.2967405849,-0.7448646935,-0.4552388826,-0.4157359614,-0.2343378751,-0.0461223044,-0.9761294162,-0.9209658064,-0.0897137241,0.8683394204,-0.4288555658,-0.5106509594,-0.5049842312,-0.3856701073,0.7490415499,-0.9281944146,0.1576825015,-0.9755317148,-0.7083026885,-0.7793011709,0.6032679509,0.8225807632,-0.763335644,0.0536711776,-0.545226621,-0.4095564289,0.4382859045,-0.4806459244,0.381693934,-0.9275514709,0.6297438815,-0.9997933673,-0.7018006882,-0.6239393499,0.7467901959,-0.182869844,-0.60644149,0.6498355856,-0.0292178455,-0.9246989179,0.6995402119,-0.3522827801,-0.7980782368,-0.4867386869,0.2895090938,-0.795125771,0.2121221701,0.3366706096,0.9559058279,-0.5657934114,0.9160580065,0.2157845784,0.8077249603,-0.5504203141,-0.5584773874,0.0171509541,-0.7281028005,0.3938032313,-0.6458787002,-0.8729920016,-0.7145593973,-0.5302025066,-2.1745635706,0.3967527122,-0.6969345739,-1.1828754655,-0.1072823511,-0.0390130415,0.907656289,0.5290624741,0.3993663657,-0.9388872172,-0.3915071883,-0.1262372018,0.2388418101,0.0769579222,-0.5905027982,-0.7723300426,0.9673545595,-0.7299350888,0.8395782375,0.6616290193,-0.9490424541,-0.9941447804,-0.6657533083,-0.8114931962,-0.0407263455,11.5071257568,-27.5423233394,0.3952404908,-0.7018568457,0.5299637615,-0.5391621236,-0.4522303366,-0.5854733238,0.6959537981,-0.0620303073,0.1380114646,0.1609767502,0.2570743494,0.6518673571,-0.0306115874,0.643781378,0.7163933302,-0.7297669249,-0.4525294579,0.9770418212,0.988242938,0.4016460794,-0.2156073269,-0.789027488,0.0665995942,0.8877681616,-0.9778556919,0.4206645181,0.9137074697,-0.9644544229,-0.3127993042,0.8053322193,0.4662029823,-0.0685570904,-0.9005115132,-0.7664112254,-0.6580378428,-0.7104818454,-27.830433781,-0.1816367604,-0.6909577228,-2.2315805142,0.8615204675,0.4734473703,-0.5461717806,0.2535887899,0.7863839875,0.7267165283,-0.5599433468,0.6458611926,0.9729556294,-0.555415371,0.195418773,0.0675466179,0.3926377677,0.8246595665,0.9772328503,0.8814449954,-0.6218242157,0.5229431176,0.2977973063,-0.0915448799,-0.1036615569,-1.7920882748,-0.0574990563,0.1353176742,0.7754309411,-0.6066571098,-0.8809854147,0.1909233954,-0.9067011753,0.9859805068,-0.9621339364,-0.1862900512,-0.3150854147,0.7819644633,0.234701339,-0.6173583931,-0.3403451428,0.5326392221,0.1251497719,-0.8726384376,-0.133921821,0.0051619972,0.3214080174,0.9570084998,0.7503331608,-0.779515838,-0.4967517886,0.3204637062,-0.1623537907,-0.9539085103,0.0002403271,-0.5236266698,0.2107424734,-0.461489384,-0.0728336119,0.3247045631,-0.9644762438,0.3339867078,-0.0599764337,-27.7933059025,0.9192641603,0.4347707526,-9.747887175,0.6478222013,-0.4651478115,0.2713857884,-0.9862775456,-0.034987191,0.3904376081,0.2874433257,0.500849667,-0.203165349,-0.0805604275,-0.405306689,0.848020021,0.6851404477,-0.1252578789,-0.8459094751,-0.2826201389,-0.7019367103,0.9751559405,0.9140810214,0.5653820494,0.1655646813,-0.6538143672,-0.7427654126,0.8261719492,0.8829260749,0.8230228341,0.9481599105,-0.8817617406,-0.6009477792,-0.1466115823,0.8684663755,0.4856439465,-0.2469899541,-0.7131725118,0.6875172174,0.4175702338,-0.1496734604,-0.7776407317,0.6962598307,-0.1781157333,-0.9321887724,0.368296904,0.7490572278,-0.9886973666,0.9294990941,0.2119114351,0.395816666,-0.7650838188,0.6245238045,0.6088306569,-0.8468390285,-0.4278749903,0.0943645879,0.5827450702,-0.6151223635,-0.733845553,0.2007892536,-0.4106224687,0.8431172614,-26.3083787644,0.9404860569,-0.6456836263,-17.5434770657,0.864426071,0.9873808661,-0.0324612201,-0.2204699986,-0.2369082416,-0.9474857358,0.5643712208,0.512665702,-0.6645783918,-0.5889197286,-0.8845349315,0.9739247832,0.4861418241,-0.5393401092,-0.7573492133,0.7071929146,0.9171881137,0.6388884764,0.2899106348,0.199019187,-0.5941975278,0.0014623774,2.3940381993,0.9354572536,0.9664866516,-0.8241147229,-0.5475904364,0.3077896655,-0.3797593708,0.7835027247,-0.6465876304,0.2363709834,0.6908471683,-0.5670103511,0.4697296079,-0.3306675086,-0.9930788267,0.2561906705,-0.3449882286,-0.7023686205,0.0208913216,-0.6399334492,0.546700431,0.0900342481,-0.5857429495,-0.7227278824,-0.0948086002,0.6029109979,-0.5338596362,-0.6798348684,0.481290516,-0.3150358856,0.3900002827,-0.1730154378,0.3002991377,0.6323232549,0.1364441229,0.2736455312,0.8231136604,-27.1018991576,-0.1034247953,-0.6130311485,-3.5470643522,0.2265302593,-0.4273339934,-0.2001291148,-0.7113952717,-0.4479186735,-0.1333538934,-0.9316693561,0.4049739129,0.0571515707,-0.3195645441,-0.2043417538,0.5405898578,-0.9859750725,-0.3927432005,-0.5718532312,-0.9753208363,0.6977176816,-0.8992705045,-0.4418294919,-0.1968057038,0.8917879254,0.0273122114,-0.1541371162,-0.7231913666,0.737794865,-0.0518007784,0.1931931157,-0.9383769424,-0.6991261259,-0.4961043894,0.2377994105,0.4655601726,0.2774820146,-0.6517508976,0.4675413882,0.6303689849,0.2863980717,0.8627954564,-0.4063040176,-0.3348378776,0.6460475363,-0.7259893111,0.2529768644,0.6105609946,-0.2970684402,0.4641230739,-0.6858280586,-0.0039586366,-0.2423157919,0.7238848769,-0.7560121632,-0.5639034142,-0.6603085358,0.6750105206,0.3910595336,-0.8589013747,-0.0710371572,0.6993759387,0.5294959033,-0.7298178341,-0.3884410993,-0.9279140604,-0.364005325,-0.5632320015,0.5785956839,-0.2600915598,-0.7649537564,0.1640656952,0.3522590319,-0.5497483886,-0.7864158905,0.3521652956,0.2355722942,0.2833216198,-0.4241223517,0.5087482957,-0.747911385,-0.1986028975,-0.802860419,-0.7626229754,-0.068465859,-0.174262362,-0.8059604808,-0.4833307483,-0.4697656061,-0.456340329,-0.4316978128,0.8451815817,-0.6738794256,-0.4917371477,0.9111108418,-0.7726556972,-0.8441705165,0.8787109183,0.0867493337,-0.9614184407,-0.6523377454,0.4998660786,-0.3760992791,-0.3228110619,0.9462960047,0.8581195061,-0.4097138387,0.9328021697,-0.187690961,0.1715887587,-0.1597581435,-0.7479116703,0.4457128494,-0.977886155,0.7067635512,0.7465989982,0.90562775,-0.5395457912,-0.0205148014,0.5646838974,0.2928702677,0.1577215668,-0.3016927172,-0.4473894703,-0.2805193322,0.4854429569,0.0598445782,-0.3565417104,-0.6118665762,0.8200380497,-0.7052143082,-0.9321355771,-0.4718365399,-0.9482541026,0.3115195212,0.5508934004,-0.0594275196,0.7180092279,-0.7218975412,0.4545616591,-0.086281854,-0.0091792571,-0.4001541366,0.8880871061,-0.1641317116,0.8557953454,0.6534788087,-0.7687080537,-0.9753135338,0.3776131513,3.867202238,-28.0853834533,27.9139438195,0.4624373974,0.6748610624,0.6055006404,-0.8944697642,-0.712389955,-0.1794142402,0.700404978,0.9849431079,-0.8276848941,-0.0620064742,-0.6284303028,-0.8080325573,0.8475300183,-0.420346268,-0.8311397432,0.2069479305,-0.2718240092,-0.6635989256,-0.1422745527,-0.1206008348,-0.4684049335,0.7419250847,0.700783643,-0.6289575573,0.107651438,0.7367485753,0.3644291851,-0.4839730309,0.7850781792,0.900741364,-0.692808088,-0.982849988,-0.3149031191,0.141905147,-0.2114062471,0.3330942559,-0.6784431132,0.247923863,0.3044955748,0.430672379,0.4209739854,-0.6491711676,0.4587483234,-0.7154555886,-0.1852875775,0.4951960915,-0.8604886911,-0.4851298961,-0.8901966921,-0.1714836428,0.1563112883,-0.1935836808,0.2172630306,-0.8759295696,0.464151927,-0.4827133804,0.839448264,-0.556346752,-0.1330854402,0.3645161212,0.1985757908,-0.4297515358,-0.25981186,-0.7706164551,0.5206687372,0.9044852109,-0.3554569007,0.298579235,-0.7196805949,-0.052349692,15.1752785618,0.3463684561,-0.5757631613,27.7238957022,0.1082074035,-0.4470379622,-0.8696845175,-0.1725869853,-0.4572617122,-0.3506926008,-0.0945256123,0.887362574,5.6341645186,-0.7550597942,-0.4423492261,13.8167005675,-0.3609257838,0.6962468146,-0.111799957,-0.8945926183,-0.001273019,0.7182849596,0.3993043126,0.1365386428,0.4121448477,0.0485741242,-0.3063628169,0.2197969168,0.2230366392,0.836487917,-0.9701643271,0.5871491907,0.7529011086,-0.5487968977,-0.782165799,0.8063889739,-0.3133813607,-0.4271041346,-0.3950970908,0.0669595369,-0.3224102142,-0.8665364963,-0.7966286737,-0.7251089668,0.5067047007,-0.4730694666,0.5409730812,-0.5218963455,0.4212259348,-0.1512833614,0.0022497767,0.4984285492,0.4692725483,-0.1652769184,-0.3082442619,-0.380846832,-0.2443699951,0.7374096122,0.2699440172,0.5922092466,0.6030984223,0.1148241333,0.3810169254,-0.9073240987,0.0182058227,0.5444203546,-0.1273407697,-0.3386608892,-0.5053063556,-0.0633619887,0.0952981034,0.2356735574,0.9397776259,0.116766102,-0.1627246708,-0.1768011119,0.3490202701,-0.9224912861,0.266258777,0.5835612943,-0.4634698582,-0.7615613199,-0.0278763005,-0.0196336216,-0.5688279919,0.9400978347,0.3345131813,-0.5339716185,-0.1285036158,0.4572389093,-0.0885057778,0.6937038746,-0.7687673299,-0.557177584,-0.264394827,-0.8539570012,0.1029766062,0.7314292767,-0.5362547179,-0.1853995313,0.0226662758,-0.5795035511,-0.1515404325,-0.7512451402,0.0558879546,-0.5628919583,-0.781974583,0.7899411858,0.7261387097,0.8368246795,0.5116895144,0.3913256819,-0.6989488332,-0.9692982623,-0.0845409108,-0.4119359571,-0.4880925454,-0.5370244872,0.1656854547,0.8991519876,-0.3442457313,-0.1369307076,-0.6670897799,0.3762414296,0.581186486,0.0451330136,0.6902048607,0.3728524302,0.1914615048,-0.8364158913,-0.5399523983,0.1870660189,-0.2748275897,-0.2787698925,0.4053589501,-0.8995161641,0.5839630715,0.0162239422,0.072517582,-0.5687796473,-0.1897999475,-0.1215017264,0.2748793377,0.3357559521,-0.4953922308,-0.6820381489,-0.2110913236,-0.6268432975,0.0381397571,0.3699646261,0.1302590769,0.04871666,-0.5060501964,-0.8098842722,0.8741675408,-0.1036218188,1.932674523,-0.5074337739,-0.8531535381,0.9842357493,-0.9142130932,-0.4786318233,-0.2545878086,-0.8984017374,0.9416509278,-0.4146140576,0.0246271131,-0.1542508107,-0.4278496773,0.0019640199,-0.2372813484,0.3950082068,-0.4697388401,0.1730775418,0.9969462117,0.6631888855,0.9862597257,-0.6933340291,0.9020417209,-0.3303069862,-0.3279067694,-12.2578988909,26.8973359859,0.8147026907,0.8238310532,-0.1263999955,0.2280475803,0.7021253655,-0.3975890753,-0.1531566366,0.3412724123,0.3132384535,0.4110436429,0.2854143525,0.1318912966,0.3962803613,0.9717171833,0.7054048019,-0.9945518158,0.6121490259
   -0.8268250759,-0.1931752603,0.2736664214,-0.6796780564,0.0649331089,0.719024832,-0.0978797122,-0.9474915636,0.0962964802,0.3791309991,-0.5714819949,-0.0904732,-0.1563998366,-0.992722608,0.0450229713,-0.7368104868,-0.3171640499,-0.7889155905,0.4309881399,27.0203402865,0.906238579,0.9342662597,1.8957286911,-0.2800722586,0.2303083235,0.0744232039,0.6971188995,0.6095377408,-0.4479463953,0.451331533,-0.1882299695,0.1909423269,-0.571514599,-0.2873460034,0.1291410023,-0.9379704131,0.9634308208,-0.075627717,0.8898354105,-0.0818902755,0.1658562341,-0.6846764265,-0.9225315081,0.3908809473,0.5287490285,-0.829407975,-0.5663934737,0.5375280162,0.0920740025,0.452926889,-0.9168066887,-0.6091798917,0.1353045448,0.2674264334,0.3557311524,0.2605430259,0.5352765876,-0.7517313986,-0.1725741964,-0.4410707,-0.5311915948,0.6892432506,0.5560367308,-0.331844651,0.2309631033,0.2483086208,-0.1792420017,0.2172119765,0.1537985312,-0.4323099823,0.8568276476,-0.2799154789,-0.4199363663,-0.354144461,-0.2327200359,0.4708939302,-0.1248152725,0.2401600028,-0.8078112492,-0.9360129077,-0.7262524041,0.2853705915,27.7909015489,-0.5808444228,0.6627645098,8.856010924,0.857890981,-0.5359749933,0.7426891495,-0.2494150231,0.8912840939,-0.7811377167,0.104165708,0.1818681558,-0.4579839566,0.3446108182,-0.4603123208,-0.8260644247,0.5413787035,-0.9780213276,-0.0836376136,-0.644037731,0.0691362241,-0.4004133445,-0.9067310515,0.1188345164,-0.7495568368,-0.571695033,-0.245390209,-0.535766359,0.1992777552,-0.3830716525,-0.7657929488,0.2931213988,-0.0009224691,0.4389666095,-0.5174718359,0.624268809,-0.1969941895,0.2679283772,-0.3783212815,-0.2574563505,0.9184670204,0.8949550667,-0.8590480692,-0.660801258,0.6021010509,-0.166199162,0.852875048,-0.4267429737,-0.0777733515,0.1924403844,0.3153894585,-0.290516823,-0.3643635566,-0.2494997455,-0.3827010249,0.6343283827,0.0747771555,-0.5474140808,0.5160256611,-0.7560368842,0.7878547135,0.8468846797,-0.2705072899,27.9580336146,-0.8390313872,-0.439509117,17.5525004275,-0.7506477359,-0.9394241415,-0.652830389,-0.622870137,0.6016936494,-0.5356834462,-0.6446066583,-0.2965740057,0.4671594179,-0.5661823573,0.7156024311,0.5353629948,0.1018380917,0.3139056512,-0.4057466666,0.3516359557,0.4686059463,-0.7679975695,-0.0565647592,-0.3344131493,-0.613845153,-0.3659583814,-3.0287396965,0.6459938046,-0.6314484207,0.3938329113,0.9835457096,-0.2287744925,-0.1395497311,-0.2832868848,-0.9848622048,0.0935456989,0.3050104518,-0.8564243728,0.3076993026,0.3779383087,0.1257711783,-0.0304230374,-0.7408106911,-0.4729718221,0.6731323671,-0.4674944072,0.1141316987,-0.5768299596,-0.2880245228,-0.2281587532,0.1158960074,-0.7161668526,-0.88730999,-0.3153314617,-0.0056924469,0.3891965723,-0.7449858255,0.6466759304,0.4783604066,0.590297435,-0.5980502,-0.1197912682,-0.6761400756,27.7801517311,-0.111380358,-0.9975603709,2.4668687283,0.5124406382,-0.4749868679,-0.9933418704,0.7621466133,0.2289377157,-0.4569980852,-0.4885847931,-0.4366771923,-0.2754901302,0.9899650521,-0.0499525412,0.2689496115,0.7366390439,0.2744730613,0.8682082498,-0.0958230149,0.2804601346,0.0368469137,-0.6745873979,0.1705713788,0.3009322025,-0.9277709947,-0.5960709565,-0.2925647343,0.8042084609,-0.9566196848,0.6104768263,-0.2941760242,0.8889356691,0.9073591439,-0.9975728972,-0.2383898383,-0.2034386372,-0.3294726795,-0.9928545646,-0.6289928394,0.252812697,-0.5651824521,-0.5594714662,-0.113940384,0.5613408262,-0.0942463301,-0.5158631941,0.4049401986,-0.9511235047,0.5230693757,-0.4822830222,0.2591535727,0.2413020911,-0.6997037624,0.7064150358,0.1012862384,0.0553646007,-0.9005466101,-0.7147198655,0.6994451197,0.586674042,-0.9528472788,-0.476009638,-0.2383809771,0.7352336353,0.62515433,-0.8000981165,-0.5097669819,-0.4462426882,0.9299873786,0.0109529507,-0.6833948084,0.7715756577,0.4558213833,-0.2040935855,-0.2012372052,0.6651733095,-0.6276423466,-0.1380732244,-0.7958586133,-0.3633665022,0.9289665648,0.8167345512,0.870109597,-0.485047291,0.297093417,0.7883562853,0.39573662,0.6085558215,0.6986866261,-0.9319227727,0.8578630404,0.0896820029,-0.6807570519,-0.8461387522,0.6145538991,0.8102099496,0.8412387899,0.0015234419,-0.1810323702,-0.325345382,-0.0143775313,0.4717666739,0.8779566462,0.8700342576,-0.0071751394,-0.9671341807,-0.9198942531,0.6972266147,0.5461359085,-0.1187915222,-0.6293039253,0.4805408321,-0.9951962207,0.0417649995,0.1186864584,-0.260122788,-0.6259688042,-0.3080934201,0.9348332042,0.2591678275,-0.2703526959,-0.2202432787,0.4010031567,-0.3964210189,-0.3725453474,-0.0554969866,-0.4637306677,-0.0035718127,-0.875965832,-0.1699201425,-0.7592477986,-0.0906509527,-0.8527957705,-0.0750936724,0.9867434662,0.8050739259,0.2729049757,0.3318983451,-0.9560435146,-0.8741677144,-0.8767080727,-0.3055047578,-0.5767983869,0.1832757847,0.9985213809,-0.4210005113,-0.5731409434,-0.8855733137,-0.0459706893,-3.6717420627,26.6969114274,-26.3796317056,0.4551964821,0.8725404243,0.1005802595,0.5607018759,0.8965553667,0.7564549631,0.426518077,0.6640733747,-0.4939067296,-0.196158715,0.2849850258,-0.1580374368,0.6227311008,-0.4019622746,-0.071401455,0.4023726908,0.7494303618,0.5098671026,0.388345437,-0.943245059,0.599660496,-0.5331150028,-0.7440456255,0.6518205859,0.137708376,-0.8625571077,0.8197262024,-0.7780953578,-0.2674450267,0.9260289853,0.3978930227,0.2138167875,-0.191490758,0.3572475583,-0.8496074305,-0.7788853395,0.162277482,0.8789998533,0.8222627479,-0.7732106931,-0.537696532,-0.5969616389,-0.9531266929,0.1905048335,-0.3468963344,-0.1292082512,-0.3573830499,0.8748206773,0.528806919,-0.2531257438,-0.3022188757,-0.1103015389,0.5569428872,0.3848778303,-0.6619826191,-0.0381367679,-0.7618994555,0.4571688931,0.9704131948,0.6026896952,-0.7208275106,-0.3784205415,-0.5328471027,0.9525058197,0.1463977311,0.3632005262,-0.9189795207,-0.617821233,-0.1664244205,0.7613119167,-15.3483100392,0.5189989317,-0.6114068205,-26.5278619194,0.1594866331,0.5947668394,0.0061067284,-0.2950751026,-0.6774893325,0.9127495439,0.429886933,-0.6303477964,-7.2147319062,0.4568984737,0.26194101,-13.8860806637,0.5705409409,0.5889559947,-0.578233982,-0.1058465901,0.3974239872,-0.4941038783,-0.7625483638,-0.4201739929,0.0775081383,-0.8104443886,-0.2403143732,-0.7814240108,0.9143583754,0.6002961304,-0.6955027325,0.1051935547,-0.3476287671,0.1495001295,0.4201631756,-0.6292255331,0.7829391035,0.9184795821,-0.1481066238,0.8547439297,-0.5312231472,0.6170605365,-0.0188653798,0.3197061498,-0.1457553798,0.8597296375,-0.5686799977,0.3566859084,-0.2657145126,0.0545287545,-0.7298410615,0.0858031379,0.7528218009,-0.959849335,0.7496193351,-1.0322603236,0.5999081419,-0.8763714341,0.4113576309,-0.2843686579,-0.7322107265,-0.8123749389,0.0498631398,0.0828628627,-0.3049839423,-0.5026561176,0.173451289,0.0636333532,-0.8640108115,-0.1895640733,0.706291901,-0.6392735975,-0.2684532142,0.7809694662,0.2963154296,-0.8154538275,0.4794041709,-0.0502233778,0.9439377289,0.1855196718,0.6898690695,-0.2176031329,0.5115792323,-0.3308730046,-0.5647295145,-0.7530580803,0.1584734989,-0.2563175185,0.0020061775,0.2684280573,-0.9842758907,-0.1109978038,-0.3030322459,-1.0164819774,0.25762765,0.1327340377,-0.5818712248,0.383028292,-0.1621387735,0.2517375992,0.0110046917,0.7632310103,-0.3875917708,0.0501893533,0.6392164566,-0.4520669333,-0.17866723,-0.4217962981,0.7493554634,0.878654102,-0.7569446896,-0.6334576417,-0.4820948816,0.4347584228,0.5796079626,0.5401572287,-0.1753267677,-1.019388093,-0.3804287756,0.2758177988,0.1434750598,-0.1508135203,0.2298794601,0.9691744361,-0.8826508901,0.8937688956,0.3443431393,-0.7186612791,0.0234110101,0.903203991,0.4210577914,0.0714782074,0.4462968907,-0.7413661067,0.4054807331,0.6163844891,0.8050353547,-0.1073294201,0.2796676815,0.8235613006,0.4330683396,0.9618647748,0.5297960266,0.1808394015,-0.8459008654,0.262723144,-0.0045351827,0.2736685457,-0.311654651,0.3662350456,0.2000189679,0.4532297393,0.7011754709,-0.41183771,0.7003396014,0.2379427923,-2.9096772867,-0.8445212773,-0.2004641009,-1.5522260685,-0.845278233,-0.3517268118,0.0601580942,-0.4716832065,-0.2980531942,-0.3292896933,0.6641275566,-0.6405266501,0.6159986025,-0.9624944225,0.386517249,-0.5329677263,-0.708780592,0.5432224013,0.0804394835,-0.8870143636,-0.0975000629,0.1858342372,-0.9661913531,-0.7462288846,-0.4590985055,12.2643253845,-26.9234474993,0.4892695346,0.6488596909,-0.6816094477,0.7355785991,0.4293703995,-0.4573353208,0.0455626755,0.2218145279,0.8346874743,-0.5135047901,0.9594670219,-0.1352589711,-0.0519087694,0.223280086,0.9192023577,-0.5629011392,0.154650009,0.7996328055,0.4861628781,0.8590438544,-0.1285121109,0.6567743827,0.0043046928,0.4223006991,0.7178144014,0.377146515,-0.7290588214,0.1372991245,0.1122154228,-0.4819240212,-0.9840222431,-0.1246325749,-0.954326879,-0.4031068458,0.4103454835,0.1320474211,-27.4413943305,-0.973245831,0.9490245415,-2.8714214778,-0.0394268374,0.9966179218,0.6977313019,0.1873406421,-0.038727118,-0.4142536781,-0.1239383559,0.3135506258,-0.4611366694,0.2475806706,0.2921236538,-0.3283749385,-0.5221715575,0.4581768857,-0.5814580634,-0.2662139073,-0.1901494399,0.9073955865,-0.8091273631,0.367837605,-0.3650516209,-1.597574911,0.1254542689,-0.8445542186,-0.1240225521,0.0089866256,0.7353680876,-0.5186990113,0.7778763744,0.6798073693,0.7757072273,-0.1857757386,-0.6285580285,-0.6160728993,0.5935455421,-0.2824621274,0.536016698,0.438307219,0.4840410534,0.9128734722,0.217258415,0.9995329807,-0.6589447508,-0.6733539427,0.399997313,-0.2367617175,0.8704474672,0.661114832,-0.2029468691,-0.6212514654,0.5014450937,-0.2219334425,0.1571813224,-0.2683057076,0.343051249,-0.2605508775,-0.8917372349,0.7131135455,-0.6579401713,-27.874254003,-0.2637593946,0.6157157226,-9.6016381404,0.970506713,0.360727488,-0.9111329253,0.1516117051,0.2717750807,-0.5689790063,-0.4697287674,0.4668039819,0.8846466133,0.8424400316,0.4152175737,0.816677047,0.1343884373,0.7340816903,0.1055401226,-0.4523050147,-0.0025844847,-0.7643362867,0.4361758446,-0.8640728749,0.7267974058,0.4035154631,-0.6242462786,0.5549560595,0.0798833172,-0.0070383831,-0.9769486479,-0.14828976,0.0239184217,0.519247904,-0.5554739335,0.7393930918,0.6001284314,-0.944484012,-0.1367453107,0.4759911043,-0.6495685984,0.4854272417,-0.8906479433,0.1021230861,0.0103093895,-0.4523961944,-0.7634407083,0.1548916621,0.0911450501,0.9482678857,-0.5326484913,0.0592249514,-0.6587540671,-0.9380563663,-0.2269250423,0.8399508438,-0.7737043525,-0.5183355724,-0.6195348619,0.5915394304,-0.817924982,-0.7280489408,0.9865713475,-27.5940699937,-0.1136490585,0.2670442591,-16.1134070494,0.0003190094,-0.2396721667,0.6071550628,-0.1429184883,-0.9248221682,-0.6456184816,-0.5185515057,-0.6750223773,-0.2664041654,0.1643815448,0.8226762257,-0.0092807974,0.3007525037,-0.0503281386,-0.1231895586,-0.3769486775,0.8886779297,0.9503747105,0.8657877232,-0.1503470367,-0.3862067631,-0.776964815,2.7511840901,-0.7561055162,-0.0789972537,0.722341612,-0.7063023598,0.9203364441,-0.8400273451,0.5445271354,-0.9110323281,-0.9797114486,-0.5163263594,0.4483653493,0.5707884096,-0.5426383717,0.5873569641,-0.1570315262,0.9303446745,0.3551318356,0.6040616166,0.0674857388,-0.1882114777,-0.6623036485,0.5584503315,0.3290828288,-0.3189968071,-0.2546346894,0.7916350617,-0.8886614458,0.3357796692,0.7735150886,0.7605128345,-0.8802266579,-0.6151094684,0.8026028072,0.0997671889,0.760522999,0.7330053654,-28.0098031572,-0.8220295214,0.5581404734,-2.8318644884,0.1400163013,0.4746356829,-0.4298378331,-0.0251533941,-0.1040438454,0.2754684048,-0.6978708903,-0.3183939191,0.9285287607,0.7603801192,0.5666526621,-0.5741370754,0.3744030864,0.7432255708,0.0270902456,0.680315041,-0.7438274274,-0.3675255929,-0.1127236507,-0.7909592862,-0.2330924728,0.1237653537,-0.6511659105,-0.2994889457,0.4694158974,-0.5309546986,-0.0437142912,0.6086704545,-0.7863362224,0.3993983162,-0.9850027447,0.5692847278,-0.4029742087,0.9413551718,0.9489042193,-0.319426244,-0.7802135029,-0.7740473372,-0.4556661285,-0.5790236868,0.5271336622,-0.4319428205,0.4367331154,0.4419999439,0.2460225014,-0.161985447,0.8602446058,-0.7303940887,0.7881213167,-0.2345730461,0.5089348793,0.4483254877,-0.8321842288,-0.2887367279,-0.9834849628,-0.4021959263,0.9141741812,-0.9842622604,0.0449442786,0.7195330145,0.2741161406,0.5084916772,-0.1740546454,-0.8848860932,-0.9963596275,0.5931792693,-0.3444871581,0.5561854578,0.1601070532,-0.2033801911,-0.7290164639,-0.6136194091,-0.9700260095,0.0096351353,-0.658713834,0.5442123562,0.3803949206,0.513101533,-0.0036936861,-0.6738438426,-0.4882898438,0.3782719159,-0.0611447993,0.6262723732,0.4111775074,0.4801216957,-0.5990995206,-0.4541898421,-0.8774874189,0.4542500763,0.6078644134,-0.883406827,0.0051685546,0.7399044084,0.5752184968,-0.0205303381,0.6314632902,-0.3837896217,0.5439613737,-0.0692483087,0.4547437066,0.7637020086,0.3325441562,0.4119867849,0.6972630328,-0.6152988659,0.4244132823,-0.4551356667,-0.2923494544,0.667748387,0.2194685958,0.7498234455,0.5274969078,-0.9441222923,0.655434114,0.9796778683,0.5526753585,-0.31153952,0.0363314913,-0.6326116706,0.3890694267,-0.624929357,0.689541527,0.0044855603,-0.9962535825,0.1055671683,0.0781920336,0.0971560448,-0.5527551416,0.4297977117,-0.5032391646,-0.5540066575,-0.5770347347,0.3005097079,-0.1296487808,-0.2104516592,0.3289810306,0.7478378071,-0.3165001967,0.7000799133,-0.8295489528,0.4754174435,0.2492780619,-0.4610141614,-0.476469589,-0.0742273539,4.9119478663,-27.1377441393,27.948928749,0.034824448,0.088283207,-0.0010703805,0.6488488909,0.7388927453,0.9716223302,0.0137777387,-0.3467728239,-0.1638200698,0.9862886349,0.6778809224,0.0471398631,0.0922378044,-0.6140458822,0.145190681,0.6051136913,-0.2367766885,-0.1048556618,-0.5797629589,-0.6067198781,0.6413651834,0.4162353319,0.372902193,0.9468304645,-0.0602823438,0.8152073278,-0.8971243973,-0.9907467255,0.5786288874,0.2693204245,-0.725657845,-0.205855871,-0.3180195209,-0.2613885215,-0.2658479739,-0.9918583667,0.9611675218,0.1993908936,0.0347925944,-0.5927249899,-0.3859611968,-0.6477623895,-0.7028500187,0.7241067915,-0.8157355242,0.8630318704,-0.9782102926,0.3909967569,0.4825844437,-0.177049613,0.8293765989,-0.6120352799,0.1170107077,0.4528627693,-0.6090223154,0.5415964266,0.1558926755,-0.7472064414,-0.0836731525,0.8125001761,0.8434699095,0.5417730655,-0.0658971372,-0.0831043122,-0.0554965415,0.8941709643,0.6477528025,0.5443749843,-0.5327893138,0.8139341918,13.924293344,-0.8588095826,-0.5063197687,26.7772060747,-0.7533462184,0.4799519261,-0.1534408823,0.315856926,-0.2354368724,0.0409766094,-0.1105979703,-0.6660189322,7.1488660161,0.5702714864,0.7316635574,14.3824190267,0.7395201866,0.9119673853,0.4090283872,0.5851367246,0.1668316064,-0.3657629889,-0.1384115316,0.2558901668,0.445861286,-0.9454766044,-0.4203901607,0.2322285114,0.3190745552,0.1263993721,0.5567488033,-0.3995950208,0.0767651138,-0.2871540336,-0.6716473742,-0.0925355356,-0.5221316758,-0.4395686085,-0.9922099171,0.032919247,0.7688048846,0.7146902808,0.7967185766,-0.4236527407,-0.8584868499,-0.5288848821,0.5701596355,0.4071444492,0.8653177542,0.1813239705,-0.5165938046,0.189473675,-0.043609164,-0.6208170233,-0.027994166,-0.7631187497,-0.0641424006,-0.1016041696,-0.8603771088,-0.5927137891,-0.9776891794,-0.593422791,-0.3465759744,-0.4289210322,-0.3549239802,0.8979018207,-0.2742729899,0.299525632,0.7906249675,-0.594547357,0.0177753319,-0.5245562941,-0.5965606138,-0.8050966422,0.8409708466,-0.4994709497,-0.6946975561,0.3437512363,-0.6433524672,0.0978292342,0.8722665121,0.6562336702,-0.7251133882,-0.2067637172,0.0070659674,0.1534651177,0.0556619766,0.3618641457,-0.3386863972,0.4054680564,-0.5529636718,0.4133321526,0.5069505605,0.2590010977,0.2776633803,-0.5917030992,1.0860559693,-0.4670414999,-0.4412731276,-0.3443042124,0.8187969483,-0.7446417157,0.8413295654,-0.165018305,-0.4208269612,-0.3995899539,-0.8371894454,-0.061360426,0.4273385382,-0.8592740224,-0.1820627514,-0.3519436213,-0.4282460845,0.0487929763,0.7762168838,0.3962046583,-0.3560516423,0.8647994923,-0.7582695178,-0.5900458344,-0.2766808406,0.1010734498,-0.3766899294,-0.5614353414,0.6304847585,-0.323062254,-0.5084376061,-0.6645057137,-0.9520028878,0.7821983845,0.5651839502,-0.4086882816,0.6932395129,-0.7666876438,0.4586932068,-0.5380480714,0.7466354581,-0.8899669453,0.967043725,0.5787459841,0.8331572588,-0.5921708574,-0.2016268399,0.6121308316,-0.2070193769,0.6178255841,0.1330027295,0.8147629324,-0.4065920877,0.8995109356,-0.7297167784,-0.5595482569,-0.2929150936,-0.9505702274,0.3104574116,0.6389196027,2.7347348705,0.4019416352,0.5211447622,0.5984608201,-0.1316800646,-0.7556652558,-0.7665227439,0.6645797441,0.3629296482,0.4686931772,-0.1790097931,0.8932452367,-0.0843280524,0.245644065,0.6305590985,-0.9334425928,0.6661054069,-0.4451098833,0.6912250664,0.404811068,-0.0870906606,0.0040377493,0.455833483,-0.3514794725,-0.3809929059,-12.2700051754,26.9415017602,0.1374254383,-0.7637753907,0.2392465066,-0.922170188,-0.7953458318,-0.5630480405,-0.6298703697,-0.2819402887,-0.3172461305,-0.8980350529,-0.0211541259,-0.8870888289,0.8624332781,0.7594974876,-0.4464692566,0.2606804584,0.8271096048,0.6594271526,-0.7249286945,-0.1146897997,0.9246888307,0.2987869977,-0.0554199561,-0.6440420104,0.1837439386,0.8742558702,0.1700334981,-0.0821647545,-0.0186330795,0.9850915007,-0.6071133023,-0.408897954,0.2112090554,-0.8956714764,-0.1111288348,0.7882732588,26.4930791455,-0.6726404299,-0.6945572654,2.7073629191,0.9255162587,0.2045693709,0.5321675324,-0.4387321518,0.2974731815,-0.5879800409,-0.1393396219,-0.9056782715,-0.006278034,0.2421527518,0.5310793561,0.9221964672,-0.0544834842,0.5764829894,-0.7780558188,0.0895492438,0.3742323625,-0.2608852366,0.3632069765,-0.3890420421,-1.2259020698,1.5206860973,-0.4234273654,-0.9837007334,-0.2921249381,-0.6810479472,-0.2044583535,-0.8175773324,0.6166085849,-0.6636260092,-0.3024935972,-0.2971889953,-0.9032801732,0.5596486037,-0.200953841,-0.2282186275,-0.3597829015,0.3779884014,-0.9459272295,0.6852590923,0.4435419324,0.3150228307,-0.9534297438,0.6523589349,0.4702088301,-0.0102458808,0.0899240555,-0.9071780925,0.0720320245,-0.9277092313,0.163234961,0.1444116071,-0.440660011,-0.6424684819,0.1119808511,-0.4508846001,-0.2012414033,-0.4741678461,-0.0187106363,26.690958556,-0.412754272,-0.3235972755,10.0206499878,-0.1028403237,-0.4096609968,-0.3967388258,0.8339746294,-0.6968347719,-0.4792016805,-0.5255386531,-0.4425231451,-0.14409212,0.7464344722,0.526907194,-0.7587987521,-0.0559080129,0.5595043204,0.4559549703,-0.7705190145,0.0493970796,0.701565934,0.2026160596,-0.8887734461,-1.3511440358,0.2630366552,0.1613744326,-0.797798,0.2551895682,0.0027115329,-0.6908327598,0.1268270671,-0.7340064143,-0.4809336397,0.3210180974,-0.9654900359,0.2906187445,0.1213709324,0.967963252,0.5650049904,0.7607590609,0.6565441299,0.0626947477,0.869445293,-0.5772660356,0.9682036957,0.1130551541,0.3062365003,0.135363397,0.3329077907,0.4810603406,-0.4866533564,0.3277017106,-0.8742384633,0.0809585506,0.9178932819,-0.6975633447,-0.5754531367,0.4947685623,0.9331554023,-0.4530142038,0.7076750646,0.7813736849,27.0940180788,0.1314537268,0.8561553776,16.7144546876,-0.854476926,-0.2617358312,0.3565243658,-0.0806613842,-0.9189191304,0.7230521311,0.2005216008,0.4657474463,-0.5772888921,0.0868557862,0.6728846763,-0.950024726,0.4361630506,-0.9856319224,-0.6391451163,0.3658910342,0.9283961381,-0.7662221166,-0.0215172793,-0.5730284732,1.0310829585,-0.1196254416,-2.9299679204,0.9740228785,0.3094834792,0.0173384336,-0.9930146297,0.3666464868,1.0005711483,-0.4015188483,0.091171021,0.6808454605,0.7796339086,-0.7121406878,-0.1682320459,-0.407123473,0.5619431339,0.4995929297,0.655573085,0.0837758364,-0.1701108094,0.6291212933,0.7678439474,0.7859960577,0.3546357172,0.2001536725,-0.2327230813,-0.8516611193,0.7429042875,0.8022928757,-0.7156120787,0.3179633752,-0.0032877472,-0.4540194976,-0.3221571696,-0.7113540052,0.6646953784,-0.6345638344,-0.1178061541,27.0817797597,0.7067028709,0.1226106187,3.9260356627,0.8677681905,-0.7333106166,-0.309462829,-0.9974812243,-0.6636537295,-0.3409169498,-0.3716433112,0.3839167454,-0.9434963224,0.0061566181,-0.9499193404,-0.8865630954,0.5519562173,-0.2411598915,-0.1537608754,-0.6948272139,-0.3074808483,-0.8675366027,-0.8587815828,0.9112098885,0.0607999804,0.0819535157,-0.4656567816,0.4343470716,-0.4241311009,-0.3079309248,0.6710666558,-0.6461251909,0.6537117722,-0.1536831049,-0.755956865,-0.7757558945,0.1031636063,0.0941053735,-0.4418660243,0.1086965536,-0.9334474748,-0.5710358638,0.2606221352,0.7911280959,-0.3157890605,-0.7714862858,0.1885156263,-0.9101233037,0.9077708313,0.0742777189,0.9280227681,0.8602274937,-0.3333372594,0.1084842946,-0.5228746939,-0.819468137,0.8656765481,-0.0387927511,0.8845893049,0.5244907546,0.8556966951,-0.7644100535,0.1672215782,0.8677100422,0.2029996918,0.1449192868,-0.4731154515,0.4040241889,0.4108288106,-0.8059599918,-0.7904602244,0.2904842286,-0.8467353477,0.4551767637,0.6421754571,0.4203311256,0.1583352782,-0.0437997298,0.0455070253,0.9769388817,-0.4197000926,0.0156041768,-0.6387823858,-0.2164880809,0.0741964684,-0.332231772,-0.8027133887,-0.0904762689,0.7340228658,0.4651850073,0.3217371878,-0.3066592998,-0.2804820583,-0.5068252418,0.0749115835,0.8039083618,0.549333279,-0.9774086496,0.3290706197,0.965915153,-0.8373806739,-0.0179840566,0.3861302434,-0.2554253022,0.5389188654,-0.5657031448,-0.8629957215,0.1431394269,-0.3642540187,0.7298016768,-0.8835909601,-0.9544356398,-0.0425053087,0.6876742632,-0.0207363565,-0.4435933809,-0.72172111,0.9102798264,-0.4159358516,0.7267951822,-0.9316634142,-0.2633284264,-0.055140225,-0.6228369974,-0.7894964061,0.1784691442,0.4682114,0.1867501609,-0.6889070655,0.291930998,-0.1722086433,0.5797225717,-0.6460060334,0.7814808746,-0.4167653899,-0.4794677547,0.8893406826,0.0354943111,0.1980729442,-0.4179493421,0.0675223845,0.2998376698,0.1463893488,0.2198080415,0.967346641,0.1377788301,0.9494570277,0.050388831,-0.6698014029,0.5948225871,-3.8058976613,26.4791764469,-27.5864482975,0.7208734109,0.6061213581,0.864637641,0.1447488542,0.9885086611,-0.2682785296,0.1852417633,0.1690066125,-0.4655690414,0.2203053299,0.2144778244,-0.0016909368,0.3791637466,-0.5778885139,-0.2164218963,0.0319631414,0.2456418671,0.8725056256,-0.221845535,0.7195655169,0.097950554,-0.2500873398,-0.1047221485,0.1304638791,-0.617757117,0.5253073513,-0.145852221,-0.665998615,0.5009602574,-0.6746280455,-0.6585211499,-0.047897021,0.1988715133,-0.3008246743,-0.677802763,-0.193282428,0.4380659728,-0.7709625588,-0.7061618884,0.766606992,-0.9833960302,-0.346010601,0.1534309218,-0.9349863885,0.8733145462,-0.0734301948,-0.6328157289,-0.8766249811,0.8820775635,0.7443683033,-0.3197426143,0.9503266364,-0.7961623781,-0.3559300936,0.1190496604,0.8226483955,0.4201867948,-0.9254750912,-0.2426918557,0.7506296389,-0.1216051716,-0.8543414778,-0.8330754704,0.3460547513,0.6912904671,-0.2953096534,-0.3348223432,-0.6175726499,-0.7341187904,-0.4436503924,-15.5387496304,0.0611420798,-0.5017619846,-26.9851345917,-0.5913477857,-0.3785403124,0.6098341011,0.3415545043,-0.2657844773,0.3393183145,-0.5277857221,0.2211157547,-6.8820596221,0.7142054277,-0.2594496146,-14.3303901919,-0.4078593533,-0.7722904269,-0.1048903906,-0.9397952568,-0.4569672826,0.8277677988,-0.1220392564,-0.342974368,-0.1593582811,0.1371872,-0.8872950876,0.0723534224,0.0061173479,0.5540154297,0.0225686643,-0.9974586202,-0.318514599,-0.5684467066,0.7551611948,-0.6112167496,-0.1138120306,0.9023177379,-0.6194802668,-0.1610380731,-0.0646970037,-0.1074218763,-0.6291609217,-0.7083505719,0.2284214448,0.3547720414,-0.9935527995,-0.6650795011,-0.8628409931,-0.5252978904,0.9245324751,0.8027014389,0.4746338218,0.5340147894,-0.8637987176,-0.8832075695,0.8855542611,-0.211648058,-0.5302164001,-0.6854018445,0.3368331301,0.9062179403,-0.440804834,0.4793719738,0.0231475464,-0.6868136661,0.3144426648,-0.7838506603,-0.5517432946,-0.6474650158,-0.8827851198,0.7934726189,-0.1726634743,-0.2146378918,-0.8361094098,0.922002875,0.7216396593,0.1394253837,0.5262505017,0.7904471793,0.276363015,0.7671941944,0.983235446,0.6618352039,0.362547263,-0.0654039405,-0.8683349264,-0.1694155687,0.0549536652,0.795477328,-0.0613630933,0.6549828872,-0.9285416461,-0.1512705293,0.5927471379,0.6760435608,0.7405486726,0.2068326201,-0.17638756,0.6898266395,-0.2392925475,0.509979235,0.8348965922,-0.9883341154,0.5562228132,-0.2488104444,0.6245045858,-0.1606142068,-0.0775536507,0.1208343159,-0.8621395041,0.6688267058,0.7755036271,0.2426855432,-0.0214975218,-0.9096039848,-0.8358208013,0.431552471,0.3571957135,-0.812243812,-0.1484655689,0.8548089127,-0.1194506999,0.0158409805,0.5152812963,-0.2634183182,0.8717290934,-0.5603216734,0.4219583105,-0.5303947516,-0.6922719382,0.0667662469,-0.002954792,-0.6058827393,-0.4541550209,-0.8878466181,0.9201586136,-0.3801071583,0.7469880829,-0.5417515184,-0.5107026608,-0.1225530773,-0.3473790842,-0.7839102602,0.0858977682,-0.8987224761,-0.8864127572,0.2178108118,0.4129649009,-0.8971090594,-0.5780495005,0.8009095081,0.7286061953,-0.3112575289,-0.6652407773,0.8100428815,-2.286651124,-0.6907396723,-0.8330920532,-0.6872771621,-0.0563526389,0.2686757416,0.1311229811,0.4336399026,-0.5448594518,-0.4959240956,-0.5608351329,-0.1413200808,-0.180410555,0.6044113832,0.0765142979,-0.481250553,0.9518404651,-0.6747346917,0.2871842104,-0.2341441069,-0.7173578103,-0.0386329035,0.4951569708,-0.6268178938,0.8632875261,11.4376196974,-27.962865548,-0.3045010929,0.1207836836,0.1269819203,0.8404275335,-0.8891946392,-0.8523109785,0.9994274087,0.1577495213,0.1598805988,-0.4634950021,0.7102867002,-0.4168173834,-0.9890473533,-0.9200534315,0.4851621417,0.5427185759,0.3513276902,-0.3188789659,-0.2477663176,0.194940686,0.6497335425,0.1543045439,-0.5863141311,0.643336311,0.4555959874,-0.9032363489,-0.091927511,-0.1192294916,0.3429354419,-0.9798931422,-0.9726851473,0.3283326727,0.3717689467,-0.6897137873,0.9816064538,-0.3998310012,-26.9702137544,-0.2545369895,0.1333748417,-2.0111483723,0.1756976981,-0.2640727613,-0.9338054313,0.4359402283,-0.6683841912,0.342081605,0.235398324,-0.8885328423,-0.5965063484,-0.4095477783,-0.6235990511,0.795020518,-0.9014742791,0.5528520718,-0.5134507367,0.972052593,-0.7222114686,-0.3954459163,-0.7188203909,-0.8127394586,0.9053394174,-1.3701136222,-0.311014122,-0.9198331695,-0.6900859462,0.5408489965,-0.2704731094,0.0868092792,0.0232471244,-0.7706967016,-0.0065113225,-0.7740125486,0.6273787754,0.4873738596,-0.241021885,0.7145931419,0.2389595218,0.53167848,-0.0291271105,0.4477715529,-0.5183118224,-0.3680095821,-0.7123816504,-0.5233107764,0.8600963985,0.8356315392,0.8098593001,0.83636336,0.5927267941,-0.5477379668,-0.8253604268,0.8639082863,-0.8996384477,-0.1333553305,-0.2868339014,-0.2716747405,0.7158349982,-0.723464606,0.0957550469,-26.2745782733,-0.3008401296,0.3464528573,-8.5111391579,0.9558984695,-0.4656432257,-0.6776412167,0.0714569443,-0.6029468948,0.5019188975,-0.4710213305,-0.8340389838,0.0921731468,0.2782410335,0.8618168888,-0.7468248994,0.9005267184,0.3166781309,0.6867841268,0.752150287,-0.1836117314,-0.7959286465,0.714316859,-0.339845085,-0.3718644692,0.3514123571,-0.1042292831,0.2626685513,0.3767611821,-0.6392259836,0.7381448249,-0.0344517802,-0.7402741152,0.5904759863,-0.5664217887,-0.4815109824,-0.0574487538,-0.7724789695,0.9613693088,0.305965845,-0.2587266,0.9261091958,0.4464902845,-0.4614285971,-0.5211355226,0.3785670209,-0.7734056215,-0.5315795024,0.5564997416,-0.9368826298,0.4172313483,-0.3007070551,-0.3648573388,0.9640295358,-0.3401283118,0.7203342543,0.502407046,-0.7726076665,0.3595378025,-0.9721036728,0.0950557751,0.6578344889,0.779909989,-26.5927421219,-0.5751077305,-0.595857102,-17.2066633195,0.2327884797,0.7671923452,0.4170516119,0.8409752586,-0.5607102649,0.2914608619
