encog,BasicNetwork,java,3.4.0,1,63713988564887
[BASIC]
[BASIC:PARAMS]
[BASIC:NETWORK]
beginTraining=0
connectionLimit=0
contextTargetOffset=0,0,0,0,0
contextTargetSize=0,0,0,0,0
endTraining=4
hasContext=f
inputCount=660
layerCounts=1,101,101,101,661
layerFeedCounts=1,100,100,100,660
layerContextCount=0,0,0,0,0
layerIndex=0,1,102,203,304
output=1,11.9399706244172,0,0,21.0213046639978,3.6543514034415,0,9.27883766372929,1.44380465273562,23.1587172061854,19.2432730635267,27.9706635663277,25.4314302237258,18.306982750837,12.7845947927408,10.9102381909729,0,0,0,0,25.2126787547444,0,19.580545072593,19.0456054458158,0,0,0,15.2442224427188,0,0,0,16.0902235412932,18.0929784931652,0,0,25.6154421221909,20.8238694843054,16.3735137033481,14.5655769369702,13.0113422557936,9.14919436009593,20.4750021874624,0,0,13.9161624412273,0,0,23.8032381761609,0,0,19.6767790245475,15.9380387859941,0,15.9070179980345,0,0,16.3435173743441,10.8889015338695,0,13.0291750600403,0,0,18.0266815881246,0,20.3551775341166,11.1500236165204,0,19.7555703041427,15.5512606335512,0,16.843571448524,20.3311570833304,0.719606914545733,12.7493306539431,17.937312184628,13.962159923461,22.5561457336731,11.9709105626272,23.9376323277831,21.1166070027074,22.0256891347118,23.693419933362,0.138206949409823,0,0,0,0,0,12.4133864286391,0,26.0147708073927,0,17.2993556593505,0,12.4318344675092,19.3313539255033,0,0,0,15.764822195207,0,1,0.156610328439887,0.999013143226475,0.999999901519929,0.999990571229563,0.999991457512878,0.999995680132355,0.00358190172278057,0.124141323329848,0.999998580597436,0.999998027282457,0.999988155365044,0.99999939656757,0.350217559727904,0.482587457759795,0.999994277102782,0.363096273078605,0.999876322708103,0.00000633982178422864,0.999998444590534,0.999992067127501,0.999982442030836,0.999676555498941,0.975928578489694,0.999992892230778,0.999938253391458,0.752939722338069,0.999997615283121,0.999999743881896,0.99999847053814,0.00150873433840694,0.999977965895887,0.494703945549808,0.99999572313982,0.000141378956512404,0.999999858325181,0.9999988637916,0.0025558549117905,0.999746653459938,0.999995618674041,0.00000003811063300708,0.349972977874651,0.999999914268433,0.00359095621860004,0.999999766243469,0.999998213429844,0.999766356758093,0.0116124687554746,0.0000151545963663676,0.984468825848556,0.999999360658976,0.80828430066062,0.99999829171684,0.0722202595441164,0.999946079573674,0.99953518504467,0.178947016164235,0.00000004461889734987,0.830340861109183,0.349309955244728,0.27146633261815,0.999988272522399,0.999999623941373,0.167365428274392,0.00293761454359453,0.059050733369568,0.99999965512028,0.00000031681435734343,0.999999206380292,0.683642576488644,0.662769897738581,0.99943037178275,0.999997014921179,0.999964237870812,0.999999898976026,0.955307289107832,0.00000512662063857394,0.997564163249812,0.204544058065692,0.766535194907202,0.999999560909455,0.999991733441695,0.999999997148444,0.998636918476422,0.496877669146502,0.0466493709324069,0.197330258926106,0.999718888101905,0.972677222804435,0.00164199445456979,0.999982796937709,0.999996646205575,0.999983779307705,0.999944511982675,0.999974226866226,0.999969537020415,0.999738116523741,0.5746009176097,0.091466391829248,0.99993102140647,0.999999733508389,1,0.610586309057081,0.468880822607716,0.6020523783022,0.499845210816927,0.501067934952978,0.549248181912267,0.5731096420459,0.415802005781476,0.334814321127249,0.695715979129573,0.553986509254221,0.476428032136731,0.323406376538612,0.418771031082441,0.360856590009238,0.324270637544031,0.457109857758443,0.355588891756269,0.748180448692473,0.395201182153238,0.456452512640492,0.708577991164638,0.315901806496229,0.603251416884033,0.552287807383153,0.715149753808381,0.397287501023361,0.515433743533795,0.459309666407744,0.437090884841388,0.429593010696497,0.278871510196408,0.620883049909203,0.337620067392526,0.528656669562079,0.76028088202566,0.308664867073468,0.253103211067168,0.51811894019307,0.741403745378966,0.407908799921791,0.698420046802392,0.66372931391859,0.359920241719836,0.38241724486315,0.442149003464315,0.466821835570786,0.663240567781214,0.545828037228527,0.536750421026831,0.754935236593705,0.395202923310518,0.328145990725148,0.547607930723448,0.645253561541791,0.685958005727589,0.467055855094031,0.771181173406968,0.270805853604742,0.411866031304521,0.404780235415622,0.366513170263805,0.739446038637404,0.476638754543913,0.58187903583233,0.432135736964467,0.547938340073156,0.76056087358505,0.635857011223436,0.326102057508488,0.283362002159239,0.37055103918473,0.634815306476444,0.322054539626768,0.674172111552024,0.388310874100047,0.728797423816378,0.641766677972352,0.52954854475581,0.416383752364197,0.513355905943837,0.422004759135073,0.749871395461092,0.665880309103953,0.570015284386269,0.715445734854547,0.682766812200891,0.435926144583784,0.329122135219115,0.684269478005518,0.516540917049208,0.358619400757427,0.342630919625949,0.311903368056268,0.499715939504256,0.404822181357128,0.317928975824116,0.498367762092906,0.630368466055035,0.688655659222286,1,0,0,0,0,0,0,0,0,0,0,0,0,0,0,0,0,0,0,0,0,0,0,0,0,0,0,0,0,0,0,0,0,0,0,0,0,0,0,0,0,0,0,0,0,0,0,0,0,0,0,0,0,0,0,0,0,0,0,0,0,0,0,0,0,0,0,0,0,0,0,0,0,0,0,0,0,0,0,0,0,0,0,0,0,0,0,0,0,0,0,0,0,0,0,0,0,0,0,0,0,0,0,0,0,0,0,0,0,0,0,0,0,0,0,0,0,0,0,0,0,0,0,0,0,0,0,0,0,0,0,0,0,0,0,0,0,0,0,0,0,0,0,0,0,0,0,0,0,0,0,0,0,0,0,0,0,0,0,0,0,0,0,0,0,0,0,0,0,0,0,0,0,0,0,0,0,0,0,0,0,0,0,0,0,0,0,0,0,0,0,0,0,0,0,0,0,0,0,0,0,0,0,0,0,0,0,0,0,0,0,0,0,0,0,0,0,0,0,0,0,0,0,0,0,0,0,0,0,0,0,0,0,0,0,0,0,0,0,0,0,0,0,0,0,0,0,0,0,0,0,0,0,0,0,0,0,0,0,0,0,0,0,0,0,0,0,0,0,0,0,0,0,0,0,0,0,0,0,0,0,0,0,0,0,0,0,0,0,0,0,0,0,0,0,0,0,0,0,0,0,0,0,0,0,0,0,0,0,0,0,0,0,0,0,0,0,0,0,0,0,0,0,0,0,0,0,0,0,0,0,0,0,0,0,0,0,0,0,0,0,0,0,0,0,0,0,0,0,0,0,0,0,0,0,0,0,0,0,0,0,0,0,0,0,0,0,0,0,0,0,0,0,0,0,0,0,0,0,0,0,0,0,0,0,0,0,0,0,0,0,0,0,0,0,0,0,0,0,0,0,0,0,0,0,0,0,0,0,0,0,0,0,0,0,0,0,0,0,0,0,0,0,0,0,0,0,0,0,0,0,0,0,0,0,0,0,0,0,0,0,0,0,0,0,0,0,0,0,0,0,0,0,0,0,0,0,0,0,0,0,0,0,0,0,0,0,0,0,0,0,0,0,0,0,0,0,0,0,0,0,0,0,0,0,0,0,0,0,0,0,0,0,0,0,0,0,0,0,0,0,0,0,0,0,0,0,0,0,0,0,0,0,0,0,0,0,0,0,0,0,0,0,0,0,0,0,0,0,0,0,0,0,0,0,0,0,0,0,0,0,0,0,0,0,0,0,0,0,0,0,0,0,0,0,0,0,0,0,0,0,0,0,0,0,0,0,0,0,0,0,0,0,0,0,0,0,0,0,0,0,0,0,0,0,0,0,0,0,0,0,0,0,0,0,0,0,0,0,0,0,0,0,0,0,0,0,0,0,0,0,0,0,0,0,0,0,0,0,0,0,0,0,0,0,0,0,0,0,0,0,0,0,0,0,0,0,0,0,0,0,0,0,0,0,0,0,0,0,0,0,0,0,0,0,0,0,0,0,0,0,1
outputCount=1
weightIndex=0,101,10201,20301,86401
weights=##0
##double#86401
   -0.0703783757,0.9520507334,0.5159831343,-0.7992317416,-0.0978107032,0.5906061255,-0.9434668369,-0.0622101667,-0.7366344454,-0.4655134938,-1.1982980829,-0.5852676341,-1.1914502664,-0.6610911285,-0.3061803151,0.1327751266,0.0486757608,0.1820915027,0.0681615632,-0.2454765866,0.4857807967,-0.3408601124,-0.1382591752,0.6491503556,0.5978105253,0.2949923506,-0.7802611107,0.1924095408,0.7746573201,0.9786940608,-0.5602786822,-1.0826518193,0.9654423417,0.1290172052,-0.5095536792,-1.0105998322,-0.3765098991,-1.0330134345,-0.7200722259,-0.8016610856,-0.7227401242,0.0816619085,0.9757614005,-0.9954212365,0.2595112236,0.2454388269,-0.7156986278,0.307424544,0.9813722167,-0.7636497274,-1.0593527615,0.4023595549,-0.569119082,0.7088522537,0.2427760477,-1.1695182633,-0.1096900915,0.8668327787,-0.2770422669,0.6071969461,0.3708672362,-0.3558763776,0.2631325132,-0.7153285062,-0.8852348116,0.8843537364,-0.5507099758,-0.3004674716,0.7284625507,-0.6355804829,-0.9307149743,-0.0183108047,-0.1978362714,-0.3501773512,-0.5027364624,-0.8158811117,-0.1966215129,-0.4828379386,-0.8303608681,-0.8676283016,-0.4293090216,-0.0876856548,0.311037324,0.4383070476,0.9380468223,0.037361763,0.5064672627,-0.843409912,0.8862411575,-0.5600354159,-0.0009097407,-0.1233426779,0.1440288324,-0.427269172,-0.2925283218,0.5131362535,0.8185293953,0.4710899067,-1.0901864249,0.2751574873,-0.6438511973,-0.5710597733,1.1813416344,-0.0526354409,-0.4613972079,-0.11075825,0.1175393059,0.1917769925,0.4099204548,0.6787452977,-0.6905560313,0.5625293636,-0.4784014063,-0.2951305001,1.148944773,0.3023329552,-0.7479933786,-0.5697961753,-0.4478965388,0.1608974857,-0.7107276262,-0.1327295018,1.0758602807,0.8349548598,-0.0614264015,-0.3778529572,-0.4918633519,-0.1467449389,-0.6547341912,-0.3234278127,0.0594761006,-0.4950573254,-0.6433560817,1.1445994351,0.3632287605,0.6228699218,0.2122886868,0.0754333257,-0.3304321696,0.6518974779,0.7583757602,0.8165483513,-0.7304825473,-0.4863788752,0.3684094025,0.4003747309,0.3584027475,0.4233003351,0.5166364935,0.2738390172,0.7564867586,1.1174260706,-0.4109470896,0.9450575776,-0.2523068445,0.2289146677,-0.6374119182,1.0648883611,0.5836121393,0.6983168461,-0.1035459185,0.0254562503,0.2670329779,0.1000662574,-0.3041309579,-0.5118110809,-0.2233911347,-0.6667297321,-0.0925907226,0.6886134511,0.7885199832,-0.02597685,0.0101337234,-0.3274488845,-0.647458377,0.8442572039,-0.1921363598,-0.2095142793,-0.7341892558,0.3869953452,0.9540873348,1.1952894342,0.8125049622,0.8837826057,0.1357525221,1.1300954849,0.4607607218,-0.4384983178,-0.0843080947,-0.7290038827,-0.7311751551,0.7888817387,0.1133499637,0.4515718426,0.740578603,0.495455576,0.1354226225,0.7479164564,-0.6201037975,0.3903608982,0.9530909873,-0.2293676747,-0.873439951,-0.9586144752,0.4889520664,-0.0477016351,-0.0947768527,0.465298344,0.3974472662,0.1609393576,-0.6066323817,0.0089701082,0.0299780633,-0.6277288245,-0.7073089844,-0.391911663,-0.8967798176,0.2425848119,0.5421034159,0.5847424712,0.6724566553,0.0541005697,-1.168535419,0.3619929054,-0.5222616661,-0.1521285919,0.3788420554,0.7749990334,-0.3393675879,0.5650995147,0.6922769469,-0.215884025,-0.2713547384,0.0209433887,-1.2135948607,-0.6621970227,0.1224768389,-1.0721486529,0.1771879964,0.4513920951,0.4171662075,-0.4157002139,-0.5804794859,-0.9386052919,0.5045610402,-0.684954186,0.4094665204,-1.0829930028,0.6833334991,-0.2891843205,-0.5762864602,-1.047363775,-0.9321170702,-0.83276999,0.1820671795,-1.1942954969,-0.609440851,-1.0421371471,0.3697370687,-1.0429930037,-0.4340700022,-1.1493109541,-0.0441841098,0.4804034378,-0.8155012821,0.7731368111,-0.9437827581,-0.5587404035,0.2121019777,-0.7156947507,0.6167517506,-0.0570867375,0.6934043334,0.3249693676,-0.674799962,-1.1914730568,-0.473849167,-1.1705546959,-0.6987643782,-0.170751469,-0.8125385214,0.2726569189,-0.6017856225,0.1152680408,0.1785866361,0.6785453778,-0.5714774569,0.3969973787,-0.6450663228,-0.9157220275,-0.4180462853,-0.3721859249,0.3303404604,0.7036122295,0.435222765,0.2638690867,-0.6332161948,-0.5975173758,-0.4666135906,-0.7546245158,-0.2528600113,0.2277149413,-1.0959394967,0.1087443273,0.4260633025,0.5382485796,-1.1558403943,-0.7918162188,-1.0921982091,-0.2587205235,-0.2594779393,0.1927459859,-0.4618001868,0.148209846,0.5656573108,-0.9383683439,0.2174542476,-0.3619133857,-0.9575114168,-0.7001760472,-0.3648961902,-1.1270101408,-1.1759334684,-0.4891595039,-0.4237721179,-1.1662955193,-0.4439428923,-0.7766485932,0.5757089785,-0.1092153822,-0.823983512,0.3651158684,-1.0064111158,-0.6117935125,-0.9761577753,0.6074351563,-0.7752528219,-0.8486846481,0.1291394731,-0.296239876,-1.1053539098,0.2845049486,0.0264578586,-1.0143635293,0.6361832643,-0.2942716897,-0.794055122,-0.5090248733,0.0170273011,0.4334013514,-0.1976557018,-0.3853491609,-0.6696564211,0.4100843803,-0.8341754247,-0.8287629877,-1.2013036695,-0.0858725102,-1.1940355061,-0.8913000721,-0.1497161582,0.7351507216,-0.1620321411,0.6118268432,-0.53835735,-1.1842188568,0.77721679,0.083184969,-0.1108940781,-0.8149975306,0.7796735305,-0.2335869919,0.6905873322,0.6228684891,-0.6180383712,-0.7096005203,-0.253070453,-0.9034690616,-1.2150307803,0.0228883543,0.5339003472,-0.2230628718,-0.416671222,-0.5673450231,-0.9245387559,0.5638280898,-0.7205882808,0.2100873575,-0.7662624503,-0.5520077161,0.0308257633,-0.4085381384,-0.2433811378,-0.459916219,0.0604328805,-0.1697036799,-0.5115458322,0.2059085159,-1.1512799461,-0.8340683059,0.2965167681,-1.1140836312,-0.4536987514,-0.6425127843,0.4038604068,0.5376222068,0.528930339,-0.5565958401,0.4446128224,0.2094539383,0.4729621056,0.8070775755,-0.3326819572,0.775251709,-0.3075074679,0.1893789878,0.4085156134,0.318571627,-0.0260930893,-0.2724264464,0.3293644822,0.211909402,-0.615845936,0.5800452036,1.1815117926,-0.3192557567,-0.2792413882,-0.7648129069,0.0339132144,-0.1661052568,0.4989695697,1.1669082607,-0.3393040351,0.0528065671,1.1745070119,-0.2008419115,0.5547152096,-0.0744278574,0.8016544646,0.2857408317,0.2437254533,-0.6695466327,-0.098191501,0.7389583094,-0.6657336202,0.7275239816,0.8384524296,1.079838129,1.1666568008,1.0835939396,-0.3227549647,-0.5635398492,1.1299121298,-0.624391575,0.8832614721,1.0446714053,0.9391920661,0.4504643622,1.0597163599,0.67470254,-0.0758975245,-0.7467164488,0.308251378,0.2380165893,1.1050189838,0.2045765182,-0.6054636842,-0.1253864471,1.0998800874,0.3998613915,-0.6530108346,0.080884584,0.9647507408,0.8950468787,-0.0704971639,0.985017121,0.0281312202,-0.0760643867,-0.4841754535,-0.2244794717,0.3203708835,-0.3575171107,-0.4802217964,-0.7459377932,0.7553219684,0.5047426037,0.3288378677,0.228459847,-0.6418231871,0.8172912477,-0.2974636038,0.9993792141,-0.5511987727,-0.2204184052,0.0863618485,0.9684976229,0.6235414957,0.4829591856,-0.3666413431,1.0252749046,-0.6831957741,-0.5561032469,0.4872044603,-0.328403465,1.2069332286,-0.0431765649,0.1344372794,0.6677552693,-0.1581118708,-0.38705401,0.9388483371,-0.8507227953,-0.5343215007,-0.546087778,-0.6241357297,0.9138996442,-0.1011915817,-0.8358947839,-0.5688744185,0.1682836009,0.8130377111,0.3789042911,0.3674024089,0.8048839754,0.6448643029,0.8149994983,-0.26366315,-0.1134022507,-0.3962953935,-0.185141401,-0.8401014208,0.1044491106,-0.1433288311,0.3218253801,0.3617697113,-0.4038641096,0.1767786318,-0.7686120969,0.5533683689,0.7660482758,0.083549338,0.1832851494,0.3609242008,-0.511241188,-0.6175994005,-0.9664251152,0.6928369038,0.2701314377,0.4997298147,0.3880536898,0.0720992838,-0.0568973911,-0.902148256,0.467842221,-0.594204543,0.5759099403,0.7252711159,-0.0015780921,-0.7348631591,0.1089474387,-0.1915237062,-0.7725471956,-0.239158753,0.2208423946,-0.4361840083,0.5696620166,-0.2153823791,-0.7523513845,0.6072269639,-0.2815705525,0.6969584011,0.3995957912,-0.9622257575,-0.0989671345,-0.1822148381,0.7258229823,0.9903208697,0.7329392581,-0.8550753546,-0.5054920993,0.910340609,-0.8917126078,0.00798637,0.1892041216,0.217272272,0.3360456644,-0.2911198397,0.9489094848,0.3127857108,0.0398651562,0.8084848587,-0.9313408313,0.8782737413,0.2268635823,0.4010706513,0.3081018614,-0.3099313077,0.7670054258,0.4312492858,-0.4990181222,-0.3874034245,-0.7365647469,-0.5184478292,-0.8969909222,-0.3602257247,0.0095783151,-1.0389317807,-0.1973347326,0.0517412865,-0.5828774133,0.5370206876,0.4295161232,0.5288575958,0.3757086178,-0.0041751775,0.1856787395,-0.1320786781,0.1786389355,-0.159697334,-0.7315000519,-0.7589061698,-0.7498701401,-0.3646524231,0.1477959672,0.6108652238,-0.1653422804,-0.7262191605,-1.1996297001,0.2912824605,-0.7700189259,0.4451270379,-0.6685285503,-0.2539133465,-0.8218798582,0.1880826777,-0.8280213755,0.477301424,-0.1765178011,-0.0334884177,-0.5096935638,-0.237023766,0.446402377,-1.2048087784,-0.9834557475,-1.0811590396,0.7711492616,-0.5704906974,0.4378952678,-1.1567136154,-1.0665970167,-0.5964624807,0.2150140083,-0.2841640802,-1.08191227,0.6432971122,0.7628973487,0.4357773862,0.0573928574,-0.3118192878,0.0291578559,-0.2935456362,0.2463240311,0.4496502174,0.6104471112,0.3408852476,0.1871687317,0.3112069541,-0.6371401911,0.1908518806,0.0534211987,-0.8401307735,0.3310653227,0.7476243188,-0.7747186646,-0.5958079984,-0.4176889759,-1.0470395137,0.4580372214,0.0807753544,-0.0027795962,-0.1555310709,-0.3664149249,-0.3620889018,0.6419816088,0.1180296739,0.4610046619,-0.8724257733,-0.2748574361,-0.0990657133,-1.0749658628,-0.9598283275,0.193778844,-1.1020217214,0.7214780149,-0.0820896893,-0.3783329128,-0.6473041261,-0.4557679565,-0.5560625456,0.4425848932,-0.8107851838,-0.0818675772,-0.3398353242,-0.7196315099,-0.9818801025,-0.8713605815,-0.9219317726,0.0141601448,-0.1686596139,-0.1044060061,-0.7097770299,-0.0848118918,0.6590038845,0.2982234758,0.7083984642,0.0685452406,0.7274615523,0.556088618,0.5410559754,-0.7238203731,0.1583138376,-0.1694544958,-0.4077419765,-0.5319387443,-0.3108893293,1.1061594963,0.3085931743,0.6611220138,-0.775563386,0.4207618804,0.0699765773,0.2208674641,-0.3279453055,1.06800681,-0.0119252096,-0.7142886423,0.0795940978,-0.4204768394,0.1287219941,-0.6856902909,0.3040677978,0.8219252248,0.969461051,0.2038758563,-0.3070656773,1.1730106056,0.3279051584,0.5583210578,-0.2576637915,0.1437319748,0.2931899455,0.7181756776,0.7703840025,-0.6088051681,-0.1473765247,0.4884610138,0.8030682542,0.0569975541,-0.0923204714,-0.7517279998,0.8021347514,1.1258769503,-0.211710785,-0.7363733553,-0.2806082745,-0.6795048599,0.1797430979,1.0908966569,0.18526501,0.3107845418,-0.0874073732,-0.1604761029,0.3849566391,0.3603650256,0.0387963054,-0.4512266084,-0.4675430353,-0.5891105445,0.266038969,-0.5994253909,-0.6629873548,-0.4608723927,0.2515998378,0.6862326944,-0.7771789112,1.1776536361,-0.2619262696,1.0974735713,0.9030961842,-0.5782981726,0.5792760504,0.2361679243,1.1615959827,-0.7593997789,-0.2000367664,0.3818980342,0.2919041271,-0.776409975,-0.4699581662,0.5028660446,-0.7652114385,0.7160533928,-0.7560654317,0.3103440244,-0.5054234532,0.9242477148,0.347423978,-0.7570646151,0.01553998,-0.0806857865,-0.0901367977,0.4637495733,-0.3982648521,-0.1838745713,0.0599020212,0.2377495501,0.3253270832,0.5199011394,0.7207269407,0.2810843686,-0.0785619603,0.7396247917,0.1048924332,-0.7866011689,-0.2361810818,0.1919145226,0.092783528,-0.4003088313,-0.4465227842,0.2340252908,0.9809336737,-0.0612260965,-0.2234860022,0.5751788484,-0.8563415286,-0.6313479159,0.2825246208,0.2358696727,-0.9774546232,-0.3260982285,0.246457093,-0.3799754667,-0.1911638822,-0.4474265061,0.4294222106,0.6481418915,-0.877124262,-0.277819526,-0.9162819339,-0.5666793266,0.7464320286,0.0504529462,-0.0765318093,-0.3610643341,0.0752427043,-0.6941308983,-0.1137931203,0.8233877652,0.5995207474,0.7778641981,-0.9881407674,0.9961326374,-0.5042260147,0.6698015796,0.1142287669,0.4746491385,0.3257349,0.0868548635,0.5857368724,0.5331119781,0.1521229265,-0.8354070568,0.9062859546,0.86851212,-0.8683690614,0.460976239,0.7211237837,-0.4286597899,0.8434824757,-0.4820170195,0.4214498752,-0.0894556274,-0.9360794592,0.0471915039,-0.9279746832,0.3478524272,0.6668460153,-0.5550041467,-0.6203432929,0.9501173962,-0.6632448433,0.9384868322,0.2461961486,0.1134435791,-0.8185841906,-0.2952308847,0.1724992819,0.1494661938,0.5075737971,-0.2811812308,0.3357735692,-0.8360225902,-0.2372760862,0.1673349641,-0.3555393877,-0.5993114168,0.1916453481,0.2334186534,-0.1236416023,0.5498298592,1.2167849208,0.692002845,-0.2702649613,0.6652291017,0.6349981334,0.3859748504,0.2054816333,0.1298842362,0.0238041353,-0.3997003804,0.1524595541,-0.6188531319,0.7053414788,0.7438307023,0.489829203,0.9720253536,0.2271347826,1.1326929203,0.2898958743,0.1275433383,0.4075983994,0.8658238548,0.3360577504,1.1872059137,-0.1335118277,0.7498688959,-0.7467516285,-0.7021485648,-0.0219166738,-0.1812857645,-0.0258322948,0.1302167296,-0.2948236544,0.8526992808,-0.2849897924,0.0477092189,0.8206172763,0.1232188099,0.0346288538,1.1704719842,-0.0866807889,0.6992749414,0.8330504252,-0.087846679,-0.1468066372,1.1249117052,-0.6920000694,0.3066092542,0.364539964,0.45415055,1.1817929049,0.2796119468,0.9311390055,0.8397925786,0.3526081376,-0.5656894405,-0.1211678622,0.6339954408,0.5694363899,-0.1774492575,0.9108971256,0.9427944693,0.5124642485,-0.6608466214,0.6946136998,0.7781881085,0.8716704874,-0.5000268198,-0.2235242291,0.5529213417,-0.5042972486,-0.3811871554,-0.6080923096,0.643399667,-0.2106037209,0.1323618989,0.1429353401,-0.3502961681,0.4730836525,0.2589395333,0.0096560918,1.1822525833,1.217739465,-0.6232145714,-0.6790414328,0.9704792073,1.1456639788,-0.4010208459,0.1069639639,1.1327953555,-0.1526644196,0.0344154012,0.1055470805,0.2086347535,0.1882904961,-0.4372527036,-0.7620692046,0.9950356802,-0.4360556039,0.1227300733,-0.5014903597,0.5816743374,0.9310049909,-0.2861341503,0.4562410255,0.1095943141,0.5806124899,-0.752487485,-0.2533317315,0.0884936384,1.1508247203,0.40086311,0.2992071536,0.1104297002,-0.7594696541,0.1803406689,0.4786635087,0.1875241769,0.2474253353,1.0898038747,0.1057803144,0.8487889544,-0.6816181407,0.684898668,0.6790187582,-0.5779432623,1.0128634723,0.1190501263,-0.7556931243,0.8585082042,1.0487946907,-0.4181185817,-0.5930520442,0.9348902769,0.7843494947,1.0931235442,0.2516758785,0.5602783681,-0.3861145885,0.0273968938,-0.5494587669,-0.3383164885,0.6208818061,0.1381538061,0.7695936803,-0.6198818829,-0.1557925012,1.0135730944,0.3335602356,1.1211688791,0.7842478147,0.0715668432,0.5909088542,1.0132625486,-0.0311246518,1.0196919294,0.5994854783,0.2214895904,0.0321737776,0.4934956934,-0.277347499,0.3608501282,1.1936301293,0.4196838028,-0.7464622703,0.8860853306,-0.6862242088,-0.3176778122,0.2152611499,0.3854848946,0.7199526206,0.0647170569,0.5100866015,0.418484657,0.8123785835,-0.703895291,0.9440616119,1.0948595202,0.6984734088,0.472242454,-0.0326166976,-0.5587633127,0.2948396614,0.8108146331,0.7259401195,0.3170824478,0.8758871156,-0.0646938983,-0.112958846,-0.5272488292,-0.4016857273,-0.2005346235,-0.4016768434,1.1343544547,0.9416634982,1.1409557296,0.0325902986,0.400803387,-0.3679048228,-0.1389579711,-0.5137559032,0.5696420976,-0.0484308715,0.159174728,0.5879752691,-0.5014171745,0.4239989714,-0.7557693885,-0.2492762277,0.7534118919,1.1514138414,0.244843602,1.1433815008,0.93259337,0.4794275229,-0.1159082804,0.4378122407,-0.2973300223,-0.0059287002,-0.3019538089,1.0248721355,-0.2468974529,0.8621784543,0.5994034121,0.3436151127,0.760013518,-0.6759283269,0.9702019684,0.0262878218,0.5172367365,-0.7005760704,0.8886848251,-0.407702317,0.9389513434,0.131028584,1.163961028,-0.0046041453,-0.514865846,-0.1584417507,0.5902472175,0.807336337,-0.2047755499,0.0285732659,-0.5420646152,0.2074454527,0.6175465416,1.1534479784,0.3341822576,-0.2352586132,-0.4703976126,1.1861391023,0.1469086201,-0.4937396865,0.1298969032,0.4860410773,0.2408937307,-0.5898173774,0.6993787605,-0.5700343052,0.1398856246,0.0767349496,1.1406106141,0.740661664,0.89333002,-0.3426797423,-0.4331170661,0.5560027873,-0.5379173538,1.1818982356,0.872669628,-0.0525117231,0.6461804612,1.0581658103,1.1732485148,-0.0323339909,-0.1796318976,-0.7606748526,0.0480244818,0.3107048253,0.2834393324,0.2398408826,0.961337113,0.8063135846,-0.4138006452,-0.7402750893,-0.4771368639,-0.238171359,0.9453922847,0.4174652508,1.1582878272,0.9190739581,-0.2860063794,-0.5351264808,-0.017394285,1.0279618345,0.5782893654,0.9439829403,0.898587104,-0.3844663059,0.7767061452,1.0082273848,-0.7737431673,-0.3288474795,0.9133579993,0.5152490315,0.1018483627,0.3378338198,0.8108021236,0.6796977948,0.5399616695,0.531543523,0.8105539056,0.857652194,0.0117336518,0.6845960952,0.9263543097,-0.7418024994,1.1897404858,-0.7516082774,0.1032585648,-0.3870406556,-0.3214172847,-0.0059768887,-0.702288293,-0.6604611926,0.547508737,-0.3869226924,0.6908248067,1.0910427041,-0.6433027644,0.3511411034,0.9248420961,0.5369685124,0.3976584616,0.3392544546,0.5832029031,0.0084800941,0.9660735998,-0.5796256183,0.4192730346,0.8090607003,-0.5259111995,1.0607953241,0.7522619553,0.617587409,0.9569351255,1.0834437713,-0.2905389392,1.0034203466,-0.6661570153,-0.6500552219,-0.3149319696,0.1703551605,1.1327631345,-0.7591549947,0.9440662965,0.3096217409,0.9237700702,1.1617200377,0.5051256632,-0.1128671871,1.1161676582,0.7160383771,-0.4231935838,-0.5557683973,-0.2284045624,-0.6490818678,1.0096362365,-0.5844763877,1.138165138,-0.3474215358,0.8799046726,0.3507310328,-0.2459778408,0.9983001539,0.6124349525,0.950711446,-0.516885215,0.7150614662,0.2665555103,-0.1398489721,0.4872003486,-0.1803216296,0.1374935086,0.5948061663,0.8572487813,1.1944139733,-0.0829183966,-0.3710139175,0.7311173007,0.0895040861,0.5349837131,-0.7252427206,0.214163658,0.8765697527,0.6535966145,1.2117655215,0.4428044976,0.8505196358,-0.1206464818,1.0902777046,-0.273287428,0.6687764125,0.3683445313,1.216680594,0.4642971995,0.4945105584,0.2337165631,-0.4760451741,-0.7479933991,0.0122056023,0.4576314258,0.9969470307,-0.3903057664,1.0217091927,-0.7235908496,0.4592065596,-0.7077050765,-0.6671291745,0.2938696023,0.2407214463,-0.2972571854,1.1353044317,-0.3762339284,-0.1816045618,0.9143055381,0.2917971749,0.2550983027,0.5367566002,1.1278993257,0.5990369413,1.1483451019,-0.3010486676,0.7705688747,-0.1849995176,0.5078652044,-0.6902342929,-0.3588465746,-0.1047821691,0.0358638137,0.2441404683,1.039070463,-0.2732770457,0.8990535355,0.4951980709,0.5485875233,1.2128485975,0.3375485082,-0.5611069171,0.6864544489,0.8606269407,-0.5967279986,0.2445601009,-0.681918428,0.7159418129,0.7053176305,0.766713813,0.0205353291,0.6212814105,0.5361339067,-0.6964067302,0.7500895756,-0.1751855113,0.8621668137,0.0059882697,-0.6831020132,0.6755079217,1.0119038468,-0.1656197351,0.3700174064,0.2964003708,0.7760047475,1.1651325256,0.016884932,1.0839299282,-0.2790703675,-0.2027839426,0.0669411064,-0.0756367691,-0.3637887207,-0.1778049957,-0.4237054899,-0.3459281405,-0.1219227504,0.5734850606,0.6540364027,-0.3594138543,0.5301823038,0.1177149357,-0.3561291355,0.2196236186,0.0277834122,0.2585293667,1.1526030453,0.0392300214,-0.7213653826,0.974521042,0.4166413014,-0.2444785139,0.5201952904,0.9011869227,0.5070000737,0.0227528379,0.2185302459,-0.3441474135,-0.1627664588,1.1717744398,-0.7667868442,0.9331218266,1.123541021,-0.561866596,-0.33587746,-0.0240769091,-0.2863166607,0.6348902108,-0.6840283327,-0.6416317743,0.4028444848,0.4896927745,-0.2005249936,-0.1166797237,-0.151803763,-0.1814456381,0.664061198,1.0407968389,-0.0254648461,-0.3258893616,0.3538057579,0.298259233,0.0938312399,-0.3591167512,0.7470080033,-0.3074207953,-0.3866282501,-0.6432098911,-0.5717496794,-0.1074727554,-0.7245740338,0.2116616115,0.3397320275,-0.7711778653,1.0213136041,-0.3573530228,0.78348492,-0.1225947164,-0.4542217856,-0.5454978995,0.9657591853,0.3057005674,1.1732648828,-0.1937086642,-0.3356040227,0.3898327908,-0.3539111647,-0.2408739035,-0.5167203588,0.2369337685,0.3874779724,0.1510775916,-0.4851205876,-0.3418899137,0.8449989959,-0.594500424,0.2936708404,1.1555439497,0.8246999272,-0.6956711511,-0.4030342433,1.0966890242,1.0315862253,0.6743596764,-0.0655375136,0.714626058,-0.0820730788,-0.5642910317,1.1984598397,0.8525529179,0.058418852,0.3640983308,-0.3681892376,-0.6258720128,-0.6695147386,0.9380178062,-0.1597188836,0.6242087018,0.3707666331,-0.1372578725,-0.4146482484,-0.0558003107,0.1259811192,0.8197401912,0.024492759,0.1549607345,-0.253437255,-0.5903776294,-0.7472196554,-0.3961112597,1.2036787553,1.0500616722,0.9342920418,-0.3230238543,0.8012408168,-0.1932108937,-0.5145339766,-0.710330784,0.1910460626,-0.4872889859,-0.641118053,0.5045571252,0.2107486024,0.1443979626,1.1118615393,-0.4795143768,0.3231786637,-0.0223701925,-0.2911596275,0.0227568342,-0.4681762667,0.7276668381,0.7387565477,0.8188740304,-0.3979484369,0.9382767399,-0.7786071819,0.4939996143,0.7894125563,-0.4041003543,0.4928703475,-0.4848557865,0.1357855915,0.8436042826,-0.19008596,0.9062975954,-0.3233830635,0.531375939,-0.600451307,0.3996623278,-0.711791638,0.2419700779,0.5393030205,-0.5314576771,-0.6103602412,0.2035770284,0.9208649575,-0.1528337648,0.2796017964,-0.387236916,1.0656881912,-0.6765770304,-0.3292909223,-0.686031548,-0.1103945304,-0.0425967354,1.0915254859,-0.0635169124,-0.4900976173,0.1938641963,-0.1251617981,-0.3461675788,0.0321760156,-0.4053711337,0.2526458994,0.4044393393,-0.5847984726,1.052616032,0.7365827244,0.5892077405,-0.5460857317,0.4948846241,0.7281137128,0.0711042282,0.5182117875,0.9702303327,-0.0835010217,0.0045212886,0.3042210749,0.296654403,-0.7478378645,0.6507748403,-0.0790414776,0.1526138408,0.7858975605,0.09986426,1.1725435623,-0.3319640462,0.8940304463,1.1449060694,-0.351374039,-0.566423304,0.8395154151,0.7033365695,1.146085812,0.3385766911,-0.090868167,-0.7618677837,0.3800758569,1.2190834389,0.7847315791,0.883874558,-0.57051984,0.4870342136,0.9942702997,-0.6843604163,0.5333090284,-0.234274588,-0.1382967144,-0.6932187705,0.3462713449,-0.7259183545,0.6914071242,0.1797627876,-1.1757039253,-1.2146160233,-0.0812307566,0.7632168752,0.4005404352,-0.3048061662,0.1586449364,-0.3938177851,0.456719792,-0.5815914441,-0.6653035963,-0.9644466128,-0.6551474566,0.6624956063,-0.6016480084,-0.215518995,0.494243071,-1.031822622,0.3991486426,-0.6888062619,-1.0547983658,0.166435637,-1.0835314954,-0.2648356415,-0.8462577426,0.1958522586,0.7083915227,-0.7366198078,-1.1351975782,-0.0206671391,0.5383770285,-0.3334104818,-0.099095213,0.0069757787,-0.7798040603,-0.8270645263,-0.010467664,-0.4732171212,0.1658795443,0.6058295301,-0.8729593596,-0.1070705547,0.4736683709,-0.8567261026,0.4865338826,-0.1218998718,0.5356993318,0.2213111375,-1.0984181624,-1.0487256937,-0.3661656993,-0.5928940652,0.0147564526,0.4580038391,-0.6764696343,-0.6881995434,-0.6322409781,0.2323802164,0.4030457489,-0.6916630902,-1.178734354,-0.8326217132,0.1527042169,-1.0987105753,0.3998946199,-0.7607735591,-1.0694333326,-0.9027389866,0.6294224371,-0.0691373066,-1.0786752498,0.4385943138,0.4282523697,-0.1969942523,0.7037575465,-0.6115867654,-0.7890525424,-0.9543564321,0.0905967023,-0.7019176632,0.0637180818,0.0305607629,0.0497983325,0.7540157155,-0.7942241617,0.7468812156,-0.7219108781,0.5825480545,-0.8586275187,-0.8922510176,0.6921813243,-0.7314445889,-0.8309878,0.6346673469,-0.4751728381,-0.7731816546,-0.1369330014,-0.5833270512,0.2272170898,-0.9625223821,-0.7617664403,0.1436785445,-0.4720518644,-0.0998482385,-1.1335018494,0.2732668915,0.2804319462,0.7188639079,0.2483262536,0.0085595486,0.4656583411,0.190865707,-0.568334043,-0.9658195005,-0.6152250943,-0.392346152,0.5632147944,-0.7854555734,-0.9792308651,0.5928752586,-0.5980161708,-0.111938507,-0.7368930066,0.2232154463,-0.7179232529,-0.3834560708,0.0067273335,-0.8188286769,-0.7005069442,0.6551682545,-0.3022003787,-1.0888576361,-0.5828528525,0.088191952,-0.1368413174,-0.3852869811,-0.2823082952,0.3620195822,-0.1671573368,-0.8812622829,0.7289377364,-0.6487047607,0.366728717,0.157730549,0.2200835109,-0.3703121579,-0.4612284302,0.4257581239,-1.117811505,0.0622281938,-0.0162769255,-0.1614082807,-1.0234061248,-0.3810702487,-0.4510303483,-0.5307343946,-0.0031895839,-0.0196117113,-0.3568805175,-0.2621891292,-0.5893671084,-1.2050500217,0.3403944573,-1.0459802981,-0.8449324715,-0.5886849137,-0.3047311845,0.7698156738,0.2831966909,-0.1906755481,-0.3942998171,-1.0399589922,0.371766754,0.6662106259,0.25952174,0.4728273233,0.4818833671,-0.7748725014,0.7753447934,0.3331681103,0.4217743152,-0.8346754323,-0.8065663893,0.7640971343,-0.7020320082,-0.8870288163,0.682474286,-0.1943991871,0.0119377192,0.404821863,-1.0500286633,-1.1966134862,-0.4129272074,0.3541032202,0.3666981286,0.3774588197,0.6713825368,-0.4366626263,-0.3753227758,-0.8430454946,-1.2077689881,-0.7660247013,-0.7472614497,0.4559348939,-0.7124363669,-0.5048722689,-0.1712542761,-1.0949677957,0.5363832653,-0.2345139187,-0.6033465294,-1.0685099915,-0.2676289322,-0.5386765589,-0.6427178737,-0.6816784674,-1.0592501547,0.7013823853,-0.983282379,-0.2046376278,-0.2759570086,-0.2248446353,0.6723587212,-0.9224994603,0.4940007372,0.6198491265,0.0444424901,-0.1938458753,-1.0946054768,0.7691760331,-0.7798644808,0.0251567646,0.1473193014,0.4982335182,0.1444621928,0.3471176554,-0.1137342255,-0.9554569797,0.3141148598,0.1291322675,0.3853199068,-0.087724488,-0.8252792639,-0.1088285276,-0.2657418296,-0.5097475386,0.5769628693,-0.6974789575,0.3482430666,-0.4493539193,0.7359212075,-0.7897154987,-0.4352029486,-0.2087745925,-0.74803025,0.2062388616,0.0032017057,-0.9174010205,0.0547902867,-0.9522754291,0.5100286646,0.349193308,0.0266337351,-0.8323250553,-0.5617645345,0.7486308764,-1.0490162943,-0.7919782568,-0.8360865806,-0.6759507097,-0.8631930231,-0.8837859017,0.5067715967,-0.9470091212,0.009033589,0.1406386703,0.1152809787,0.6470339612,-0.4360580872,-1.1885870837,-1.2009556361,0.6596994769,0.0760331213,0.0591821832,0.6226263648,0.1805169726,0.154550373,-0.643498932,-1.0187628662,0.4495931282,0.2934034089,-0.3178704864,0.1240673134,-0.8516470847,-0.5161084998,-0.5670976815,0.1768966805,0.57806393,-0.3113901288,-0.6347053945,0.1490816599,0.5472030738,-1.1223300604,-0.4983307942,0.5099620405,-1.1305868414,0.4151282614,0.2998541682,0.0282359126,-0.0475116462,-0.3416783762,-0.8298143745,0.1964361308,0.1902653281,0.4190983973,-0.6840284355,-0.6072582947,-0.9049994025,-1.2043212841,-0.4274945752,-0.1441727949,-0.995208624,-0.2710908854,0.2376973261,-0.5424067499,-0.7009501457,-0.628219516,-0.2574471382,0.0279809594,-0.0515178616,-0.9700154561,0.6148998315,0.5529622022,-0.1179683374,0.1626014723,0.483277137,-0.5990424137,-1.0934802575,0.7265119736,-0.5599386403,-0.8187616217,-0.6782405879,-0.5842997776,-0.3103105555,-1.1234742591,-0.5121409138,0.5223486792,-0.3766404193,0.7054599418,-0.987285277,0.181269294,0.2413510414,0.6278192556,0.2113056988,0.0837770397,0.3941787384,0.4935881315,0.509121372,0.7551440091,0.3137772898,-1.001344179,-0.4409455274,-0.2825896906,-1.1981286148,0.7751754995,-1.0769734981,-0.7440346098,-0.6385955475,0.6161891312,0.185239254,-0.5387090872,-0.3706351955,0.7162361422,-0.570186791,-0.3933311495,-0.6775993118,-0.8942809302,0.5612040848,0.706484229,0.323172417,-1.0889875239,0.1680620596,0.2333865123,-0.9155256833,-0.0409215034,-0.0559157233,0.0162366185,-0.1969854783,-0.0493244545,0.7612327176,-1.1054923434,0.2287423103,-0.4899571444,-0.0378036058,-0.0733532754,-0.7952813144,0.1857752497,-0.8108675285,-1.0148435199,0.5622570458,0.754191624,0.5535017959,0.0963048886,1.0442990709,1.2116781504,0.9555794309,0.9442140052,-0.5734789321,-0.2613466694,1.0248134743,1.087693237,0.5319866007,0.0417517337,-0.1418334072,0.4765210114,1.2133210928,-0.5525381906,0.5348687004,0.8378825338,-0.7251854862,0.0354443599,-0.6965576519,0.0576347147,-0.1099848937,0.2196593776,1.2136858248,1.0180171655
   0.243370082,0.3620838373,0.6435783813,0.2041185394,-0.5379461447,-0.6319752062,1.1063875251,-0.1354089504,0.442996947,0.5737034548,0.2502904104,0.3526436285,-0.4017203949,0.8363591722,-0.5213411288,0.3871831893,-0.1431365948,1.1512857166,0.1745251238,-0.538016819,-0.05306837,0.4255118937,0.4552218522,0.6768720374,1.0083473084,0.4063574168,-0.7587556045,-0.4090872952,0.6030571563,-0.695996843,0.6035448704,0.9436416665,0.3745580687,0.4321895427,-0.241269492,-0.0998897211,0.426831928,1.0241282053,0.3917070607,0.6249302178,0.1551568636,-0.7314536643,0.5024385079,-0.3330056262,0.7719460717,0.978655046,0.6017324868,-0.1462828269,-0.0262426607,-0.1874691894,-0.6282174118,0.9834710287,0.9474703093,0.7900721348,-0.1111580426,-0.0915063325,1.1051400734,0.2423656916,-0.647342865,0.4968799249,-0.2264655972,0.3633508727,-0.1119786551,-0.1077873478,0.2687276153,0.650405582,0.6420918135,0.4513375833,0.4572977823,0.108129909,0.8587499085,-0.0346285983,1.2137706441,-0.2602698326,0.7380386812,-0.8684719848,-0.4575802245,0.2713123052,-0.4084568814,-0.1480956708,-0.0217520014,-0.7327898741,0.4321965105,0.5937029353,0.6812973243,0.1746199154,0.0412712957,-0.9155097493,-1.091029389,-1.0208398869,-0.6145100668,-0.0113815727,-0.6068135518,-0.2044429349,-1.1444200829,0.0354111403,0.2108573554,0.1761498381,0.5112798098,-1.0066078456,-0.5280338665,0.0028020761,0.5421582643,0.5672330117,-1.126564353,0.1239880644,0.3521366776,0.1437174747,-0.5210060011,0.29490767,0.0881923971,-1.1815511792,-0.7357115364,0.6291152757,0.0822257952,0.7272921565,0.7664469115,-1.1390681791,-0.9721898503,-0.7901026859,0.0879051251,-0.978833588,-0.5393596133,-1.1626714712,-0.6857892405,-0.2992796691,-0.143561336,-0.8591934024,0.2375484318,0.6125583282,-0.3915542549,0.7429249554,0.0985059453,-0.0372972513,-0.6681309082,0.4769906416,0.1437468318,0.1501127569,0.4536010544,0.6216420975,-0.5759674422,0.5603153572,0.6269234201,-0.038766395,0.6384437295,-0.5132622709,-0.7394708237,-0.9477769771,-1.0203739239,-0.1453878924,-0.9527277985,-0.5901848245,-1.1471076796,-0.4583739349,-0.5231347707,-1.0657532515,-0.570325775,-0.9484752558,-0.3096410537,-0.3650465299,0.498453531,0.3738391972,-1.0995929327,-0.8691581116,-1.0925793044,-0.0095159474,0.7671093444,0.4025147413,0.6887998056,-0.8733939651,0.5181570534,-0.2212277546,0.1204294482,-0.4471679934,0.8028916922,1.1524513729,0.169928123,0.6730879508,-0.6101657298,0.744900981,0.0351641985,0.8688096545,0.8266498205,0.8091568975,-0.1516550504,-0.7680512236,0.2146956173,0.3143270536,0.8846327384,0.4769469676,0.9723133567,-0.7185806108,0.0645810391,-0.1244939476,-0.088043854,0.296997424,-0.5838955265,0.8527966552,0.9031486345,1.1727265839,-0.2476192177,-0.1563385626,1.0596654221,-0.1370313255,1.0740153493,0.7070911611,0.2387064498,0.2468520336,0.7346968213,0.4891460314,0.0715632389,0.121607403,-0.630506152,0.1627586035,0.3062432304,0.2845182669,0.2241625411,0.6802183567,0.4631258993,-0.002248633,1.1232154083,0.1703825106,-0.1799016236,1.1297997741,0.019281008,0.5036386195,-0.4859992672,0.0432565675,0.0666009697,1.0794198981,1.0368204463,0.3361155101,0.6209258083,1.0927972134,1.0305545956,0.0225576225,0.1998082854,0.8147991915,0.5602482743,0.0843266376,0.5934283286,0.0490840158,-0.2144339843,0.3909251912,-0.6644689009,0.766038837,0.9870602322,-0.0537288099,0.4599910378,0.4428046177,-0.4620947079,1.0912770743,-0.004285957,-0.7450527341,-0.6298045895,0.5593820773,0.8097370798,0.3933320873,1.1584422237,1.1576756604,0.0951332792,0.5967452191,0.1051033044,-0.600813748,0.9038559926,-0.1289089587,0.3175728729,0.1844837924,-0.3396725734,0.1988144757,-0.7307236713,-0.6339728214,1.1372643721,0.0590808277,-0.0874602537,0.8895600765,-0.7040145431,0.7057352206,1.0387739997,0.2772171049,-0.0319780245,0.1542051563,0.3906542071,0.4532674382,0.8571532547,0.991763483,-0.477422006,0.0868682235,0.5123826609,-0.6563369461,0.554676203,1.1915169351,0.3762222993,-0.6381709731,0.8666207065,-0.7448267887,-0.7651996135,-0.429841884,0.3860975279,0.7744594859,0.2131344925,-0.2880435507,0.4939316706,-0.2340026521,-0.2442132639,-0.5088594291,0.9336682774,0.1220218481,0.9827104455,-0.7263266711,0.3204804695,0.0375892294,0.1904210427,1.1396927175,-0.7150082269,0.1989736126,0.3182831563,0.8472593744,-0.4232193507,0.4145791585,-0.0418216077,-0.6626636066,-0.0826666154,0.5261999973,1.08336854,0.4665136914,0.9554189678,-0.5604997683,0.2391505184,0.6210634839,-0.2361134667,0.4550040214,0.7752201623,1.0314905897,1.0200593287,-0.2081812093,-0.0421939253,-0.4275099389,0.0084260299,-0.4689448155,0.6064463397,0.6337484894,0.1012232692,0.2039321957,0.3930449801,-0.6973914454,-0.3925051359,1.2045712678,0.885768422,-0.615925348,0.8224119452,1.0623987319,0.2575912781,1.2138437398,0.5912595698,-0.7518569796,-0.6967854804,0.8914401681,0.5683390582,-0.4246933978,-0.0038765495,1.1466992695,-0.2078804536,0.1708610512,-0.0659767821,0.0686359971,1.0108192239,0.9781331058,0.3313614473,0.932336961,1.1260655776,-0.3759825775,0.999769808,0.5833478365,-0.5367242997,0.0605101285,0.6982494906,0.2100396002,-0.4845060268,0.2878547101,0.1477981148,-1.0205386432,0.5441178443,0.4691708671,-0.1984428268,-0.864397782,0.5953420742,-0.3575121768,0.0731970606,-1.0480684109,0.0820949807,-0.4612787924,-0.4525439179,0.2604018398,-0.4686418724,-0.7853810872,0.6257959797,-1.0630059468,0.6161360169,-0.7660104726,0.6242382784,-0.4346526432,-1.1196974816,0.3085552198,-0.4913481538,-1.0154270801,-0.6428186633,-0.2453557083,-0.900773245,-0.8216470807,-0.531335555,-0.2961503759,-0.2868879249,-0.5494026392,-0.5183154539,0.6000758639,-0.8843408675,0.2970290226,0.5261335369,-0.9026109298,0.0293278288,-0.2554597033,-0.5420404383,-0.0450263542,-0.6001762608,0.3176675918,0.2227739491,0.5138948593,0.1894235885,-0.9219766456,-0.6426107837,-0.0583880355,0.2886334047,-0.2059001371,-0.7723192834,0.6252481459,-1.1159060218,-0.2062383413,0.2148221949,0.7240112496,-0.3840521107,-1.1810160328,-0.3615314195,-0.8843882336,-0.8933282132,-0.5471986262,-0.5388303343,-0.7994101421,-0.2811530463,0.3183413795,0.2711495259,-0.8402604499,-1.0855821047,-1.1169300836,-0.2330393072,0.2955115591,-0.0126386692,0.4058674383,0.1583457854,-1.0464588778,-0.2036100223,-0.4742754967,-0.1222302362,0.1049051978,0.6109670816,-1.1282096722,-0.509871114,-1.1683107775,-0.6486278903,0.3115183669,0.0783558547,0.5968034338,-0.854000154,-0.6907395963,0.1920573129,0.6385559632,-0.7286365675,-0.5700296834,0.3078051251,0.0016494499,0.6145066085,0.4475017447,0.2367558763,-1.0829189729,0.0262010119,-0.9451234333,-1.0554612663,-0.6912899409,-0.6021639975,-0.5009572561,0.5622100053,-0.3711140061,0.5936450005,-1.1446963067,-0.8976683934,-0.0751952778,-1.1375807023,-0.7175146388,-0.5378070035,0.240707044,-1.1911743248,-0.1225240666,-1.1568447205,-0.7432845068,-0.6446996564,-1.0185008051,-0.6054627876,-0.8796753884,0.1719977534,-0.8255086412,-0.8869519347,0.2947524464,-0.689562059,0.229049276,0.0934215406,-0.5517736533,0.2196639836,0.7366487809,0.1561149493,0.4119726406,0.3445582795,-1.1829891803,-0.5016990396,-0.589200546,-0.2701645771,-0.5776643995,0.5473681079,-0.1587062513,-0.2123035703,0.6567582662,0.1045824405,-0.3524582301,-0.7743349765,-0.2169161139,-0.0593541048,0.2315095909,-0.9013255836,-0.1938904652,0.7798936262,-0.109342342,-1.0930872413,-0.0310149395,-0.5370634775,0.3820594209,-1.184790985,-0.9488721873,0.2685091798,-0.4209446133,0.0700618768,-0.7595991344,-0.858732395,0.254924199,0.4590875707,-0.9249542413,0.0205759633,0.1693798252,-0.3671535727,-0.4407214931,0.4865946049,-0.9379575105,-0.8208995509,-0.7842132366,-0.4345523239,0.6161155502,-0.4311092476,0.5903774115,0.5695980383,-0.1316020384,-0.5801476314,-0.9414247183,-0.4867512564,-1.0788061788,-0.1027956323,0.0441409427,0.256081914,0.7145910744,-0.5280107259,0.687956412,0.5544960802,-0.1971928261,-0.4943900936,-0.2950830048,-1.0790469686,-0.454911787,-0.8700948796,0.3697621622,-0.6630559945,0.7424363594,0.1121679986,-0.2334245907,-0.4888932192,-0.5831854865,-0.9389147145,-0.4762704865,0.0248889852,-0.5812476389,-0.1627132667,-0.6477682991,-0.604085613,0.7499157234,-0.2461389525,-0.5794294811,-0.098121382,-0.7322927025,0.4150688784,-0.336402376,-0.933356817,0.2810479416,-1.2006928662,0.4623933365,-0.7195402338,0.6327542147,-0.7737773564,-0.4211869099,-1.1998448412,-1.1864441962,-0.867619943,-1.2087385853,0.1674660951,0.7133718838,-0.7106760033,-0.8840935231,-0.4939205608,0.5262767389,-0.1093913147,0.641777258,-0.6235056035,0.4462225489,-0.8796427521,-0.8080456202,-0.9675373343,-1.1656016524,-1.1663049303,-1.1472731999,-0.5313518224,0.1342264622,0.5589692095,0.5910742782,-0.3305228845,-1.1533004486,0.114322008,-0.7922736146,0.7241365907,-0.8940334945,0.3739679591,0.2541188369,-0.2540687777,-0.2123177347,-0.0026648088,-0.9228029541,-0.1056671065,-0.3241582763,0.7501480353,-0.8988718168,-0.7918962427,0.6713238923,0.1334338509,-0.5737261511,0.4084130037,-0.2166684268,0.4527892848,-0.7388940873,-0.5245162658,-0.8052493642,-1.0943743477,-1.2081250355,-0.3908452651,-0.1403096418,-0.7612443883,-1.1141718991,-0.5483324071,0.4316240023,-0.9681901188,0.5411611801,-0.9409069076,-0.1314527995,-0.0315353961,-0.5097110811,-1.165692271,-0.3396089985,-0.305624586,0.3527950624,1.1816458975,-0.0064428722,0.0964609466,0.9429780758,1.2137610924,-0.2884004418,-0.3984680386,-0.6417347469,0.921923916,0.8355500438,0.4866694397,-0.5428785538,0.2301680714,1.2142573337,0.2863626832,0.582504089,0.5795313194,-0.4864980397,0.1159007798,-0.0735920923,-0.6258638554,0.1539692364,-0.4824088612,0.2949583659,-0.0774503046,-0.1409740079,0.7056778418,0.3965028318,0.8832496611,0.034474964,-0.6819271153,0.0137038731,-0.3457881468,-0.1066463854,0.7157961419,-0.5673687576,-0.5521931468,-0.7158875882,0.410148491,0.0872840059,0.065998282,0.5050100981,-0.2246137768,0.9675509372,-0.2957762307,-0.3630066603,1.0379847504,0.6566702882,-0.5195183992,0.0936226721,0.8361131699,0.751886243,0.6840451704,0.8286243119,0.7300927677,0.7460005414,0.1671245468,0.0211462795,-0.4981079405,1.1445319925,-0.6729044222,0.6907878379,-0.2512121028,0.779829192,-0.3290952877,0.4935373561,0.0583519849,0.0316294177,-0.4261091794,1.0504920857,1.1422688106,0.468949628,0.7342319666,0.7029339066,0.8686845657,0.0393624685,1.1147487967,1.1272895357,0.0206609263,1.0604340827,1.1583499026,0.309663303,-0.6892283621,-0.3659278988,0.4385903691,0.5295912297,-0.6208019141,-0.513408722,0.8164635376,1.1708616049,-0.2181428368,-0.2941889879,0.7736752881,1.1007337274,0.8406660325,0.147859128,-0.0746410316,0.0258198657,-1.0269824948,-0.1512330833,-0.9616968046,-0.4020652574,0.5353563601,0.2830595826,0.6662797552,-1.204121562,-0.7928306666,-0.5566081777,-1.1295827024,-0.8913507332,-0.6448514108,-1.0115070075,0.4168377803,-0.918454447,-0.9986557487,-0.6521147629,-0.4274284522,-0.0493036357,-0.427510539,-0.5204334119,0.7200658086,0.1736645479,-0.2330100674,-0.8214275558,-0.8500155826,-0.0224957594,0.2372056352,-0.130470284,-0.2277345981,0.1536917178,0.5665750826,0.0893688187,0.1884962091,-0.4894251413,0.3989342689,-0.9464998498,-1.0456081891,-1.1166333325,-0.3942948104,-0.4656209693,-0.1693476054,-0.6940033389,-0.141232142,-1.1780650143,0.2433231636,-0.3822098103,-0.8574641888,0.3909063661,-0.6479871888,0.4820444049,0.4674675079,-0.03723093,-0.056919771,0.2538330159,-1.1413700909,-0.30712275,-0.120517804,0.7409997952,-0.664337744,-0.2023420695,-0.7490017955,0.5657096371,-0.2713103004,0.4403632717,-0.9776182176,-0.0261911998,-1.2007002572,0.2317725908,-1.1010827555,0.5503819404,0.1657931278,0.7093036339,-0.4232039581,-0.2547414562,-1.1868383626,0.7559354843,0.5273873225,-0.7677645563,-1.1638172383,-0.0829816113,-0.1163582324,-0.2673714411,-0.5779959103,-0.095006068,-0.7953733104,0.2245971537,-0.3688364754,-0.9589193251,-1.0822006419,-0.442960766,0.3407243495,-0.2327718742,0.0320303127,-1.1094774718,0.3753145854,-0.9063023153,0.1595692527,0.2037979806,-0.8334951998,-0.5325765907,-0.595978124,-0.2511788316,-0.5346260527,0.090038801,-0.95880094,-0.6114954296,-1.1256424656,-1.0051610797,0.0719119994,-0.7011985854,-1.1935026909,-0.7334043915,-0.1687202032,-0.7806838528,-0.1905556561,0.3424540698,0.5710978095,-1.1532771133,0.4328588308,-0.1711137246,-0.6551520936,0.2530925027,-0.2360215111,-1.0930260953,-0.3314590676,0.2380522419,-0.9057732263,-0.6301370095,0.2789340759,0.5837698538,0.0279701597,-0.3331735272,0.4716157239,-0.8785931618,-0.8728768528,-0.7746835724,-0.4277994473,0.0883594792,0.1259261792,0.5153025599,-0.1979145555,0.5761946138,0.4339663559,0.1080381119,0.3117239815,0.3892343673,-1.0775725406,0.4811870703,-0.5230578826,0.4889604175,-0.378121917,0.0690114483,-0.7689512298,-1.0384576779,0.3925469755,0.2718666005,0.1540117566,-0.3914233789,0.0120308924,0.5454738891,0.100068021,0.6144475263,-0.6845912589,-0.4449281058,-0.6385056041,0.6143256665,-0.8546674672,0.5812702371,-0.3855683122,-1.0963738712,0.4043184216,0.2951713246,-1.0878353363,-0.4346028575,-0.5427062818,0.3158509857,-0.7940771133,-1.0307555554,-0.1969078889,-0.0260897322,0.0723427165,0.6805650458,-0.7506212844,-1.2108921588,0.6567929542,-0.1884151052,-0.9111840121,0.3978126035,0.7204592225,-0.2161087168,-0.8266312024,0.1506216846,-0.9795234726,-0.7140340368,-0.7039518999,-1.1196466677,-0.6470472189,-0.5349642261,-0.5246860794,-1.0078501759,0.4194883411,-0.2753649939,-0.7186432965,-0.974922808,0.4109338667,-0.1145635161,0.5225921921,-0.6191922137,-0.2482484372,-0.8380504354,-0.602131552,0.1379380397,-0.5238886987,-0.9176705676,-0.230451009,-0.7991621867,-0.757083159,-0.3705941512,-1.157585758,0.5148814745,-0.3472736076,-1.0678729007,-0.4457797957,-0.1137413939,0.6112744404,-0.3444391134,-0.4196797552,-1.1175663371,-0.5292219463,0.332396247,0.3358057966,-0.3675311402,0.0921471895,0.7016822013,0.6998123617,-0.0889017495,0.1000549452,-0.9798018328,0.4882700104,0.2436958677,-0.2532914046,-0.9628427524,0.3035495453,-0.0874391475,0.037408437,-1.1903599298,-0.4913030992,0.016498972,0.3906964441,-0.3080418425,-0.476264296,-1.0600463834,0.6726763469,-1.0980548144,0.5313038692,-1.0562147137,-0.0032935205,-0.0938622139,-1.1541404969,-0.0694829046,-0.7342351126,-0.7433940601,-0.1348353017,0.1226860614,-0.2786949014,-0.7270051651,-0.4181861727,-1.1645810783,0.4653890222,0.5407252643,-0.5774622988,0.0639317253,-0.5672319913,-0.5860282434,-0.526656283,-0.2230452474,0.0047529585,0.1285395142,0.5607202441,0.221812095,-0.5629199519,-1.1533576532,0.41633716,0.6906303164,-1.0794160461,-0.7031825511,-0.7096627439,0.7694688111,-0.0564985747,-0.6181131275,0.0581408249,0.3353369799,-0.5386638408,0.4575901288,-0.8848441617,-1.0650833502,-0.1120325641,-0.8563254011,-1.1228677586,-0.3406540722,0.5256234702,1.065273435,-0.1802791538,-0.2643524925,0.365031503,-0.0669561395,1.1324337248,-0.7444912137,1.0694725012,-0.6518739207,1.1013181687,-0.1199188143,-0.2126472205,0.2581297884,-0.7338006484,1.1795929906,0.3536421963,0.7489545281,0.649708393,0.2094231516,0.3182073634,-0.3871477503,0.4456448191,0.3994344155,0.109850222,0.1008939945,-0.1042731743,0.1078666856,-0.0097710922,0.5644577294,0.1062230223,-0.4475466558,-0.0685352863,0.1733996586,-0.0277816181,1.2185862458,0.7123805573,0.5026042926,0.9043706834,0.7880998627,-0.0060728819,0.38146245,0.9797038661,1.152024653,-0.510200854,-0.0675949551,0.0414492513,0.7565408312,0.657731113,0.3280110488,-0.6211770164,-0.6352191583,0.251344227,0.9052070716,0.7860132876,-0.0946577837,-0.5179499244,1.2137615311,0.1204292204,-0.7695210275,-0.5285522971,-0.4921180136,0.8234196865,0.4980831388,-0.5990076676,1.0309990125,0.5668775532,-0.5822150825,0.6764393086,0.7209113455,-0.1230825655,0.691977581,-0.524181522,1.0079087402,0.764069913,-0.5905911817,-0.3430297659,-0.0706383729,-0.4746951075,0.8308140161,1.1262391873,-0.5256914018,0.642557052,-0.230208659,1.0382634058,0.0976632021,-0.705755836,0.3946716672,0.0886826447,0.3337694042,-0.6880977151,-0.1458797598,0.9212321258,0.0917239233,-0.5393898735,0.6680002529,-0.3710123883,0.493945578,-0.4842354577,0.4076128331,1.0185824159,-0.0220723556,0.8234474473,1.1164086379,0.5191296087,0.0596403523,1.2054339277,-0.5447220184,0.7014760953,1.0799965032,-0.0287379905,-0.6071538754,1.0035846114,-0.0643079517,-0.0633143674,0.1518326688,-0.3502630075,0.4894249252,-0.6031762256,0.1244334921,0.9015853062,0.8085862613,-0.3391641038,1.1891325957,-0.0226072346,0.4859697241,0.6885293396,0.9026363093,0.2086168935,0.0063407828,0.9358885411,-0.1576263694,0.8383636066,0.5261523742,-0.5041894881,-0.2109081069,1.1014735086,-0.3562554107,0.2307829287,0.6407147096,0.0342381258,-0.3444104628,-0.331040204,0.5209838682,0.0857712987,0.7755891169,0.8215602246,-0.580779309,-0.4612598285,0.0036864762,1.194421639,1.0710175104,0.9423387611,0.5349033363,0.0892354443,0.4229664019,-0.6469770331,0.1861498903,-0.0630182003,0.0369880737,0.2918008508,-0.3914776943,-0.6877854109,0.4747112411,0.7740242342,-0.1963030858,0.6433528289,0.2414757207,0.2376913901,0.1588333601,0.3984788171,-0.3998635407,0.7876539771,-0.6044949774,-0.7525750675,1.074634352,-0.3565305951,-0.5600530502,0.6437059902,0.913454855,1.1453074266,-0.1638496159,0.9119302036,-0.0707750473,0.3774787279,0.024819574,1.0128916587,0.1574084915,0.0218510113,0.1228149764,0.5407676668,0.4840121343,0.0771807839,-0.548897008,0.6002139738,0.9075806394,-0.1409159502,-0.3445580932,-0.4293985437,0.5717163989,-0.3574452247,-0.0896226506,-0.3789757057,0.4591803873,-0.4890399248,-0.7537298929,-0.827640771,-1.2185585622,-0.7996121022,-0.035704239,-0.1025405719,-0.4151309383,-0.4756327001,0.0383515343,-0.3480580913,0.7411265091,-0.1668538933,-0.6731359614,-0.8230924132,-0.5289439577,0.3528478774,-0.3272848603,-0.7397370171,-0.3881106916,-0.8850858213,0.0636511718,-0.6110677104,-0.7936559367,-1.0492191968,-0.4251609071,-0.3030022083,0.3949430292,0.2367268041,-0.7007801011,-0.9951067662,-0.4672102592,0.5938872254,-0.0068136749,-0.6224502595,-0.2457444908,0.4721338214,-0.3106926538,0.6128622104,0.5455033803,-0.8733249373,-0.0652552254,-0.657669141,-0.2987832025,0.313462079,0.6113069902,-0.9053614839,0.6455836302,-0.7757597864,-0.6231975956,-0.7898345106,0.1267357221,-0.8367971462,-0.1780367696,0.453920838,-0.8417321156,-0.930065306,-0.7648517499,-0.0732522846,-0.448828658,-1.0826669095,-0.9436441121,0.1238833679,-0.8421492615,-0.9574648255,-0.1286592733,-0.5373809151,-0.7143333582,-0.3237526266,-0.1662030208,-0.6810862757,-0.2602475861,0.6339942288,0.0327404722,0.6568179053,0.7206663151,-0.7831359879,0.0549757996,-1.0533495668,-0.2018183458,0.5900873808,-0.7500401745,-0.1865964744,0.3557968619,0.24523899,-0.1095094753,-0.3912496072,-0.2201874096,0.4546285994,0.3848928237,-0.909360354,-1.1801394674,-0.5445477832,0.1038671167,0.6446109774,0.5576973619,-0.7053417647,-0.48407502,-1.1647063319,-1.1094904302,-0.6951496834,-0.564426355,0.1285738958,-0.818960758,-1.1143431284,-0.7817875362,-0.6580727007,0.3685487318,-0.1710040623,-0.230923727,0.208772222,-0.2917659253,-1.1412776962,-0.0188332514,-0.6778812651,0.5985013625,-1.1705383456,-0.2183170298,-1.0468457213,-0.3222426426,-1.0269699443,-0.4002311722,0.1859083869,-0.1425827925,0.7575944166,-0.4280410436,0.6210125989,0.7041728726,-0.850375848,0.387721729,-1.0506284416,-0.8748107814,-1.1658335256,0.7407994649,-0.0259345618,0.1686892262,-0.5733462879,-0.9657456886,0.5602027118,-0.7734805579,-0.3936721458,-0.2398359438,-1.208306188,0.7795229011,-0.1235181351,-0.1878330817,-0.8382478981,-0.4328877776,0.6942785668,-1.1241089927,-0.8133571698,-0.0754668533,0.3506862889,0.281437092,0.3853266151,-0.5986047266,-0.0611419871,-0.4932899372,0.211066565,-0.0142849103,0.5440702966,0.3877912374,-0.8258452267,-0.244614356,-0.7877845187,0.5732958453,-1.104247804,0.0861897118,-0.3164328577,0.3567364155,-0.6636475036,0.5528946087,-0.6170447934,-0.2443504341,-0.7020156002,-0.2922144652,0.6176754279,-0.9375484941,0.6632518951,0.0829803649,-1.0723411219,-0.1943372504,0.5023359997,0.5801671591,-0.1272591993,-0.694453612,0.20698001,-0.2530306874,-0.0139806165,-0.5495160948,-0.972277526,0.1681336979,-0.917700614,-0.9601740317,-0.6705481727,-0.615088189,0.1551802591,0.4194756528,0.6950694729,0.2843064931,-0.1622758487,1.0359307604,1.1753149147,0.3306780828,0.9754649411,-0.7734660252,-0.0239692492,-0.4372123345,0.7018380836,-0.653791825,0.8093141681,-0.1467065992,0.766212212,0.9483052596,0.5776836117,0.1843358919,0.5135392891,1.0404044522,-0.7062389093,0.3501259478,0.7260157699,0.0295585689,0.0686309968,0.9294857486,0.4076722114,-0.2740448578,-0.2255306071,0.7166011539,0.3699802643,-0.337543475,0.2263489196,1.0165365713,0.4892881614,-0.1899663447,0.961569124,1.1979925439,1.1748813039,0.8910474303,0.5437947427,0.1624873716,0.1317214721,1.0453406909,1.0023219317,0.823285807,0.3123112012,-0.7507954489,0.0379783508,0.5757013084,-0.6945868895,0.2629529199,0.5250009354,1.1716881499,1.1896351718,-0.7050163706,-0.632737328,1.1858896625,-0.2452929043,-0.0539609309,-0.0675925458,0.4288212339,1.1066168651,1.1783419729,-0.5728234561,-0.7597122143,-0.568956141,-0.3971771491,-0.4573000637,0.1492949247,0.3430579806,1.0824360598,0.4271760237,0.4368055806,0.3618538863,-0.3901487892,0.5967698795,0.7943124734,1.0412259448,-0.6281807503,-0.1309708808,-0.4831062253,-0.2239700728,1.0217176435,-0.7672281337,0.4916232656,0.7656911044,1.1950642236,0.7756482084,0.0906016982,0.3662361818,-0.7754683902,1.0630362259,0.2314794471,0.0718335786,0.7131846715,0.8407088556,0.6441931939,0.8624501714,-0.0768220652,0.3115262639,0.2106648346,0.5540563752,0.3593057197,-0.719879545,-0.151769184,-0.5162039079,-0.2947101272,1.0209993843,1.082296652,0.8844513186,-0.6620528965,0.379370055,1.1303683009,-0.1053905248,0.4067036359,0.30771826,0.3172432602,1.1723343378,1.045739473,0.1451532186,-0.1690039052,0.0548005744,-0.5805029419,0.6717554648,0.4611925603,0.0158124451,-0.2302789199,0.6685064407,-0.7056233349,-0.5783551704,1.2179831222,0.8241796615,-0.0603097168,-0.0474721849,-0.6237769599,0.639771794,-0.6288449184,0.2588342948,0.1434319622,-0.0620915074,-0.271839133,1.209337232,-0.0750872664,-0.1079831257,1.1919509976,-0.5907842113,-0.6576613427,0.3036477396,-0.3490011985,-0.0271164238,-0.6157250205,0.9408354602,1.2022285119,-0.6182124043,1.0944584862,0.4764113546,-0.493577682,0.0080033286,-0.2772393501,-0.6666334743,-0.6026417088,-0.3545167404,0.7585681072,-0.7196569011,0.8305737228,-0.7004949168,0.8653051724,0.6151696238,0.481929032,-0.1393218696,0.7710922501,-0.7495953233,1.2076670921,0.0324774884,1.1068640204,0.3357616503,0.3793045812,1.0219735663,0.7623007205,0.7220792435,0.9710708439,-0.0233425632,1.115077398,-0.5012464007,-0.3325414495,1.09833599,-0.6160018739,-0.2163581601,0.4640474738,0.1127147337,-0.2598211472,-0.4046867709,0.751762556,0.8309639758,0.1466505814,0.5842862473,1.1675941881,0.2033613182,-0.4203448412,-0.4562213137,0.6433270927,0.3325559533,0.1411041205,0.3837215676,-0.3227655538,-0.2516574296,-0.4840403717,-0.6166205058,0.0675301204,0.0313656942,1.0263917234,1.1465882158,-0.5740153358,-0.4345149841,-0.0392569018,1.0053538216,-0.1910988515,-0.4494214175,0.945335338,0.6267873971,-0.0954155516,0.66113389,-0.4540521815,1.0259426117,1.179804899,0.9098079262,0.1025876614,-0.3703311975,0.5412997845,-0.0097528112,0.9766600562,0.5786432949,0.3752902195,-0.598274456,0.1022420365,-0.4314351553,0.2894171894,1.0624870185,0.2615853388,0.3017558593,0.6418408817,-0.6737132703,-0.7707326167,-0.5404440803,0.384770464,0.7396812905,0.0152355877,0.6041779564,-0.0093999555,0.9744594797,-0.6667030115,-0.3077276866,-0.3240607758,0.4094263109,0.6567280898,-0.702416809,0.4043631068,1.114279872,-0.4523571102,-0.2652306738,0.2664729979,0.975985611,-0.0928002171,-0.3466135184,-0.6835831149,0.6806590026,0.0328063897,1.0860573493,0.554803742,0.9787098208,-0.5501033306,0.2554173794,0.1066741904,1.0401726935,0.8818641092,-0.1711972276,-0.2835140922,-0.1260687154,1.0475579614,0.8892253312,-0.3421295597,1.1928244748,-0.5866458329,1.0115808809,-0.2548123463,0.9338759893,-0.6849900202,0.6904917825,-0.5214854596,0.6530527379,0.6244541593,0.4032820816,1.1574100687,-0.3540756195,1.1755040048,-0.2524174065,-0.4650758687,0.8632492005,0.5670702317,1.162502426,-0.0700299706,0.3139019802,0.139118742,1.0191323591,-0.161025111,0.7912908374,-0.133152516,0.0064260407,1.1564090208,0.7894418454,-0.1933007347,1.1550340608,-0.2952856165,0.1587038327,0.5928573068,0.0911452516,-0.4425715753,-0.4444351583,0.373899862,-0.4897444067,0.2752684632,-0.4703179687,0.000627103,0.352296464,0.1258888969,-0.606829777,0.9733438829,-0.2166577209,0.6526337201,-0.7595850143,-0.4880787046,-0.4885943128,-0.6921013144,-0.1522021623,0.1591552261,-0.1911699636,-0.3930716529,0.9008220109,0.9469942294,0.4952448932,0.21654582,0.5780135914,1.1662962681,-0.3455330092,0.6449474664,1.1725804063,0.6430723043,0.3166620851,0.8945037342,-0.1284012528,1.2045186407,0.6844752645,0.3336809686,-0.3351623551,1.1206289355,0.7701288462,0.0145552137,0.3842545625,1.0481119363,0.575926247,-0.550497538,-0.5862401515,0.312783433,0.9492934459,0.5137307494,1.1169139028,0.3502695941,0.1299512812,0.2273619136,-0.3836299894,-0.3039771723,1.0372097447,1.0830789574,0.7251692359,-0.7768883162,0.4559127222,-0.4628605839,0.1843291174,0.2815214161,0.2861842819,0.0067700294,0.5942036565,0.3443775418,-0.5324143391,-0.2966232165,0.0486329512,-0.6885792927,0.6618951345,-0.2435678974,-0.1533036366,-0.3884519809,1.1406320438,1.0524971832,-0.3914031391,0.6381817311,-0.7380126824,0.3116922312,0.117523385,0.0543606465,-0.3357695579,-0.3646383383,0.2295350216,0.9170294657,0.3269762731,-0.5043768925,1.045310232,-0.3315510941,-0.4309979328,-0.5294174371,0.3069228929,0.9314543373,0.1001094596,-0.0502857299,0.6981553184,1.1943520627,0.9058781686,-0.5909427084,-0.2332661575,-0.675004238,0.6070633791,0.5885713854,1.1201675071,0.343726755,0.4766803132,0.2776112052,0.4404464931,0.4304504542,-0.2484635305,-0.012782737,0.1800935732,-0.6352185492,-0.1827172073,0.5046882657,-0.6650656766,0.1127508038,-0.7135505711,-0.6653544183,0.136602368,0.4253676756,-0.4138732679,1.137203769,-0.7634393598,0.5239316793,-0.5212806106,0.0200648715,0.5458498848,0.2981363896,0.3414637426,0.0119715237,0.0651876933,0.0961573885,-0.6513899413,0.2729376031,-0.3661015774,1.2053469599,0.2022614831,0.248014665,-0.1829538526,0.3869181265,-0.2782102641,-0.7741480728,-0.059041682,0.0385763922,-0.3904488306,0.6735561257,-0.0698594184,1.202562975,0.9808550758,0.9176707707,1.2004197717,0.5615614466,-0.5923780758,0.7197469883,0.8212955641,-0.5540200356,0.1510846789,0.8030637969,0.5656220577,-0.1633239895,0.6245469283,1.1676577099,0.8614111925,1.2086195147,-0.4808456279,-0.4079132513,0.1450483201,-0.5611758834,0.9129243662,-0.1025477214,0.3243600361,-0.2304565166,-0.6474296727,1.108809273,0.6489308085,0.9885725725,-0.000934346,0.5444040419,0.8323766879,0.1088514176,0.2404991899,-0.259610509,-0.4799059383,-0.7605013044,0.578663609,0.2918244058,-0.3100613817,0.9504624877,-0.7673673934,-0.6976183547,-0.3686730317,-0.213679519,-0.3700327804,0.663109906,0.0507420131,0.9582608819,0.7537207632,0.2325997658,-0.6943026638,0.4113038824,0.8558972246,-0.1936500067,0.5254820855,-0.1261134766,-0.4254545845,0.6053409809,0.9341220047,-0.2993796388,0.0455548444,0.4419412211,-0.3316383655,-0.5831687996,0.6157629918,-0.6532373025,-0.652752618,1.0323786551,1.1509515468,-0.7474581047,-0.5195953041,0.0509441017,-0.3147972808,0.2728632724,1.027555708,0.1644528795,1.1861192633,0.7878328842,-0.1793794375,0.2972797955,-0.0250882901,-0.1141932387,1.1916372006,0.4805630007,0.441251831,0.3100414312,0.791191632,-0.4497320117,0.4658551672,-0.1303441193,-0.1286555216,0.2003072656,0.712389282,-0.3235732973,0.0349202004,0.1908589795
   1.2153955943,0.7729782304,-0.5217790274,-0.5681541661,-0.0874316687,-0.7798512436,0.804783484,-0.1948459003,-0.1475013489,0.8249115721,0.2388190467,-0.611933556,-0.283905826,0.4308686814,0.0066008891,0.8271071651,0.2297047589,0.8994596276,-0.2427691374,0.4466576659,1.1078615777,0.5032266434,1.1306470821,0.4067748411,0.7572131018,1.1135445044,0.6910669822,0.0128192265,-0.4064490362,-0.482051686,-0.492915657,-0.6454203405,0.7820482385,0.5707961199,-0.238294328,1.1091897695,-0.4864465106,0.2417520385,-0.7113007202,-0.4468499017,0.0065624459,-0.4703073153,-0.7696389507,0.1401315487,0.1813737608,-0.2806176603,-0.492295805,-0.0271422987,-0.5311703753,0.0493471676,0.3125151301,-0.6166423174,-0.6675087657,0.3429737052,-0.4075726937,1.0662733775,-0.6980056778,0.465344103,-0.4989882061,0.8155182517,-0.3478416796,0.8053161242,0.2531365005,-0.4432124128,0.5515264756,0.4956599836,0.8930470907,0.3389399069,0.4513361518,0.1241658756,0.3464106916,0.9046372772,-0.4410951692,0.2597397787,-0.1018287888,0.1891836401,0.8235008131,0.5340531403,-0.7785442944,0.6943591451,0.3917111483,-0.6061298164,1.1424338084,-0.1073933313,-0.194763238,-0.4631308872,0.1503834024,0.7195887994,0.4484840183,-0.2666844227,0.5755189163,-0.5670510899,-0.5669399887,-0.4195506624,0.4369690389,0.8901264892,0.4949154071,-0.7763966925,0.1372096145,-0.4798720848,0.3443312122,-0.6690419471,0.0223290647,-0.1629796404,-0.6616899592,1.2165932649,-0.7426840381,1.1279153919,0.542844085,0.4123356453,0.4734538728,-0.7728643089,0.8922643504,0.9619526241,0.3533465041,0.2552394968,-0.2450583032,0.0763778982,0.8465101701,1.1735546498,0.9576527543,0.6391444411,-0.3606519145,0.6801184034,0.8061146336,0.9610593861,0.4599063852,1.1481358504,-0.3027213975,0.0912432295,0.8843152431,0.0895809277,-0.1556277102,-0.64880898,0.55801675,0.7092375159,-0.0180604536,-0.2333604092,-0.7185949103,-0.0244008781,0.2383910937,0.4043263112,-0.4040617352,0.7620412214,0.5716869644,0.045753584,-0.875937054,-0.3511582444,0.353769273,0.1938757705,-0.7847125363,-0.5545196495,-0.3830853606,-1.1132430325,-0.3618099399,0.3900522324,-0.9958621591,-1.1611227023,-0.3283685025,0.77501165,-0.3017878298,0.671985285,-0.2345917158,-0.7115582526,0.3482358526,0.3635832681,-0.5727484067,-0.437338557,-0.7832989554,-0.9676206123,0.4649815527,-0.4549744799,-1.155615262,0.4809668572,0.2946203421,-0.6366797415,0.4272719105,0.0629838001,-0.7442998486,0.0309796206,-1.0506169015,-0.4090799735,0.1873213848,-0.9219830633,-0.1804810192,0.1295401541,-0.0010865421,-0.8292818145,0.5938652126,-0.8847357716,-0.7925436758,-0.3107594986,-0.990912731,-0.0383321407,-0.5863183811,0.6111525964,-0.7617276842,-0.3275050985,-1.1812225862,-0.2519098425,-0.0135059074,0.5405207524,-0.9427543628,-0.7606979227,-1.1156822343,0.222723965,0.4797730228,0.5234149551,0.1968368547,-0.6290339893,-0.6427753679,0.1614169305,-0.8787459695,-0.1006175407,0.3016257346,-1.1640728193,0.1026357369,0.2620997741,0.3144731833,-0.6852499666,-0.6631119065,-0.2899188826,-0.5672592269,0.569193863,-0.1194112205,-0.5997562678,0.0424077263,0.182424284,-0.8339132733,-0.5994404303,0.4971844438,-0.733831048,-0.65194913,-0.7196813729,0.3083117953,0.1276468992,-0.6433538617,-0.4294266281,0.2475129053,0.011304987,0.5151425401,0.4230705458,-0.9225256137,-0.0308599888,-0.3666002982,-0.6596967317,0.2286596312,0.4684122862,-0.3772641605,-0.6795330439,-0.3538440651,-0.3455742382,-1.0435067324,-0.0307248232,0.421110746,0.4659681847,-1.1062865716,0.6175420365,0.2148923291,-0.4560507423,-0.2961989463,0.2447447623,-0.2554427085,-1.1515058114,-0.9512184916,-0.666863272,0.554842278,-0.8411797519,0.4575379794,0.6808692,-1.1329667701,-0.1517781008,0.147518488,0.0177943253,-0.8007061976,0.0821825865,-1.1048539264,0.5753857071,-0.6635102527,-0.1961579516,-0.3655636654,-0.8180804244,0.5911375299,0.2492514015,-0.4961058068,-0.7655734448,-0.2976341032,0.1645113755,-0.9025455342,-0.5178505899,-0.0504261476,0.0193250462,0.311282244,-0.0721281317,-0.3062690849,-1.107503162,-0.0099785902,0.7673962589,-0.1118787683,-1.0910150346,-1.0802862898,-0.3455301056,-0.1643695252,0.7787182263,0.5685045054,-1.0397302799,-0.2302490406,-0.8836853952,-0.988587713,0.2968705711,-0.1593877252,0.5283104168,0.1941270562,-0.6245153751,-0.5965716177,-0.8299931428,-1.0204891397,0.0952048585,-0.9648075347,0.6092353581,0.7003688595,-0.3449499811,-0.534229923,-0.0639703113,-0.4598172632,0.1842736233,-1.1428556901,0.6914149715,0.2324585472,0.3354164646,0.5137747886,-0.7113823965,-0.8600171163,-0.613769873,0.77608636,0.1982844495,-0.4164587202,-1.1762962344,-0.048562166,-0.4484642622,0.5466783471,0.1091822175,-0.4992065671,-0.2538301049,0.4688642999,-0.7676047693,0.7313275008,-0.3638509157,-0.0940818967,0.4058344205,-0.6356332625,0.8030834543,-0.199986814,0.4904434019,0.7909247159,-0.5080874204,0.6637211638,0.9029885951,0.3052825544,0.6974809077,0.147399741,1.0148744855,1.1138464112,0.4551593167,0.2841890192,0.1206614717,0.0697841139,0.0131639546,-0.6834064514,-0.212853325,0.5500866351,0.8774009553,0.2009017233,1.0823126558,-0.5400222778,1.1139049299,0.104559845,0.6044260096,-0.0087056582,0.5256476206,0.3808414599,0.9760980077,-0.2690565814,-0.5265160264,0.6572634969,1.0785106907,-0.3236919721,0.3864790843,0.0706886665,0.5327590135,0.4868928342,-0.738040744,0.4691528575,0.342770134,-0.3348177276,-0.1862041321,-0.3462455147,-0.2755439845,-0.6620924125,0.3244529309,-0.0190004197,0.3222182745,1.1153378889,0.0716302513,-0.6146033626,0.8205661411,-0.0467811603,0.2454679886,-0.4553718926,1.2194403142,0.0720768419,0.9346333809,-0.6444706364,-0.4728433048,0.5335601391,0.9107197534,1.0110173134,-0.4660922695,0.0058349349,0.2283205146,0.0363774502,0.2537213469,1.0651132559,-0.1295599475,-0.5698826477,0.8860850531,0.0674263497,1.0695405912,-0.4244348281,-0.5740328353,0.8015424815,-0.0074532883,-0.0208277352,-0.4357643952,0.0095821625,0.9294652065,-0.3652478992,-0.14501036,0.3610951918,0.5345959709,0.5146400611,-0.0493806706,-0.7193053855,0.0401681668,-0.0659980461,0.1844418363,-0.5137317438,-0.2923871283,-0.5883078804,-0.715564752,-0.7616869025,-0.2327500747,0.7452663776,-0.6086327256,-0.9168724763,0.1391618144,0.4354510992,-0.8126846087,-0.8773011436,-1.155816505,0.775727486,0.3239690247,-0.2412961459,0.6389741727,-0.8911765657,-1.1841903424,-0.6315573156,0.1050308276,0.0089373657,0.3391469014,-0.0079342375,-0.5296352719,-0.0529797503,-0.6581182498,0.4628850609,-0.7511426397,-0.6305609466,-0.8688608437,0.5261258302,-0.0788433316,-0.226688437,-0.3192159392,-0.446887914,0.4612313691,0.0944235887,0.7466044945,-0.1743809057,-0.8144129022,-1.1472525953,0.5208798652,-0.7135376958,-0.660612639,0.1063817706,-1.2134263863,-1.0614922589,0.1231447127,0.2908749948,0.2095567402,-0.5969268232,-0.4685946693,-0.6527172262,0.7543239777,0.1578857074,0.2019323534,0.3933933419,-0.4478398486,-0.7319945405,0.3250252004,-0.9453047534,-0.057650617,0.2227786541,-0.9306288316,0.4627095559,-0.2369089255,-1.1011205811,-0.8316649376,-0.9924452502,0.3920630911,-0.9880996525,0.1634007705,-0.4798522805,0.724510485,-0.2633056816,0.1501313442,-0.0492788401,0.4081424405,-0.4114660042,0.1910561169,-0.3342284102,-0.1044472547,-0.8296899647,0.1734496266,-0.062147171,0.2804075335,0.2415823214,-0.6928291377,-1.0132319556,0.6690016684,-0.0804351612,0.2594040124,-0.3384198182,0.6269689413,0.3312238674,0.4863246796,-0.3549178958,-1.1927450795,-0.390995887,0.3009510948,0.7293409237,-0.7862106171,-0.4866862324,0.4697624832,-0.0724182834,-0.0612691163,-1.2060683121,-1.0778087817,0.2453224887,0.4412475392,-0.62388157,-1.0312840307,-0.5391007466,-0.815338757,0.2124143591,0.5155411582,0.3033400834,0.5630367236,0.4494391415,-0.9686918269,0.3495165785,-0.5944097694,0.5779940836,0.137752388,0.334461234,-0.0992765098,-0.9651301076,0.7132990646,-0.0185305799,0.4562716312,-0.8643258252,-0.6869420335,-0.2856074682,-0.3426353371,0.2896934743,-0.2678144004,-0.6524175443,-1.216042815,0.4556867029,-0.2809633089,-1.0018708857,-1.2022250586,-1.0951906035,0.2592080175,0.1712520369,-0.8650210026,-1.1393702787,-1.0607006831,0.02874985,-0.3669565142,0.5808479065,0.6982538874,-0.4973943335,-0.0123447773,-0.0181975613,-0.8702218897,-1.0297534076,0.6547375933,-0.2929357074,-0.7464921847,-0.3315613557,0.3348761932,0.551900013,-0.1204604169,-0.7962552431,0.2559009888,-0.910323741,0.4203713299,0.5715921629,-0.5158404959,0.2754318057,0.2976804492,-0.352932223,-0.7723404496,-0.2689106369,-0.0573020724,-0.154165386,-0.2632173996,0.3802058953,0.5566868434,-0.1207374369,-0.1441606504,-0.0459983216,-0.4488112665,0.600598863,-0.7060592594,0.4193778332,0.3533442956,0.7741874631,-0.4866369748,0.6985163406,-0.0107631475,0.1232144194,0.6950958545,-0.0827121769,-1.1864000263,0.3633210273,-0.3338900235,-1.2072815236,0.0950561812,-0.3525562881,-0.2179487709,-0.952111533,0.1048797394,0.2700590154,0.2880216686,1.2186944636,-0.1866419645,0.7031896282,0.0710186592,1.0370244888,0.6376055963,-0.7421511791,0.7731931871,0.6061661336,0.0257751836,-0.4187400067,0.2127610005,-0.7235271211,0.0491504191,1.1314951314,0.8036891055,0.2890116552,1.0127289213,-0.3036350556,0.5762685593,0.8132220228,0.2725029195,0.6254300559,1.0719862415,0.5871410155,-0.2171630752,1.0398748649,-0.1578592951,-0.5237835968,1.0115017073,0.691443081,0.5949393343,-0.0962833989,1.0606021967,-0.3729476356,0.0631675373,-0.0802759736,0.3541203894,-0.7604049451,1.0719395254,0.8427922168,-0.6219263595,0.3100596637,-0.7644819736,0.7172282581,-0.3383703404,0.4365520234,-0.7013312482,0.9734758457,1.1603358446,-0.12416413,0.5930715669,-0.4103767942,-0.4457171099,-0.6371867951,-0.6102879435,-0.2050847108,0.7984999549,0.8026957503,0.9158800246,-0.0236604804,-0.7590520379,-0.5268136026,0.7585704597,0.8269624096,1.0353508677,-0.4981995566,1.0055018032,-0.1437646424,1.1465013691,-0.4322826756,-0.4015979893,-0.4821866821,0.8477843824,-0.0527950231,1.1856995339,0.9693058721,1.0656864123,0.9464089471,0.8302457808,0.4889415297,1.0544388818,0.1671022249,0.521168827,0.0546080206,-0.3304218962,1.1383859219,0.8284928008,0.3063190885,0.4602043181,-0.6985211211,0.4896720982,-0.0960039155,-0.3896094845,0.2288512586,0.0396455421,0.6425068481,1.1128568279,-0.9540148714,-0.7998327939,-0.3147440374,-0.5340680042,0.6143896427,-1.1112102533,-0.3841322007,-0.8449695577,0.167914729,-0.9474209828,-0.6527458793,-0.3886088886,0.6275172137,-0.5367525126,-0.6521545341,0.5857596701,0.4780196339,-0.5725749945,0.2924949457,-0.5511140758,0.587466152,0.7396086377,0.3006819975,-0.8305150467,-0.8519869308,0.2101464648,0.1002985829,0.7421436074,-0.9762884361,0.7752293178,-0.6359042376,-0.4536026846,-0.6927592326,-0.534827806,-0.8571914594,-1.1313891525,-0.7675792054,0.76202381,-0.4933825358,-0.3626000815,-0.531752143,0.2491845931,-0.1628388285,0.1444231108,-0.9264766827,-0.4313121167,-0.9670656744,-0.0263662941,-0.5427765501,-0.4688277197,-0.2467374781,-0.5351185183,-0.2593535304,-1.0656572098,-0.228847577,-1.1311277554,-0.4376451409,-0.3522577368,-1.185353799,-0.2011191815,-0.5611553732,0.2133045266,-1.1587421468,0.2491068667,-0.6170279048,0.6738887584,-0.6952617178,-0.6421824861,0.3227773304,0.1136193866,0.3808650165,0.1270054331,-1.0103687459,0.5581799109,0.3547550771,0.613473172,0.5362090847,-0.7616067296,-0.9955471905,-0.503093834,0.6779523023,-0.2981771434,0.650530581,-0.9702519953,-0.0171269846,-1.2016748053,0.7599642563,-0.7502815612,0.6870479869,0.2236103001,-0.761424196,-0.9887569138,0.3791582366,0.5688784156,-0.7454114678,-0.7622264354,0.050314979,-0.6243690783,-0.8575744797,0.2888968638,-0.7736533694,-0.9914521856,-0.246589463,-1.1215099853,-1.1961199253,-1.0407968435,-0.9049365838,0.5944877962,-0.5901434375,0.2790603176,0.0997540386,-0.4363901148,-0.4154311883,-0.8973228998,-0.0556695114,-1.1460042365,-0.3375009604,-0.7711922536,0.0514347091,-0.6933625527,-0.1839856512,-0.6415986651,0.4154656972,-0.7277550046,-0.6606636522,-1.138826106,-0.3918028128,-0.8848225289,-1.090989562,0.465243842,-0.6738073323,-1.1938210337,-0.8618455027,0.1340087106,-0.7675305391,0.1262095574,-0.871164186,0.3421846335,-0.0627753397,0.010486035,-1.1834801186,0.6751089037,-1.180735484,0.2963105314,0.7077411131,0.0106552777,-1.0997853141,-1.0868179558,-0.736959585,-0.9137015493,-0.8224839522,0.7327861923,-0.4014022237,-0.5911087906,0.7671264631,0.258875227,-0.6440293081,-0.2674370751,-1.1246675739,-0.4322651428,-1.0409330914,-0.7791838563,0.7131703335,-0.410977262,0.2894595391,0.0728054804,0.4961643616,0.2984182411,0.7238888235,-0.8788588197,0.2863570326,-1.1832392926,0.7779216028,0.4003360984,-0.6527051944,0.2345054843,-0.7293159962,-0.7336987937,0.2085716198,0.0099483322,-1.1317194758,-0.5399805493,-0.6337146135,0.338749818,-1.0322446173,-0.5668351771,-0.498174508,-0.4072497076,-0.3928009345,-0.3465998013,0.1327315088,0.077609504,-0.7440256467,0.2434045174,-1.0903609732,-0.1886062536,-0.2158167193,0.4543883666,0.7195169513,-0.5676503898,0.39155452,0.6787499764,0.4239840627,-0.0743159562,0.2600101463,-0.41902638,-0.2889189957,0.6022075852,-0.1153292473,0.8860932496,-0.6269035187,0.4089550636,0.2932591539,0.9773963309,-0.1115933521,-0.2655751896,-0.053889071,-0.2531867022,0.1583713477,0.1486026288,0.4214120907,-0.1525911218,1.001012956,0.1310328941,1.129294323,-0.7556615609,0.5897925328,-0.2805964439,-0.2935532504,-0.6803494102,0.3816438502,0.0081526038,0.930388854,1.031214581,0.1873313717,-0.7716363209,0.46129686,1.0799063185,0.0456728374,0.7233768693,0.8201089949,-0.5457850952,0.1410019135,0.1799824832,0.6712771058,0.6097552776,-0.6526712306,0.7556837695,0.3174842008,-0.0907617215,-0.4668698698,-0.686982488,0.6066431543,-0.1034619514,-0.2579151284,0.5562494043,-0.1278922897,-0.2134822211,-0.438525816,-0.0803867638,0.7746200478,0.8998059008,0.4400011924,0.5947486348,-0.5331992093,-0.304582153,0.1104915689,0.9021516164,-0.5847441402,0.458319703,-0.7275996038,0.7455449086,0.0076832014,0.4947031531,1.1856997509,0.9099990531,0.453645341,-0.1996131888,-0.5512897564,0.0846320165,-0.7330761475,0.6882223301,0.0121057412,-0.1140190469,0.7034192989,0.099970076,-0.7119473449,1.1393245126,0.944380345,0.5333798332,0.6576762982,0.5279533192,-0.078554097,0.9575119541,0.138873209,0.4391051586,0.8132753261,-0.5468858486,-0.5198624475,0.6181192975,0.7953228802,1.1752731178,0.0500327532,-0.2455585715,0.4815667513,0.5179136358,-0.7019107153,-0.2416921625,-0.254163125,-0.3713773075,1.0712622006,-0.2265269425,0.4283309066,-0.7520743699,-0.1182618508,0.8412613599,-0.2442464833,1.0855326077,0.4309448208,0.9297798929,0.5244186203,-0.2528638388,-0.3644542094,0.8504148713,-0.5875169957,-0.6525920701,-0.7346314236,0.3730402932,1.0022268511,-0.1901785521,-0.0166005616,-0.5137424661,0.8146901271,0.901379496,0.4207545583,0.768977481,0.3511502592,0.5289571052,0.3697877655,0.7356778086,0.7207366443,-0.1401590467,-0.7207251449,-0.1369934337,-0.5577663375,-0.6704164386,0.5077715022,-0.0476470025,0.7426125184,-0.5196588175,-0.6526533073,0.1981432147,-0.1751637072,-0.293964419,0.9793836224,-0.5929082116,-0.3994293786,0.5341208586,-0.2812605253,1.0532811379,0.527031566,-0.3331550625,0.14674181,1.1227563221,0.7009705752,0.4465894,-0.4496818162,1.0053282037,0.7265514694,-0.591533952,0.1551327461,0.8922093167,0.0211638889,0.5773933148,0.193451612,0.9760879773,0.252271965,-0.166899024,-0.5288179234,-0.7004552937,-0.6801372419,0.132940741,0.7770247665,1.0383929798,0.6946410779,-0.0815162038,0.4969076802,-0.3511432041,-0.6682451727,-0.3457204183,0.5095102619,0.1910382181,0.7074853266,-0.1552809881,-0.1821539639,1.2169992274,0.4196760327,0.0838733173,-0.291810472,-0.4820937389,-0.664806348,0.0483612741,0.8399039396,0.9766784303,-0.2737711461,-0.048730849,-1.0234050873,0.4004962272,-1.0384751541,-0.5491474335,-0.7853809121,0.6579535554,-0.9717627793,-0.5210438268,0.0370308881,0.0458290496,0.5988041569,0.6201355957,-0.0648233534,0.0802648164,-1.1932926432,-0.0132386905,-0.6506964983,-0.838574634,-0.504631455,-0.3140569682,-0.1218783136,-0.2351831177,0.0824286084,-0.0769172615,0.5608870644,0.4447777714,0.5866924204,0.3375162217,0.600230537,0.0831018643,0.6478761552,0.4559340119,-0.1425859535,-0.8853654825,-0.3327638384,-0.161246591,0.6549579423,-0.1012630525,0.4887428391,0.1163830919,0.4103506892,-0.9616921089,0.5865021261,-0.7826944907,-0.5291426554,0.5888207617,-0.9120262443,0.4316989403,-1.0378140939,-0.2205310806,-0.0341372943,0.140008422,-0.227278211,-1.1125346219,-0.5279592592,-1.0370862793,-0.2875741663,-0.8360422189,0.0653010144,-0.6152802473,0.042646427,-0.85086721,0.1725885006,-1.0206231635,0.4867242617,0.1657132929,-1.1648921233,0.2107884823,0.6709969152,-0.0011340293,-1.175614075,0.0513876559,0.2001562262,0.3315930986,-0.9328075472,-0.332467147,0.2866256521,-0.93229377,0.1113060288,0.0727193741,-0.506763312,0.710852252,0.0517519762,-0.0359369849,0.7503361438,0.3555935905,-0.5161514729,-0.620925256,0.3421388599,0.6517264905,-0.4244697279,0.7689576118,-0.8143254091,-1.0856827239,-0.5965692335,-0.1705243939,-0.5114981094,-0.2701065529,-0.9958653945,1.0352914782,0.6327761626,-0.3584957351,1.0226177407,-0.2761718514,-0.441538679,-0.6430304224,0.8964793599,0.8413086376,-0.552018657,-0.3363770549,0.1226225111,0.2020491909,0.1287280654,-0.4556471236,0.7401977228,-0.3035324956,-0.5365858885,0.7183108693,-0.3921425478,-0.3558508377,0.7714978774,0.7862394741,0.0244741735,0.3483249711,0.6945930999,0.1389979522,1.2091958199,1.1166986099,0.1725563433,0.881478035,0.8039951297,-0.375193642,0.8108726769,-0.2620200119,0.8070009938,0.2846241005,-0.5216800092,-0.0374825023,0.3529580132,0.8449209371,0.960686627,0.700054124,-0.575335398,-0.7266159427,0.1148907176,0.0512032106,0.4837979776,-0.4601187227,1.0132244473,0.2719796615,0.4842666899,1.1250126494,0.7206983241,-0.0772993652,0.7946754862,0.0030305839,0.6069354079,-0.2377779777,0.3230124105,0.0356876559,-0.0942485401,0.0184652802,-0.6798136725,-0.6065762217,-0.2314092484,-0.3426673082,0.9160838417,-0.2287885737,0.4340182467,0.7875712226,0.4395819641,-0.1978694735,0.4538257177,-0.3338032165,0.7151808599,-0.4933403,0.1460200602,0.0800678411,0.1940859507,-0.4406114766,1.2063830693,-0.181567674,1.0614389816,-0.5867208723,-0.5920581879,0.8167632689,-0.5779961009,0.0436545738,0.3997921989,0.5677886428,0.6478165174,1.204931577,0.4097141855,1.0486785399,0.7135069082,-0.0192271381,0.526671349,-0.1511671463,-0.4146406795,-0.4984274475,-0.380340373,-0.501509726,-0.1296208666,-1.1472956345,-0.8100499633,-1.1548621294,-0.6622966183,-0.6983929929,0.667351498,-0.6934743561,-0.329000349,0.7268457829,0.3319839765,-1.1554293579,-0.9075224559,-0.6436119554,0.1951397512,-0.1129817709,-1.1720230125,-0.0261006036,0.7467529296,-0.431778876,-1.1394398084,0.3535044766,-0.807662597,0.1831175819,-0.877703081,0.31696377,-0.4782863706,-0.1573731385,-0.0114375536,-0.9291655441,0.1931770606,0.559268369,-0.3129614124,-0.9194108798,-0.5702559603,-0.8855115437,-0.0476874045,-0.7221211493,-0.4652702966,-1.0547492888,-0.847879503,-0.5891475081,-0.4632588093,-0.7393214945,-0.3904238556,-0.1044675761,0.2910222565,0.0026934048,0.3068882678,0.0215685771,0.2758830064,0.6689403808,-0.3662753821,0.2408920521,0.7109312412,-0.5243304669,-1.1040390993,-1.0121176319,-0.3711380706,-0.3223319499,0.7032793646,0.2564195725,0.2691099825,-1.1111375589,-0.403758143,-1.2073609524,0.5296800105,-0.9718788268,-0.6970982375,-0.9091344784,-0.352524136,0.3355445429,0.7775741161,0.5884263177,-0.9624517617,-0.6171134431,0.7247478372,-0.0037040717,-0.4439329849,-0.9275816671,-0.481554428,-0.8519995064,-0.1051445889,-0.1114703442,-0.031259814,-0.1885132108,0.0893073467,0.4981294783,0.5861194093,-0.495311493,0.167635105,-0.8623647542,0.4147831877,-0.6643062141,-1.1490977334,-0.9327726757,-0.7793469169,-0.9235854895,0.4313826147,0.7573415588,-0.4197980835,0.0516245918,-0.6352149695,0.7256191556,0.286675258,-0.9574977953,0.3981592995,-0.7224862958,0.7529689984,-0.4495717957,-0.2983728199,0.1734181181,0.0667899916,-0.8733812506,0.2756488346,-1.0387239942,-0.0955264789,0.2901864494,0.6953834944,0.7770944263,0.1713003334,-0.9363912364,-0.582503274,0.693225023,-0.460882238,-0.1719424573,-0.2046938481,0.1266899383,-0.2123673035,-0.7181574805,-0.2226001972,-0.6368218101,0.6655065517,-0.1525420796,-0.3002501492,0.2278646533,0.184060872,0.5863267338,0.1452895425,-0.1481146708,-0.9076105842,-0.1684192501,-0.0192236366,0.5935936138,0.7427771471,0.7743831395,0.0197975015,0.2886536722,-0.806264395,-0.7693769439,-0.2073752878,-0.5447945343,-0.3627761452,-0.2659955656,-0.1434868423,-0.6631977186,-0.0386825546,-0.087897117,-0.8415655187,-0.5962201459,-0.4379157339,0.2598375897,-0.4136814493,-0.7610265445,-0.8340400849,0.7427102548,-0.7000887515,0.2041745171,0.07094886,-0.5166850751,0.446430557,-0.8492507973,0.3181577264,0.5714396384,-0.2263934294,-0.9232691453,0.7365517474,-0.43853115,-1.0199681094,0.5004550261,-0.8507193933,0.1389746549,0.3150547747,0.4314227482,-1.1399228901,-0.2177912982,0.6651760579,-0.9017214273,-0.0689255592,-0.8663388734,0.4951704802,0.437325602,-0.7425321443,0.5883279309,-0.1416804416,0.0099350357,-0.2588877806,-0.4335854276,-0.1736297233,-1.1413411184,-0.1539514655,-0.7511097386,0.9974364361,0.0855148413,-0.2805925202,0.5926383249,-0.623387206,0.7611108004,1.0720954772,-0.2797129289,-0.065815586,-0.4903501827,0.7101738826,0.0546177194,0.6377002168,-0.0049403462,-0.3221095321,-0.5093159281,-0.6836835534,0.6337663215,1.1753143522,-0.0011371433,0.6388503862,0.3057769433,-0.0610015917,-0.4445899358,-0.6791257213,0.7216043715,-0.1630932348,-0.5834925739,-0.3490726748,-0.1304472428,0.1258929854,-0.6636232731,1.1081731005,0.9431426554,-0.7761299133,0.7679604274,0.5024036299,-0.1843828432,-0.2696948792,0.2049991859,0.5094585837,0.9081910459,1.1572488316,-0.4193486194,0.5200849268,-0.4337460171,-0.3262593592,0.8466869845,0.3181450626,0.3054142909,0.6510568447,0.924436588,-0.6176863021,-0.4968318162,-0.7519320852,-0.5325033708,-0.7026089622,0.0236568681,0.2149016548,-0.5355246445,1.120257972,0.1010698506,0.1479406448,0.9122822277,-0.0401580607,1.0783252616,0.1230474354,-0.382405208,-0.1415079491,0.4640948865,-0.0945091167,0.6262704329,-0.3957338338,0.5850590225,-0.5274195714,-0.6054663301,-0.3887186977,0.9191400689,1.0450940236,-0.5268771151,-0.7059544741,0.9624204348,1.1916532612,0.5230850614,0.686368403,0.5389466863,0.385892813,1.0896385929,1.1050257461,-0.5377410777,-0.6460010304,-0.2239051894,0.0551281494,1.1566081468,0.6986401277,-0.7661309761,0.4730965261,0.1140101596,1.078092579,-0.1030000275,-0.5945999321,-0.5567831542,0.5735243652,-0.7119939576,0.1572763685,-0.0967578901,-0.5697148495,0.6001001801,0.8118168535,0.6982145803,-0.4903068185,0.8658227921,0.7557056761,-0.5804428715,-0.6520913911,1.0105864808,-0.1314798281,0.9706276284,0.8474798632,-0.7637086303,0.7871925189,-0.4324197821,1.1217738802,-0.7356174306,0.2218645409,-0.3913240372,-0.2688321559,0.586279599,-0.3116707611,-0.1024953093,0.7472751113,0.3243832913,0.0150925319,0.50880351,0.2673708776,-0.200401233,-0.0790289476,0.93747349,-0.040691987,0.8805469015,0.4031115518,-0.6826983343,-0.6017348353,-0.3451126381,0.6188286049,1.0059971057,-0.5465177052,0.5575135424,-0.470732315,0.2613692384,-0.1281889578,0.4025669479,0.2265539847,0.4294956651,0.8539763196,-0.4252669528,-0.158213166,0.1944394082,-0.5093702828,-0.1760029005,0.1825973631,-0.7279913432,0.4247107812,1.1851620574,0.4948132568,-0.7616465117,0.8430819801,0.0728195549,1.2098682823,1.0507957788,0.3774745035,-0.2193712298,-0.4172414788,-0.197923819,-0.3329666411,-0.1011631101,-0.7683427471,-0.3663822613,-0.6586026509,-0.1899286429,0.4720535212,0.947146468,-0.2297936803,-0.4867840592,0.0608739282,-0.1317655923,0.9521584261,1.0710926635,-0.6462091428,-0.0782955367,-0.6472069944,1.1170896592,-0.4074923606,0.0944468442,-0.0635829534,-0.4306310132,-0.0943943238,0.8237921522,0.4244392411,0.5035503748,0.1904948367,-1.0039762977,-0.1972453937,-0.6636951044,-0.1596143336,0.7083404341,-0.0228383678,0.0513511937,-0.8288111874,-0.8174024048,0.3328677718,-0.2968305124,-0.2315654045,0.0455226585,0.3359916336,0.2837673756,0.5323678708,0.15470197,0.1216317316,0.3894476188,-0.3349554835,-0.5807661712,-1.0024315363,-0.8979324197,-0.6208868716,-0.2096383784,-0.2095179006,-0.3525387317,-0.3635359778,-1.2109840357,-1.1889748492,0.049197933,0.2882084013,-1.1736057412,0.4626509068,-0.794710151,0.7706480489,0.2240487295,-0.4171795974,0.2063819947,0.6499773382,-0.8808457582,-0.0404052266,-1.1114441922,0.2416472979,-0.9475129956,-0.2445582103,0.6273706524,-1.0051729001,-0.2073240129,-1.0326895688,-0.568070284,-0.2381865762,0.5006729761,-0.6632617265,-0.3556474707,-0.3999334768,-1.1638160211,0.287470005,-0.007280287,0.507732865,0.4478809913,-0.6190410517,-1.1667944596,-0.7527629203,-0.1498780453,0.3265338889,0.4440617641,-0.5602587787,0.0177859583,-0.0583011766,-1.0386282291,0.351552526,0.2085881675,-0.3946185874,0.4052296696,-0.1115295409,0.4308304307,-1.2100235645,0.0678172189,0.225293646,-0.5504061942,-0.8145176955,-0.894129403,-0.8063026202,0.4880130464,0.3502225201,0.7059205656,-0.23950522,-0.3351714656,-1.170045105,0.008743658,-0.7410757896,-0.0430641991,-1.0924473388,-0.9680833799,-1.2000681518,-0.2327436356,-0.526140944,-0.3122547146,-1.1338762168,-0.2461099098,1.0098170817,-0.6927191109,-0.3911024486,0.7771110777,0.752698062,0.3358810785,-0.4391234364,-0.6075585239,0.6107129752,1.163782473,-0.4284570148,-0.3105271305,0.5363616216,1.1250209168,-0.0860714469,0.2540607888,-0.1104222046,0.2393493418,0.4976259059,0.6790264314,0.9985512469,0.2600515679,1.2063614179,0.936437281,-0.2292605363,0.0222540765,0.5916079171,-0.54080323,-0.5617306452,0.8341824003,0.4071603351,0.1602238507,-0.4074759228,-0.7130979818,-0.2446971093,0.7946761773,0.0170318267,-0.7664178477,-0.7007056742,-0.6223824012,-0.6485909677,1.206479789,-0.4847201505,1.1296459811,0.3652929793,1.0464455813,0.4866247279,0.4875765293,-0.3917596829,-0.1780322766,0.0369749755,1.0624337999,1.1258819217,0.19217459,0.2290375165,0.9210185894,0.092637656,0.856741787,-0.0806578271,0.078909449,0.204682892,0.2838786578,-0.2522992058,-0.0891049731,-0.283075131,-0.2550702556,0.0456755689,0.6936229281,-0.5934623011,1.1304474494,-0.3050447558,-0.4322696454,-0.4373319918,0.0409003475,0.0964329575,0.0253251248,0.4019069261,0.1303983785,0.4012157795,-0.0239565385,0.7981479988,0.0467953782,-0.1706406022,0.9223900494,0.0318435716,-0.1335791539,0.2104884617,-0.3615761842,-0.0100164435,0.9979638869,0.3286452543,0.344966214,-0.2502895579,-0.5078351643,-0.0919294631,0.0526632831,-0.0321851609,0.5526133859,0.9796072609,-0.7010231835,-0.0376726451,-1.1083698945,-0.2778546371,0.696971134,-0.7480070414,-0.0462398759,0.5793720843,-0.3440836629,0.6769682166,-0.806572089,-0.6382683543,0.692233009,0.2129984353,0.5743110679,-0.3328016846,-0.1506918024,-1.085984694,-0.4913499522,-0.4724027579,-0.147367398,-0.0209148886,-0.4535788734,0.6927367017,0.7431340876,0.472979981,0.4521912817,0.2493802323,0.7530735449,-0.1848178029,0.6407217697,-0.6431712434,0.2743852953,0.5109281368,0.4806141542,0.0998256322,-0.9352637521,-0.0568700095,0.107368397,-1.0836212451,-0.8488608153,-0.5738912103,0.53946502,-0.459192559,-0.0561766622,-0.5580257494,0.1058225449,0.6124939235,-0.9839255141,-0.3486521755,-0.4804270919,0.0155526924,0.0933167361,-0.4740407578,-1.0092615068,-0.1647476309,-0.4842505063,0.3188046268,0.1866147848,0.2218731851,-0.4672582866,-0.5398150989,-0.5020819306,-0.3066733925,-0.0404994215,-0.4457071432,0.1509918956,0.5856278321,-0.6563445944,0.7151016432,0.5901028967,-0.7115122089,0.4731238238,-0.6013936354,0.0290829217,-0.6956401346,0.3692124258,0.4601836349,-0.1033375223,0.6157702707,-0.6490015769,0.4876326607,0.4855485871,-0.9438798,-0.3883202019
