encog,BasicNetwork,java,3.4.0,1,63713922406478
[BASIC]
[BASIC:PARAMS]
[BASIC:NETWORK]
beginTraining=0
connectionLimit=0
contextTargetOffset=0,0,0
contextTargetSize=0,0,0
endTraining=2
hasContext=f
inputCount=630
layerCounts=1,101,631
layerFeedCounts=1,100,630
layerContextCount=0,0,0
layerIndex=0,1,102
output=0.248918287183451,0.00000000000000000001,1,0.00000000000000000001,0.00000000000000000001,1,0.00000000000000000001,0.00000000000000000001,0.00000000000000000001,0.00000000000000000001,1,0.00000000000000000001,0.00000000000000000001,0.00000000000000000001,1,1,1,0.00000000000000000001,0.00000000000000000001,1,0.00000000000000000001,1,1,0.00000000000000000001,1,1,0.00000000000000000001,1,1,0.00000000000000000001,1,1,0.00000000000000000001,0.00000000000000000001,0.00000000000000000001,0.00000000000000000001,1,1,0.00000000000000000001,0.00000000000000000001,1,1,1,1,0.00000000000000000001,0.00000000000000000001,0.00000000000000000001,0.00000000000000000001,0.00000000000000000001,0.00000000000000000001,0.00000000000000000001,1,0.00000000000000000001,0.00000000000000000001,1,1,0.00000000000000000001,0.00000000000000000001,1,0.00000000000000000001,0.00000000000000000001,0.00000000000000000001,1,0.00000000000000000001,0.00000000000000000001,0.00000000000000000001,1,0.00000000000000000001,1,1,1,0.00000000000000000001,0.00000000000000000001,0.00000000000000000001,1,0.00000000000000000001,0.00000000000000000001,0.00000000000000000001,0.00000000000000000001,1,1,0.00000000000000000001,0.00000000000000000001,1,1,1,0.00000000000000000001,0.00000000000000000001,1,1,0.00000000000000000001,1,1,0.00000000000000000001,1,0.00000000000000000001,0.00000000000000000001,0.00000000000000000001,0.00000000000000000001,1,0.00000000000000000001,1,72360,-254471,310950,39566,-246829,326616,26387,-240243,340764,7389,-229182,366786,1820,-222776,385775,38284,-208329,337353,21447,-177043,372603,11734,-171310,395477,8091,-176687,408889,53159,-205876,340429,43069,-172740,377432,34532,-166370,403058,29530,-175506,416327,67875,-208524,343518,65517,-178492,378392,59994,-172447,403210,54422,-180912,416370,81143,-215609,347772,86952,-188571,377088,86907,-181797,395863,81746,-186484,406772,313,630,-941,-33276,9528,14249,-46417,17718,27591,-65333,31379,52420,-70767,39095,70933,-32769,48574,23292,-49097,83540,55554,-59267,92721,76923,-63924,89009,90567,-17912,50444,26862,-27337,86710,61212,-36206,96663,85705,-42414,89828,99879,-3490,47191,30701,-5613,79233,63831,-11723,87557,87974,-18264,80734,101666,9180,39601,35862,15444,68383,63502,15391,77322,81354,9764,74109,92510,-500,499,-206,-33760,14049,10756,-46486,26147,21256,-64856,46361,41670,-70177,57771,58201,-28587,53904,13680,-43033,95231,38415,-53834,108791,57077,-60116,107967,70560,-13978,54646,18486,-22383,95311,47286,-32809,107854,70471,-41045,103577,84738,-485,50452,24304,-2818,85664,53299,-11638,95553,76429,-20392,90640,89817,10632,42446,31873,16639,74264,55912,13992,84931,72437,6253,82979,82634,159,-488,544,-33873,14555,10343,-46866,27359,19600,-65739,48970,38016,-71433,61538,53547,-28190,54477,10370,-43038,96845,32543,-54688,111057,50690,-61332,111538,64084,-13618,55388,15251,-22188,97571,41409,-33062,111760,64055,-41493,109369,78676,-230,51486,21499,-2628,88373,48118,-11685,100017,70797,-20519,96776,84652,10742,43959,29730,16209,76724,52289,12693,87567,68794,4671,85789,78764,134,-141,29,-33814,14391,9982,-47205,27194,18639,-66782,48889,36156,-72945,61632,51329,-28570,54231,9912,-43841,97186,30952,-55690,112375,48064,-62622,113476,61268,-14078,55275,14997,-22817,98311,40098,-33618,113324,61799,-42237,110737,76203,-767,51488,21474,-3186,89355,47164,-11985,102242,68988,-20983,99373,82787,10124,44067,29911,15100,77230,52098,11387,88591,68220,3287,87161,78196,-62,20,269,-33727,14219,10367,-47234,26809,19155,-66952,48157,36918,-73114,60707,52243,-28747,54056,10596,-44013,96743,32199,-55733,111600,49640,-62494,112321,62960,-14202,55139,15529,-22923,97720,41333,-33574,112141,63530,-41998,109123,77961,-805,51366,21835,-3026,88999,47913,-11469,101809,70022,-20249,99016,83986,10206,43929,30100,15450,76917,52522,12176,88271,68845,4298,86896,78966,-217,26,116,-33503,13399,11639,-46980,25282,21407,-66704,45389,40622,-72991,57203,56537,-29421,53247,13585,-44931,94418,37764,-56504,108519,56262,-62969,109228,69756,-14738,54440,18072,-23601,95491,46178,-33888,109101,69461,-41777,106062,84213,-1056,50689,23748,-3233,86835,51799,-11130,98578,75003,-19271,95488,89319,10385,43130,31281,15741,74888,55315,13073,85402,72634,5834,83815,83177,65,-832,1226,-33102,9593,14937,-46876,18042,27437,-66827,32252,51062,-72815,40446,69157,-32490,48668,23224,-48618,83186,55740,-59148,93057,77738,-64352,92085,91759,-17583,50549,26574,-27108,85884,61488,-36288,95663,87256,-42452,90565,102214,-3131,47320,30305,-5272,78537,63864,-11467,86264,89108,-17749,80472,103478,9595,39823,35427,15824,68017,63481,15889,76499,82346,10955,74351,94211,-197,711,-543,-32611,7656,15580,-46209,14171,29346,-66017,25119,54787,-72209,31474,73576,-34165,45735,27108,-51218,77239,62293,-61460,84565,84691,-65695,80563,98400,-19295,48191,30178,-29583,81408,67179,-38473,89522,92717,-43806,81985,106794,-4572,45518,33193,-6900,75655,68102,-12246,83434,93000,-17736,76762,107229,8720,38379,37290,14319,65130,66949,14467,72786,85931,9894,69470,97619,0,0,0,0,0,0,0,0,0,0,0,0,0,0,0,0,0,0,0,0,0,0,0,0,0,0,0,0,0,0,0,0,0,0,0,0,0,0,0,0,0,0,0,0,0,0,0,0,0,0,0,0,0,0,0,0,0,0,0,0,0,0,0,1
outputCount=1
weightIndex=0,101,63201
weights=##0
##double#63201
   -0.4567694273,0.0245408194,0.0124735129,0.7367729836,0.4860981496,1.8624646864,-0.0145522457,1.5731638439,-0.348431288,0.705393237,2.7019298828,0.9567064419,0.3712168845,0.1220343882,-0.0259516291,0.311023927,0.0326323694,-0.0163663606,-0.3870814973,0.0381428283,0.0155662043,0.5357370608,-0.0655001894,-0.2384433258,-0.4818100431,0.5660414171,-0.4799585173,0.183347426,-0.4789706162,-0.7370176219,-0.1000324891,-0.0536521753,1.4007462292,0.8864484497,-0.0166434011,0.4557777296,-0.2720188531,-0.4112530891,-0.4051920291,0.0992254583,0.7507901191,-0.6375407026,0.4406851613,-0.5887251628,-0.5507809418,-1.1667443392,-0.4132980326,-0.0991443938,2.4490193974,1.0431833878,0.3555158327,-0.6552864967,-0.0953253733,0.1125719898,-0.8755629442,-0.1855064881,-0.6294828912,-0.6605431613,0.2299718107,4.9662340493,1.2709232037,0.5161003283,0.3546144264,-0.409663666,-0.0998242739,-0.480011134,-1.1843282537,0.4882684348,-0.7398222107,0.2967706413,-0.1187072199,-0.3561145415,-0.4111743315,0.2391896124,-0.0373408908,0.0746069068,-0.6341981005,-0.2767750266,-0.545952384,0.839923656,0.0234644497,0.7906858765,0.3909092767,-0.100404004,-0.1622834547,-0.5632959925,2.6811611981,-0.5839395442,0.5672613939,-0.695136913,0.0704542208,-0.6397188277,0.6684138842,-0.4258737616,0.8613022547,-0.5653102091,-0.011967629,-0.0514011726,0.1145991111,0.8309801922,-0.6522078455,0.4492939371,0.5418103812,0.7300700924,0.5808710163,-0.5473389036,-0.9053994037,0.6160681102,-0.3271910144,-0.753919053,15.9393393288,0.8837742433,-0.1344246639,32.0507499928,0.7847611978,0.1103992205,0.9969299757,0.9340683687,0.5161240507,0.1266602067,-0.1835255228,0.6617070768,0.8648683225,-0.5461893925,-0.4302902202,7.0614657725,-0.531992165,-0.634341877,0.8779204038,-0.5354609962,-0.6422476834,0.6090912552,0.6670969714,0.6839499061,0.4065655472,0.2036147757,0.4231273267,-0.7303426716,0.9202065497,-0.4052221439,-0.3815944035,-0.2836571016,-0.794739876,0.1827454394,0.2521012143,0.1942355711,0.7451807081,-0.9235804583,0.7218355273,0.753206304,-0.0348352011,-0.4363251402,-0.509878437,-0.0119107398,-0.4554489338,0.9715266226,0.7677858043,0.1426109358,0.0570758966,0.2618524503,-0.3344776694,0.4961955059,-0.8889491781,0.8881609177,-0.0406840361,-0.7827176432,0.8718326684,0.5624662898,-0.2779137081,-0.7648211121,0.6875358401,0.7965951597,-0.9784851838,-0.3467820339,0.658998829,-0.5013309782,-0.6451564271,-0.8611079157,0.738177356,-0.3272256559,-0.5539714638,0.7252432395,0.9998581372,-0.4596278639,-0.0945542507,-0.8975554499,0.599755,-0.9797272971,0.6471046236,0.137017541,0.5476972291,-0.4302951133,0.8895274166,-0.3963582979,0.2179270186,-0.6701536132,-0.8210201142,-0.7625718275,0.3354877555,-0.9682706362,-0.3153860039,0.4365741792,-0.7677892027,0.5126540261,0.0027342479,-0.6273178066,-0.3492146864,0.5527241384,0.1091389614,0.0723893469,0.859881439,0.4390575788,0.5174443141,-0.5050176642,0.2088113431,0.2260228238,0.1304126795,-0.2569667146,0.5694531801,-0.6915005679,0.4721654277,0.7927560978,0.3023751457,-0.8013036718,0.587872747,-0.8564307681,0.2547895223,0.6362610551,-0.3223705512,-0.3503112008,0.7487252756,0.3903409685,0.617294465,0.2573483501,-0.3326805419,0.8656044751,-0.7155475902,0.122322325,-0.6870278622,-0.3873364734,0.0370460398,0.4978875767,0.7317884191,0.3461246635,0.6771991577,0.4852592224,-0.7674607142,0.3867310981,-0.0878135214,-0.4543063025,-0.6881065777,-0.2976394797,0.7323265315,-0.0719898497,-0.7824728983,-0.6845271141,-0.1348376205,0.9453161674,0.8539986356,-0.5290777113,-0.2031054348,-0.7866696958,0.038442476,0.8479300351,0.4667440473,0.3960967162,0.697163475,-0.1414455266,-0.5487557769,0.0293531863,0.2739171353,0.1479020701,-0.3684919012,0.734338123,-0.7833930935,0.0264066393,-0.7354071232,-0.5747477906,0.8900417597,0.785131349,0.6868790386,-0.9327226962,0.0551730845,0.9021891103,0.132650822,0.6554182215,0.4921406578,0.8879110365,0.4621143588,0.126240307,0.2976342133,-33.5905625295,33.5959601567,-0.7150443277,-0.3445650831,-0.5185903124,0.6397266146,0.869176395,0.2867799592,0.8788457318,0.0542493149,-0.7394527756,0.9896819854,0.0705400932,-0.6098134872,-0.3438898739,0.6904693438,0.6968574809,-0.2278873823,0.1020819502,0.7917891654,-0.4867558272,-0.6408675062,0.3508540201,-0.7521148965,-0.834940795,0.592705133,0.0417034518,-0.1355864981,0.1355269555,0.6666632255,-0.7319107596,-0.8861594471,0.5725058345,-0.9442363932,0.6890835507,0.346216563,-0.46129313,-0.6665594084,32.6451803643,-0.3388681094,-0.4503546096,0.0571840112,-0.4927403191,-0.9168482629,0.5057419991,0.4104541694,-0.4549735979,0.818334398,-0.6127585478,-0.0875165311,0.0128981732,-0.4180909953,-0.0474764441,0.6498083022,-0.448125488,-0.9554135102,-0.1608228251,0.6672377322,-0.4396156025,0.1586410484,-0.5046693913,0.9212246945,-1.5907316567,1.4034943219,0.3124273156,-0.2267004358,-0.6428201608,0.0597381399,-0.1213155457,-0.0308411417,-0.1157263599,-0.2228804691,0.6826336772,-0.9133056934,0.8952026089,0.105674418,0.8611414961,0.9674525216,0.2447380046,-0.7247627397,-0.7568200423,-0.9190650407,0.0378994293,-0.4158393215,0.2708272623,0.5604759563,0.6435296629,-0.9961315179,0.9859591469,0.0412366922,-0.7683115667,0.368420349,-0.6158242265,0.1306452298,0.6630249076,-0.4292494157,0.9877600362,-0.4617218673,-0.5119220704,0.240066595,-0.7199838926,33.6146546823,0.4848189638,0.7020148567,14.1622814096,0.7845604445,0.8781371012,0.3659268005,-0.5742511245,0.7226251752,0.4321041442,0.7535087139,0.7112062636,-0.0497259514,-0.5334805352,-0.2063136099,0.7427012554,-0.5090158134,-0.2985151818,0.0874650586,-0.8559250255,0.1107608074,-0.8373284329,-0.8985844124,0.4656908182,0.6254033064,-0.4127871048,3.4726105481,-0.4951129021,-0.7038574124,0.7598991009,-0.280309983,-0.0124371384,0.5111253379,-0.1428429218,-0.8284187737,0.2798768091,0.925665849,-0.5383088244,-0.6916446826,0.0951273988,-0.4341919505,-0.4436921449,-0.9256610635,0.5860236535,0.6419634722,-0.3464550194,0.1629909152,-0.7836811413,-0.7861185332,0.3320578073,0.2132230647,0.0627293839,-0.7242188277,0.1807703258,0.1405317431,-0.3653278126,0.8468488471,-0.626481597,-0.3021260953,0.3497417751,-0.639126388,-0.0680915309,0.8636897642,10.78658525,-0.4394299201,-0.2183414239,4.5990091632,-0.3003506948,-0.0760026953,-0.5819501038,-0.9454820873,0.3845321438,0.2291715528,-0.2788849908,0.0756491389,-0.6999629438,0.7150394783,-0.2160680246,-0.8071577744,0.7657887532,-0.5584260486,-0.7058970294,0.5086266554,0.9675505206,-0.807722131,0.2152515739,-0.6111722467,0.1729538425,-0.6609205696,0.6764651741,-0.7747664952,0.9090902133,0.3882323836,0.7188662952,0.6852914352,0.8845866089,0.9538384985,-0.464384105,-0.2503676785,-0.3624413577,0.8498031318,-0.6147901667,-0.3181854742,-0.4523985022,-0.7579437633,0.7994466462,-0.460164207,-0.9322637358,0.8060379802,-0.9232662946,0.2527242465,-0.9054075412,0.4198976676,-0.7550106412,0.4971759847,-1.0003022842,0.621808454,-0.9267860276,-0.5144162736,0.6529073591,-0.8359749538,0.1643334417,0.9767260354,-0.5807272816,-0.9511057811,-0.6834612377,31.7992950163,-0.7499436103,0.1205820948,0.3718980175,-0.1513109205,-0.4879341544,-0.0651108927,0.3657434345,0.2725553824,-0.9369941493,-0.669128377,0.8100594671,0.7218490175,-0.1786957847,-0.4614592492,-0.3875841833,-0.4851916851,-0.2520138117,-0.3661262885,-0.5491205286,-0.4544049566,0.0286755524,-0.68769906,0.8191191691,0.9726671904,0.6434040267,-0.1549413342,0.0143323175,0.5223723124,-0.4952697278,0.6787827574,-0.5574927851,-0.691454228,0.7485447024,-0.9986939488,-0.1173115007,0.0153889253,-0.6434458224,0.9636094233,-0.9704617493,0.3565096767,0.058999944,0.8073789683,-0.3476770826,0.0901115708,0.4565034992,0.5087363697,-0.512837883,-0.0622038388,-0.1734638212,-0.7630761155,-0.0012540708,0.567793015,-0.9778833344,0.7528674082,0.3854511897,0.9745439662,-0.6548774043,-0.8081812366,0.4139337768,0.5113697368,0.7838191425,-0.3523886482,0.610018083,0.0600162161,0.9381563633,0.664919641,-0.3673228173,0.4591185837,0.7154268502,-0.7830987313,-0.1260853696,-0.3982984577,-0.6196735048,0.0400451266,0.0855376938,-0.9118344925,0.70992301,-0.0766850652,0.6663058667,-0.4038028148,0.5192804295,-0.3001048116,0.5586084701,0.4605431181,-0.5336682433,0.8181539334,0.2695929758,-0.7665019722,0.0208054981,0.9540408786,0.774065263,-0.1152637766,-0.471772457,-0.8315404513,0.5939400928,0.8135809322,0.6289612276,0.4664466917,-0.5733104476,-0.4495989329,-0.4442429775,0.7953768204,0.7984190031,0.7091460104,0.5699240638,0.8628074217,-0.3493798812,-0.5604467334,-0.3968430769,0.1805533212,0.7067206613,0.7579676801,0.9127820225,0.6363864819,-0.0959091929,0.9674875008,0.3512185418,-0.7566744695,0.143385813,-0.6656039644,-1.0253610728,0.9828690177,0.1026651622,0.7573338247,0.0341802261,0.8426412122,0.7170195409,0.2512727328,0.4915428903,-0.3332620578,0.1842130799,0.4208129789,-0.9343593088,-0.0454107315,0.4378925102,-0.6035307845,0.7458153383,-0.3187480595,-0.778928551,-0.9365487445,-0.8915673114,-0.7807022045,0.8762917153,-0.3400484735,0.1729497094,-0.8781283574,0.2360966098,-0.0572816497,0.4067575936,-0.3405519641,16.2399601049,-32.3033762016,0.945861468,-0.3049244616,0.7153611387,-0.4804305823,-0.1923840824,0.31657341,-0.5958833339,-0.9599513923,0.6755956848,-0.7141934064,-0.1041688775,0.1571418183,-0.3634858967,-0.3800544838,-0.674608995,-0.7480645738,0.3475990293,0.3312771625,-0.5697112408,0.8969797287,0.8022486437,-0.6727704423,0.730871926,0.584946811,0.2499891227,0.4817991674,-0.8145738085,0.4012515681,0.1919865372,0.0192317884,0.5955283332,0.18877181,0.4822271241,0.5080286495,0.9060178753,0.65528981,-0.7225169715,-0.687911786,-0.8085847943,-0.1835942542,0.5695381629,0.1092899568,0.7136755863,-0.7293561705,-0.1103490717,0.4114125079,-0.8920457521,-0.1021616864,0.413372319,0.9815819422,0.7833066703,-0.2071886263,0.0365634463,0.7939719185,-0.8194922012,-0.4342009962,-0.4425952553,0.3908928379,0.8471598653,-0.0791812255,-0.6040933523,-0.6952326313,-0.6446265374,0.0954420899,0.628315798,0.4101575414,0.9711736526,0.2458431684,-0.5585097389,-0.6482412076,-15.6319583897,0.7309462976,-0.7487889963,-32.7767658683,0.295709307,-0.3544751466,0.493220825,0.7222156616,-0.4021244519,-0.9460819632,-0.3492753456,0.4498341409,-0.51215454,0.1744646015,-0.4365795232,-7.2009946758,0.2455086926,0.5130191352,0.1722466394,0.1500045439,-0.221481726,0.3725590484,0.8719891206,-0.4805625403,-0.5210730865,0.9052229579,0.6673759967,0.7614682534,0.0310905765,-0.2266845372,0.3112890384,-0.1337351655,0.0990795649,0.3914737197,-0.2565148162,0.2125737749,-0.374984506,-0.2318209015,-0.3790569245,0.4337431201,0.3465221436,0.9558656115,0.0935936046,-0.0429894305,0.8606380365,0.9425225753,0.6135231264,0.301952238,0.2860993294,-0.0820016233,0.3203058633,-0.3146929745,-0.247052183,0.5287679918,-0.5400358859,-0.9195535043,0.5148220929,0.6196915997,-0.2870828728,0.7467259512,-0.0113783727,0.3843081769,0.0755511798,-0.7877076165,0.8973693094,-0.7881238011,-0.9258644674,-0.4467595532,-0.4857445113,-0.204568477,0.8274949436,-0.1497751694,0.7344487383,0.7913829946,0.4781004421,-0.5635857087,0.6898984379,-0.345064744,-0.2843920744,-0.9153504844,-0.3334725403,-0.4188687434,0.4710150155,0.7818614449,0.0458856771,-0.4832661502,-0.6391962038,0.4439365136,0.6152955266,-0.4229194761,-0.9029790959,0.4496544645,-0.9741676468,0.6679595192,0.0477790476,-0.1945142034,0.7150039715,-0.9889008038,-0.6746131199,0.6977207446,-0.4894003361,-0.4525618968,-1.0790210626,0.181407376,0.3949253847,0.6381231493,-0.1941548422,-0.2123980805,-0.3679897247,-0.4693155294,0.9568244304,-0.4968126,-0.7317619228,0.1334244867,0.8987053411,-0.7739169623,-0.8657164879,0.5101478255,0.4096186577,-0.1762079667,-0.292667616,-0.3882973553,0.5529662322,0.3939089156,-0.4344616128,0.641191841,0.4070277265,-0.9107175188,-0.830768533,0.1650593163,0.298707364,0.4307381136,-0.3025179446,0.0628871869,-0.5318206639,-0.4870923437,-0.1518542752,0.4504413314,0.0346239532,-0.9744445791,0.099600338,0.1299432197,0.0022710922,-0.7460624779,-0.3315026998,-0.0718398302,-0.0036302316,0.2129182599,-0.7357186821,-0.6887775453,-0.1084276811,-0.7380227388,-0.6232847624,0.0075266193,-0.7494981651,0.7113317782,-1.3450656018,-0.3926631757,-0.5992587868,0.237079724,-0.2938280883,0.9123234348,-0.549541904,0.5973592205,-0.5967086345,-0.8766823779,0.6643905489,0.409072861,0.8767750267,0.7926349529,0.8597394488,0.8913534657,0.9704850662,-0.216145191,-0.3857458035,0.3450949545,0.6273268182,-0.1390692653,-0.7900124124,-0.8017060225,-0.9822004897,32.9416311861,-32.8500278409,-0.6033066949,0.9718935752,0.4242312432,0.8457308018,-0.9224094849,-0.1884579429,-0.0773385425,-0.4555060915,-0.4098681775,-0.6348388754,0.8428420193,0.4623647788,-0.1835876133,0.3941753943,-0.6746719271,-0.8528540404,0.2328614395,0.8261303027,0.2834019788,-0.827235922,0.6757236868,0.0778678605,-0.7676332655,-0.0523282674,-0.7593139678,0.5976352636,-0.0838974112,-0.0327710997,0.8024372133,0.5592819359,-0.0619246873,-0.9909847479,0.4602492442,0.3328069211,-0.2812214257,0.4837693078,-32.5815573997,-0.0959860351,-0.2445469801,-0.0441974005,0.3741343337,0.1254436558,0.7366202083,0.9114368615,-0.848483253,0.0340542945,-0.8862318042,-0.847528517,-0.0974863312,0.9925859293,0.9760548781,0.9109842704,0.8448880223,-0.163423763,-0.5549124496,-0.0183212341,0.3287095696,0.703039916,-0.7249837889,-0.6051221728,0.6297619996,-1.4937027285,-0.3744700213,0.5028378028,-0.0634175971,-0.1308889989,0.8188221238,-0.2752641788,-0.4593900429,-0.7374871979,0.375255905,0.2270203231,-0.7331930288,-0.2996399807,0.6979534272,0.3525283127,0.9272368999,0.5971868439,-0.489836025,-0.2694346397,0.7755229837,0.4450798896,-0.9621801376,0.8203230445,-0.0515601744,0.8107044314,0.837719258,0.272743566,-0.7238618402,-0.4875916443,-0.0403359859,-0.9703265324,-0.4693431347,-0.0305482407,-0.5472672244,-0.7240200952,0.484762549,-0.2741453504,0.8232770107,-33.253879583,-0.0306272845,-0.3538495744,-13.2137678995,0.2880519897,0.5025219023,-0.8272704431,-0.1198818912,-0.9600745261,0.8286262059,-0.8655963129,0.0021869472,0.6658188589,0.5364104071,-0.3790817098,-0.6967999178,-0.9925854437,-0.5290017524,-0.9616619842,-0.459291413,0.1481303431,-0.3800835189,0.2664992955,0.705526894,-0.7288875338,-0.7418987805,-2.9566089583,0.8198841742,0.2696639315,-0.5491660336,-0.5079751247,0.6882358436,0.2332334451,0.3490281314,-0.9381864236,0.9144354203,-0.9629003146,-0.2676413762,0.0470643162,-0.9196008678,-0.9698616097,0.2868383264,-0.1915069211,-0.2460574884,0.3977709086,0.4694013787,0.5671932351,0.5219389321,0.9613171302,0.0659411899,-0.3747305335,-0.0591340531,0.5999925593,-0.9625262365,-0.9448690484,0.4822598956,-0.3464305666,-0.7804143895,-0.9680624734,0.8229521486,-0.3052683145,0.3697707594,0.659609329,-10.1473213367,-0.1131002981,-0.4262400777,-4.5899864048,-0.8802097279,-0.4337906507,-0.0728509821,-0.7816098313,0.5840973714,0.5472077041,0.8700067969,0.5974732991,0.8177492117,0.6718891254,-0.6290369962,-0.9882728178,0.5182106504,0.501327875,0.1831266057,0.9312666422,-0.385766801,1.131379438,0.1876436301,-0.4140347927,-0.2096402975,-0.4014129831,0.0208690674,0.522093535,0.2138182826,0.8017154335,-0.3759665684,-0.3018190595,-0.1805422637,-0.6358247288,0.1780527232,0.2540746674,-0.1748612465,-0.7248535032,0.300982368,0.6998948629,0.8253660631,0.6939522092,0.871235172,-0.5035732198,0.0440959136,0.8847742581,-0.3667102936,0.6068946272,-0.9824379526,0.3541550263,0.7016067785,-0.0230946842,0.177630225,-0.7856293234,0.9525577936,0.7378904494,0.1616686692,0.6447055532,-0.4448200004,-0.8057086083,0.0483266668,0.5465283794,-0.5783106821,-33.3064871296,0.6594700897,0.2404702062,-0.780791194,-0.3960033557,0.4586389222,0.2218727728,0.7363150102,0.0463704334,0.3748819471,-0.717411379,0.5570356613,-0.954889356,0.2729084611,0.7176586073,0.647592959,0.8474368836,0.9870902674,-0.2499815779,-0.0841357143,-0.116377218,-0.8048564683,0.491709087,-0.8199892628,0.4870471643,-0.1341862398,0.2335675907,0.0824083447,0.2992820943,0.6820228603,-0.7371121971,0.3523682867,0.3583199306,-0.1673838867,-0.0120509139,-0.3454255801,0.8722929328,-0.15141256,-0.6922006054,0.6004226698,0.619615037,-0.0236709756,-0.1578934516,-0.0585596686,-0.4346147725,0.1765052894,-0.4300511484,0.0072831797,0.4812099985,0.6833328931,-0.5857054578,0.2007793453,-0.6634939142,-0.7650336387,-0.4627357916,-0.700184087,0.4456463334,0.1217577014,-0.972930257,0.8814219089,-0.4274578233,-0.1484680049,0.2930212969,0.0398936712,-0.1213660979,0.6237799078,-0.1865042559,-0.3049656772,-0.2200827854,0.7232322746,0.1969985802,0.6638407717,-0.9511375215,0.1090842403,0.8675965305,-0.3169396356,0.7781695184,0.0152247583,0.5205918941,0.7749088212,-0.1001136791,-0.4398251013,-0.2531287302,-0.6867790694,0.9428467704,0.2521239527,-0.2088827355,-0.3043161469,-0.9679948065,0.2946877393,0.3839782826,0.5954519579,0.3078000972,-0.4491781471,-0.1822525613,0.6424141992,0.4277698049,0.3065441984,0.2378225362,-0.4608674103,0.8099448909,-0.9100862646,0.5446884769,0.5559393558,-0.3965174104,-0.9173281807,-0.733895038,-0.1679569924,-0.1593822107,0.6878495211,-0.4499438047,0.1912975866,-0.6462457155,0.3197503042,0.2061956344,0.1320045095,-0.614742573,-0.2009250211,0.3015884551,0.2035902904,0.1507070982,0.1077707588,-0.2278006919,0.402297395,1.1263447493,-0.4968413027,0.2691104332,-0.9034733612,-0.7818956624,0.1164640884,-0.2470884644,0.1160881992,-0.5008845232,0.0720589693,0.5768799679,-0.1944792275,0.2743742319,0.3208932698,0.5105010019,-0.6599407137,-0.6506944361,-0.82081601,0.948388749,-0.1716417935,-0.5558553276,0.4134838869,-0.1931871589,0.3355240718,-0.1972950306,0.9077355844,0.757564951,-14.5723083129,32.301048928,0.2120253198,0.9922820031,0.7446329424,-1.0010757455,-0.7718580541,-0.4473609419,0.0298554604,-0.4466211235,-0.1168297404,0.7526591997,-0.9855052885,-0.4472559707,0.7135474252,0.9888846809,0.2022673772,-0.1181665394,0.9400943256,-0.6398302986,0.8298188569,0.8630336233,-0.8771672155,-0.5649824773,-0.5063977091,0.9883318217,-0.3875614355,-0.8596393056,-0.9017736502,0.6560112423,-0.5930124622,-0.6804781778,0.8142682891,0.1919000815,-0.7210102471,-0.325385545,-0.113329725,-0.3486621582,0.3974418461,0.2109827218,0.5442019615,-0.0674640859,-0.7016573547,0.1759202253,-0.0415854365,0.7853966019,0.2534756312,-0.5900476889,0.2613207657,-0.6693838033,-0.173501995,-0.8093084469,-0.496018416,0.3849639368,-0.4069610236,0.9875962035,-0.2773749304,0.3966358916,-0.4029010765,-0.27553282,0.3996069912,-0.5173021991,-0.280715411,-0.7408731605,-0.1226006018,-0.0726387467,0.4787371614,-0.6203148205,-0.1406347904,-0.8395529421,0.6745285781,-0.3967659897,-15.1826536151,0.981840549,0.2084649287,-33.6178608124,0.7980303,0.2975369867,0.2298869519,0.4473784125,-0.9096231999,0.3999024377,0.0087269354,0.0728327974,-1.7130906727,0.9525769519,-0.4238737491,-6.026761044,0.1366728566,-0.6299717106,-0.6111833999,-0.3205210955,-0.3868487082,-0.4538915225,0.1538808416,0.0521623061,0.9558637221,-0.7162047894,0.6323486613,0.3459168488,-0.0604506943,0.6044415533,0.2028092386,-0.6805969541,0.5890144221,0.6191202281,-0.9417287819,-0.9371918577,0.1952528216,-0.6691592353,0.1165060324,-0.8758455894,0.4135870035,0.7338429541,-0.861723854,-0.9936930584,-0.8500971652,0.7134737391,-0.5836162379,0.3365808612,0.6303647282,0.9275723136,-0.9703481819,0.8977781144,0.9361328249,0.4868071963,0.6056150416,0.4550576003,-0.213638467,-0.8572686679,0.0793486002,-0.4692007412,0.0992822362,0.0850342807,-0.3871289628,-0.3088995467,-0.7409630406,-0.9104634912,0.0643016049,0.8506180775,0.2909234872,-0.744777426,-0.9619458241,0.3852100006,-0.7933647846,-0.5846419936,-0.3597799713,-0.9708765894,-0.5123128673,0.0881498824,-0.4110143462,0.678322848,0.2391519394,0.5647075427,0.292726782,-0.0223266617,-0.0537257329,-0.9725526215,-0.9418710768,0.1348391098,-0.2709914348,0.3141849606,-0.8115556906,0.0889183169,-0.4206233217,-0.3463610802,-0.3415518342,-0.7459528091,0.6384548587,0.7042345424,-0.1210828661,0.5777144385,0.7038050965,0.0651284659,0.7273723762,-0.9643549964,-0.6705686056,0.7504204422,0.6804822777,-0.7198125372,-0.8780178227,0.4037570338,-0.6350032004,-0.6795273389,0.292092935,0.0384536243,0.3847466222,-0.1584601434,-0.1229350468,0.691302751,-0.8725147731,-0.6836676065,-0.8006749117,0.8857669263,-0.8775653717,0.5184721244,-0.3566189283,-0.3901599792,0.4475681414,-0.1027476884,-0.6324266417,0.9878058478,0.6360587664,-0.36025131,-0.2419736643,0.460815601,0.0820404902,0.4488999442,0.8975908515,-0.4528563262,-0.5917865789,-0.1123489257,0.7646854109,-0.9795838966,-0.047727303,-0.365874075,-0.4611586897,-0.936041856,-0.4536764395,-0.794045707,0.3694521681,0.8007905604,0.783671588,0.1656654438,-0.6486402523,-0.06655165,0.1357598673,-0.6999812021,-0.0721400315,0.0462842218,0.1582056271,-0.8377757019,-0.1409083031,0.6554948528,-0.6955086276,-0.7368095998,0.0583905575,-0.0720298123,0.0888048947,0.28962199,-0.9777379842,0.116847988,0.1975120545,-0.7869751767,0.4031883449,0.8308580173,-0.4570554045,0.1595929431,0.3483074735,-0.2661176227,0.0244254663,0.9845421426,-0.610305221,32.8400325461,-32.7069110714,0.0655533079,-0.9010437883,0.3873654389,0.0788399962,-0.4426099449,-0.3356933039,0.1288474736,-0.7644244839,0.7172413022,0.2378130317,-0.6351962384,-0.2938781981,0.7685134333,0.016922346,0.1304776359,0.5604563642,-0.445558609,0.7681538538,0.7475833882,-0.8351650841,0.3692032899,-0.6713337133,-0.4222395015,0.3112472387,0.0890938013,-0.5903887801,-0.7278963166,-0.3782794695,-0.7575148071,0.8296113695,-0.4416798101,-0.1761792585,0.7592684413,0.5831591297,0.2211085946,-0.0573394376,-31.8358513525,0.2563885225,0.6086591901,-0.0507864686,-0.0136631572,-0.9562371222,0.7088775495,0.9603156784,-0.4664642518,0.0385052844,-0.0329442662,-0.7720440288,0.5229526155,-0.9732279422,-0.7506397252,-0.4194518705,0.3035536901,0.0331890832,-0.805434836,-0.6733691149,0.447821089,0.5539318255,-0.3333651374,-0.8850657584,1.4272310627,-1.1232207585,-0.2794204835,-0.8251771043,-0.4650956546,-0.5367903389,-0.3177955894,0.6355400048,0.853807144,0.4108155887,0.998528761,-0.4874619754,0.462622576,-0.6963572247,-0.1989004709,-0.5206976458,0.7472372372,-0.0551014229,-0.7922154964,-0.4419343057,0.6333806012,-0.6933990391,-0.9595896201,-0.1515190484,-0.337900794,-0.8201912203,-0.8309872474,-0.2500067848,0.731464644,-0.8588442688,-0.7554268878,-0.7110914175,-0.0334984803,0.735809555,0.2705155058,0.0141504209,0.6574291798,-0.3542423133,0.4219598071,-33.2100534546,0.2178743824,-0.9014243565,-13.2637541577,-0.1926252296,-0.287259079,-0.897944774,0.6754915946,0.2590479011,-0.6222012201,0.3044307015,0.5928505678,-0.7520604727,-0.6884732057,0.2838282276,0.5165261216,0.038667185,0.0847263017,-0.8636246202,0.1396403804,-0.6925785827,-0.7045833729,-0.7827976661,0.9934550311,0.5697492572,-0.125779469,-4.619911673,0.9508478481,0.3692971549,-0.5058939146,-0.8045250281,0.3613140973,0.0073424621,-0.8728596485,0.8233512259,0.7910634587,0.1162461167,0.7599089901,0.9540747853,0.2435676376,0.0198091927,0.0635068777,-0.6272248318,-0.6074397439,0.6311562862,0.6052797359,-0.9265372715,0.9140712387,-0.0135731117,0.3646481314,-0.2072154613,-0.8342843265,-0.5990303025,0.2564456778,-1.1436374175,0.7768641907,-0.9870935202,0.303835683,0.528480646,-0.544501837,-0.7031237558,0.6170814231,0.2265803896,-11.1728239034,0.9894267807,0.4101899647,-5.538002952,-0.0030059286,-0.4619598729,0.8128487785,0.2538917797,-0.6803833969,0.3095966225,0.2513928913,-0.1635662917,-0.5129841134,-0.7698835625,-0.0506813445,-0.6092826536,-0.2569326762,-0.9927250769,-0.4750983806,-0.0040799253,0.8464979251,-0.7905606065,-0.4106976229,-0.8833212869,-1.1704175294,-0.3216090636,0.1542444104,0.8035012248,0.3525513335,-0.0571307107,0.9521966565,0.6699723182,-0.3647030105,0.1938610965,0.912597512,0.1133644904,-0.5791183896,0.6898505772,-0.6283157455,0.7091474539,-0.2223589443,0.0753683015,0.5889353143,-0.4976630477,0.93652822,-0.830835186,0.486555281,0.3301780092,0.2556075747,-0.8974548427,-0.4228274203,0.3666323329,-0.6241369542,-0.6235655775,0.5137495944,0.7103646202,0.140201112,0.9780467402,-0.5901240991,-0.5176871229,0.5949075917,-0.4484519386,0.359883176,-31.7308936741,0.2216287468,0.9234936267,-1.2761341027,-0.8442722156,1.0004622575,0.1597822427,-0.1715936366,0.9742379572,-0.4860027887,-0.0603376779,0.856840633,0.1447342576,0.5109631717,0.1860374648,-0.9736943467,-0.3854025905,-0.7547760202,-0.819528436,0.6489009364,-0.3528558821,-0.2609678033,0.0372051939,-0.8368952803,0.1230987603,0.7674197168,-0.9451624637,0.6518117382,-0.7874132243,0.6789017609,-0.8273430049,-0.8712131602,0.4388307174,0.091293868,-0.7216188392,-0.2151383901,-0.5213100817,0.0781678341,-0.3828793834,-0.0139043291,-0.9561179409,0.8842167351,-0.0252375619,-0.2707994724,-0.7603626006,0.2889096052,-0.9252196204,-0.4050057163,-0.7470129841,-0.3454055399,-0.1430846344,0.7272138658,0.6791475006,0.8340291661,-0.8187500323,-0.2390868919,0.7214002377,-0.049268197,-0.7925955231,-0.0982179878,-0.8575317656,-0.2001858618,0.6502230391,-1.0133548214,0.542357305,0.9015585251,0.5909248976,0.7409206005,0.2896266597,0.7909413536,-0.8922343168,-0.2694582533,0.6813225948,0.0408342444,-0.9725433381,-0.7067410598,0.5369221223,-0.428649413,-0.2232946599,0.3349718674,0.1169454835,-0.5010346384,0.2363105619,-0.5926498609,-0.0057397089,-0.9804591479,0.2472292733,-0.2356526485,0.4095249889,-0.0296458094,-0.4879215564,0.2086068254,-0.8811600448,-0.9917045219,-0.100980504,-0.6230760353,0.1328754494,1.0435784618,0.9022749878,-0.0042005875,0.871472171,0.8429160883,0.7884689866,0.5741448123,0.278998521,-0.8342280918,-0.2729501933,-0.2418033075,0.8403211943,-0.6047970972,0.9077480409,0.6502934841,0.7845139647,0.1418654041,0.4249106466,-0.2251283661,-0.996185432,-0.5128588944,-0.198952747,0.5807664273,0.117463647,-0.7170307295,-0.5817717366,-0.5380111353,-0.6346298449,-0.0671546509,0.0727004309,-0.9804934653,-0.4875458121,-0.0933106908,0.081271461,0.20683372,0.4253347971,0.3525551448,-0.3744060597,-0.0077661214,-0.8062908522,0.6129848678,-0.0512078389,0.2825579791,0.2026420476,-0.6900979203,0.6422285363,-0.8995182596,-0.8863031924,0.6186745344,-0.7942711112,0.116074613,0.020712467,-0.5272920668,0.1953485031,-15.6058956649,33.6023771667,0.8773409547,-0.7257428383,0.5060143291,0.1934772149,-0.5000664357,-0.3891166055,-0.4598610026,-0.0100547062,0.8099032714,0.9536802201,-0.8891962841,0.2840181949,0.037173119,-0.5903934397,0.8314760512,0.1240534918,0.0036300779,-0.1034727307,-0.4910366318,0.1030100775,0.9498318647,0.7681890697,-0.886179178,-0.9298422355,0.4639479851,0.9186112675,0.4713124844,0.9015564015,-0.7300177961,0.7869414369,0.4026859,0.4086938628,0.129249116,-0.4923914948,-0.6957210022,-0.7698812652,0.5499429021,0.0931921168,-0.2510350353,-0.3089399336,-0.958542536,-0.4122644288,-0.2112473748,0.3564096136,0.3149212707,0.6175037239,-0.9638780933,-0.6456054066,0.4201331452,-0.1157813134,0.9136001067,-0.5730676212,0.5799110837,-0.9852856649,0.042283054,-0.3472416091,-0.4876460133,0.62441718,0.8639428102,-0.6248347218,-0.6508946238,-0.715545722,0.8300249676,0.3394747831,-0.392072761,-0.6915945177,0.2643202411,-0.8464103569,0.1451887195,0.8327642494,-15.681270606,0.5811073191,0.4516931306,-32.1585861826,-0.8940935526,0.5756419617,-0.2757958157,-0.5666272285,-0.5614519358,-0.4878714937,0.7050346162,0.7517876495,-1.009784138,-0.1759564465,0.1856094131,-6.0837018594,0.9938466091,0.3514964402,-0.9722293111,0.4023871642,0.5261201569,-0.6395294921,0.6445822788,-0.8501017687,-0.8100328347,0.6942980781,-0.4491820676,-0.2292778745,-0.0153580026,0.1129754854,0.7536966094,-0.0758260224,0.5822726842,-0.6483051205,0.4908387994,-0.1237697707,0.1388641212,0.283913015,0.6797183054,0.9921272725,0.8199229312,-0.5228924738,-0.9423899127,0.678529105,0.1133891575
   0.9887075193,-0.2294291962,-0.8984260808,0.4356212746,0.8210721257,0.3044892855,0.0673999011,-0.0047663446,-0.7557684674,-0.4429190467,-0.363309058,-0.5881798374,-0.8675067221,0.8665924064,0.6671608396,0.4340679641,-0.0786354098,-0.0452007088,-0.0854428146,-0.1691919616,0.7026338671,-0.5565333476,0.2947046299,0.7581736856,0.2169141775,-0.2349678189,0.7642239303,0.5682353049,0.5569124752,-0.5858536575,0.7105623072,0.5163781465,0.608164884,0.7749103455,0.6359663345,-0.1243648599,-0.4008436292,-0.8761884521,0.0140887513,0.1383128163,-0.5895331759,0.0402284335,-0.0853775427,-0.8218595672,-0.2589847609,0.1069483021,-0.583736925,-0.4386671741,0.5365670365,0.2192609327,0.9607209694,-0.1220689117,0.6894468591,-0.022875167,-1.1268062889,0.523969708,0.1719328796,-0.743243301,0.8408963393,-0.9177018337,-0.9571980857,0.1303466258,0.6082147425,0.099192909,0.5599150117,0.0226609145,-0.7798282406,0.1558548117,0.4235001802,-0.2329469402,-0.9599068247,0.1558687014,0.0669523622,0.0183671084,0.2543312774,-0.320922531,-0.0277337379,-0.5554932279,0.7438272458,-0.4629194742,-0.474730131,-0.0380563649,0.7136121253,0.0694170842,0.3921366301,0.915293268,-0.6138422338,-0.1149988469,0.964691152,0.3710045048,0.3272249361,0.44414338,0.5985343883,0.6527738692,-0.4181276965,-0.9630649853,-0.4881631132,0.5940402727,0.0721147913,0.7397920424,0.8249592922,-0.420911065,0.4667672216,-0.8338474973,-0.4303954651,0.1864526086,-0.7577300376,0.4625407848,-0.4589552174,0.6436836783,0.1992157789,-1.7067987684,-0.1759349959,-0.3999070699,-0.3962584073,0.9723431693,0.5372172844,0.7648905267,0.5173933217,0.2497082593,0.049130328,-0.0045386092,0.9564783426,0.4755098375,0.7692505429,-0.2246385986,0.5443787584,-0.1309636099,0.8883248139,-0.7435534912,-0.6524655285,-0.9390502402,-0.6020858388,-0.5346902884,-0.9444817965,0.4310336935,31.7083419186,-33.0875631398,0.270782839,-0.4939213093,0.2469169235,0.7894476528,-0.47929896,0.6696005631,-0.432734793,0.3561631365,-0.2856196095,0.5974751959,-0.4835191002,0.2523663033,0.087860402,0.2092114434,-0.1875987532,0.3729928878,0.161949462,0.7679772471,0.3565128582,-0.8502416552,0.6534933821,-0.1157769315,-0.0121170611,0.8665420591,0.5806708279,0.7838281887,-0.8151029132,0.3495107375,0.6996009145,-0.3450546623,-0.6934092772,0.6774306027,-0.7937372035,0.8843491476,-0.3107311638,-0.7836372812,-31.748444407,-0.1514568509,-0.43414019,-0.0830665272,-0.1824799119,0.3161454795,-0.9217194066,-0.6728507985,0.4085602154,-0.227185428,0.1556531327,-0.6140228301,-0.331320665,-0.7374868055,0.2561327562,-0.0398008147,-0.8509840171,-0.6921183417,-0.1947963513,-0.6381396052,0.502666139,-0.5250031966,-0.8878718558,-0.9797429608,0.8909865229,-1.1986745484,0.5912750827,0.7241328728,0.1421896254,0.2865429305,0.8353815141,0.5140036735,-0.0124177898,0.1889499383,0.1918659208,0.3558276583,0.3324931036,-0.0866694267,-0.2843844261,-0.0710388503,0.660580717,-0.4837448211,0.9354517001,-0.4831820415,-0.3574098446,0.994855536,0.9506920893,0.5705383159,0.6903941013,0.8008751896,0.2688666143,-0.9438267802,0.090302618,0.4309057993,-0.9237692454,0.8012568672,-0.1961937653,-0.7337293178,-0.4828770046,-0.9606108524,-0.5392974959,0.8387796683,-0.7386047362,-32.7639378051,-0.9394606443,0.2456452333,-13.3897566594,0.7944137446,0.7694751612,0.2303323495,0.711420834,-0.7324527266,0.5989432732,-0.7213534292,-0.1548655772,0.4823945397,0.6715497244,0.3836118969,-0.8404124693,0.6880309861,0.5834812717,0.1954797857,0.7775436147,-0.0896939816,0.4097363041,-0.7368967234,0.8595233663,-0.5243558827,0.684795984,-3.9529916618,0.1088501684,-0.4414561965,-0.4914673935,-0.4132795882,0.8549873038,-0.4962087968,-0.5062288288,0.795688537,0.9332429237,0.4644625863,-0.3487657509,-0.5617652029,-0.7336264821,0.0845551768,0.296954423,0.2583793816,-0.7065279471,-0.3390444121,-0.2178600503,0.8975654235,-0.7679604643,-0.781519902,-0.3047187865,0.0986763078,0.4904045399,1.0012222139,0.9540383091,0.702864881,-0.6964225216,0.993112473,-0.0258604714,-0.2754378203,-0.14485068,-0.5689653512,0.0179434619,0.9640710272,-9.6075281133,-0.7532676623,-0.1306683751,-5.93586656,0.5437125973,-0.9699687276,0.5969860786,0.0191854569,-0.0273320622,0.571846003,-0.8265434521,-0.9522827154,-0.3504013256,-0.5124724187,-0.2976381494,-0.0916712913,0.2284592463,0.4709419505,-0.1828139271,0.8010183572,0.8112258241,-0.038614575,-0.0780527904,0.56028031,0.1850625415,0.626378537,0.2526178244,0.4226039401,-0.8514551211,0.1575393869,-0.2511214165,-0.5329057077,-0.5203222118,0.6819980439,0.5040615452,-0.9552979113,0.0938886053,-0.3939233911,0.4242728286,-0.4692536154,-0.8171692087,-0.0841432731,-0.6289506601,0.6747862092,0.3657802175,0.1024334117,0.0236904181,0.5496004326,0.7560352503,0.9083735907,-0.4987968146,-0.2936952408,-0.3229907467,0.3186983167,0.4598968099,-0.2592729204,0.3841539015,-0.700033011,0.6172932796,0.6368372878,-0.2807083799,-0.712460675,-0.2353899474,-31.9851592573,-0.6685515117,0.6270222869,-0.2211665172,-0.4455853212,-0.5049212459,-0.0951137919,-0.3225989951,-0.5253919964,-0.592336756,-0.6557700733,-0.1558822313,-0.7964866187,0.0824351616,-0.1258357841,0.2199763039,-0.1034751324,0.9866917927,0.8339040998,0.1725605855,-0.2089097737,-0.8276329826,-0.9749487366,-0.8926430966,0.236226249,0.2405840534,-0.5287046782,0.8318858638,-0.0497187286,0.8403610309,0.9506346181,-0.2961306027,-0.9965080682,-0.7527023554,-0.8355694178,0.4874864872,0.6256384613,0.2236716215,0.7362587145,-0.3911439775,-0.496987212,-0.7591564272,-0.2143447435,0.0490186519,0.1287810819,0.5874377085,-0.4122412955,0.621841602,-0.7835257836,0.2677168146,0.8355896092,-0.9471751677,-0.2162071172,0.7094422998,0.4070691778,-0.9736545606,-0.8042227511,-0.5532090403,0.2493718749,0.0783445013,0.5448761551,-0.688791352,-0.2132596852,0.3452723803,-0.290156336,-0.797287178,0.0187728099,0.9681214953,0.583685182,0.981972114,0.7182551185,-0.3316065608,0.9281449875,-0.0523716835,0.1569430612,0.3441784679,0.4232599623,0.3436600723,0.3983879591,-0.4605991817,-0.0445582358,0.4225773484,-0.0589045094,-0.1833418509,-0.2512511821,0.4192330492,0.1682660112,0.838219501,-0.4363322322,0.3219557486,0.0369257809,0.4682602587,0.9234768061,-0.2033596968,0.0086908997,0.665217449,0.6637863579,0.1328003226,-0.6643259969,-0.8003573398,0.3804269612,0.8265993782,-0.1412136989,0.3256152606,-0.9898176294,0.907909898,-0.9346686739,-0.0881311943,-0.5576378692,-0.4938963234,-0.0795793835,-0.514663535,-0.6251213488,-0.7311097464,-0.1731571309,0.1967318876,0.3463770066,-0.4101159514,-0.0572914093,0.2227217497,0.2065472208,0.3533483485,0.5786219574,0.9106605807,0.7052548392,0.3881340119,-0.1997571912,-0.585527185,0.7812173842,0.5630974564,-0.1931994515,-0.8720625795,-0.3768513049,1.0441345829,0.7610516214,0.5773130999,-0.1042658472,-0.4942963427,0.527788179,-0.5632026061,0.1232960054,-0.2775090406,0.9411585463,-0.1358823975,-0.6520192682,-0.2243449673,-0.9877216227,-0.3953740276,-0.0446299631,-0.5268493235,0.4515284599,-15.713493572,33.0240459921,-0.2724369416,0.3122744538,-0.735064878,0.3784404832,0.7386580788,0.1853905242,-0.0336695178,-0.4196189267,-0.5845408205,-0.4710163825,0.7455581118,-0.0101609244,-0.3190097647,0.2951132763,-0.4294635884,-0.4173553229,0.4333239428,0.9034384069,-0.795854166,-0.2515794576,0.9583647204,0.5618412865,-0.23340804,0.6792475142,-0.5801380265,0.4769084311,0.1979259919,-0.4658323887,0.0666541331,-0.8125798422,0.6803967607,0.6467873126,-0.4775570648,0.0567428047,0.4002201116,0.2559126295,-0.1146849911,-0.5703845218,0.6528474416,0.0334007874,-0.403896081,0.9520911956,0.3748372353,-0.3250620474,0.669878613,0.2364401376,0.9131346577,-0.2493959802,0.0053473063,-0.953630737,0.3785027039,-0.9154943908,-0.8944965945,-0.2207604932,-0.3935559986,-0.0138217113,-0.921076268,0.3162251456,0.5061443548,-0.0952754771,-0.6675697618,0.2797730219,-0.5328009938,-0.5739948094,0.9735835811,-0.4612195247,0.8325611391,-0.2134064847,0.6781682948,0.6202020533,-15.8536588691,0.1291299989,-0.9862701966,-32.3054819219,-0.7103867204,0.4678827822,-0.226895054,-0.7353710839,-0.2697924231,-0.8896301936,0.0305761141,0.8359856504,-0.3819990176,0.0044735412,0.1921347163,-6.3648448068,-0.3414901615,0.6862798147,-0.1092922514,0.2264100514,0.4244766048,0.8242904715,0.6823927609,-0.5965389717,-0.9009054783,0.6396847934,0.2677014832,-0.3048591839,-0.2644119466,0.4246801333,-0.6227950795,0.3813067457,0.9933409423,-0.1048934985,0.2073715186,-0.1322644235,-0.3239664104,-0.1430023337,0.8709284422,-0.4942990062,0.4117270061,-0.1370942233,-0.5472063055,0.0357863302,-0.0760777149,-0.331172233,-0.9489721386,0.9886554239,-0.0847624301,-0.3620836341,0.229750281,-0.81956756,0.2706823904,0.7428540141,0.0914514206,-0.7135143148,0.5570337876,0.2844929476,0.9003268882,-0.933212608,-0.1118257425,-0.2952669603,0.9273600867,-0.6919017303,0.5805472396,0.1370830915,-0.2733894444,-0.3155573872,-0.8178487157,-0.8089003292,-0.7654100784,-0.2814473488,-0.9546649,-0.9326310752,-0.3822975901,-0.9508708445,0.7189965211,-0.2195767514,-0.1403837889,-0.6619537115,-0.824908845,-0.0157677768,-0.9361287968,0.4858039522,0.7758097444,-0.9635411899,0.275465896,-0.7707549192,0.8937322135,-0.0376942991,-0.6304818973,-0.1423223758,0.5622138705,-1.0318248285,-0.316129751,-0.3724592418,0.5364224254,0.3073402046,0.070143987,0.1669756507,-0.7242771691,0.5033030789,0.4761381511,-0.9011878071,0.3387469061,-0.2774067634,-0.3511291495,-0.6565468038,-0.9457045649,-0.8473584445,-0.6136422563,0.5914468777,-0.6555588764,0.3992331278,-0.8990448227,0.3589788236,0.6567490399,-0.4721438566,0.1087594857,-0.598946396,0.6499045916,-0.9574308077,0.7164278951,0.7713316294,0.1567201891,-0.5694611927,-0.3347205444,-0.4680858185,-0.9825496804,0.0558523697,-0.9968264418,0.643636329,0.0189314722,-0.944153589,-0.6941843963,0.4609682913,-0.6466355777,-0.357374312,-0.5554547893,0.1997756062,0.3508006033,-0.6424834642,0.1803609084,-0.3528887468,-0.8179847046,-0.1681510223,0.8104351237,0.7236804515,0.5332630537,0.2832492838,-0.6076682269,0.4007458891,0.1339746041,-0.5940132647,-0.6046086008,-0.8844401424,-1.1348904088,-0.7085860313,0.8856180794,-1.1435891626,-0.8392539813,-0.5873018231,-0.5722997723,0.8771750965,0.9842360925,-0.1527879696,-0.3999467768,-0.4519501492,-0.8295080517,0.5555239776,0.9950052928,0.0272192561,-0.0322732137,-0.2575880593,-0.3947589515,0.5760528333,-0.7304227852,-0.1234447384,-0.3754348266,0.3460532061,0.1960309755,33.5625696412,-33.2095181164,-0.304157555,-0.0210198372,0.0199188587,-0.1203802226,-0.9295627016,0.4836824806,0.5822559098,0.8773089686,0.9255697328,-0.0703724294,-0.9265264354,-0.5817778591,-0.7609845512,0.7263553441,0.5442530764,-0.9833510844,-0.6058376074,0.2549429096,0.124315904,0.465201986,0.0188181565,0.91340271,0.8248175523,-0.8817962927,0.2678072264,0.0311264039,0.6735484507,-0.5333349804,-0.503902217,-0.6550361893,-0.7765551601,0.2477033332,0.0688277806,-0.0190890028,0.078980356,0.1855870241,-32.5387353051,0.4569411091,0.6769054821,-1.0055962186,0.0515657512,0.7957873336,-0.987548597,-0.1776156895,-0.7528472978,0.2150972098,-0.9152537863,0.0226651651,0.6935007957,-0.766999751,0.4336738995,-0.5607615221,-0.9529601017,0.2116888946,0.5666913342,-0.6916753861,-0.1922902357,-0.7852171464,0.5631326547,-0.6750525959,-0.3058727974,-0.0256689176,-1.013486797,0.0719703029,-0.7976614756,0.2278507192,0.8083287633,0.1804907115,0.2173251238,-0.8840862877,0.2585722942,0.3613073303,-0.7963921363,-0.5169643746,-0.697750433,-0.3402957328,-0.1572908157,-0.9580198161,-0.9977853207,-0.0160604634,-0.8477064629,0.6223332087,0.1009649491,0.244168652,0.196749628,-0.4621804717,0.6747164689,0.5000012118,-0.7692039653,0.3250813148,-0.9663222726,-0.0695794749,0.7534151273,0.2413017642,0.8919170154,0.7165176161,-0.1619961213,-0.713755397,-0.8292906114,-33.4467336466,0.1269160199,-0.4976634947,-13.6159965876,0.1210920454,0.6256649839,0.4527762199,-0.5350120661,-0.3775856518,-0.4866711581,-0.1878965623,0.9712823342,0.6474948349,0.4585122,-0.7654536252,0.6509727845,0.9588398237,0.2034097573,0.7844175649,-0.8259497469,0.6955241831,-0.7610613303,-0.3733397924,0.1948366946,-0.2795531478,-0.4194548108,-4.422701362,-0.3135682594,0.5239160795,-0.1472956607,0.7212014456,0.2824217191,0.3795956232,0.4374491754,0.1615673115,-0.2212642268,0.0501348454,-0.4711427312,-0.371708103,0.4844314871,-0.237219186,0.4494416275,-0.212695496,-0.3782932791,0.7454104769,-0.9167407715,-0.5200416127,0.7855351298,-0.2547573781,-0.5203432019,-0.7305377253,0.0945986109,0.903170461,-0.2923464221,0.0818905644,-0.2849475652,0.229222969,-0.5192459933,0.4676488747,-0.4521822161,0.9703847131,0.6374681386,0.3403000532,-11.1165231273,-0.2264696745,-0.7795972551,-4.1806790747,0.0874475471,-0.0716053968,-0.5372502484,-0.8163097602,-0.5499859392,-0.106298605,-0.8305724346,0.2908104498,-0.7702568543,0.1744143002,0.9083925813,-0.957018733,0.2558478218,-0.0609020603,0.0899359664,0.7688655275,0.1339745435,-0.4483297443,-0.0050109695,0.3239267653,0.553668865,-0.0478572272,1.131186326,0.4384977161,-0.0644995387,0.0921858657,-0.7454686883,0.1735165322,0.574619199,0.7066925901,0.5611812034,-0.3985679303,0.6638198985,-0.6758788132,0.8253156469,0.8623559258,0.2305855284,0.6697289998,-0.0003625934,-0.8186200892,-0.767923258,0.5737633571,0.7527965513,0.6628397787,0.8316303908,0.9405745772,0.4892460638,-0.0422477903,-0.4998609503,0.087762254,-0.981857029,-0.9516882503,0.4530676593,0.6263891408,0.2918693748,-0.1622427296,0.3702274035,-0.2365670152,-0.5025484595,-31.9924890379,0.0566149361,-0.4042342859,-0.1438014745,0.1390289466,0.6320521319,-0.8912738541,-0.8217907899,-0.747838495,-0.6159934046,0.1839570066,-0.4726154707,-0.607810605,-0.7228359353,0.1523888677,0.7853092235,-0.3673010874,-0.6836842584,0.1113008221,-0.1678938627,0.6689401418,0.7276576417,0.9886871206,-0.3188492483,0.4127384634,-0.9785540945,0.8326068215,0.7442440145,0.6434460171,-0.9190350126,0.5980279805,-0.3427177998,-0.4778043111,-0.7003615369,0.4671049443,-0.6072043987,-0.6651783679,-0.6308434546,0.0862726623,-0.298352124,0.9614508033,0.3339987199,0.3524929746,1.0004021471,0.3289148257,0.4631183991,0.5216941712,0.0651472329,0.7062190898,-0.3843676182,-0.8916778842,-0.0295931713,0.8541260959,0.7664964265,-0.6959163221,-0.4720712728,-0.1954634948,0.6139768396,-0.8052341125,-0.2927461597,-0.2114849843,-0.1027401661,0.2694101509,0.1896896421,0.4427823302,0.4380967011,0.8100845018,0.3626716974,-0.0093006988,0.3452485478,-0.6993762056,-0.6513755169,-0.4710697326,1.0538042221,0.4827428404,-0.8028672242,-0.423365016,0.3551959059,0.4691183036,0.0181891673,0.1431638075,0.0108316743,0.2592233353,0.9820854163,-0.8230853275,0.3768336641,0.9645874334,-0.931264894,-0.1850321272,-0.6438387854,-0.2130234277,0.3684412839,0.7031805497,0.8308317873,0.7825782904,-0.8440306734,0.61143026,0.6021682721,-0.0146201107,0.7570536852,0.0446511703,-0.4116033982,-0.4718291422,-0.6971675136,-0.2838764577,0.6775506621,-0.9315203603,-0.1934634525,-0.7894022138,0.7947779293,0.5081178965,0.4731779683,0.1363369051,0.5414632382,-0.2910902888,0.5518715493,0.9034119548,-0.9515656009,0.7266328717,0.992358152,0.1019691085,0.5819234255,0.9747787362,-0.0747033223,-0.7550967069,-0.393462555,0.0618199038,0.5734008318,0.0624983737,-1.0674879838,-0.5018228186,-0.5123367473,0.8175926079,-0.2110342645,0.9684322245,-0.1827324782,0.6800573099,0.7646547789,0.5692887464,0.2409395956,-0.3738520802,-0.1841919081,0.673322239,-0.3785048057,0.6752742141,0.0759226146,0.5636717835,-0.3169781552,-0.0039294362,0.9219227863,0.8809420972,-14.6203316477,32.8903276858,-0.2316518385,0.8723019742,-0.8324472215,0.6616895337,0.7449799542,-0.7074779085,-0.9727398064,-0.7460869559,0.7635541408,0.8759641051,-0.7546313395,-0.3822985783,0.5182484964,0.8113097529,0.757999203,-0.3802224422,-0.2914025063,-0.8747477708,-0.9342053197,-0.4858154839,0.0099793882,0.6003799409,0.0272252667,0.9540758421,-0.7772751431,0.0601747683,-0.5907963801,-0.6099332588,0.8684806422,-0.7096278117,0.668226784,-0.6541851069,0.6008774776,0.6711742644,0.7048223222,-0.5712086212,-0.4488109766,-0.4934152949,-0.5530822769,-0.3134779006,0.6494417226,0.9618937605,-0.7360091674,0.2174489382,-0.0459659217,0.1449404672,0.6644526821,-0.4811303418,0.9825437031,0.3379828926,-0.7597485212,0.4509838099,0.2684177985,-0.2100183318,0.5705001445,0.6724394204,-0.7520769228,0.0720265494,0.1077143713,-0.3068852096,0.9659916732,0.5255330251,-0.4910624464,-0.9911944035,-0.2902421192,0.6227668159,0.3993033607,-0.847407185,-0.4022805586,-0.8309465281,-15.2792934961,-0.1440819973,-0.6257342683,-33.3417755622,-0.334307078,0.9700465819,-0.85254115,-0.228595425,-0.1789451171,0.2479072444,-0.6806435612,0.4972814638,-0.7669752344,-0.7054667361,0.0305929228,-6.289406421,0.1059874821,0.2552960728,-0.260098318,0.1195533076,-0.5043927539,-0.3699540246,-0.4972511491,-0.3091402617,-0.7041091624,0.8107999339,-0.3050492121,-0.5906727317,0.9255583415,-0.4117637626,0.892944934,0.8391402987,0.9999076493,-0.0815042037,-0.9028727738,0.7281142921,-0.1123445708,0.6243479334,-0.6345997999,0.6007860871,0.8140050813,0.9027362635,0.6094475044,0.8332315561,0.4313377383,-0.0719845922,-0.4744680512,-0.8080879112,-0.0484161147,0.5347957795,-0.651164225,-0.1687838057,0.2196418844,-0.0075488969,-0.5598484791,0.78538658,-0.3774174213,-0.7726590178,0.2933866752,-0.9384549986,-0.5770862326,-0.322534218,-0.115073999,-0.433123715,-0.7814960105,0.1204041995,-0.8971889233,-0.5757949181,-0.590193492,-0.650916119,-0.848592052,0.2354689656,0.604511597,0.1076614454,-0.7116829239,0.5544263895,-0.9227459382,-0.3894489069,0.8446566797,-0.5895754524,0.027185435,-0.7680106999,-0.8187050882,0.4612339751,-0.174227579,-0.8174051528,-0.561014259,-0.1959876702,0.4247805066,-0.6285625452,-0.1117211674,0.2917758951,0.1702002507,-0.4278151887,-0.4848393775,-0.9361756686,0.1962213081,0.3017148458,0.0395969623,-0.9045096615,0.2854984382,-0.0248809497,0.7344769361,-0.3818473886,0.2714711985,-0.9652987593,-0.9581437826,0.1800601024,-0.296275262,0.7110190709,0.8582993551,-0.4010126313,0.392748719,-0.5691648364,0.9987232519,0.2589634367,-0.5976771224,-0.7757736919,0.563385885,-0.4426354484,0.8350858453,-0.9106025433,0.6026169554,0.1103682391,-0.3622486047,-0.044890841,-0.441248659,-0.0271169323,0.770407007,0.5164721865,0.5555889327,0.5915961832,-0.0430212417,-0.6971980768,-0.9949945314,-0.4293891374,-0.9105351789,0.7334003019,0.0132353442,0.2041800607,0.03800399,0.8005760014,-0.0354501291,0.9135939171,0.6744400318,-0.5227295082,-0.3314729255,-0.3414242999,0.3875983207,-0.4945398548,-0.7568333013,0.9333748716,0.6441204632,0.7190865998,0.4630480621,0.1467551373,-0.000694287,0.7461623848,0.0550032114,0.3896402953,0.0874119799,0.6191782689,-0.4430501315,0.8063650151,0.497455799,-0.1759970702,0.324195259,-0.5256798897,-0.6329367658,0.4918349757,-0.8619485702,-0.7053251599,0.87028451,-0.9273160295,-0.8782802829,0.8897979903,-0.0673990737,-0.4224308642,-0.1458141723,-0.0237625497,-0.4066377451,32.0479214339,-32.3254801007,-0.535087333,0.4482696922,0.9748295324,0.4388533398,0.6203690609,-0.6076916266,0.9966405423,0.1367418782,0.8941706951,-0.2293400036,-0.3215154041,0.0602425558,0.7848790797,0.7202089541,-0.9919000052,0.1059726165,0.7323772498,-0.6360507027,-0.9248302411,0.2290771741,-0.1372668355,-0.8117943685,0.6465481632,-0.3336510849,-0.1332274325,0.3246345509,-0.9284363005,0.652838882,0.870666897,-0.7049520208,-0.6952520274,-0.2732385438,0.4182115047,0.9651360901,0.551724931,0.6483944757,-31.7436776922,-0.287038933,0.4446227093,-0.0429196837,-0.0749769615,-0.3773511103,0.2057653607,-0.6734324364,0.6784003312,-0.900856238,0.165456412,-0.7616765375,-0.6000478969,-0.3565899818,-0.3748632171,0.5412285626,-0.6986905622,0.2885218038,-0.9355309829,-0.6740856978,0.692891148,1.0918013294,0.6642815041,-0.2581344651,0.0548685965,-1.1545610121,-0.4966630933,0.4182118471,0.2768033639,0.3208380433,0.0530767258,0.3297044056,-0.4152698438,0.1769438334,-0.9190712169,-0.480305593,-0.6049751872,0.6515731495,-0.6556515951,-0.7126532058,-0.5991058895,0.846476337,0.2273477609,0.8574109302,0.1398269402,-0.7383140233,-0.1336763581,0.794307869,-0.2343699185,-0.0785770961,-0.5577656548,-0.5990744506,-0.8898651477,-0.8961053162,0.4215636385,-0.4665589943,-0.854373357,0.2556121726,-0.4626868197,-0.2926078452,0.7903734806,0.4175666214,0.6929996908,-32.2974736998,-0.0145262306,-0.5210968159,-12.7891562396,0.9520977411,0.1410770042,0.6850765499,0.1582451319,-0.0156016017,0.782749036,0.7956285197,0.5490431832,0.0892184225,0.5696639754,0.4887032387,-0.1674547609,0.352997437,-0.1076755341,0.4802958972,-0.1481820702,0.1479370434,0.6642159733,-0.9115702323,0.4032939122,-0.6572044147,0.6654759496,-3.6137839193,-0.5366919469,0.1528421618,-0.2150443219,0.3313388466,0.0769004493,0.4460699557,0.0982617991,-0.0968710774,0.4515394717,-0.5514577487,-0.2655912558,0.190817613,0.6094008187,-0.5111815814,-0.4725586982,0.1332119046,-0.4649339239,-0.6502520681,0.1426858552,0.8381538689,0.3732676002,0.9291933484,-0.2040791228,0.3996331616,0.4796126449,0.3464142651,0.91668381,-1.0922753574,-0.2694211206,-0.4883396081,0.7127890174,-0.8117816298,-0.0145886227,-0.4992968644,0.359220755,-0.9559548747,-10.5205688448,0.2379926907,-0.6402774748,-5.1168611829,-0.9661348358,-0.5531438045,0.6587968301,0.6335687822,-0.7039664031,-0.7540498742,-0.1581543931,-0.5539359633,-0.9630052185,-0.1349343661,0.4013419551,0.0748630497,0.2630513691,0.4522948264,-0.3921528539,0.9164494108,0.4001260958,-0.4224185919,0.0227757334,-0.742231745,-0.6540037185,0.5282131311,0.0923026833,-0.9685623145,-0.4987042449,-0.3565451481,0.0227676344,-0.2740854094,-0.8710014652,0.6074452769,0.0720857538,-0.2407919163,0.2597809922,-0.5759089231,-0.5956506614,-0.8539531148,0.591964378,-0.0101653035,0.0994184412,0.5886773951,0.5049310652,0.6356096776,-0.7813028914,0.5668758312,0.8102101197,0.2513781933,0.7163881762,0.2533453179,0.3076682611,0.9911580479,0.4100495386,-0.605900914,0.1445386631,0.532200229,0.8988963609,0.3212801906,-0.0585710916,-0.1273232683,0.4347435226,-31.7520334318,-0.0465722627,-0.6182137212,-0.3058140525,0.089667835,-0.2095771603,0.2426118159,-0.3723758864,0.9624736599,0.2140344927,0.1467676887,0.3408320862,0.4567601633,-0.0081128369,0.8502650541,0.8939147043,0.7375047803,0.40580397,-0.5983396821,0.5914840847,0.0431080821,0.5475304754,0.4494450706,-0.4557435247,-0.547624086,-0.1895835399,0.5500750067,-0.7538737972,-0.22037565,0.5061700995,-0.3461417582,-0.2843128689,0.0756973808,-0.6793570118,-0.0763397276,-0.5005988083,-0.4179671341,-0.6823427096,-0.01588262,0.4182156283,-0.2826501815,0.4359079364,0.996075929,0.8786413866,-0.4380659587,0.7401833215,0.6433404843,-0.658447066,-0.6879657889,0.0532140264,-0.6332853694,0.6089729849,0.53469388,-0.0078530128,0.6313218983,-0.3735383055,-0.0793377872,0.3221555059,-0.2614526771,-0.3986818693,0.5562702516,-0.9062112419,-0.9354095895,-0.5564685287,0.0798905918,0.0081042235,-0.6478453951,0.38704269,0.5594865167,-0.4395588431,-0.154441561,-0.4681776292,-0.1590889075,-0.5138956878,0.7643203987,0.7376013091,-0.1208302522,-0.8181723829,0.4557391917,0.2886472902,-0.5639875062,-0.4850901864,-0.3583447239,-0.0300539344,-0.0549661429,-0.8430448638,0.3588560595,0.1173312902,0.2474641907,0.6109591963,-0.1160707341,0.384808345,-0.6836024371,-0.6188776316,-0.6587076455,-0.1420279121,-0.8651312293,-0.1794890664,-0.6146528158,0.7096547399,0.7114790216,0.4369289232,-0.9447033526,-0.542357721,0.3782698241,-0.2545781859,-0.2064225091,0.5380059257,-0.845285817,-0.621498286,-0.0476332729,0.7430569016,-0.5324557137,0.1058973109,0.9647199632,-0.8748419376,-0.4840627932,0.9272356675,-0.6308505411,-0.4184493204,0.7649353387,-0.2695960925,-0.1835505724,0.7753803775,1.0877251314,0.5111295254,-0.3064586985,-0.9395996144,0.4060202566,-0.7169357749,-0.7356930177,0.6896152115,-0.5062566349,0.5963950347,-0.160762017,-1.1216708151,0.4454234413,-0.6853010325,0.7846846656,-0.2264172336,0.5744128972,-0.5672256263,0.6071510082,0.3041743216,-0.269479843,-0.6506606896,0.4102142555,-0.9866326021,-0.4265359576,-0.4897132391,0.6060484072,-14.732660503,32.6738729637,-0.9455337505,0.7264351471,-0.5004453191,0.3565768383,0.9469824926,0.0135047375,0.307038374,-0.3579408915,-0.687992216,0.1955118958,0.6394082129,-0.1700991733,0.2495993084,-0.0854784079,-0.8270437596,-0.1924109641,0.7119529795,0.6895128682,-0.7805805866,0.6978955463,0.161662729,-0.4809880775,0.503335213,0.4628329097,0.6735872206,0.7189811699,-0.6626811278,-0.6399543777,0.7060445713,0.1200224334,0.9693861818,0.6794718241,-0.4741122013,0.1871998316,0.088756545,0.5758815284,0.5226647237,0.7876068445,0.741027885,-0.638884522,-0.3886266367,0.7135349883,0.3291508841,-0.4663493855,0.0157756214,0.9343273565,-0.8680356424,0.013457987,0.7994115677,0.7391053818,0.2282411881,-0.3963385268,0.3094342534,-0.658710407,0.1374666174,-0.2646510887,-0.1221488673,0.3415150341,-0.1418319583,-0.1631505812,-0.6855208172,0.5185297059,0.5111902778,0.6863781868,-0.2221203746,1.0080592249,-1.0314687738,-0.5743269819,0.2791991434,0.271071653,4.5430586415,0.2617704556,-1.0528967302,11.6725913649,0.8089328481,0.3056806029,-1.0758155588,0.383057307,0.2352132053,0.667902994,0.0782642936,0.331701751,0.8425003038,0.4907869681,0.2552551851,2.7260489596,-0.7140332379,0.4679217396,0.7059535732,0.2412940082,-0.7139391949,0.308177532,-0.5242011993,0.0947063146,-0.10018659,0.0372629877,0.6326712708,0.058145363,1.0351410057,-0.2101625876,-1.1516199742,0.6927064077,-1.0971060587,0.4010989826,1.1256759427,0.5324725632,0.4960657006,-0.4399183913,-0.6834212648,-0.8620181954,-0.0632363288,-0.0626908122,-0.4718991577,-0.7513527274,0.0455262484,-1.0915764678,-0.0536036982,0.1537291091,0.4354565276,1.0384835814,-0.4510959659,-0.1777248412,0.749677534,-0.4973969537,-0.6057506683,0.805532962,-0.6901622444,1.1498202194,-0.073036563,-0.4297632012,-0.6045210634,-0.1490187844,0.2678589865,0.0427718297,0.6382421031,-0.8740933365,0.3276762707,-0.8067324932,0.3435694018,0.5645045504,-0.4753647198,0.7418710357,-0.0031804756,0.2205588474,-0.7190007909,0.9927347134,-0.2523181123,-1.0979210668,-0.592076403,0.3086794532,0.5689198588,0.8474572161,-0.9740538295,0.0833513948,0.8847150355,0.7196447657,-0.459404334,0.2115968984,-0.6534862065,-1.0614350959,0.5069639217,0.1583875679,-0.6073776639,-0.8850519843,0.5285197973,0.2140108102,0.693600688,-1.1067859247,0.060331809,0.8239966295,-0.3257717557,0.5295636376,-0.2291375013,0.556576743,-0.0255770609,0.7674156851,-0.6606284663,-0.741633004,-0.0554927326,-0.179917466,-0.7393263946,0.7463879292,-0.8489935822,-0.0139555466,-0.9069500282,-0.1971970165,-0.9079775154,0.2336848066,0.041328358,0.2349515929,0.1337778234,-0.3340679403,0.695103487,-0.3973608959,-0.9432410382,-1.0989499045,-0.7140118017,-0.9471992811,0.7106662337,-0.0582545679,0.2612671478,0.1515276616,0.5588976942,-0.7317810659,-1.1059355716,0.9759841859,0.6713979591,0.5028018382,0.4439482184,0.1057254402,-0.7561980996,0.7821610383,0.7946496143,-0.961461135,0.7142851882,-0.8020998346,-0.8194106452,0.7325703976,-0.3893274583,0.1620837475,0.5710359532,-0.0438450091,-1.0991961943,0.5017528999,-0.9714171205,0.2599400311,0.7932118514,-0.826435259,-0.9329461845,0.0176691903,-0.3855934853,-0.6308819611,0.147168489,0.7900245826,0.8136607235,-0.6747977265,0.1008784125,0.4074126605,-0.0602787024,0.7841855794,-0.0133102745,-1.1217439497,0.150512198,-0.3333363734,-0.7942967189,0.6251713543,-0.6149012506,0.4349834797,0.1087374715,0.2329150967,0.2717191555,-11.4902794052,11.2437915268,0.5561781547,0.4265327902,-0.4427462176,-0.5241217755,0.5491753195,0.7689469106,-0.4680066688,-0.2191721091,0.5957051052,0.6961805498,-0.4277139197,0.046392559,-0.1989701782,-0.2857656658,0.1941004303,1.0645911944,-1.1498317994
   0.1668564491,-0.1717601034,-0.5757732665,-1.0229296522,-0.294720032,-0.3274794111,0.2319077645,0.7962564034,0.1451676162,0.3131685267,-0.7084446315,-0.0942908387,-0.9593454195,0.8515067738,-0.8928182288,-0.6007897131,-0.0957227834,-0.8739847539,0.6203984937,10.7123089446,-1.0791689508,0.3106395901,0.5164210134,-1.0316605266,-0.8973791352,0.5183564991,-0.4118842513,-0.0743934923,-0.5738163397,0.3420369707,0.3864470452,-0.0651171272,-0.5404585091,-0.2100594483,0.2845656128,0.3800822777,-0.5844368854,-0.495186661,-0.4392446217,0.0952147385,0.3282380352,0.3947572651,0.3329614532,0.6809889153,0.9537682646,0.0182938161,-0.5740742974,0.5442511777,-0.386876873,0.4597169666,-0.5378969529,0.40704232,0.3991366301,0.2485456588,0.7961056524,-0.3815445883,-0.3484451149,-0.0281593018,0.3262711421,0.0476158792,-0.3161211751,-0.8043124679,-1.1006073389,-0.624750052,-0.7831184625,0.3605734555,-0.8212884632,-0.1660061684,-0.1382602839,-0.8723174739,-0.3576519866,-1.0937938491,-0.7709832,-0.0498449712,0.183927456,-0.0084828856,-0.3052764424,0.0543056872,-0.4250253795,0.6854963474,-0.1256789746,-0.0500651496,11.7224793266,0.6330138801,-1.1134274961,3.6563637444,0.7671560974,0.1056277324,-0.7874454574,0.7000243375,-0.8872166299,0.4075187652,0.7569559114,-0.7458146125,0.1617503763,0.5229949972,-0.4865306023,0.3395728153,-0.1042182586,0.56576244,-0.395382172,0.5947820696,-0.0660486362,-0.6056893736,-0.004803046,-0.0040350287,0.6688879902,-0.6998068957,0.7276715334,-0.7506945164,-0.0434667025,-0.2774328014,0.7346836025,-0.6566224502,0.314864616,0.9353243993,-1.1110840138,-0.3131611684,-0.0614858111,0.8228345153,-0.4868130314,0.5298971546,0.3975302234,0.3226181028,-0.0624206718,-0.0862700558,0.5551178029,0.7881587599,-0.1056079598,-0.9419811326,-0.1549547408,0.7157251546,-0.7369261034,0.7417082657,-0.9770211471,0.0631966749,0.4847306143,-0.5957342389,0.2363041593,-0.3669394601,-0.8962816483,-0.799103212,-0.5762681237,0.7849241188,0.0703865168,2.6899771514,0.5988746688,0.2433374134,0.7749713539,0.1305129677,0.0870799906,-0.6352696583,-0.2466385779,-0.6923831677,0.9490789281,0.3087174583,-0.5753517908,-0.0580833369,-0.7678927942,0.6325609873,-0.3019703035,-0.4593983016,-0.577561199,0.3145081436,-0.3583637276,-1.0848407946,-0.9012031741,-0.9931482085,0.5198851584,0.4664616589,0.4185630361,-0.3438775622,1.1193694199,-0.5054134431,-0.5622077907,0.8784086234,0.7150954197,-0.416264515,-0.2211983102,0.0321084112,-0.1196773156,0.2030149309,0.2769018692,0.6175285636,-0.1364497505,0.267498687,-0.35708438,-0.6012647024,-0.4530215154,-1.1038048133,-0.4899904469,-0.821716988,0.2735403442,0.9871380008,-0.3199634358,-0.0279045981,-0.1216663071,0.7882666945,0.4304979967,0.4735402039,0.4512796832,0.0331921363,0.7400603168,0.2597297757,0.5718228065,0.4953198678,0.7860722182,-0.6984955346,11.4484735912,-0.6780750504,0.1767450506,-0.5229876652,0.1234075772,0.8238128958,0.6635783351,-0.7660939008,0.3350597733,-0.1682700177,-0.7689046063,-1.0729650162,0.0452225683,-0.5061724273,-1.0556188995,0.5331995024,0.5156191794,-0.7095299255,-0.4214967967,-0.4768550948,0.183540308,0.2090406953,0.790883032,0.3129049894,0.7344662443,-0.24185109,-0.5095866356,-0.5577912491,-0.5742876104,0.3498275011,0.6150711424,0.6939565458,-0.4581804371,0.3628271234,-0.2566540746,0.3101603744,0.0218194696,-0.2383625732,-0.0632869779,0.3536704026,-0.8636299041,0.0310133534,0.5786272924,-0.5181288955,-1.0495396578,-0.4160199828,-0.450993554,-0.645797565,-0.0269301049,0.5230532216,0.6720150637,-0.6626018363,-0.4315421835,0.0524740349,0.5165107942,-0.089374005,-1.0309158466,0.2980064007,0.1493316526,-0.3568319019,-0.7003888323,0.3672148056,-0.530245486,0.5558099891,-0.304517436,0.0706150317,-0.3681779496,-0.6338162109,-0.6279524047,-0.5289561099,0.1204212019,-0.5613791135,0.9492479046,0.5787608517,-0.6817758944,-0.0338032544,-1.0194993285,0.381168306,0.0807546107,-0.3513789663,-0.8903730395,-0.4766857934,-0.2213908705,0.0729745161,0.003823592,-0.8738783183,0.4741931662,-0.4031648931,-0.4261762991,0.9196094824,-0.6841832244,0.6207913418,-1.1292681458,0.7443527462,-0.1360908639,-1.1541015707,-0.6534132113,0.6965624643,0.7048712972,0.2629194022,-0.4141604955,0.3779950404,0.3437941946,-0.595985846,-0.4390195732,-0.3368809631,0.8338065263,-1.0422378011,0.3778269119,-0.4993544639,-1.0560018323,-0.0855420611,-0.9561396233,-0.0055436017,1.0396150862,-0.0635932815,-0.7820720621,-0.6394451167,0.2641654565,-1.1114845393,0.3565863935,-0.8173468263,-0.8203246803,0.5054039607,-0.5979892323,0.3763486791,0.6302773297,-0.7446657051,-0.0021763538,0.1062380335,-0.4108334959,-0.0901153638,-0.5629256885,0.9610324873,-0.7202700744,0.2441166915,-0.5200530001,0.55593651,0.5397517041,0.6161999081,0.2000704045,0.3886434419,0.585614471,-0.7837971323,-0.112562729,-0.2228493264,-0.2426282225,-0.4895607266,0.8395391821,-0.955366611,0.1071153488,4.8772860444,-11.8794951961,-0.6215237449,0.1492282313,-0.6068651985,-0.4347221864,-0.5627920936,0.7203497463,-0.6605108972,-0.0543832936,-0.633910264,1.0273195462,-0.6105678707,0.7075438672,-0.126324055,0.2294341477,0.363895587,1.1422410909,0.2476401155,-1.1777679188,0.1797086372,0.131193246,-0.7416663004,-0.2298722624,-0.5698371745,-0.8670799949,0.2418727912,-0.6714432064,0.4930129884,-0.572003012,0.3807395309,0.0448174944,1.0753396911,0.2428969436,0.0074979832,-0.4000538833,-0.0857079028,-0.3958405918,0.1513318745,0.4304086048,-0.5103452085,0.9646241301,-0.5226617112,0.5016571287,1.0116638833,-0.0111519097,0.5845201644,-0.6125871599,0.6115695457,0.2934061711,0.3017051726,-1.0279154576,0.3025217041,0.4745800862,-0.4817879592,0.100236674,-0.8649464168,0.7624268388,0.1231950961,0.3225129185,-0.4523451776,-0.8520882523,-0.3632385584,0.9522096665,-0.8093162608,0.5128119001,-0.6710356219,0.3833350015,0.5509208664,0.0676180171,-0.7306366264,-0.7461679435,-15.0211046988,-0.2777216096,-0.6234490914,-32.2148896856,-0.4172047672,0.715038158,-0.4909742831,-0.8405661256,0.3352452962,0.4541479898,-0.1081233021,0.7639271767,-0.8219745728,0.9826878009,0.0361073629,-6.7130928343,-0.0427105731,-0.2974605034,-0.9760649323,-0.0052114255,0.8157284345,0.6964592536,0.9055826868,-0.8691327057,0.368874483,-0.4960927589,-0.326799775,-0.1227673191,-0.1496281976,0.0927958607,0.7069104379,0.2925723052,-0.70044478,0.2843632091,0.5175832889,-0.5927943267,-0.63036897,0.2194583533,-0.6230989365,0.451534152,0.097332381,0.4527473617,-0.1121658947,0.7191935944,0.0333146962,-0.3685978553,0.5124036192,-0.2651014127,0.0082902756,0.8206998668,-0.0588496833,-0.6255279068,-0.8996785963,0.1692039406,-0.9675138782,-0.8914804281,0.0905502977,0.1557146212,-0.965696968,0.1789603379,0.5602928517,0.9454233666,-0.9866140308,-0.561498436,-0.4711971856,-0.5341500114,-0.0912282221,-0.6581665898,-0.3972197925,-0.5873079745,0.1560015807,-0.098725786,0.817912381,0.0701710197,-0.7034378497,-0.8118781782,0.9027055345,0.3236557103,-0.1736443067,0.1167191218,-0.4304933359,-0.6488673442,0.3162889079,0.8566615972,0.3520721754,-0.4459381705,-0.6264162071,0.3184594687,-0.0863783223,-0.8057767859,0.5596518668,-0.4943979453,0.050665543,0.81212345,0.7072016439,0.4910759868,-0.4896042711,-0.1726248464,0.9203702304,0.3018293695,0.1591747233,-0.3687366811,-1.0679092192,-0.6761261585,0.517746333,-0.0192162414,0.2392222153,0.0989769276,-0.3080898944,0.7796500074,-0.634603622,0.1610221547,-0.8702297395,-0.0689427036,0.5413760412,0.7551157633,0.1592190617,0.5392834728,0.9544814704,0.5593265014,-0.0337650838,-0.6495921515,-0.1727007717,0.1174226816,0.8205321348,0.4444636756,-0.3189024514,0.4012676048,0.9148865146,-0.7134280419,-0.4574876349,-0.6988818113,0.6048245866,0.1327815109,-0.9706132086,0.5053963865,-0.3212657436,-0.6667351293,0.4964537266,0.9817259174,0.5021385269,-0.6749521389,-0.2578030298,-0.8060571597,0.1075712048,0.108724239,0.6773665667,-0.2138194828,-0.4811398737,-0.911289364,-0.6477118436,0.0504916317,0.7889116119,0.0841410188,0.6588396242,0.1604096487,-0.8411912987,0.1584949258,0.7078197346,-0.0227445707,-0.0767920691,-0.9266899581,-0.0318968762,-0.0245658246,-0.6800464593,-0.348117606,0.7374984034,-0.9248134864,-0.8344525466,0.3883166619,-0.4383872391,-0.7900708725,-0.67897067,-0.5070792518,-0.7456676633,0.5261976141,-0.9274775328,0.2636785104,-0.0740098891,-0.4695836322,0.4442580848,32.8298331129,-32.0644096675,0.0678985318,-0.5859755684,0.6041521449,-0.9495715165,-0.0836981408,-0.644696565,0.4832797726,-0.0722320828,-0.1821610717,0.7908229387,-0.7311429071,0.9112629668,-0.8651225056,-0.6041788744,-0.6846774096,-0.3182432043,-0.9678238694,0.5499406531,0.0927509838,0.2360905593,-0.4510213626,-0.6291253398,-0.1676020291,0.5087255751,-1.0003958213,-0.7007456335,-0.7126234348,-0.312991113,0.0007939438,-0.506499752,0.4558489998,0.3075626873,0.0764995336,0.8331948991,0.4786368271,-0.5528067002,-33.2275119587,0.3639790098,0.651017244,-1.2317509279,-0.4577169433,0.2981812552,0.2178959183,-0.5181387175,-0.2884027105,-0.3502117944,0.7871032338,-0.2327783615,-0.6897555956,0.5297904666,0.9590647306,0.875624016,-0.9505302578,0.671447793,0.233404392,-0.0543216144,0.1606308024,-0.7993305102,0.5568659965,-0.8642986414,-0.2156461433,-0.4083534755,0.4775634163,0.0183817878,0.1148767674,0.9376814413,-0.3843096587,0.4109289235,-0.4642400216,0.3058392577,0.759685847,-0.1807576068,-0.7781044124,0.4745849016,0.4034587246,0.633100134,-0.2075751577,0.3191278613,0.609610763,-0.4710501642,-0.7936770885,0.6690342954,0.1394268662,0.1735927516,-0.8836525857,-0.3062001873,0.9670998679,0.5769388389,-0.4171863548,-0.9845531777,0.8342106867,0.3630718047,0.6687399205,0.2633444615,0.5602316408,0.2946180383,-0.9323935566,0.6115019134,-0.9073823409,-32.1392372837,-0.3970152303,0.4438651483,-12.9608198015,-0.0132061218,-0.8019110241,0.1022589309,-0.5411589935,0.3220939877,0.1414243722,-0.2184271799,-0.6165803537,0.7811894706,-0.6701833873,-0.0061599531,0.8640362165,0.8126439407,-0.5265936848,-0.6795797244,0.3600160963,-0.7357131975,-0.7693487033,-0.720732835,-0.140476148,-0.2537048979,0.3927670492,-3.4454527078,0.7350978504,0.1266851431,0.4577316157,-0.5508386884,0.1355060374,0.2324489195,-0.9483862698,0.9840449506,0.9147075248,0.146611675,0.1938778756,0.1647289291,-0.9221575504,0.3594452365,-0.2693162211,-0.7231616118,-0.6647663542,0.6210060548,0.908158968,0.6144409523,0.8204159272,-0.0587639853,-0.2316311259,-0.2926732855,-0.1697774959,0.2477322564,0.6661893763,-1.1280121772,0.8210846308,0.0459254121,0.9307105567,0.9444688838,0.1941556472,-0.5361154228,0.1352488926,0.6215247391,-10.9213426906,0.460836634,-0.1426691137,-5.2139602711,0.9656512022,0.5399759514,-1.0703560001,0.1601021109,-0.382895038,-0.4490847617,0.0891381731,0.5536112645,0.3657603989,0.7625692152,0.1296398433,0.4282418413,0.8265958606,-0.7128677654,0.3877617751,-0.7976668532,-0.4131926424,0.3177196728,-0.6192991983,-0.4441107628,-0.7572174954,0.2865957485,0.9462917307,0.08162843,0.9011352334,0.5185804058,-0.7147747241,0.0146569681,-0.7497535673,-0.610602485,0.90393719,-0.2560310107,-0.8776025699,0.263891328,-0.8010681744,-0.9147442888,-0.5357912309,-0.2447476281,-0.9630314709,0.6373339379,0.077170097,0.6443378857,-0.7117967686,0.0350389701,0.5803221609,0.8867143878,0.1024273259,0.2367157785,-0.8898400057,0.3899449612,-0.9229874361,-0.4204895613,0.736453333,-0.3805596771,0.5874928711,-0.93302662,-0.9813953267,0.0559327069,0.5323321791,-32.2649614103,-0.4268969908,-0.7005106915,-1.1436117291,0.3974346089,-0.8537068076,0.0983932546,-0.7741321723,0.468112573,0.1147632446,0.8212575029,0.3880738233,-0.2881796541,-0.592658877,-0.5171829328,-0.6865409982,-0.5192247215,0.6821831987,-0.2276259991,-0.5404745886,-0.9884307792,0.8423278401,0.0881980329,-0.8446283077,0.2783825104,-0.6888026783,-0.3480798969,0.0433914013,0.8443011093,-0.1156070823,0.911250267,0.8476460614,0.6515548611,0.0155515702,0.5342110907,0.7001293349,0.4890283733,-0.6715598485,-0.1693234764,-0.6014419375,0.6200922709,-0.5463462358,0.2270685951,-0.5252476768,0.1032209226,0.8414802586,-0.2093373615,0.8791635364,-0.68957219,-0.9278635129,0.7346036221,0.1944763888,-0.4070775067,-0.0971894025,0.152510594,0.5847354475,-0.9414106754,0.8431606514,0.8654717134,-0.675465739,-0.3435319679,-0.7259755001,-0.8490266835,-0.19199468,0.3676569051,-0.4684840688,0.2168733098,-0.7704762842,-0.5566883679,0.3149441299,-0.1789246568,0.3344569102,-0.8772302578,-0.1642677673,0.8684194573,0.3264726939,-0.435833015,-0.2220846577,-0.7596553794,-0.4624327706,-0.0658974567,0.7837770228,-0.6144009136,-0.9578268982,-0.0822931645,0.5069383122,-0.478657994,-0.9278872842,-0.7854299341,0.9437701377,0.8268824711,-0.2935566419,0.7872453202,0.4597479315,0.7611865279,-0.6260292601,0.2785731847,-0.529747931,-0.4908177523,-0.153972034,-0.1090630936,0.6392741278,0.1737621991,-0.8129049546,0.1422832522,0.4195466001,0.6408476373,0.409637438,-0.2681307464,1.0363552157,-0.3741420698,-0.8666973281,0.751085008,0.3413206813,0.8208134527,0.6712332871,-0.4101875522,0.0277932207,0.0660380067,0.6855346402,0.190742089,0.3843017139,-0.2798899277,-0.8818717943,0.5121582321,-0.9683254089,0.9262839609,-0.1219713524,0.4160503008,0.5375061053,0.499878942,-0.611836895,0.2387251005,-0.2588285991,0.3039563045,-0.6009611428,-0.3584733197,0.8104795796,0.8233923289,-0.6646196243,0.1281266983,-0.4774600785,-0.4071483486,0.080223019,0.9861911428,0.4689637627,-0.4813816357,-0.3329245946,0.6524151195,0.3688837922,0.2681928519,-15.7308221975,32.2909038281,-0.4765740044,-0.3791121288,0.0204324596,0.3543732508,-0.654040641,-0.3605575186,0.2462791378,-0.3175225916,-0.367090061,0.1773893383,-0.0480921432,-0.3356420237,0.8590621398,0.0215037022,0.6631645698,0.2751428053,0.4689390824,-0.5718147315,-0.9496189178,0.2643241785,-0.8611120721,-0.5553333515,-0.8513644486,0.9646698469,0.9158646446,0.8040857006,0.0286681014,-0.2543383963,0.634047563,-0.8445507325,0.0464035092,0.8042574375,-0.760197903,0.7707810029,0.3868945461,0.2408856215,0.2382519847,1.0050895111,0.2089992134,0.203530488,-0.1005541287,0.1511732773,0.446350375,-0.2848047471,0.5889939114,-0.0592965628,-0.2386409078,0.673124709,-0.4919090809,0.2285305481,0.9641949459,0.5485975498,0.286333663,0.5099678111,0.2697112156,-0.1041111905,-0.7282247533,0.7208465457,-0.5561822865,-0.5014325062,-0.6591207009,0.97758116,0.4117958265,-0.7711446333,0.8094024935,0.5584362296,-0.361121945,0.4065984089,0.0128203309,-0.1691325789,15.796071537,0.5976909509,-0.8308595597,33.3356484347,-0.0588430506,-0.4478209884,0.8783302582,-0.9443306634,-0.6120209629,0.3402148201,-0.6961642782,0.0808637499,0.4258371228,-0.993041721,0.8241019302,7.1115983005,0.402517558,-0.684378,-0.80152886,-0.3289325029,0.6997994982,-0.7551240189,-0.8376281791,-0.8159510746,0.4321678544,0.6746072796,-0.9858405014,-0.7656912993,-0.829465958,0.3401476708,-0.562624881,0.123419195,0.5335051572,-0.5202569672,0.2399159201,0.952604112,-0.4050067765,-0.4831004103,0.0407461481,-0.2952124587,0.5685200747,0.751828198,-0.2273354631,-0.986710648,-0.0147850362,0.8935814423,0.2848470208,-0.014211836,0.3407901167,0.6220584585,-0.6946150493,0.5239919346,-0.709595492,-0.5031715473,0.850884653,-0.0033167019,-0.7356773645,0.7641108186,-0.6845495598,-0.977214112,-0.9091596117,0.0870838253,0.7896452647,0.9765086109,0.8341004436,-0.4919982105,-0.2274252433,0.5233654758,-0.3023735674,0.2021683218,-0.0224172768,0.7222666748,-0.8790263253,-0.1231783775,0.4203855029,-0.0792407454,-0.1708822341,-0.4910912167,0.6452142166,0.5885513533,0.5029531389,0.9189554032,-0.4120077387,-0.4528726244,0.7103999133,0.4752970939,-0.6777980764,-0.5644086319,0.3927993956,-0.1417954151,-0.2245781394,-0.7975829505,-0.1426985698,0.3807723522,-0.2969665684,0.1332479208,-0.3195534417,0.1687747309,0.54115763,0.6266843459,-0.5801748046,0.0116301117,-0.6827817587,0.9066098153,-0.3967956965,0.5367410782,-0.3031900281,-0.1675746718,0.5424436194,0.7754646854,-0.7237351006,0.2741364689,0.1801382307,0.8849853154,-0.9619021212,-0.8968601247,0.1513169905,0.6108436881,0.8349271574,0.9781479798,0.1839423708,-0.0361986847,-0.6556325088,-0.5987954937,-0.6798552862,-0.5490234278,0.6084631402,0.5146506565,-0.7178117529,0.7107789396,0.8449325094,0.1120487708,-0.2417821303,-0.0224420835,0.9683432839,0.8998520875,0.4852248081,0.3083470023,0.344229274,0.6244572183,0.3558204366,-0.5018875616,0.3392944387,0.2256796244,-0.539786674,0.5922409441,-0.7792098754,0.933734103,-0.1754746668,0.9309628177,0.234369862,-0.6135357181,0.0078043568,0.0992171067,-0.4749959668,-0.1823890803,0.471488232,-0.6575353872,-0.2264379064,0.3275734298,0.9724729935,0.3491326139,0.6239299191,0.2159547707,0.1599737074,0.7537801083,-0.4165401661,-0.0340198453,-0.2050375893,0.5673368756,-0.9147149781,-0.620404521,0.5533985901,0.0660606544,-0.3854244023,-0.3153579345,0.9689473247,-0.3106703923,0.4544901108,-0.5529384816,-0.3052976106,-32.250260734,32.3339861343,0.5595463291,-0.0511469997,-0.8095227816,0.2024018306,-0.710600039,-0.2811601235,-0.5879673414,0.2993068168,0.1465541892,-0.4265294154,0.8063480535,0.5818509595,0.2646349434,0.1373943122,0.4436414619,0.8256256543,-0.7531158515,-0.3616145652,-0.4065470069,-0.0699018433,0.8722436398,0.2842666569,-0.7535658265,-0.5103756589,0.7240080496,-0.901944318,0.5704820665,0.4341239655,-0.3420962094,0.5612209622,0.5506973564,0.1170447481,0.5136642201,0.860890628,-0.8009940404,0.2784807938,32.339180545,-0.7746714568,0.4646830117,0.0745357372,0.5046881722,0.8326393065,1.1081407731,-0.4264935561,-0.0129144366,-0.0119244366,-0.6732254455,-0.0776749102,0.6109999803,-0.6907230532,0.1035827383,-0.2617542817,0.1265201218,-0.3819641488,-0.1626330135,-0.6505583823,-0.7988535912,-0.9926992849,0.3628661415,0.8500332234,-1.2300919988,1.6395999689,0.0935782199,0.4238711241,0.4901674684,-0.251171775,0.7491352391,-0.1464258784,0.1013689575,0.8324701023,0.1646401895,-0.4384314603,-0.5019050497,0.7066774803,-0.6831866205,0.6741263652,-0.5332957441,-0.5697031086,0.4289716053,-0.7002588343,-0.4676727093,-0.7903199789,-0.4810805775,0.853920005,0.4054881873,0.550973363,-0.2237695938,-0.3574364019,0.4655638975,-0.7688648124,0.0170796626,-0.3419634801,-0.2800780328,0.2708077736,0.5523519439,-0.6476863204,0.0426069589,0.1769471127,0.5392275085,33.5956416704,-0.723650354,-0.2393815916,14.2457755709,0.4738871432,-0.2233283499,-0.2683951483,-0.2769839099,-0.5022226581,0.2868159794,0.6416700657,0.3298042291,-0.5653178273,0.1612026518,0.9095078062,0.0200427485,-0.4411347601,-0.6076700501,-0.427183137,-0.1817181043,0.257199231,0.4342082486,-0.4969857827,-0.0322432934,-0.7822690315,-0.385406181,4.0026413204,0.7638478773,-0.8661816502,0.800014721,0.2972991037,-0.6747902651,0.3583788895,-0.3991629002,0.337631036,0.0664423502,-0.8006802478,0.0468632191,0.4787312453,-0.3192252903,-0.5562152872,-0.1684476405,-0.4866804868,-0.2693936637,-0.1523120904,0.1249441474,-0.5513234826,-0.0785187518,-0.37430332,-0.8858509762,-0.5859475871,-0.779263181,-0.3765746959,-0.8314219165,-0.2616122338,-0.9712816665,-0.0673265613,0.5965281911,0.189697905,-0.616809791,-0.6570100082,0.8030487158,0.4531665198,10.5085726166,-0.7744268701,0.0813657244,4.5184730715,0.6206998682,-0.3253993502,-0.4439055797,0.1908073133,0.1752824116,-0.4369146407,-0.2201401318,-0.0011218783,-0.5950367972,0.8215898114,0.5261502336,0.833373987,-0.0468049587,0.8890626819,0.5169240783,0.2601259217,0.0148589865,-0.8881539537,0.2411426209,-0.1730325034,0.4648642852,0.9958114959,-1.1950771362,-0.905968623,0.6185576754,0.9470635689,-0.7962436804,-0.3235179129,0.6529278008,-0.7634964629,0.5396317994,-0.9238890765,0.152702038,-0.9002416582,0.7327755342,0.4848793884,0.6369544301,-0.7735367715,-0.4564153892,-0.2359309632,0.8418506894,0.877468424,-0.9578836878,-0.9325363032,0.6393390969,-0.019363743,0.2204286562,1.0213268799,-0.3000870001,0.7325113506,0.1794934299,0.8016098204,0.033936526,0.8474889604,-0.242764334,-0.9498806476,0.8081620737,0.0810528326,0.503346047,31.7769868986,-0.8091333062,0.2202864004,1.3948956254,-0.0067815284,0.0023472657,-0.7091587027,0.6438098891,-0.6949570347,0.734632912,0.6070816048,0.797637779,0.2036793543,-0.0809039238,-0.9201627701,0.9456308054,-0.5309955449,-0.4128491645,-0.7028031163,-0.0928640521,-0.3777699618,-0.6482147243,-0.8307210124,-0.4660126287,-0.1643081526,0.0522614428,-0.2032079844,0.3644390226,0.779811002,0.1634858599,-0.5645930726,-0.9666177232,-0.9244243579,0.6093620928,-0.7259832556,0.4514701492,0.5040054991,0.6758331206,0.335208721,-0.2405182956,-0.6342147365,-0.1924842732,-0.3591920757,-0.3288806517,0.479854371,-0.7887615223,0.7535816037,-0.4632505271,0.2183743304,-0.8038339159,-0.3702457462,-0.0797147559,-0.4264820469,0.3586726445,-0.6724455195,-0.5877701305,0.3471586467,0.2533775613,0.8629853984,0.3351534572,0.712419414,-0.5547972172,-0.4837556788,1.0924078918,-0.0586576916,-0.1172509191,-0.4326225122,-0.9976888748,-0.812405917,-0.9956301626,-0.6360733816,-0.2254603429,0.9326801395,0.3569898476,0.7520735131,-0.2118465796,-0.1535197038,-0.459201144,-0.6232039863,-0.4824283169,0.3122084946,-0.3431237665,-0.7479135916,-0.9608671574,0.6428268494,-0.4958809511,0.9014351459,0.8832465624,0.4036237587,0.0585113358,0.7834476922,0.2299649995,-0.2792064779,-0.4910659441,-0.4053691381,-0.1428669922,0.1053107406,0.2828174872,-0.9236632466,-0.8244089735,-0.8990375358,-0.3908230903,-0.464759791,-0.9363198571,-0.140255586,-0.9301057746,0.643850736,0.1098630227,0.252705705,-0.6354743115,-0.0442594902,0.1769306097,0.0014833854,0.2561317435,0.7481131581,-0.8569549174,-0.5897490242,-0.9901261534,0.3366882601,-0.8490233907,0.4583099408,-1.13234908,0.2901890561,-0.530288765,0.2121620123,-0.6994246869,0.1659395274,-0.7970780061,0.8312654549,0.9296396578,0.4072168772,-0.592989292,-0.8074184685,-0.2578743893,-0.0715987931,0.2082542418,-1.1647899743,0.8558064967,-0.9297377916,0.541672533,0.4007268748,0.5242471691,-0.4450853513,-0.9469455873,-0.6500580733,0.9273791767,0.3900162368,0.3050711057,-0.788967268,-0.9649854909,-0.4582523127,15.4802811623,-32.9111759042,-0.6975675848,-0.4864703451,0.861848846,0.4288343877,0.7977191107,-0.2287365278,1.0026236642,-0.3421134489,-0.1597355563,0.7184937008,0.4082835771,-0.1551797646,0.8242773869,-0.8958448869,-0.1514065978,-0.2194384389,0.8476658174,-0.8955490961,0.1989882035,-0.9251338913,-0.4411020369,0.5807317121,-0.5245051009,-0.9492541355,0.5045985121,-0.1668868545,-0.6117148723,-0.8618131,0.7869275258,0.8891941747,0.1799800373,0.4143134279,0.1144788559,-0.7278013387,-0.7739369533,0.1062683757,-0.6133415297,-0.3552688627,0.6921984804,-0.6547296091,-0.8533981637,-0.1199464952,-0.0485167751,-0.952040188,0.446890054,-0.4482536956,0.6373242753,-0.05448956,-0.8577874684,-0.7875434243,-0.9300594627,0.1592359958,-0.3648151547,0.5145103361,0.0670480892,-0.5779635159,-0.8512876517,0.7064077499,0.636295922,-0.120242531,0.8854415237,-0.9757915864,-0.9781709641,0.6431926005,-0.1505822506,-0.9177613724,0.6281670788,0.3202004825,-0.9977544146,0.0660252066,-14.6720437935,-0.5956740415,-0.7744302039,-32.633947422,0.7776191196,0.8391836771,-0.4122208014,0.1525523118,0.9470888313,-0.5963127805,-0.4327472837,0.7918259046,0.0182704425,0.973952282,-0.5378322951,-6.3765202224,-0.6023916909,0.6235180553,-0.6767085582,0.3005422052,0.0054655361,0.4973986561,0.0813033111,-0.6759788279,0.2122596484,-0.6091167758,-0.7854711252,0.6603137304,-0.3383699272,-0.6868941091,0.4804608831,-0.2930746122,0.4007558337,-0.2457258957,-0.9239333477,-0.2731537907,0.140895033,-0.9061716059,-0.9585464893,0.5437021851,0.3097294359,0.5834862413,-0.08601236,-0.0366031728,-0.5661453852,0.7050328656,-0.2288511625,0.7652169225,-0.4778459152,-0.9985807622,0.770249364,-0.4241058459,0.5245558338,-0.6493454041,-0.6795237727,-0.8293719561,-0.5470811422,-0.4589304309,-0.7597671409,0.0025353586,-0.073578079,0.4611129229,-0.2621460227,-0.2184891278,0.9189722223,0.365447333,0.9749747282,0.185971733,0.4200028683,0.2832121678,-0.5076065078,-0.4695630173,0.4018447238,-0.630005729,0.5535687607,0.5586936546,0.4716699858,0.622755559,-0.0346476823,0.7647285993,-0.0371889393,-0.539510152,0.8563538074,-0.1237073955,-0.5079559485,-0.36255125,0.9973747898,0.3616105195,-0.8704465886,-0.1717731706,0.049869732,0.4425268089,-0.907630138,-0.4598075562,0.861743929,-0.492916771,-0.2063745697,0.3937610387,0.4790539609,-1.1596614997,-0.0783316394,-0.1165626257,-0.0291900368,-0.6779750601,-0.2656619488,-0.8371898508,0.4244079514,0.7102031606,0.9388324576,0.6162525527,0.9936397413,0.1966871191,0.293540716,0.504109783,-0.7240292613,-0.9399354959,0.3342252242,0.9252254161,0.1842002222,0.699603049,0.1662603863,0.4838763391,0.4512791743,-0.7767341017,0.8541933802,-0.4246375418,0.8008237693,0.9142465742,0.2549854057,0.6324142531,0.9124642146,0.7696594819,-0.5543020198,0.0802097504,-0.5733912585,0.3507592453,0.4286316046,-0.2207256077,0.4909572144,-0.5527915923,-0.1743506496,0.5949963936,-0.2152692866,0.6369880222,-0.8657255637,0.1187055695,-0.5452153429,0.2295922234,0.6295229234,-0.4459924052,-1.0747067468,0.3361801103,-0.0974470641,-0.4742265169,0.1388245184,0.117306249,-1.7094822757,-0.0231944894,0.1862602826,-0.0285684418,0.7722069473,-0.6980850294,-0.4559332917,0.1094152702,-0.9378917234,-0.8844355089,0.0664436254,-0.6665792983,-0.2130446854,0.8619090208,-0.5576563997,-0.8902109626,-0.6421245687,0.5270271085,-0.1842011004,-0.7073626375,-0.6782132728,0.4480207718,0.5834860746,-0.1768461825,0.0236909661,31.8079241344,-33.5915149112,-0.0804682046,-0.0052126723,-0.0092721752,0.1961978175,0.5438276315,-0.8086837425,-0.0199005499,0.3979492065,0.3793067447,0.0008909277,-0.7431631793,-0.7664639807,0.5455243993,0.8990134309,0.7802559036,-0.5967702352,0.4740687077,-0.2945643249,-0.8065364649,-0.6343472587,-0.2011044309,0.6114167178,0.6436660271,0.1280008543,-0.6708202825,0.364196008,-0.9533474415,-0.7664377138,0.1604840772,-0.4075558274,-0.819459688,-0.9775161527,-0.0448232436,0.9076163739,-0.292966386,0.7595166816,-32.5557068197,-0.9026459667,0.8782945882,0.0224500993,-0.1420190599,-0.9793395072,-0.8894289591,-0.9285514949,0.9877833977,-0.2102701662,0.525914002,0.1180491743,0.296477086,-0.0199970494,-0.810742201,-0.0852501349,0.2681455238,0.8319096957,0.9102663742,-0.7402100532,-0.7174407483,-0.2493663726,-0.7025899522,0.5511323865,0.89958795,-0.3614641005,-0.0268186624,0.0768464416,-0.1618671635,-0.5816336196,-0.9857909597,-0.9346336264,-0.7094999521,0.0614863283,0.3097256421,0.9111187282,-0.3740192241,0.2445423154,0.7292330424,-0.4103589877,0.3857349054,-0.0200628371,0.9194727333,-0.4082315392,-0.5438399693,0.9501570582,0.6816442356,-0.3142146631,0.096204162,0.5697216315,0.1351042118,0.39679218,0.3527438984,-0.8584698762,0.1050633676,-0.7834771506,0.7655512533,0.295183904,0.9527291069,0.2216044718,-0.4138244865,-0.8995767878,-0.3531484292,-32.701474244,0.2436399533,-0.2265076362,-13.1404053813,-0.852084981,-0.1974541418,-0.0247828002,-0.6912630283,0.8618779482,-0.6726652989,-0.5895387444,-0.162393426,0.4478468866,-0.6327186028,-0.4183349344,-0.2361390082,0.9886003576,-0.9962249825,-0.1663557259,0.3030891724,-0.2602997231,0.9984022229,-0.6515860332,-0.0869500258,0.6815232669,-0.835302892,-3.6859750068,-0.3260579983,0.6671553337,0.2261484552,0.2606854676,0.3968370779,-0.8442613852,0.7157619127,-0.1466130171,-0.947522518,-0.0498886841,-0.4592610649,-0.4632924074,-0.8510093923,-0.478380756,-0.7912105859,0.074145594,-0.9567903418,-0.3237987174,-0.5581729179,0.5873881605,-0.702800377,-0.181300368,0.1162425937,-0.4675894366,-1.0209036968,0.9314092883,-0.3785104812,-0.5990933733,-0.6591122212,-0.1275264559,0.0578857952,-0.5894447051,0.4681643778,0.2111315945,-0.847165319,0.9932230247,-9.7233361495,0.0750360719,-0.6560101245,-4.6309159011,-0.1842114287,0.3386860321,-0.1461843964,-0.627631869,0.0363721612,0.5784990474
